********************************************************************************
                  0.97513195917058559381
                 -0.67982517296867539525
                  0.95001105009705866244
                 -0.49897647011699469699
                  1.84348869285334027168
                 -1.17365296849594247242
                 -0.51958103010833478486
                  5.85004697763212266892
                 -0.11543394656717861912
                  1.60969467092364681982
                  0.23260823495904645042
                  0.09205620439024836399
                  1.06815092963978219842
                  0.30326380207247199960
                 -0.59204905502439719722
                  0.46422764794015974887
                 -0.47591836817496779855
                  1.47018301058057909714
                  2.44420199726062570278
                  3.26090471073850451944
                 -2.31470222802876923751
                 -1.12237602087251286953
                  2.63903924819813351377
                 -2.14258781776234119576
                 -0.72792932333322657446
                  0.41221876565037030016
                  0.95900869591410276005
                  0.87392458282634732925
                 -0.73200361151326087672
                  1.02529694241959390411
                 -0.45006531904836100111
                 -1.42151661186086841759
                  1.40541369932019999389
                 -0.19042826674047511060
                 -0.42599739786080564885
                 -0.38222613688410356225
                 -0.17966685291982525952
                  0.25159910123264500603
                  0.13752978848971481041
                  0.87153300429274693784
                 -1.37893057793916518072
                  0.70023733966513934668
                 -2.45352764671263079421
                  0.24696570876652590432
                 -0.27211658508028163661
                  0.06504475963623325419
                  0.10284375141798196562
                 -0.11621187504227971365
                  0.55359640743551741249
                 -1.26188274737300831774
                 -1.25407713920281715936
                 -0.59703749277565387743
                  0.20670589251078777537
                 -0.40191587296342162761
                 -0.43789236005458143097
                  1.84393777392138202842
                  1.84515942866460469496
                 -0.57854093794097716241
                  0.30173251034015396987
                 -0.23322910871926455512
                  0.58436424507994821909
                  0.10457952176227724994
                 -0.90921499754036738672
                  0.27942964990232671552
                 -0.49508346459699997810
                  2.00583338066346650308
                  1.03173021354866767396
                  1.95545872982430224418
                 -0.06400252482619751826
                  1.82005709339696042370
                  1.54366151170056564723
                  1.00034416992834929161
                 -1.38557355534087967008
                  1.27766880772392621424
                 -0.90242539518277054000
                 -1.04337431150911541522
                  1.58712846974791643717
                 -1.66949481269015587159
                  1.69275323161581825460
                 -2.34390087653431722359
                  1.33819266382048240871
****************************************************************************
                 -2.26890259868488408657
                 -0.65341377106898179683
                 -0.51737297573770935077
                  0.35224827117144952293
                  2.20860461996714452226
                  2.34198921556395056598
                 -0.20158043622205970569
                  0.16706714604493444476
                 -1.45935013042889449864
                  0.89515146658356015141
                  0.21958746457900688021
                 -0.52653084833466023973
                  1.69709378787909903608
                  0.01848884210161815672
                  1.20286065265622355014
                 -0.60742471365337358247
                 -1.52860120748480055042
                 -0.80674988150210102944
                 -1.08612654268696617876
                  6.16160794928010879801
                  0.96265662591066636367
                  1.66656121368945453476
                  1.69066781986957126449
                  0.86742885917886491942
                  1.61108067159440726535
                  1.36844765068462770330
                  1.34654469263857667904
                 -1.22576241501785054844
                  0.66124217959540021461
                 -0.75768685216823350448
                 -1.53239142482886281371
                 -0.24150449195953946346
                  0.96296955483604940174
                  0.24896333151326521804
                  0.27833908604414692167
                 -0.00639079047550855737
                 -0.24588259794921699108
                  0.02491193104404616082
                  0.32572440413427861117
                 -0.48479857214060778636
                 -0.32122336991010752572
                  0.19050637171955545068
                  0.16062566346224532721
                  1.40316168789869943900
                 -0.39272316331666212719
                 -1.18994629719269484625
                 -0.26200062443744959184
                  1.07296859361554330903
                 -0.06139556381633479165
                  0.54104446323472554781
                  1.77385761836559696647
                  0.33273638340263450575
                  0.28843457360364710418
                  0.30205751344472303588
                 -0.26005783719344144345
                  0.01233446552746942336
                  0.81616162213521648017
                 -0.09591313621765198971
                  1.01852845505312061825
                 -1.13122678487992334162
                 -0.02645045728507160188
                 -0.18880002816974997271
                 -0.07316140465882439714
                  0.58525331750855247304
                  0.27815804414861333704
                  1.14530283671639132592
                  1.29479195585016970682
                 -0.05204439347432154861
                  0.49569931614480061688
                 -1.80157456394054782400
                  1.18561489662815722212
                 -0.55708452028997801353
                  0.58295552093483404832
                  1.71343647185898317886
                  0.61098922152223134052
                 -0.86208500986326497273
                 -1.46478754056098758873
                  1.65084439545152528162
                  1.90678002896020859502
                 -1.76178821837168841924
                  2.08118859852027915380
*************************************************************************************
                 -7.92013462348600505436
                  2.04640624167151763402
                  2.35339671196041955170
                 -1.47833839052581317297
                 -1.06316701621279641188
                 -1.61592862709635087803
                  0.18329379778272025803
                 -0.18729086188026017323
                  1.06587863299725382760
                  1.79271110354828833167
                 -0.05135556004699194654
                 -1.05151838042173784160
                  1.14865719159218526713
                 -1.91871325528532188365
                 -1.25312472115399686778
                 -0.77274483220863243726
                 -0.31659509733510182716
                  0.56833502349183606661
                  1.40759564910521506320
                 -0.67216060093220608707
                  1.66631478603834271013
                 -1.51812183020823487922
                  1.21650842174294937514
                 -2.20201248427848916833
                  1.02945893328970661251
                 -1.55725935447051866412
                  1.85215091546725307836
                 -0.02069225597493449045
                  0.42602948106419369356
                 -1.62591390219455944610
                 -0.86493813705697997207
                 -0.49758043112544864117
                  1.18075681263916454355
                  0.36379337477799655876
                 -0.44837211976569779637
                  0.69258909449823369275
                  0.31305555866652534647
                  1.29066734725498521996
                 -0.66335154558894937615
                  0.75844685672285205857
                  0.12534163738954801071
                 -1.30953217133989618937
                  0.52787309913132052230
                  0.37731483765559575838
                  0.79713148512556486480
                 -0.56468507679308066471
                  2.97712561121143881593
                  0.72978090877875190223
                 -0.02546781678429291956
                  2.14094678292985340917
                  0.67068471973479781845
                 -0.00579861018296099276
                  0.21053624687316396802
                  0.36215760172392835736
                 -2.68287947811537197396
                  1.04687797794711512367
                 -0.75306065195688265401
                  0.75415372727397345098
                  0.79325254527868926946
                  2.47852940816576294836
                 -0.21592904439056440080
                  0.48072966735653821502
                  0.85572305882683652456
                 -2.17257048248465167717
                  1.77870740242405367404
                 -0.32874815510445115629
                 -0.45969566085744029138
                  0.32449830144058233738
                  0.17738614885213491168
                  2.83269308542601239154
                  0.35483948843436724507
                 -2.19848119044230916330
                 -1.92588323344854273067
                 -2.58847347549978179515
                 -1.11757558706734894116
                 -1.18477905027353491718
                 -1.44734838782515828903
                 -0.43841482788332170051
                  1.37089010294177282567
                 -2.30560148020203437014
                  0.59028195326800636522
