                 -1.28432059885850224923
                  1.71336697966885509459
                 -0.69003572708844052030
                 -0.99363107557229035649
                 -0.72821228713716312786
                  0.85238705634927713906
                 -0.89689495022556120496
                 -0.08016901957427795267
                  2.25438939632266954760
                 -1.16670759511106369999
                  0.53221599318345624852
                  2.37817278001953846811
                  0.74456410516409565759
                 -1.32217290358444006237
                  0.80284350321217423652
                 -0.07874215982499056798
                 -0.34111461516087532297
                 -0.72250171218777714532
                  0.94151879286668760383
                 -0.15547638052745382797
                 -0.60835786077908604597
                 -0.68245239018969461320
                 -0.38626873960040447598
                  1.31082324191464505425
                 -2.72410716716706735596
                  1.63530266652166589303
                  0.49478068278842290972
                  0.68222754753126557681
                  1.59144101587357811312
                  0.64112700444642600761
                  0.01073891178951090486
                 -3.65358564598960100511
                 -0.18774661085341090572
                  0.62755855017483719305
                 -1.99571458167422477459
                 -1.50261584464255637528
                  0.62031314205237220172
                  0.10762748270819735841
                  0.05739753999518391880
                  1.45160664363820712808
                 -1.70036640629726809593
                 -0.57719039371120428594
                  5.67322143308087945002
                 -1.25062677565549695835
                  1.63641686619435389183
                 -2.73828669452459205758
                 -0.58922096089284070608
                  0.31115504818902578466
                  2.26494448331293884991
                  1.17357722119771112901
                 -1.77775218520863487193
                 -1.72972841077215999661
                 -2.06259629812693567885
                 -2.06628991505066039736
                  2.49633145558130120634
                  1.30084200493233081986
                 -2.66750510894687398178
                  1.04989098320748630577
                 -0.70102308712420735581
                 -1.30532818476172707278
                  0.20938656028691274291
                  1.08258264575569262966
                 -1.52648640091336451619
                 -0.83667405842120579074
                  0.64284486267927087866
                 -2.53051015244880828092
                  0.50887029497070124240
                 -1.34958069544200287559
                  1.16039027006307438050
                 -0.87387031413726312667
                 -1.29578636096047383752
                 -0.38683912973719525308
                 -0.95130450422531687149
                 -0.70637363055757740327
                 -0.11030041070977190942
                  0.67215516266335761930
                  1.20356172681478956754
                  0.88656629326752534048
                 -1.61954676888800674917
                 -0.92846549467830608027
                 -0.27210115294408443454
                 -1.62684796859542646352
                 -0.67341130410399052675
                  0.04064506013862814043
                  0.21216617907120444153
                 -0.31613193160695685080
                  1.60859100343254390886
                 -1.28936813715631082289
                 -0.57713253011109277857
                  1.56346280860894615294
                 -0.31627540345991256299
                 -0.48105869480019064488
                 -0.74357885562563075244
                 -0.95519962317170059585
                 -0.44212779668186852344
                  0.45699715251372413638
                  0.76040930035121256925
                 -0.43715288736921875667
                 -2.02056220245931994484
                 -1.27080768301485735883
                  0.28570364174311829730
                  0.08725305759733435751
                  0.07073575921247773901
                 -0.08071377929271297824
                  0.47190638166003229248
                  1.01984071479901472479
                 -0.05459854365433536305
                  0.64386833267790166691
                  0.09572703597597036207
                  1.22677051220740063187
                  0.46609672530050089145
                 -0.12923171224743820740
                  0.89219541879196773149
                 -1.87326326913785989881
                  1.50288307212383265288
                 -2.00135472970454086905
                  0.18182166496028540070
                  0.49528570468850918740
                 -1.00842189791511049890
                  2.74011742488506282456
                  0.63734439772101514343
                 -0.64165019592641836521
                 -2.27099732527606867905
                 -1.72157454567398415790
                 -0.26832881395768498622
                  1.96427154761111300019
                 -1.41276492101533790446
                 -1.78251234942144853868
                 -2.41363362692507710250
                 -1.70344672892231607797
                 -0.10475972654129073192
