101	2	1
50	80	
1	9261
  0.2820900428286895	  0.2571609905901582	  0.3204528099564741	  0.4719261890227158	  0.1825140906683848	  0.0296578869043015	  0.0649645727094214	  0.1234711050538667	  0.1182912245032358	  0.0513288100785926	  0.1298201626292302	  0.1274101791743771	  0.2429648201725952	  0.1733952448287001	  0.1075049420617618	  0.0955132194169225	  0.1638348470469352	  0.1066352321582365	  0.0758582727550982	  0.0691544736944632	  0.0904312395631804	  0.1955698879540072	  0.1162660875240348	  0.1322635501916007	  0.1027223917515639	  0.1924267135245033	  0.0666227888498151	  0.0040768501269699	  0.0145580884503274	  0.0284350608495803	  0.0176081401005831	  0.0103255384366991	  0.0304205562255682	  0.0336215880851931	  0.0362765052108487	  0.0333785938011899	  0.0315239015121776	  0.0643174772600026	  0.0395824021070491	  0.0314813855710968	  0.0144316944079702	  0.0184228972540425	  0.0300630084711457	  0.0317800908691832	  0.0316024043482023	  0.0445771587560296	  0.0496711286481468	  0.0554375375883031	  0.0450713740933348	  0.0314062015349754	  0.0358723110781627	  0.0347542570628507	  0.0534849619980082	  0.0243090609287465	  0.0082826506983449	  0.0174699546164605	  0.0341972461526966	  0.0314343166454360	  0.0139396197077165	  0.0349106021192381	  0.0355822388177838	  0.0653369090965403	  0.0517728956609384	  0.0328296188928051	  0.0279646939723987	  0.0460999345140070	  0.0297162301946746	  0.0145646638752199	  0.0169642579672881	  0.0319071836473686	  0.0508897870879448	  0.0600898096645297	  0.0353068309486456	  0.0359948484507890	  0.0328969232505220	  0.0560115995926562	  0.0438776494559118	  0.1236585949999067	  0.0659050640589054	  0.0496864459508221	  0.0408425996510444	  0.0408132414951260	  0.0719664540318793	  0.0696922173502682	  0.0853638173451433	  0.0664441293718077	  0.0555854298198549	  0.0896720245425038	  0.0312657066419063	  0.0355676659259821	  0.0280220251938519	  0.0658127890417347	  0.0215926308411193	  0.0195035331917679	  0.0284627180141523	  0.0678542366755628	  0.0534980034906683	  0.0680260511799383	  0.0331342333495526	  0.0851307836997432	  0.0243191958627896	  2.4999885100000001
  0.2820900462753900	  0.2571609906465001	  0.3204528178995296	  0.7803682564237493	  0.1825140968728382	  0.0296578869043015	  0.0649645727112603	  0.1234711050538668	  0.1182912245267175	  0.0513288100785927	  0.1298201626639019	  0.1274101804166782	  0.2429648201952825	  0.1733952485259403	  0.1075049420910269	  0.0955132221656944	  0.1638348507441755	  0.1066352321844160	  0.0758582727550982	  0.0691544737102799	  0.0904312416578871	  0.1955698922736452	  0.1162660875240348	  0.1322635501916007	  0.1027223917515639	  0.2466746689572032	  0.0666227888498151	  0.0040768501269699	  0.0145580884503274	  0.0284350608495803	  0.0176081401005831	  0.0103255384366991	  0.0304205562255682	  0.0336215880851931	  0.0362765052114939	  0.0333785938011899	  0.0315239015121776	  0.0643174772656093	  0.0395824021070492	  0.0314813855710968	  0.0144316944079702	  0.0184228972540425	  0.0300630084726778	  0.0317800908691832	  0.0316024043482023	  0.0445771587596332	  0.0496711286481469	  0.0554375376008334	  0.0450713746806894	  0.0314062015361480	  0.0358723110781627	  0.0347542570687304	  0.0534849620030622	  0.0243090609340759	  0.0082826506983449	  0.0174699546164605	  0.0341972461526966	  0.0314343166521034	  0.0139396197077165	  0.0349106021192381	  0.0355822388177838	  0.0653369091028058	  0.0517728966934783	  0.0328296188928051	  0.0279646939723987	  0.0460999345140070	  0.0297162302019045	  0.0145646638752199	  0.0169642579672881	  0.0319071836473686	  0.0508897870879448	  0.0600898096645297	  0.0353068309486456	  0.0359948484507890	  0.0328969232505220	  0.0560115995926562	  0.0438776494559118	  0.1236585949999067	  0.0659050640589055	  0.0496864459508222	  0.0408425996582240	  0.0408132419428911	  0.0719664540367302	  0.0696922184838616	  0.0853638173516820	  0.0664441303625529	  0.0555854303378252	  0.0896720245478203	  0.0312657066419063	  0.0355676659259821	  0.0280220251938519	  0.0658127905454345	  0.0215926308411193	  0.0195035331917679	  0.0284627180141523	  0.0678542366755628	  0.0534980034906683	  0.0680260511799383	  0.0331342333495526	  0.0956870046622418	  0.0243191958627896	  2.4999885100000001
                  0.49357267731560250379
                 -0.27435094732694137454
                 -0.34528663427461642188
                 -0.15897172617853719268
                 -0.63365598536951284192
                 -0.30536328086346425925
                 -0.48595102621608415872
                 -0.62576947817803940666
                  0.01541679261261524880
                  0.48748635336457291078
                  0.47197530093759898495
                 -0.35442446735444221861
                  0.17452780267442419282
                 -0.03000234520311636718
                 -0.32240830037686946108
                  0.34522558197422337223
                  0.07999269083592897012
                  0.05042330115923663453
                  0.54020831985419281995
                  0.16304143384631994418
                  0.48506576489269526142
                  0.42591176714430983852
                  0.14325053902673018369
                  0.69409113379037823410
                 -0.54012313158500491195
                 -0.73016198860634418111
                 -0.21924453741588501021
                 -0.02649857753237893840
                 -0.04962475054726794843
                  0.01981305946038566107
                 -0.30468150270694083215
                 -0.06550378615263287296
                  0.32552613954736303592
                  0.10919139754103215911
                  0.05192169058611903476
                  0.09532336553228924758
                 -0.01950789004006486457
                 -0.80172048109344273836
                  0.00076725414154331872
                 -0.05208273415271558182
                  0.19662424941534592526
                  0.07942365430489409239
                  0.12306655422806557498
                  0.32379852824106686304
                 -0.18109597085304643405
                 -0.44992354067164591624
                 -0.04560323021270525773
                  0.13170933197839435058
                  0.33340442001548992179
                  0.18961386598178572860
                  0.22896663345245127363
                  0.22786857803511148535
                 -0.27401755182258730192
                 -0.35949877315248818244
                 -0.16059322987049404197
                 -0.11327000961162519976
                  0.18104116412474449693
                  0.75202880047275544317
                  0.02684327708881363225
                 -0.08286820337807215830
                 -0.29380944759485999596
                  0.26415597637056648095
                 -0.85764160283775614513
                 -0.34750175006662442634
                  0.14950054081637240144
                 -0.05099388330889429582
                  0.38453172117025802290
                 -0.00455615196177123170
                  0.13780226627090932934
                  0.40659496551097007444
                  0.66932579201873643182
                  0.32044765675704900421
                  0.15808346727779293284
                  0.34387543060510200599
                  0.18817140837817719623
                 -0.51890631575271839449
                  0.03710945051080310336
                 -0.39777704796279372834
                 -0.00772575692056836141
                 -0.27748790206986362339
                 -0.32218108849525028958
                  0.03399784285141772139
                  0.27299317019186047917
                  0.18389489054612592756
                  0.38295168749979169309
                 -0.35070649976348411414
                  0.25223081948328390789
                 -0.38635975071266370762
                  0.65441378212026268812
                 -0.44975933324869660224
                 -0.12770487835998378667
                 -0.15161359032184340556
                 -0.19268997632497733563
                 -0.50014753839930325974
                  0.20826592013252359648
                  0.36691224217904960803
                 -0.68948925471669297860
                 -0.24171508180887554817
                  0.10416709005300263391
                  0.49016234261933161465
                 -0.11761914445933330242
                 -1.17210753684373902850
                  0.07877407857696964999
                  0.50392675334870118409
                 -0.52694976556312700389
                 -0.04132991091107147963
                 -0.85395958376207259377
                 -0.70885686670309544510
                  0.14966921261531607179
                  0.28039201143723435639
                  0.37957534225821398799
                 -2.24995016247898593775
                  0.01447099843404098252
                  0.59619944913256506247
                 -0.53778713770575603537
                  1.76271889566828776630
                 -1.05036819388547342236
                  2.10898044101611370493
                 -0.80997256080234592002
                 -0.05818305049832964843
                 -0.17770772963965258961
                  1.49422562866097696777
                  0.01833612491241383424
                  0.64625015142091224440
                 -0.62777348747125449879
                 -1.51090434111445470755
                  0.85022083314900631645
                  0.21860066197890551387
                  0.58742586720597456118
                  0.56691148553064818483
                 -0.09557272389711124472
                  0.56137018002969030217
                 -0.16039653246545096388
                  3.33712958443017804200
                 -0.82894837401745435912
                  2.37822332947504033740
                  1.45520833740941490930
                 -0.62005173220772580311
                 -0.82099727185726700807
                  1.76826497680463567974
                 -0.95609817738027935707
                 -0.71411831048358176410
                  1.31693513374574044938
                 -0.89885287038611383359
                 -1.54188840776327107385
                  0.54401021883196798434
                 -1.13907801167817335219
                  1.70134391942744067627
                  1.48395949366770518729
                  0.10232449828933057323
                 -2.06061515793485172665
                  0.49301638894969540550
                  1.37236839456519787994
                  2.84924661361987352493
                 -1.23740571576541014132
                  0.49814429050581615632
                  1.05827692770916370613
                  0.18698763285255917688
                 -1.15444607395436160679
                  0.14467072597164920555
                  0.41304756257134911390
                  0.05310918089873967879
                  1.81299565105824411759
                 -0.17344919409568332336
                 -1.47473018421914559006
                 -1.83473490327458144122
                  0.45431994914321038870
                  0.57624505267021830512
                 -1.13482037991413831080
                 -1.84925998671968994103
                  0.80797380641128935252
                 -0.63205682747587776937
                  0.47834081835258690507
                 -1.30211198432407271319
                  0.92959944128636329275
                 -0.90560757368476696438
                  0.80831365063860016740
                 -1.54032640475805271407
                  0.81049419027870239773
                 -1.24786537402502295535
                 -0.72859923840849660781
                 -0.58380016196104089765
                 -0.58965593621984713213
                 -0.64710288023690287762
                  0.32163897567179827730
                 -2.15094748404845992340
                  0.12368171591482995941
                 -1.01136950791413449124
                 -0.79206081246715176469
                  0.06490057985008355901
                 -0.87768965297391754454
                 -0.06317674489025812412
                  1.41815809184176155888
                 -0.42694578824419743279
                  0.26510647287946426109
                 -0.26726580936336874483
                 -0.32162059275989074436
                  1.94159772502085092860
                  0.25908068558023128469
                  0.83192304837938391149
                 -0.01302053006858253092
                 -0.60495767148484669296
                  1.96705799910402889807
                 -0.63754479235497307776
                 -0.31344382183437924372
                 -0.13928719844565856656
                 -0.43087883354326733665
                  5.21021902842470030492
                 -0.52305799172913647332
                  0.09385105750397454427
                  2.27776599273955326908
                 -0.90678568428078043517
                  0.17890089614277762675
                  0.35457790318403886731
                 -0.20030416334065956341
                  0.33993669086356176345
                  0.01811847168279956052
                  1.34062735614477501755
                 -2.26289797839897710574
                  0.58728714829120620688
                  0.10767888326814201161
                 -1.39313370041193462789
                 -0.65740656081311643621
                 -0.02758999687892855351
                 -3.60892989671669939256
                  0.36624882458344643066
                  1.34123064087001320210
                 -0.85767617151813413390
                  0.51906082878777803913
                  1.01269217821982615568
                  1.35445798091849067823
                  0.04311415940473418279
                 -1.71961022465779289625
                  0.31387966739501566016
                  2.01175353236404763635
                 -0.89458499620087361670
                  1.03418279232549736868
                 -1.26885466612916264495
                  0.42377064094524369287
                  0.81267741569894713649
                 -0.63232852626499547188
                  1.10816641242830904446
                 -0.77151884239890755612
                  0.18056470427219784014
                 -0.38926215231379446280
                 -3.58985566734346583928
                  0.74903714184980318969
                  0.77139404117979759601
                  0.03023663133447566237
                 -0.68112443359701180245
                 -0.36323107860899345178
                  2.16964329585117043919
                 -0.87498704618684808310
                 -0.72132569724845563286
                 -1.21628899057802875028
                 -0.87810037406783891800
                  3.25273118204902500494
                 -0.73738805155658981860
                  0.86857993505741148965
                 -0.02709096870635302468
                  0.30718200774141679599
                 -0.37103171000520779321
                 -0.03851588734509777540
                 -1.09511177030997286508
                  1.11143448287731771984
                  0.66796648843408745755
                  1.86502435166407920519
                 -0.34557559573965029864
                  0.42589625402787317787
                 -4.15509650677756781079
                 -2.50561176968785437325
                 -0.22253265260330973296
                 -2.02528276557674402625
                 -1.28574041898678070872
                  1.92862059437316335497
                 -1.25047740048619515640
                  0.52159840459680162361
                 -0.49385026238481211092
                  0.55169237952106808809
                  0.30884111008528886133
                  0.20201126834749513761
                  0.43719266869862782876
                  1.04859334709307105982
                 -0.50180216149823309024
                  0.76038653278859624773
                 -0.29286141209176902445
                  0.37992276150029091752
                 -1.46749749367898840724
                  0.78001326722273844894
                  0.18265363503863343841
                 -0.82967361826101726496
                  0.71078253536401680979
                  0.18944929317198447305
                 -1.38624414422604869124
                 -0.44095084480000035221
                  0.58918022305191486421
                 -0.75511269366366207123
                 -0.41291581286153417052
                  4.17548504958209321103
                 -0.24212171345843769288
                 -0.60959205024053864097
                  0.88462130739514377442
                  0.50783099172742041105
                  0.75786179629819705461
                  0.22710706035089606170
                 -1.85640712464878032684
                 -0.46983501388599951953
                 -0.22059316072617302096
                 -0.34517528192637242368
                 -1.14706567178169294152
                  1.11300542091973131420
                  1.32796621598270636611
                  1.67986663387214263388
                 -0.36492762164102610090
                  1.88775901884569452527
                 -0.59990454329092890440
                  0.26900881111409447044
                  0.78670466385868675907
                 -1.13349024311466695103
                 -0.20282000121865334519
                  0.14868937251754832385
                  0.88901561225288261436
                 -1.33484228079251332488
                 -1.25520298234826621631
                 -0.17132708223299242256
                  0.90491669525396178919
                 -0.37858575475576677904
                  1.33288152424615113922
                  0.20392100437476667896
                 -0.03778869961168912495
                 -0.90233881967429085957
                 -0.48653914626136235411
                 -0.38090335470051861488
                 -1.44896135776473378165
                 -0.29478268780203820132
                 -2.99625512532368265539
                  1.11852441646831679556
                 -0.54512320713697248742
                  0.10166084302727250444
                  0.84078646333712614425
                 -0.03834092214148025757
                  0.08165861878792848860
                  0.19397688911000232626
                  1.48751068623632409782
                 -0.52815861381856177292
                 -0.64293681131014279728
                  3.14676651078486591118
                 -0.64999034577355241371
                  1.41040117056839808818
                  0.21458526532407409815
                  0.05451880967775266096
                 -0.41799087029608894550
                  0.37853591303851619188
                 -0.55720054245888717137
                 -0.95015447825655630076
                 -0.14539315714952405489
                 -0.99789706877903194826
                  0.53657846731158787001
                  0.74894607891277120704
                  0.55785496601528261618
                 -0.37293437876476814852
                 -1.20660294088633102128
                 -0.50236091648605141202
                 -0.04377364588270221679
                  0.55303308260317407541
                  0.04343419367400183639
                 -0.81151298394596438346
                  2.27760553092107853601
                  0.08679118975241421896
                 -1.10595251804541594431
                 -0.58094589418724762453
                  0.57997292684241563698
                 -0.29135963608364118249
                  1.05558232439894528198
                 -1.03250339799977086663
                  0.39031838088520248720
                  0.43616666626772360171
                  0.07236108308359434638
                  1.29423245860205415880
                  0.12123518515552071662
                  0.98278233574458340183
                  0.92516800892076633822
                 -2.14025445066584740772
                 -1.89564306574259511251
                  0.02370972837203087075
                  0.04923741299213104522
                 -0.61071358870069469837
                  0.32872091587586604877
                 -0.80579101998706370580
                  0.52400005736885402197
                  1.40482779474671781728
                 -1.71363915522248100309
                 -0.82091347697678629380
                  0.21836239198435711262
                 -0.71719913495118692293
                 -0.93340518277017636706
                  0.68924052627817411487
                  1.20593351721615826833
                 -0.10288192099392112766
                 -0.57785647638588233388
                  0.84580871403609203529
                 -0.45900197278627452580
                  0.78545797887062374087
                  0.04470704517671371392
                 -0.84123166067839205695
                 -1.07632216703767968902
                 -0.42143748973107036937
                 -0.50169543774333225095
                  0.53444269002439470651
                  0.10912695079624423755
                 -0.09408033664359492787
                 -0.41688673329396397360
                  0.10706469710783328431
                  0.70308526305069785067
                 -0.00535335598873765313
                  0.16553107129970881517
                  0.67849043653930540820
                 -1.11140863975895154425
                  0.34062393294466702942
                 -0.03352966785490533314
                 -0.11912552482618159189
                  0.43419986713980918136
                  0.09361003053966586440
                 -0.51301689170398756534
                 -0.01351780647872336504
                 -0.31128390035369180033
                  0.12721687902338635334
                 -0.11098265851574405649
                  0.54411468674012319902
                 -0.01822519846752036071
                 -0.40615267899067875046
                  0.02867769446544184489
                 -0.25699228575365679061
                 -0.37845583189005760349
                 -0.29137979767020605326
                  0.44337503864982130697
                  0.37835952225045665909
                  0.26112434108855758774
                  0.06775719107358017801
                  0.20097889529454657231
                  0.52966581643738108731
                  0.30275961420322988760
                  0.46014391420567446467
                 -0.19471437199387092720
                 -0.08008266658667956284
                  0.13243826420353024820
                  0.18141831022426588294
                  0.43932378909000502354
                  0.13103413147015072204
                 -0.29841476865749316794
                 -0.47481128811448447546
                  0.68027287810738479301
                  0.20246298809900570292
                 -0.15477687814945317868
                 -0.48349457295525655187
                 -0.22415387497567160202
                 -0.26343455932918502516
                  0.04593455122026696841
                 -0.64286721332593088629
                 -0.43212573399839931954
                  0.40270501249503037888
                 -0.35948721850156251101
                 -0.80753835097224369033
                  0.01967138214937083282
                 -0.53448932513188451843
                 -0.22534708897209079770
                  0.11478101546490841744
                  0.69044479347122478252
                  0.24338968833168528327
                 -0.27066433210072576854
                  0.63343335370627251724
                  0.35963224760906448152
                 -0.11883946802747298588
                  0.31835845294425013652
                  0.71861105316269102694
                 -0.67525655684573870907
                 -0.11825703989521296755
                  0.68818942265566984684
                  0.29907070567752475077
                 -0.66771705281108972851
                  0.77528103285253213706
                  0.96730528765161516436
                 -0.57383186523895879372
                 -0.56935265669856938153
                 -0.26764836241627926183
                 -0.82708573057484169322
                 -0.10635714646757971069
                  0.28372380155425130921
                 -0.74511445990396485417
                 -0.43801731986237446570
                  0.41407634876944376945
                  0.19453937992724809614
                 -0.70127023326682158544
                  0.61777918153907107612
                  0.36649217386749893821
                 -0.19428560067056765970
                  0.50520107407288239454
                  0.37309316779539863917
                  0.04891261656845664191
                 -1.11209395354502937892
                 -0.91934027574562171559
                 -0.80204101391697546486
                  0.17982467114207439929
                  0.53017090710554837241
                  0.89061318030943836810
                 -0.13469360116645801018
                 -0.75417798694841353679
                 -1.09101461972075308715
                  0.35706963745609027194
                  1.76131679923600770188
                 -0.10960596842089893876
                 -0.71499841724209545202
                  0.46919015766456922956
                 -1.71136573102129774249
                 -3.00293445605759190542
                 -2.90951715510843023083
                  2.67486684522605155934
                 -0.69307675744184227273
                  1.43519121961692364131
                 -0.78707301152641540032
                  1.18752442748851039234
                 -2.85296386808008328728
                  1.81729656522393367979
                 -0.87884651238891398073
                  1.82955134861017776338
                  1.66057011303652468648
                 -0.11569135332492566648
                  0.12564587517861636190
                  1.30449126307158480564
                  1.05280516382534194975
                 -1.37784504208855351770
                 -1.69993070373862376066
                  0.61568850911435968332
                  1.52462513841080671284
                  1.33504362775251772533
                  1.01084126241715721584
                 -1.80842435385516164814
                  2.81401261009484571218
                 -1.48846644674428540966
                  1.44299442550512124761
                  1.89614753920206546844
                 -2.37439912353204674034
                 -0.54642753220542006343
                 -0.95356260349420052247
                 -0.88031634518107149123
                 -1.86131309320023641263
                  1.29942833551000269665
                 -0.10669241563885789592
                 -6.16790581992690523094
                  3.56101239502906175005
                  0.11014933241797689178
                 -2.54168304551274371050
                  0.09150354797676879537
                  0.87047797006906579842
                 -0.99091072200488228283
                  1.65547358470285121967
                 -1.16462847598900864909
                  2.43410663603527765986
                  3.66978354353618341221
                  0.48534338246232122671
                  0.66434284234527785085
                 -0.23240272269281553319
                  0.09421970664085120573
                 -0.19577001524770334950
                  1.41231320238037172388
                  0.28192328310739867003
                  0.00672297040573174506
                  2.91605445861589718248
                 -0.54493188423639160600
                 -0.42670661947025179117
                 -1.70566934194050578988
                 -0.81093617679420759714
                 -0.80798026341266071526
                 -0.70441274576820156472
                 -0.93177467746506914548
                 -1.86410967293406559797
                  1.87985941745948936799
                  0.79869885248197047822
                  1.11931171833668630100
                  1.43149916209516780974
                  1.95810760615403078866
                 -2.75751244699858988341
                 -0.45090540222840325146
                  1.92408153086816491317
                  0.08889811221182278289
                  2.18007457758569733741
                 -0.71283695455384676887
                 -0.56722581483824496829
                 -1.82504815289153388136
                 -0.58772600196541135986
                 -1.21435128773199441099
                 -2.09894953119128047092
                 -1.45834692567252188766
                  0.56721368343214551011
                 -0.96616898977603793419
                  1.55237728443419675806
                  0.46364213455355590687
                  0.11422011300412171497
                  0.07495520151603801695
                 -1.10500891232058529035
                 -0.16572126412515475469
                  0.90698010689267261064
                 -0.73786580644247456995
                 -1.37094383939095743052
                  1.29006600827378603569
                  0.56956927298197845833
                 -0.98786846322472721127
                 -0.09651886022756958616
                  1.81337396515818638498
                 -0.42343126237818817792
                  0.44174597032593238000
                 -1.04956134186059446556
                  1.21005806434890250678
                  1.59441854878232613935
                 -0.05865569871865132512
                 -0.30227889724410506034
                 -0.44463289935295757793
                 -1.33113131815258811663
                  0.29566913416106332946
                 -1.24396361647946296358
                  0.80347424432597303046
                  0.72184311490504504683
                  2.81623690042151331170
                 -2.45317066931212313108
                  0.00142503655057648823
                  3.08154543633348509957
                  1.52467659529404331309
                 -0.81593827279887864989
                  1.39096516288511384829
                 -3.32539963082815193118
                 -1.89215585131617514136
                  0.66467779015493055894
                 -2.60618711864232999176
                 -0.51349099694027455776
                 -1.71163907554031480274
                  1.33325579029718133128
                  3.37342929945734804065
                 -2.43736359195949425782
                 -0.38019851844389274120
                 -1.62551207309222012221
                  0.66055442975835776398
                  0.10904198707077758512
                 -0.55694614636334449642
                  1.49515567263442572532
                 -0.59969612555630380513
                  2.17527442201816345602
                  0.13413618908745922331
                 -0.18832198246326581348
                 -2.02120491586015793573
                 -0.25581231653525171588
                 -0.91277072136469949992
                 -1.12878373196989012506
                  0.40666497062462797496
                  0.06979852551124030025
                 -0.27971594296157215043
                 -0.96556551613988805816
                  0.19265376843984066690
                 -1.71098012110545560915
                 -1.25536655030085841922
                  2.68665318247354178993
                 -1.41847417791736662984
                  1.37828893483163072986
                  0.49547724405680249049
                  1.43632178377899299981
                 -1.69356255137216948903
                  1.96005672648086282095
                 -1.37909379489337302616
                 -0.36464969814771219792
                 -2.13823078829962431868
                 -1.30617442243377634981
                  0.52682810632861765132
                 -0.36155433770376554925
                  0.10868581379214502236
                  2.87119735031397560476
                  1.31732847224579296963
                 -1.49803952597207379327
                  0.80244803617605997559
                 -0.93054516978992940501
                 -2.46687756305017247271
                  1.28015994178634717748
                  0.70940062268500492237
                  1.41465243697519427180
                  0.90389524910067764463
                  0.11696475274429013469
                 -0.23968447749830573690
                  0.12548653580884561176
                 -0.39424801963545530459
                  1.42364394820743700443
                  0.41120458032727486009
                  1.66355862827053191388
                  0.28994771610016395469
                  0.20398802335902582739
                 -0.49333569816288874721
                  2.11800823023934281508
                  0.18184684003863837987
                 -1.41194837453762911395
                  0.26454935650147776149
                  1.29407349541334815157
                 -0.31377007552709140770
                 -1.17324686236429243102
                  0.52945034068106411329
                  0.24692912911565484402
                 -4.09059675329184635473
                  3.17418363259680802457
                  0.44507341046925047445
                 -1.33755137689419134617
                  1.56248725555447687263
                 -1.31114007957994460618
                 -0.17264978776838590946
                 -0.33375797162628922932
                 -0.40260580483438246358
                  1.04647414336486788144
                 -2.60888822840339029696
                  0.30630627488963135807
                 -1.81816191360446643976
                 -0.06831546745388121511
                 -1.63670559088990796859
                  0.77709186643126815230
                 -0.83661977363372175276
                  0.36925363372200692424
                  0.65015041747237534153
                 -0.97308135701184272914
                 -0.21074950301448444612
                  0.57297346347573974157
                 -0.32279555099516860084
                 -1.17821275321718133000
                 -0.36423001963787970947
                 -0.21843695740554439078
                  0.84038298429431645964
                  2.50732806695772980632
                 -0.11837107450982549406
                  0.53130736183867710576
                  0.57343819137617502157
                  0.80495846443268770365
                 -0.83985174836631981687
                 -0.99578963814052623427
                 -0.31056722233066652583
                  1.24228889807882381113
                 -0.80322997684492403181
                 -1.24872915735119427438
                  0.45730789857715031799
                  0.16806855942571480300
                  2.42088460544123407203
                 -0.57176195805774654435
                 -0.88827333618450776687
                 -0.18348057856862320936
                 -2.08607626729203188276
                  1.66870179243595107010
                 -0.40471152018118855542
                 -0.52744308287119967549
                  3.19980222312163364862
                 -2.79518228546927183231
                 -0.43927624532803638546
                 -3.22463156044725751670
                  0.32942840154577018863
                  1.05251279174621292789
                 -0.12220047367316087816
                 -0.18716857776656095624
                 -0.96071525799046453287
                  1.17327921089263820242
                 -1.79603349794685862584
                 -3.15941410752343898594
                  1.74349075975982437114
                 -1.80145937997035332501
                 -0.48854324663058817935
                 -1.44458523232036406547
                 -1.64510503811949804209
                  0.02692599303436388897
                  0.71679260361275920488
                  0.42521107087657372681
                 -0.07834454412440355897
                 -3.17099342077462464928
                  0.80157794353981848268
                  2.22949646451787852897
                  0.50437594127735818628
                  3.21271227328164155068
                  0.09692680957898149041
                  2.11658362482895068268
                 -0.00020697221542092907
                  0.27484044016984132686
                  1.47438053024038162597
                  2.09714029980760408023
                 -0.48346455969677315512
                  0.77492095624166690282
                  1.68859740731793062096
                  0.68881765328196231657
                  0.96848068108025242573
                 -1.76787857039542783966
                  0.47097436915488982700
                  0.25988059487127268543
                 -0.30379713343607250842
                  0.33650585882028122287
                  0.62028437193921404091
                  1.10087533345432420084
                 -0.06019852154562271851
                  1.19045256266791055211
                  1.48756269235650351312
                  0.68507752311695080394
                 -0.70113697304960154177
                  1.64412453717094542149
                 -0.61547778125803453975
                  0.85551831346376394638
                  1.34045583244836730152
                 -1.92048274573616373218
                 -1.86898208925399145208
                 -0.53725351754114913927
                  0.04684778159544831372
                 -1.88480900087489366967
                 -0.07017094384772995519
                  0.71061072609592212945
                 -0.36504127743146252971
                 -1.35298390963853631952
                  0.04946201618493081126
                 -0.60531394342748745530
                  0.31273350220007545275
                 -0.61950031707602204456
                  0.07069113731704106118
                 -1.63613882464614768253
                  1.41903831330115415277
                 -0.26526838564139570975
                 -1.24730097926542282671
                  0.88200165188342005695
                 -3.82702443087005628186
                  3.18771263951306904616
                 -2.99525350747763274839
                  1.95348982115177194352
                 -0.42748881535398214337
                  0.58640527150413401802
                  0.61071778239842855474
                  0.43909322196581757058
                 -0.74324278354632833388
                 -1.33827195533056109156
                  2.00508296521637063847
                  0.84838203967776459891
                 -0.23938080959342958320
                  1.76251680985150405157
                  0.44164568820304922481
                  0.38605405218253058264
                 -1.13348657260048080175
                  0.77608616073712544114
                 -0.82495323868117642618
                 -1.99845427195548364097
                  1.06278080522864937230
                  2.98215881176588881729
                 -2.66318698257855857037
                 -0.49434020522186455926
                  0.17548321643524070201
                  0.27526663413180979534
                 -0.05447451492452733829
                 -0.18593028049154242121
                 -0.41608135443041216472
                 -1.23056430907191272084
                  1.83751705469267334614
                 -1.10320921253921455651
                  0.65200875392351431703
                 -1.89362638819694750758
                  1.67837428125113663491
                  1.24309166774536405953
                 -1.19252113067102261112
                  0.39974268648436112050
                  1.50201980885185104597
                  0.05478425574361712319
                 -0.86818486436657138494
                 -0.58819583476896497576
                 -0.56451009120196038449
                 -0.06258229378233906570
                 -2.64404182074206595132
                  2.59135627185434369579
                 -0.53056992598589802768
                 -0.35061186007831712796
                  1.54249647719165050574
                 -3.22196639651437655161
                  1.54606518974609019601
                 -0.08685681843117405709
                  0.27146154959084112246
                  0.26107730346543878142
                 -1.87483822562010793433
                  0.80455824644192630579
                 -1.26113510861176458810
                 -0.20751933991706217331
                  1.89313814996423612769
                  0.14490756197991538912
                  1.65058124425924934719
                 -0.26286617594477929005
                  0.69232209352379625589
                  1.69991393522174782937
                 -1.45305070216295506569
                 -1.89778258600865323835
                 -1.95991917715056063187
                  0.42873031272845496531
                  1.44651018673373088497
                  0.57385078767623531881
                  3.05595961276703320664
                 -2.95439861260892078221
                  0.40147633139019306414
                 -1.84837395585857611202
                  0.96165055688007028412
                  0.21326691872986183740
                  0.29172074815232235112
                 -0.03118657925405562276
                  0.25880174895841762117
                  0.03715363053134683458
                  1.71025102549098617644
                 -1.69645219506951483446
                 -0.14863295685477029284
                  0.14614743309128730431
                 -0.32956662662508640071
                 -0.15498164289470070520
                  0.16929850130083903825
                 -1.05741701440852287064
                 -0.92477525533306770278
                 -0.13307930341971602184
                  0.09742630950224820396
                 -0.26149665104144675931
                 -0.12669668724691390826
                  0.21556952849978439080
                 -0.00447316357082620623
                  0.98602024711656488520
                  0.51496788611557375859
                 -0.95623516962786891948
                  0.95565372983994412159
                  0.96131305891911178474
                 -0.59241600184778819838
                  0.68717677681282129942
                  0.32019370235188204799
                  1.86342181136542128783
                  0.87538914385638011417
                 -0.32199813754079514849
                  0.24394051990514145634
                 -0.31423973450340558777
                 -0.58490078443992077339
                 -0.25873790986609124243
                 -1.26749416919850288465
                 -0.41508921205193244353
                 -0.10686007567568164833
                 -0.33217514269211545486
                  0.94670732466352580659
                 -1.61088388728152542839
                 -0.24517576611865790626
                  1.03247405489605403872
                  0.10929785073778600091
                 -0.17138917246013146700
                 -0.22336727806723388756
                 -1.03711020708724399597
                  1.11404093268455617327
                 -1.29937775021907975237
                  1.46861593510222743220
                 -0.38666689247691354847
                 -0.09133603880994546620
                 -0.79252911821781357737
                  0.65169796600276652665
                  0.88667657925488574389
                  0.09223415232649929962
                  0.51593338866377735918
                 -1.32622860588611146682
                  1.07181274539528859080
                  0.09388385590269876513
                  0.49277495655092584670
                 -1.05835202937840699988
                 -0.22512835371759745695
                 -1.86811932714982709136
                  2.35047228851039280428
                  3.59444576129374526730
                  0.12751476248114021472
                 -0.42371328870292429558
                 -0.21301233907334637951
                 -0.44131162979258575785
                 -0.05094426661864966122
                  1.22358778629931164161
                 -0.43331936622700956141
                  1.34744900039634463162
                 -1.54309598258240865398
                 -1.11300215332712881811
                 -0.31230532809628092084
                 -0.58248647405832632007
                 -2.02088940963014662699
                  1.18813460722656549784
                  0.47460871899346968039
                  0.15200993325674028167
                 -0.95733861115127016905
                  0.69163460815176314167
                  0.28167209625477424018
                 -0.41530212492879953201
                 -0.84694841799154285678
                  1.41068278071082264802
                  0.93856782204866684438
                 -0.68178921216013887996
                 -0.05644275950891135957
                 -0.56067278496656891562
                 -0.99547487598658657149
                  0.09739749238629066830
                 -0.76466065381865255812
                  0.81630205199461480792
                 -0.94297696573876044202
                 -1.55119329983796361283
                 -1.88076910013858111803
                 -0.03634892611912078630
                 -0.45250838382395786041
                 -0.79581482800046665638
                  0.10033643771852759907
                  1.27246597513864889706
                  0.10803813136709272680
                 -0.17175435860215962358
                  0.54876699088420877182
                  1.06220784733530626553
                 -1.11162054393798714891
                  0.74119387764528521512
                  0.27785324276510464658
                  0.92906111429310966887
                  0.33966943026176682485
                  0.02860307321376043960
                 -0.35165836766585917283
                  0.35602881219714449523
                  0.92257972568405655078
                 -1.10547395518148827698
                 -0.03126979801795137098
                  0.39028424945115469669
                 -1.55869645890602548377
                  0.86763645212798046202
                 -0.28958159932857863161
                  0.19904985985495476930
                  0.15906450305040609194
                 -0.78531874097143961055
                 -0.02626252672529086341
                 -1.13782104459539201713
                  1.21063393585310663525
                 -1.12368668768175394845
                  2.24253140140285367465
                  0.36543277922689432202
                 -0.80860544542820123048
                 -0.71901926273970562242
                 -1.03699853145757381334
                  0.26600441395432761205
                  0.31398408123047039098
                  0.75970247579306215968
                 -1.51858184860777001290
                  1.09258713178274868838
                  0.62568409281762982221
                 -0.11019780300904613579
                 -0.63722643302011250377
                 -0.78780438732564306292
                  0.21899915004555681186
                  0.09842216442584483804
                 -0.86160098492522818603
                  0.23717718218106406680
                 -0.05410928382830573757
                 -0.06115687606921563213
                  0.40959566586055173865
                 -0.57347774607166723815
                 -0.49785774214771449930
                 -0.32561369914435556172
                 -0.67068878026998157704
                 -0.42394360054031948737
                 -2.14692036429735599867
                  0.15562166654009898514
                 -1.48776393060021216996
                  0.80254679935112793743
                  1.20785759708247319999
                 -0.08613690445066687906
                 -0.31744455285543210499
                 -0.00852973665643264913
                 -0.30030647478269711925
                  1.94551241267295682569
                  1.84905317687686832073
                 -0.47510118116639848962
                  0.88114850458601434724
                  0.23994064580124482844
                  0.43685133463367625817
                  0.46675123455809597317
                  1.75090651130976127092
                 -0.43906817836968192736
                  1.90734006559579638562
                 -0.96849973305514813759
                 -2.25517319802316906774
                  0.63423936292725358044
                  1.41445591872315556969
                 -1.37772174094369814767
                  0.29713906414201884942
                 -0.78866408075990634963
                  0.63318113288795341287
                  0.07645860796380707369
                  0.59080417356537973106
                  1.31347401853295098206
                 -0.54403331767777252104
                 -0.30571425274240532355
                  1.22959077621521783996
                  1.33513915199754662488
                  1.20394246718121711304
                  0.07774762854193738304
                 -0.10797671418760228235
                  0.27500758430071364780
                  0.55375957524118579745
                 -0.07240533999060165538
                  0.12990949539118012979
                 -0.01288595279799976956
                 -0.65108287559958377688
                 -0.49171702794003829817
                 -1.47456482957317147608
                  0.52089383372966002739
                 -0.79262411077292849182
                  0.62261550546262200978
                 -0.15687801437845372288
                 -0.61231099423939672199
                 -0.44110121341782226878
                 -0.76432297435433305122
                  0.64503210633752050551
                 -2.78054147039848942313
                 -1.01546273349421123378
                 -0.36743737680454380268
                  0.84289383463807121544
                  0.14780455584848500861
                  0.53140992559175570520
                 -0.07196518281060305944
                  0.42318430334421885952
                  1.10255523177456149497
                 -0.18430776086383846013
                 -0.35452691154308285659
                  0.86589055910469903132
                 -0.04023082960998136670
                  0.40252791677646165835
                 -0.12630773925357685616
                  0.30250541712806489070
                 -0.10889772595517172027
                  0.59596481852079707942
                 -0.04942777248066517609
                 -0.52025398679990608741
                 -0.95313485763995320355
                 -0.39527612185511007414
                 -0.01025882492496185683
                 -0.31435448777751773264
                 -0.57819660911656955982
                 -0.45978869276647549302
                  0.87910878029035532943
                 -0.45465167914569287744
                 -0.45477600906082787935
                  0.14412533706996533134
                 -0.41054422791509520563
                  0.24401282382410632854
                  0.47752886567165248044
                 -0.16949091940880389728
                 -0.43506221984463105956
                 -1.18734036926299268977
                  0.30501814989558312385
                 -1.00796108468484768572
                 -0.51354031656219001345
                 -0.31178817856230400807
                 -0.48627111944045359193
                  0.39354982430553614448
                  0.13451647002136149500
                 -0.26752183489167569164
                 -0.05192899616814368458
                  1.05070895751967041676
                  0.78728682083885925813
                  0.41716296911551908888
                  0.98754527578040418589
                  0.68691252758280851864
                 -0.04715757368957620294
                 -0.33511046882062506258
                  0.97153862291607440138
                 -1.06126917814825860731
                  0.84260853621033304783
                 -0.09700286269472410683
                 -0.07202093646197474386
                 -0.70868149798459112443
                 -0.95248938993870346792
                  0.96071956711686701258
                  0.93588376656728811120
                  0.05527202038920612376
                 -0.06551203155149248891
                  2.11436496219099456795
                 -2.38285787180121033657
                 -1.31585339645553411891
                 -0.01335024089534670236
                  0.63994864743151136377
                  1.52437427145359793990
                 -0.15339029948689195115
                  1.72717249462750821465
                  0.35055635885829716791
                 -0.06848432800008837085
                 -0.31407762766738805960
                 -1.02017958473123337981
                 -0.04507782076967498108
                 -0.14544640109770196057
                  0.44235113665618258638
                 -0.29199541810796358909
                  0.16517859659223776969
                 -0.05139942892937077179
                 -0.41045469932513861666
                  0.71236437538048269502
                  0.35670794275496930936
                 -0.75753128421468463038
                  0.11774199514819230772
                  0.01200289837597353672
                 -0.28739445447022865521
                 -0.24707280547077581367
                 -0.65930960053009246558
                  0.42060861278879657643
                 -0.20079960315003136939
                  0.16322051177978028069
                  1.22308990175953513635
                  0.30487619465907661587
                 -1.55235779949861685267
                 -0.12871012203119511219
                  0.40954550260971855913
                 -0.29787705388821844599
                 -1.01784284403383296080
                 -1.46511257226343682980
                  0.49186078434147129101
                 -0.54694702373843817611
                  0.09529777114705453855
                  0.47756529813379478000
                  0.82255593475355837096
                 -0.19178653185730015762
                  0.72545716424467654448
                 -0.08632446235993311567
                  0.19908586844268241767
                  1.09962769360201195745
                 -0.02050220434727037522
                 -3.10352485015028944915
                 -0.38961512670442183248
                 -0.56955658295667455082
                  0.89239726727933776917
                 -1.47643261512182366602
                  0.77329847441616339498
                  0.28357123121032595803
                 -0.22867192901115121484
                 -0.15752846581327778486
                 -1.77329645347588549242
                  0.52587824723711251718
                 -0.97514753160801770360
                 -0.65484574452787780441
                 -1.12440600783175792543
                  1.57803476728666258744
                  0.47433352948766321910
                  0.63387197505233316974
                  2.22977317592955159853
                 -1.09881755590926744048
                  1.06686617019350271640
                 -2.36486106652552852125
                 -0.06732424683800966592
                  0.06979500581413933258
                 -0.09108649576636485001
                 -0.66900851151920004423
                  0.60193754841454572002
                  2.03209842282748853748
                 -1.47166871111276575945
                  1.12046060754535492521
                 -0.79871022866899132886
                 -0.65991281438036875073
                  0.63678330738601218730
                 -1.73616273097066131648
                  1.19083511481620352157
                 -1.18893112805297329615
                 -0.11196410420429769861
                  0.79867463127559512603
                  0.31213068811238164901
                 -0.60180083731588340790
                  0.61776316470857139951
                  0.90680028857154471034
                  1.43236898326218686783
                  0.23388116210092893543
                  0.94244987267483648630
                 -1.07095747753863990148
                  1.06715978335226280294
                 -3.71093335275725078048
                 -1.30965186392008137162
                  0.36221286202456709491
                  0.78992167435935711772
                  1.52334904384103175801
                  0.91153786802389757948
                  0.72307277674969661074
                 -0.79534546374260683965
                 -0.04341445720474534226
                 -1.04555243197036840108
                  0.94796988921715508170
                  1.88991345094758567136
                 -1.27116293077673825351
                 -0.47844018286629952375
                  1.17621750383719869681
                 -0.36923960645487474697
                  0.65536120505361405986
                  2.13764705434458779365
                 -1.20569876632035555275
                  0.39131191045305807608
                  0.97529443940300719618
                 -1.14432929604812483326
                 -0.75231049187182730265
                  1.34425611727562799302
                 -0.33223768719221669077
                 -0.00920639487515012740
                 -0.73066476587649609176
                 -1.17827005923130623266
                  1.33265601819165691033
                  0.75379824286723806637
                 -1.63535248271078104132
                 -0.23808649922905014695
                  0.23338568632529063662
                  3.14838045928829224351
                  0.44616575941448100018
                  2.18820719427532539569
                  0.65391804343255555132
                  0.58908830195398187435
                 -1.08079190607802244628
                  0.51679280121271198301
                 -0.68579187997151791478
                 -0.99684123243467892550
                 -0.08907583665849491683
                 -1.38525967243802083928
                  0.13756252767464988152
                 -1.62446138659496530643
                  0.65322350333681111767
                 -1.85625469161326739354
                  1.14227451077310804273
                 -0.05907205658213460220
                 -0.13947768724224748893
                  1.01917817403037358481
                  0.92816377605831468234
                 -0.20154809462562761624
                  0.26579504588086066974
                 -0.30969246149758350439
                  0.74646886478333074333
                 -0.53333777213795219296
                  1.88501804374367343264
                 -0.55991588188703933504
                 -0.44290395625821005199
                  0.66362901083588077267
                  0.62806788027523885454
                 -3.45189098038683406244
                 -0.23607730883473568295
                 -0.09106254488188934848
                  3.75019136767778826780
                  0.18710845257058469904
                 -0.74360938238931406641
                 -0.45875957329821198671
                 -0.25677254120689180228
                  0.11546901528578773499
                  1.19763482797346210162
                 -1.75206738369620040885
                 -0.23372208715314013450
                 -1.27500979847440731874
                  0.37664200908630024456
                  0.76580588781452363367
                 -0.12659688146805406217
                 -0.35112266769668970534
                  0.99375033694975511978
                 -1.17579612446742309828
                  1.30236925870668107663
                 -0.43084745640066796080
                  0.70786772609409231993
                 -0.19713906138913789290
                  0.70119570142014076009
                 -0.35695267187385243401
                 -0.51885892850048298541
                  0.13135549990188688518
                 -0.36617727222540913390
                  1.90179824236077754662
                 -0.12451051305098530253
                  0.76320719294883798689
                 -0.48218042124091492484
                  0.63153588490851209070
                 -0.88176476792740587918
                 -0.13594096334907043722
                 -0.09402479646534506186
                  0.21623125767235903960
                  0.93898995764040393830
                 -1.43032330052155964850
                  0.19010757587120899470
                 -0.76330644103005118595
                 -0.75377295637336738654
                 -0.18725818945791858350
                 -0.78428705876332538427
                  0.65797423134528543187
                 -0.20215654731042043135
                  1.58834149805179736248
                  0.21728284709246059592
                  0.21320589098374351233
                 -0.32930468673924229162
                  0.88957535388542374744
                 -1.76431435144915527147
                  0.48659964893880536252
                 -0.52609168094448277575
                  2.05955304781764692024
                 -2.21964876051757453723
                  0.13871008145193816641
                 -0.12364695929973019972
                  0.03348277232218604960
                 -0.80101134997646783464
                  0.18925110354757723741
                 -1.13260129557788680188
                 -0.85052377516100563515
                  0.16368430801155087195
                  0.05105070706294397714
                 -0.83278326696828819387
                  0.78213678792761975878
                  0.37894762164896805823
                 -2.57570452792846360524
                 -0.41499370752233721849
                  2.77666191254116245801
                  0.17048141282048287493
                  0.86917853383623455699
                 -0.94988203501398871254
                  0.19948573946423037162
                 -0.92421584229120090637
                 -1.50832692255848632712
                 -0.37625003488728070433
                 -0.08018844288742682513
                  1.19676331579229500157
                  1.05617163063190711014
                 -0.82578001972129699837
                  0.30288273327281306502
                  0.72231702796940655542
                  0.48085160170131902024
                 -0.56338509508601908315
                  0.90098221956301038915
                 -0.64179110828943852773
                  0.27870568663113742813
                  0.05453729616134386088
                  0.17385220975908524665
                  0.59591889720241597583
                 -0.52713004734250001881
                  0.18844963165585090770
                 -1.15213160248779988848
                  0.02417990854629142525
                  0.99066548908496188108
                  0.36119173521081043843
                  0.61178017460564404484
                 -0.07360050552813138247
                 -0.13134450069390424254
                  0.40702913468418006060
                 -0.51933389747271940795
                  0.70056280901554501828
                 -1.16409648194321424519
                  0.11793702982395687373
                  0.11161364978919871560
                 -0.46198203605693372031
                 -0.31457752941901001575
                  0.62869723795174980996
                 -0.41226956025396466199
                 -0.98649275444924200418
                  0.47825523533346858684
                  0.53791326109814197043
                 -0.09579032877517389133
                 -1.37295444519752884993
                  0.12845208456645376693
                 -0.00514258899001309236
                  0.00289482814710802575
                 -0.01683112362675456830
                  0.53033977246467112199
                  0.24638058151551497921
                  0.53046361624951254843
                 -0.37430714128451925138
                 -0.14267582044446108780
                  0.27558405694207294134
                 -0.29242276637244679627
                  0.25626276293012184571
                 -0.19486938643018969497
                  0.06810487614302641879
                  1.13289528261837180168
                 -1.28114975895665117456
                  0.49512052977951082067
                  0.87516724151635660878
                 -0.50966147986303866890
                  0.31058652675141379396
                 -0.00416911526520326921
                 -0.43796539269312623199
                  0.78409075033995201398
                 -0.21454488851680400541
                 -0.89460848724054164993
                  0.32081792734925290711
                  0.14628562810433434760
                 -0.20367724529702715963
                 -0.47317838470609974166
                  0.87240456657029519238
                 -0.51059448097119186638
                 -0.37019847873441003028
                 -0.32691360457628187985
                 -1.67691148032492587383
                  0.72784754518743810525
                 -0.88870833925158321254
                  1.01323035320629206701
                  0.15601287636586885776
                  1.38222033807047628429
                 -0.19147131503512873629
                 -1.05189100604412444362
                  0.91315398720695850621
                  0.06410838565201153194
                  0.95626879165553824169
                 -0.39695455912466870441
                 -1.48634554199309665279
                 -1.24374496653408939117
                  1.37375012348214542435
                  1.10823762680020410087
                  0.20534099244401490814
                 -0.25556987597887731445
                 -0.52574901607298574202
                 -0.41269935609637220519
                  0.09700550827437978696
                  0.02347755010349334912
                  0.03471588038239032531
                  0.43506204117704144751
                  0.21624291266233447439
                  0.52882920632300722819
                 -0.56811632114055587994
                  0.08891344951159753374
                  0.22912060141592613394
                  0.68846580963575831902
                  0.12022303889828761525
                  0.25916839605836378135
                 -0.31833742728186487092
                  0.45499426369722961727
                 -1.41726866433730691597
                 -0.09476241278995981010
                  0.44281194308412413774
                 -0.36890149831116370027
                 -0.50109217598906730107
                  0.14409083045410919777
                 -0.58244120269609322982
                  0.13833012402063388224
                 -0.12142438516071445143
                 -0.69781633626892725086
                  0.30210740214078612986
                 -0.41317463170603879741
                  0.56233934304790733627
                 -1.02808891410077984929
                 -0.16190822841705104773
                 -0.12879263688128289589
                  0.78264499977419654808
                  0.98088007016139555638
                 -0.49090682437475380295
                  0.11588259845491385991
                 -0.71111685840795979541
                  0.43173465636786767519
                 -0.35333912946320999993
                 -0.07745047163061379025
                 -0.23119725009932781679
                  0.08428342231171928600
                  0.19414358065474460191
                  0.19265050395575447628
                  0.51610942279349902861
                 -0.15559121498718839205
                  0.38868789922164947992
                 -0.18449367645365552515
                 -1.34579209867765081654
                  0.30618137379724086333
                 -1.05171871731621480173
                 -0.90143323789166274196
                 -0.10476645249365931778
                  0.75734913671068704311
                  0.16798637862702187062
                  0.23085721322866942229
                  1.10945896689710998828
                 -0.00454117933366694239
                  0.87403032605913555386
                 -0.09462363632622181053
                 -0.05117967224839589657
                 -2.10649839641706471127
                 -0.31032164543481344232
                 -0.57517800663856344379
                 -2.06349014749807802005
                  0.28585067462775498592
                  0.52317224384539018356
                 -0.60407141412558806870
                  0.02207270952974647177
                 -0.00946634143846221410
                 -0.45334064104946170115
                 -0.28131632731207806275
                 -1.09741957249756194592
                  1.15822449453143683229
                  0.71936942984249430122
                 -0.39762974117869220869
                  1.05296514287210252192
                  0.79418406361438453889
                  1.27486643897802509606
                  0.23711867358194632649
                  2.52112390278465348104
                 -0.12022293484610160896
                 -0.24642243306060601649
                  0.15236045160984409974
                  0.14129877236640772664
                  0.26260969397562156091
                  0.14652603734541208569
                 -1.61873548607353501261
                  2.66176778142403991367
                 -0.06480296504098542743
                  1.05845681120691459398
                 -1.25198443088557653802
                 -1.16136558897185060424
                  0.28094170735662671312
                  0.14221875728856855914
                  0.69195288672094068527
                  0.35008667831938816706
                  0.28827609678332594134
                 -0.11771439928927041052
                  0.31648425202740798623
                  0.15643030723987602637
                  0.97616938580522805147
                 -0.34601186295910230095
                 -0.02342341440195634672
                  0.02774477952783319795
                 -0.58688669630155942958
                  0.06357450313674800624
                 -0.45932007407263092391
                  1.07803924344894652698
                 -0.78155597375319896258
                 -0.32325481997874855322
                 -0.45489784213324879758
                  0.52125248986666028461
                 -0.34129353771594023170
                 -0.20302653438662784935
                 -0.92577765037750647803
                 -0.52818183313400390855
                 -1.07113853629068755957
                  0.00240735273356508777
                  0.33026201006676036975
                 -0.00294376906696991111
                  1.35605155751951067522
                  0.51108216793984273529
                 -0.66028136714594953816
                  0.53697971431271906972
                  0.86130504364612126000
                 -0.83449617761689209861
                 -1.74833346633639208356
                  0.49257039348687975400
                 -0.43025818978236762824
                 -0.03773432514825290907
                 -0.57668090863229515275
                  1.66079958350084977425
                 -0.54813299484187871791
                 -0.00832838140765192192
                  0.97712215726345363898
                 -0.41772104286598538136
                  0.50924861062335469164
                  0.27033375090644529148
                  0.12451925193120974567
                 -0.62989260236371602542
                  0.88539944071651466295
                  0.02608541864589633552
                 -1.90205285370427779057
                  0.71308961157176842249
                 -1.10111151545855956435
                 -0.89783213763558800125
                 -0.63427682636290982909
                  0.86918386513881762401
                 -0.83176764584747697739
                 -0.79289122280540236254
                 -0.13056544184609170101
                 -0.46673505933069664442
                 -0.37605325067218109414
                  0.60094767178907604332
                 -0.09203909024031836639
                 -0.15471399047871928212
                  1.67975267773806158367
                 -0.66887155279945875730
                  1.77319738607514776341
                  0.04996741499744321302
                  0.40931663766468517895
                  0.31272479559382682091
                 -0.59753581563527147225
                 -1.75549985269457575754
                  1.23758527427931208642
                 -0.50096830182813933963
                  0.66499969286941196245
                  0.27486068892374138084
                 -1.48732314181561831035
                  0.90465807017837585047
                  0.67465605818845852948
                  0.27724754765203579732
                 -1.30112383532655040419
                  1.25088892289057085350
                 -0.05541070384708274288
                 -0.61903416519618659208
                  0.72047994288026773191
                  0.48458621507506188797
                 -0.62653734711282815795
                 -0.67977706481125754756
                  0.80248749908058158997
                 -0.47785151497817823785
                 -1.38198546664563792774
                 -1.14325309451471057720
                 -0.43953037866332089756
                  0.83363012185344098626
                 -0.05583825735350398528
                 -0.27799754405470711305
                  1.88327432540945838291
                  0.08848975867482200552
                 -0.16932693700241019386
                  1.09223974378807353602
                 -1.09624125926881044180
                 -0.73080352781608315382
                  0.39712113459957232298
                  0.88389933881984661390
                 -2.63335620286094851394
                  0.55664202598056067295
                  0.66384168008761257340
                 -0.23867656926181887722
                  0.77422290413019190236
                 -1.80200019230815322580
                  0.22513786507367458678
                  0.53494267444400334099
                 -0.00141561971652836302
                  0.46080305670418458819
                 -0.90393006975151402038
                  0.11191490751081865918
                 -0.69784567801219132832
                  0.11198477939344489429
                  0.44477344813482228014
                 -0.09075787127127256382
                  0.23568182145464233734
                  0.40267410514856971648
                  0.55215592559776205395
                  0.45173807784178010571
                  0.49052827771890444852
                  0.25110917368677204697
                  0.39010191239589370182
                  0.68552268485483502936
                  0.54198337098462157080
                 -0.13674555061269705325
                 -0.03095890199369857182
                 -0.73949215382130517593
                  0.01121117191361676799
                  0.22261557246571034296
                 -1.51575828611603613538
                  0.56290798966905308820
                  0.71598332567560851736
                  0.65084305610014114851
                 -0.25205036855686063779
                 -1.48969796530905274068
                  1.76746827076287105207
                 -0.21230767129862845866
                 -0.98504803954169362079
                  0.16326396133036688574
                 -0.25269574375381820275
                  1.08480757301707431139
                 -1.30873909807125166083
                  1.92760971906658618025
                 -0.78125954946820497238
                  0.06603145475806072862
                  1.04134367645853531670
                 -0.64867818218552986131
                  0.10359309088868443038
                  0.90406663926505981266
                  0.98919375227551475938
                 -1.18825061123427788701
                  0.78759285710499982169
                  0.25064427910538156219
                  0.54444476643298289620
                 -1.47011841773976703607
                 -1.12830220250070256682
                 -0.03920354462963147879
                 -1.74771032976673312831
                 -0.76085994107432186606
                 -0.58084670262700732746
                 -1.00022725336728246504
                  2.58917218062910414744
                 -0.63808954056619360262
                 -0.19344236729732497415
                  0.11305577633225177836
                  1.17052399396314332769
                  0.10936267012027939272
                  0.58132276287719719665
                  2.98980556923438145489
                 -2.25244048137850727542
                 -0.78167551335614282593
                 -1.27148294317783205898
                 -0.33321524232737437243
                 -0.22652648656711105168
                  1.02765054069681749382
                  0.82836589540629457229
                  0.99556447807803127859
                  0.39995402771651644702
                 -0.87942382073446356827
                  0.26776903974875820857
                  0.94362769180448102802
                 -0.82747085268007158909
                  0.80325142238632485370
                 -0.72240936861777760303
                 -2.18877513484755770179
                  0.50027636398543828822
                  0.93954350809258135868
                 -1.12648955761227242967
                 -0.44081781708782802331
                 -0.41212299531361362703
                  0.25713455608892987758
                 -0.49816432858081299839
                 -0.90117414159359976455
                 -0.50757410311397532787
                  1.23829854288470109225
                 -0.30653688243060084329
                  0.86175527870860413326
                  0.28672665086201837292
                  0.10868283328315592184
                  1.59227022768835846378
                  0.48642775151334027850
                  1.10844442756793015725
                 -2.00486603785640005171
                  0.04296056464651044904
                  0.84976050676145753471
                 -1.01760143881430353829
                 -0.72565779201470670401
                  0.33590214482717473121
                  0.29217619292309487955
                  0.22024832237899907850
                 -1.03516648954858903053
                  1.50126851430212404637
                 -1.93241855683574481617
                 -1.70162204685848306163
                 -0.28885609428953884503
                  0.40090444399900171391
                  0.71166976022682337799
                  1.34345465483237824778
                 -0.36728965191424661763
                 -0.07968772442836649650
                  0.91101479591197020991
                  1.83928760633380217193
                  0.15235343098062875677
                 -0.56956099420838335323
                  0.66341580235096975215
                 -0.33507646893607762051
                 -0.23790541328100048291
                  0.59244228041886426439
                  0.38063073572447581050
                 -0.53909073965729348288
                 -1.39959748874099632054
                  1.23904183633406783649
                  0.81703575902705705136
                  1.16903244978606890569
                 -1.40052636434950872335
                  0.45805612304407716806
                 -1.55945483213729141347
                  0.97439847228112808075
                  0.26314372246581763104
                  1.18873995652874886453
                  1.93403549690735854227
                 -0.94992741498051647131
                 -0.37309949807963110890
                 -1.82530396591418919705
                 -0.06701468113144673500
                 -0.17093816581109902430
                 -1.52587321613028503720
                 -1.19069461226391104525
                 -1.00974616054729127157
                 -0.10033694478742202771
                  0.06944849244261135091
                  0.96360161708164537853
                  1.82335276360696862952
                 -0.14785485980036774945
                 -0.34355855572789473218
                  0.13016537650858503450
                  0.99617550261689369329
                 -0.30880106990012412549
                 -0.80330226271946714167
                  0.16565914569841627690
                  0.24197895154015172658
                 -1.38730469516306564870
                  1.10965280535234356307
                  1.75796601385920769900
                  0.97300301694629831584
                  0.53374229374246340285
                 -0.40719890190987079182
                 -0.15150489715704390514
                 -0.31720017522233967533
                  1.18764076461009837615
                 -1.18266796526404216472
                  0.03252956252686086541
                 -2.00425576784289738441
                 -0.45100500244117064375
                 -1.71202104052561931979
                 -0.10235894873999636101
                 -0.53436838591648083696
                 -0.48890255485695394144
                  0.16259790828268436136
                  0.25300678984389279869
                  1.30303925543414367283
                 -0.65628279080213580698
                  0.56180757279550763705
                  0.71971470562959150019
                 -0.30509485088585375223
                  0.42656101422359588016
                 -0.05989209823901187058
                 -0.38942175624302916015
                 -0.36455268302147025850
                 -0.11044155981412295819
                 -0.07581135891659111781
                  2.18338072610520761430
                 -0.76229827604868227731
                 -1.35723180032291690367
                 -0.03798231435728658539
                 -0.52597036164941934899
                  0.00752432688749410036
                 -0.05965067234052631728
                 -0.96279666883958980872
                 -0.55809725494742934426
                  0.26394861168011174435
                 -0.05902767402666345836
                  0.10349214396119160719
                 -0.14337956212600527772
                  0.86681778967204781150
                  0.96501151500087656299
                  0.89630979229348994863
                 -0.34521949174035382324
                 -0.43947553776023501326
                 -0.05562055540114094199
                 -1.36100463074414879117
                  1.36462960597450622124
                  0.53467558260738967668
                  1.67095301624106595817
                 -1.40546196535046497011
                 -0.79490452310407178071
                 -0.28202171504365736165
                  0.20979325070214691062
                 -1.00936665435713379679
                  1.01855089828202016733
                  0.27032891977902195890
                  0.40564672874774893030
                  1.61808525516137513556
                  0.37921156081270390725
                 -0.01939735945650836527
                 -0.71989684755624816503
                 -0.68810039709266124230
                  0.21205914669893832780
                 -0.04814159573608657594
                  0.07450613316945660369
                 -0.29035294275746786896
                  1.47045245402098911924
                 -0.56539540880944627599
                  0.26929900723670385787
                 -0.51709924336008472601
                  0.09326255761274190870
                 -1.94268951578911641676
                  0.26479256513283017105
                  0.52523038077376893451
                  0.04803286403125704707
                  0.64058016918655891203
                  0.71553239841334359550
                 -1.06540890883562489044
                 -0.72395241363281437330
                 -0.92982644730117947063
                 -0.77596899392643281512
                  0.14182970128512931152
                 -0.17087991455630049953
                  1.49667069467027613605
                 -0.27972122162120033328
                  0.27688909765341990221
                  0.33371364330480368654
                  0.54125289921897623557
                 -0.51892754817758135477
                 -0.48362375829541537353
                  0.70645053592458206815
                 -0.01282820960151396378
                  0.49541203986588733255
                  0.24145042293853608006
                  1.25502774811812800593
                 -0.02530250876222405604
                  0.05840334457090080172
                  0.06836826557785287417
                  0.44486476402509961270
                  0.09674967207471150965
                  0.27175710878506714741
                 -0.09170345075430905157
                 -0.05304491152003133758
                  0.21950325893406497091
                  0.43975435009456209645
                 -0.42660751879762381922
                 -0.31034640501785082378
                  0.24123030682387197610
                 -0.90590498313786527174
                  0.06946204089857739572
                 -0.30363062852259220525
                  0.02689638418044608403
                  0.16566947621698713267
                 -0.39033691909407536302
                  0.19926154436270193671
                 -0.56341080807095067495
                 -0.51900419606274128537
                  0.11875831115798902993
                  0.67764603833217873508
                  0.21121949959949232190
                 -1.11691145342565101295
                 -0.35868521725978158576
                 -0.16947465520517704385
                 -0.92109729044488231064
                  0.89730107260140534731
                  0.65865463487095055051
                  0.44850593831935831046
                 -0.35723642008514061574
                  0.11700554472701799047
                 -0.07308813044910698886
                 -0.09600693487719935693
                  0.02194860106571914007
                 -0.18618046172411759076
                 -0.60609071906604483626
                 -0.15252086528960356882
                 -0.01072844065543768211
                  1.34088804169269049105
                 -0.31430450739268656069
                 -0.26424484258962988026
                 -0.51123564428810586158
                  0.00350846878593713638
                  0.45829327427068761169
                 -0.01386807114647158751
                 -0.45312756454465175082
                  0.27110497428908286732
                 -0.52538260231962474744
                 -0.77714285149490014426
                 -0.08139526565859897533
                  0.47436317779209330459
                  0.38096253635614024668
                  0.25198078213421876148
                  0.25010755211593821423
                  0.64606873502430506306
                 -0.80795251108571364274
                  0.02970753538874832886
                 -0.37044616709319105885
                  0.37298477510800565060
                 -0.14632215674749232681
                  0.85744310250078459301
                  0.37870449165714586970
                 -0.37877951763610884228
                  0.11891501324544730134
                 -0.27951848289324138230
                 -0.92037329459180750035
                  0.37876852025449281314
                 -0.23132290403325472816
                  0.59414289868873526590
                  1.23516266508671934687
                 -1.71109273305538422960
                  1.00615314171618264183
                 -0.37634126839484155491
                 -0.01603985417193853208
                 -1.11199370775903960684
                 -2.02438269251745817101
                  0.83340251251391295195
                 -0.08930995581736979327
                  0.18326493471133958879
                  0.70234851786805363449
                 -0.33825583284598736977
                 -1.13954813683106093158
                  0.48979197360962545282
                  1.08855204199880306604
                 -0.76066244415253780886
                  1.56499275470345255989
                  1.05675085348959263420
                  0.17212734529497294989
                  0.42901530339958937610
                  0.06676186980914751434
                 -1.59797740683365097070
                 -1.32708262173275537421
                  0.23070316304266066942
                 -0.97788460341327998471
                  0.30564371650688632043
                  0.50417398516265043984
                  0.19563717619118667357
                  0.72598331298944640544
                 -0.23653091846408372256
                  0.49358695460686319301
                  0.87887848719988292956
                 -1.00802516724671509252
                 -0.24936272126983835551
                  0.07125104440959253993
                 -0.76343598626948627750
                 -0.29774899081995209738
                  0.40685487880333726096
                  0.99312869992241359363
                 -1.61607795003303045256
                  0.33765901885023541507
                 -0.49936064886842529420
                 -0.01792500250768339076
                  0.05697113689936870312
                  0.29458274226004554919
                 -0.60473777436576836575
                  1.04552593071984212258
                 -0.18694073829333143766
                  0.84875596357993199348
                  0.29839621576942193526
                  1.05669779774443961529
                 -0.80663903256430746769
                 -0.31248806475744878020
                  0.14070843129352914036
                 -0.30467201852887365598
                  0.58135175768365343618
                  0.43226576633387819859
                 -1.41860355884371514001
                  0.22331007087942364442
                 -0.46576241143756835772
                  0.51793244303436947185
                  1.02026824331028809212
                  1.00117131525050417906
                  1.27201300227794877884
                  0.03320016664983006793
                  0.14432891394781399708
                  0.04543155687287604716
                 -0.09582899096643338055
                  0.29051274672743038208
                 -0.05649985843788603995
                 -0.48859801610176772924
                  1.53884070501068515036
                 -0.73881861204650212116
                 -0.37565064785707558137
                  0.70871960347796381097
                  0.26993163432405720137
                  0.78649082306718542945
                 -0.51323222030945436778
                 -0.02897894737153592845
                 -0.63231921757727116429
                 -0.37028807568922839089
                 -0.69564053818904336701
                 -0.36080822647990246077
                 -1.82418442147763193439
                  0.63763587579798808314
                  0.90104418861266688534
                  0.49652889439577302388
                 -0.97493490210660582740
                 -0.94113852639579043124
                  0.55627692177694476605
                 -0.93642599046502139615
                 -0.63381024461174528817
                 -0.63536539013850834579
                 -0.50434633623532354463
                 -0.13853123987958532171
                  1.70845964091633284454
                  0.60748692131842341180
                  0.78677167664786495926
                 -0.64383590404210844227
                  0.82823559531214385743
                  0.06955327653597333237
                 -1.44723825407198503079
                  0.44386997076402473494
                 -0.60893175828445900155
                 -1.59327447929435406238
                  0.68857497152335234158
                 -0.04329492854944318181
                  2.10672740891228027493
                 -0.46713955087738878724
                 -0.98048371334230710605
                  0.26518152657700877484
                 -1.14824227184563376625
                  2.52224706293856559824
                  1.26654410574573939030
                  1.59128205892634566609
                  0.15907921654080139917
                  0.35510941929011829998
                 -0.87779554403645698724
                  0.85407197478207275143
                 -1.60357695445651171617
                  0.94032042559080553090
                 -0.73216375064097349856
                 -1.27036968880281797567
                  1.45995144029140067055
                  1.25069898622481012751
                 -0.78841324327306350206
                  1.22583290408606426780
                  0.67348259294948964460
                 -0.21172880782031960889
                 -2.22568871926673228501
                  0.27461991188198953129
                 -1.17669660131764719502
                  0.78271667505960340616
                 -0.50080941283194169156
                  0.46079924590677362461
                 -0.11757061617533867692
                 -0.31724457146196916035
                  2.08493803746601980009
                 -1.70644861188084950854
                 -0.77162983196606527159
                  0.76057694608034009942
                  1.15062273130027614698
                 -1.50146234682549728490
                 -0.89602604035143895711
                 -0.63014770463147151691
                  1.41197930503363022758
                 -0.61495516891177082197
                 -0.19089169248327270134
                 -2.30887372476419905354
                 -0.01867587328755254683
                  3.56128405085594179624
                  0.86024337705545628197
                 -0.18894029560274283597
                  0.20319180632966105104
                  0.69120438113689841586
                 -1.31443879895268178615
                 -1.59823039326361393542
                  0.58738960101109694012
                  0.83708273244225461784
                 -2.42865982872968189099
                 -1.53611998671340033162
                  0.67060728219612997236
                 -0.32132820968861997013
                 -0.71217682368060131193
                 -0.88788360295107415787
                 -0.64428718271066909296
                  0.67894490509291838265
                  1.30966655004064191914
                 -0.13551072978080144771
                 -0.74116798396301464269
                 -0.23985938490745775664
                  0.89441404090155596229
                  1.38224746147936716767
                  0.26009821953862616306
                  1.16941662724841433096
                  1.16394752610553631200
                  0.26248419950290063918
                 -1.60028981193839836550
                  1.39213695596411257682
                  0.72805167444365326279
                  0.02108456144319623138
                  1.65591585454634726560
                 -1.44173856922885734733
                 -1.97271832460144569410
                  0.15752276914105992067
                 -0.88752788929042047972
                 -0.30664746542729587331
                  1.17473505623839336032
                 -1.24073441308957654883
                  0.10594900135269366692
                 -0.48894715263093829760
                  0.48708353475483312511
                  1.85409063001821916572
                 -0.47662342056477502439
                 -1.39822287382157628421
                 -0.15190666506406516612
                  0.84311220198622727207
                 -0.76914460074960355751
                  0.01863969500892278391
                 -1.01752022405493658397
                 -0.81863925566686945867
                 -0.25787101515417648612
                  0.77472488305868969505
                  0.19083319747552671131
                 -0.41262166135698302716
                 -0.12520382156715903488
                 -0.05016785776673253483
                  0.87013152435246632344
                  0.60510441755939226027
                  0.25636437634296849186
                  1.18953918520764601041
                  0.32653308965672339648
                  0.51549159883053052855
                  0.38566712657824769872
                 -0.80177439769657421476
                 -0.81941725066096604557
                  0.09809298254010909157
                 -0.03041844326758364608
                 -0.66891218532920959650
                  0.83651466419607234393
                 -0.71364269624685749971
                  0.69224588837327638569
                  1.04579436642947576352
                 -0.45859197198652690286
                 -1.15706077318079825211
                  0.01014901143918518246
                 -0.56559237221027236497
                  0.12341980829784847395
                  0.08280872610077563700
                 -0.32939250759331711871
                 -0.07102103457445414769
                 -0.10804672603373269291
                  0.31300344553772707634
                 -0.45707102541726235545
                 -0.71596814484491888564
                  0.20513584113001737119
                  0.28343519681185225245
                 -0.53495024888573039501
                 -0.10317928336623828633
                 -0.12201522115096698207
                 -0.07808553880580296203
                  0.24725205012963946682
                  1.20991430314273640256
                  0.34997879312318297407
                  0.69360031977390601554
                 -0.12130365730789748058
                  0.08528475425537554444
                 -0.35591913270171138262
                  0.82544796603101477928
                  0.21696838253298908472
                  0.64059194208255032521
                 -0.61692470515188890801
                  0.67222412100733452966
                 -0.54236996772674406220
                  0.05218758863188179692
                  0.21748406204747652848
                 -0.61293126583926360595
                 -0.47471400119132212136
                  0.31875355263176152754
                 -0.57309926248231524148
                 -0.45793983673907584508
                  0.03334995671964389313
                 -0.24077599037854946484
                  0.56999781974562824249
                  0.07061910695715621633
                 -0.13080577828180312006
                  0.16295665638387191176
                  0.24460887174505005492
                 -0.47307023445919077487
                 -0.70745547606830394560
                  0.45042853192792348116
                  0.56431570304983103004
                 -0.11378285200491158879
                  0.47584168102424811986
                 -0.18258996488691367488
                 -0.86798365529449406086
                  0.07693609167847682839
                 -0.30557558448272570395
                  0.10458060420455415895
                 -0.21206174672047659047
                 -0.44461897438412162353
                 -0.02804665617137444208
                 -0.17641974800069315510
                  0.22197849631678018278
                 -0.44085984747889045421
                  0.18322116960139445130
                 -0.71315766991832740818
                  0.94384432611058155516
                  0.15767649515745843503
                 -0.12448428198347219475
                  0.21097205900978233117
                  0.01554250028815259976
                  0.38073493169819444537
                 -0.21629274561728731308
                  0.52746100657296468572
                 -0.23210971037599029132
                 -0.58381977648795113645
                  0.00161369857200148979
                  0.48079933160704380057
                 -0.31841196253518855297
                 -0.13252330872188131106
                  0.01278486085063644875
                  0.16814665509912837815
                  0.28650181204903707455
                  1.39143196893228404676
                  1.24987765612821855044
                 -0.10105507121392184877
                 -0.15994750294609566543
                 -0.14383450297435873555
                  0.44574052708297084990
