101	2	1
50	80	
1	9261
  0.2820900428286895	  0.2571609905901582	  0.3204528099564741	  0.4719261890227158	  0.1825140906683848	  0.0296578869043015	  0.0649645727094214	  0.1234711050538667	  0.1182912245032358	  0.0513288100785926	  0.1298201626292302	  0.1274101791743771	  0.2429648201725952	  0.1733952448287001	  0.1075049420617618	  0.0955132194169225	  0.1638348470469352	  0.1066352321582365	  0.0758582727550982	  0.0691544736944632	  0.0904312395631804	  0.1955698879540072	  0.1162660875240348	  0.1322635501916007	  0.1027223917515639	  0.1924267135245033	  0.0666227888498151	  0.0040768501269699	  0.0145580884503274	  0.0284350608495803	  0.0176081401005831	  0.0103255384366991	  0.0304205562255682	  0.0336215880851931	  0.0362765052108487	  0.0333785938011899	  0.0315239015121776	  0.0643174772600026	  0.0395824021070491	  0.0314813855710968	  0.0144316944079702	  0.0184228972540425	  0.0300630084711457	  0.0317800908691832	  0.0316024043482023	  0.0445771587560296	  0.0496711286481468	  0.0554375375883031	  0.0450713740933348	  0.0314062015349754	  0.0358723110781627	  0.0347542570628507	  0.0534849619980082	  0.0243090609287465	  0.0082826506983449	  0.0174699546164605	  0.0341972461526966	  0.0314343166454360	  0.0139396197077165	  0.0349106021192381	  0.0355822388177838	  0.0653369090965403	  0.0517728956609384	  0.0328296188928051	  0.0279646939723987	  0.0460999345140070	  0.0297162301946746	  0.0145646638752199	  0.0169642579672881	  0.0319071836473686	  0.0508897870879448	  0.0600898096645297	  0.0353068309486456	  0.0359948484507890	  0.0328969232505220	  0.0560115995926562	  0.0438776494559118	  0.1236585949999067	  0.0659050640589054	  0.0496864459508221	  0.0408425996510444	  0.0408132414951260	  0.0719664540318793	  0.0696922173502682	  0.0853638173451433	  0.0664441293718077	  0.0555854298198549	  0.0896720245425038	  0.0312657066419063	  0.0355676659259821	  0.0280220251938519	  0.0658127890417347	  0.0215926308411193	  0.0195035331917679	  0.0284627180141523	  0.0678542366755628	  0.0534980034906683	  0.0680260511799383	  0.0331342333495526	  0.0851307836997432	  0.0243191958627896	  2.4999885100000001
  0.2820900462753900	  0.2571609906465001	  0.3204528178995296	  0.7803682564237493	  0.1825140968728382	  0.0296578869043015	  0.0649645727112603	  0.1234711050538668	  0.1182912245267175	  0.0513288100785927	  0.1298201626639019	  0.1274101804166782	  0.2429648201952825	  0.1733952485259403	  0.1075049420910269	  0.0955132221656944	  0.1638348507441755	  0.1066352321844160	  0.0758582727550982	  0.0691544737102799	  0.0904312416578871	  0.1955698922736452	  0.1162660875240348	  0.1322635501916007	  0.1027223917515639	  0.2466746689572032	  0.0666227888498151	  0.0040768501269699	  0.0145580884503274	  0.0284350608495803	  0.0176081401005831	  0.0103255384366991	  0.0304205562255682	  0.0336215880851931	  0.0362765052114939	  0.0333785938011899	  0.0315239015121776	  0.0643174772656093	  0.0395824021070492	  0.0314813855710968	  0.0144316944079702	  0.0184228972540425	  0.0300630084726778	  0.0317800908691832	  0.0316024043482023	  0.0445771587596332	  0.0496711286481469	  0.0554375376008334	  0.0450713746806894	  0.0314062015361480	  0.0358723110781627	  0.0347542570687304	  0.0534849620030622	  0.0243090609340759	  0.0082826506983449	  0.0174699546164605	  0.0341972461526966	  0.0314343166521034	  0.0139396197077165	  0.0349106021192381	  0.0355822388177838	  0.0653369091028058	  0.0517728966934783	  0.0328296188928051	  0.0279646939723987	  0.0460999345140070	  0.0297162302019045	  0.0145646638752199	  0.0169642579672881	  0.0319071836473686	  0.0508897870879448	  0.0600898096645297	  0.0353068309486456	  0.0359948484507890	  0.0328969232505220	  0.0560115995926562	  0.0438776494559118	  0.1236585949999067	  0.0659050640589055	  0.0496864459508222	  0.0408425996582240	  0.0408132419428911	  0.0719664540367302	  0.0696922184838616	  0.0853638173516820	  0.0664441303625529	  0.0555854303378252	  0.0896720245478203	  0.0312657066419063	  0.0355676659259821	  0.0280220251938519	  0.0658127905454345	  0.0215926308411193	  0.0195035331917679	  0.0284627180141523	  0.0678542366755628	  0.0534980034906683	  0.0680260511799383	  0.0331342333495526	  0.0956870046622418	  0.0243191958627896	  2.4999885100000001
                 -0.47726801878095093112
                 -0.26330634378087791614
                  0.40607940644070972258
                  0.42635113572530325410
                 -0.28104636715219566412
                  0.02571290925394755303
                  1.41835253014266360339
                  0.28861262660651620937
                  0.31674000871399204948
                  0.04492378838594578150
                 -2.01145533847915114478
                 -0.39674040935942711528
                 -0.31810075807938570369
                 -0.35798767379571594383
                  1.94212025090090767421
                 -0.45551540145750940569
                  0.34305801283424858239
                 -1.46257796422455710328
                  0.35444171847974986767
                  1.08071223155181694864
                  0.94186377622138739429
                  0.45210055214203614948
                  0.52513309166461152877
                 -0.84251807467041217592
                 -0.94228628377146850248
                 -0.23541508029629029664
                 -0.24511532131220803432
                 -0.25729997973752910534
                  0.07216701678562552347
                  0.07469138469866719310
                  0.66918622657942750109
                 -0.85366434649187905581
                 -0.60340214571929295939
                 -0.31118403577092951240
                  0.64875356606224898748
                  0.15795874888374750178
                 -0.27275171685367771701
                  0.59005015514983116809
                  1.14513173750552565977
                 -0.21710071607223380141
                 -0.01483233623646278490
                  0.91682132238765456922
                 -0.31914565383117488029
                  0.37910946350720953202
                  0.03861581238804045330
                  0.08362677649954405878
                 -0.39835722794366895672
                 -0.14520374395868729245
                 -0.75438921450204687869
                 -0.89084279141165090277
                  0.05168165422637577278
                  0.23394092669172258936
                  1.09118407712123066666
                 -0.20462266837308168421
                 -0.12127545447209656104
                 -0.59368541490926274307
                 -0.42988375173738113677
                 -0.60021381184005950793
                  0.47309531941495541751
                  0.05269739314951216863
                  0.19356879715332128700
                  0.92990041217349350688
                  0.76879010970085392973
                 -0.29111120679015095591
                 -0.70764042439701224652
                  1.08236888063843461616
                  0.28044882890941119635
                  0.63391934277615269444
                  0.13665858606134204112
                 -0.38546001812754338012
                  0.31091042344056463165
                 -0.48757205835236627767
                 -0.50228196760369803187
                  0.44544791599795136028
                  0.05151234314464360475
                  0.00135512716783058170
                 -0.36866416527120760005
                  0.31145456976913749036
                  0.48826667308601912065
                  0.00771553396210182107
                  0.74082165273583178156
                 -0.38496264332669266617
                  0.18944055715270477491
                 -0.53383143020461154560
                 -1.56905500216182236528
                  0.24063313337808681092
                 -0.10122757545986446615
                 -0.28780933499187139057
                 -0.35080872711430971522
                 -1.62897966721104814347
                 -0.43498104690410410722
                 -0.01096871203741514589
                  0.37884836225702789303
                  0.13346686435812302185
                 -1.02065269669744362879
                 -0.73455410749383187596
                 -0.58264475310171992550
                  1.26596673988987507009
                  0.21890864488510317076
                  0.59231350463551291075
                  0.50747319813270930222
                  0.20426973390429045696
                  0.37353640343831684412
                 -1.01585601282865845008
                 -0.10874846750746043622
                  0.46196006674345480025
                  0.94764276053641915976
                  0.85250245582535999489
                 -0.93406739765186153068
                  1.24081902750839834226
                 -1.46764293854221028468
                  1.61559246803880363075
                  0.41707713382344102637
                  0.49262245838286106148
                 -0.06780923158399797257
                 -0.14445534629253151127
                  0.20362259726162462714
                 -0.21483428434248552641
                  1.10131680960480982101
                  0.32218314567676681337
                 -1.09523094987854174853
                  0.24476582694358914316
                 -0.50351244933815786364
                 -1.33605171919836251959
                  0.36733933490104403452
                  1.67744989038191105735
                 -0.12888980593625196103
                 -0.31035885399759410852
                  0.65424811014830108746
                 -0.20436434196881800296
                 -0.07419925879936667412
                 -0.16029610762531845691
                  1.03494880516328002784
                  2.21350949779128747252
                 -0.91529426177726247449
                  0.21789725752337354980
                  0.62890883466292546444
                  0.34288904867702801882
                  0.44150964011019255828
                  0.82164617925595972991
                 -0.03102822736178960372
                 -0.23376384153353332862
                 -0.81131762225681813838
                 -1.98055957449329134157
                 -2.10074663536337302716
                 -0.04048274363023962596
                 -0.27965827595699732644
                  0.79548877493657421667
                  0.07033190362738384049
                 -0.08622844946398952604
                  0.69856342501799162381
                 -0.19975349046308019108
                 -0.04834237597001721926
                  2.36304783428968834258
                 -0.92048424408235585137
                 -0.45156379910596661231
                 -1.11080431680219793300
                  0.46709215818503835305
                 -1.24416516419509948221
                 -0.38602035206460405536
                  1.12145322898603083672
                  1.30525337781823158601
                  0.46198402929039639186
                 -0.19157668095948562903
                 -1.65662473024416145861
                  1.00024714234389988654
                  0.04748049487024385423
                  0.39929863117802921746
                 -1.31050562938307235683
                  0.04257752624175788203
                 -0.32787915436748188425
                 -0.50518305719287870392
                 -0.55023696090069540432
                  0.72783411768992078983
                 -1.15214791725796605881
                  0.54035751260154218922
                 -0.71537299631970419078
                 -0.30800219876472600955
                  1.01517411784022137944
                  0.63106451481221781385
                  0.53727244685193520368
                 -1.63123757108087841239
                 -0.61702646727783039271
                  0.91875559050561261820
                 -0.54762334364731168890
                 -0.23721514631975773590
                 -1.04175405947735288947
                 -0.37703589852086155654
                 -2.69665514098309921920
                 -0.43063834269770406848
                  0.61478865887809530655
                 -0.10839871613351183266
                 -0.68860637676665270579
                 -1.25241087682180385343
                  1.04120625852183001925
                  0.05365214757509184640
                  0.08125913701373597975
                  1.98244767290539813942
                  0.56044449499984694274
                 -0.67345789013282697510
                  1.36285205541709353305
                  0.58302735822384066378
                  0.55946270893100147337
                 -0.74256743691937709961
                 -0.34028826050542620996
                 -0.09072598612865391543
                 -0.25727195189569851408
                 -0.06893296875145089875
                 -0.88149551350934107763
                 -0.22426897898885370108
                  1.00691660370075752873
                  0.86838778786775105978
                  0.35095300203644563819
                 -0.55057688615046151970
                 -0.20618360046573511180
                 -0.67297737852037120554
                 -1.26830403611079645110
                  0.40830868510678575145
                 -0.24271739134897088452
                  0.93910411252200987064
                 -0.53406289595459810471
                  0.55934546938100337954
                  1.16781123710230660961
                 -0.16476839018844863238
                  0.91923333803372886397
                  0.74967193366257900422
                 -0.20055634236569000461
                 -0.09386773196176667611
                 -0.14264592453819155415
                 -0.03126954384171358459
                 -0.27080093548667660830
                  1.07679182927509820011
                  0.24655824145072419151
                 -0.54951846177129015647
                  0.18996122688674985102
                 -0.08668971641492198565
                  0.10204141592416104967
                  0.54993618327477744590
                 -0.51729884387299329696
                  0.43035805223931583585
                  0.21012449502171656746
                  0.01267261201940854919
                 -0.00147582871715416092
                  0.37713987658347314369
                  0.37965745969919734160
                 -1.57969851856915988186
                 -0.46986702718024708769
                 -0.04196249272630322991
                 -0.10473039628736298401
                 -0.01145526659070538432
                 -0.50205142521505619069
                 -0.05076964808085909775
                  0.13058805659848748970
                 -0.46075546627845442860
                 -0.48882616540283452267
                  0.69320635788085682716
                 -0.05392047994125976490
                 -0.61763324287310228389
                  0.47866419799134513058
                 -0.13553534364511765631
                 -0.00566834565352345061
                  0.68642487494033566087
                  0.33871037336477466395
                  0.34456473886899768866
                  0.39880149497505135159
                 -0.06602569183175437117
                 -0.42695841428285769004
                  0.38639773453001546866
                  0.40960707056763384637
                  0.62693481064139111592
                  0.13228984967378148996
                 -0.09830376951311496636
                  0.63418597801382536883
                 -0.09898899390757880112
                 -0.09546825423081117812
                 -0.32070434081546678184
                 -0.58451934927613324877
                 -0.34969648525318758336
                  0.56490477010396233926
                  0.51923657695832381442
                  0.20530081863542698484
                  0.32054835438687495630
                 -0.17507547401501605266
                 -0.13259599933406038264
                 -1.04302367453148336907
                  0.19087887920591659063
                  0.46851459794610117449
                  0.40905722809226296999
                  0.16578723915862150773
                 -0.20982551161011736562
                 -0.66194959990113400039
                 -0.34711949412602849385
                 -0.57233912345673787492
                 -0.30647970900403004313
                 -0.15427119008272258127
                  0.04955337647867157080
                 -0.11153242185686529364
                 -0.10115870969783487265
                 -1.75746232739854590932
                 -0.44082200365928442265
                  0.37975968180458197221
                  0.41519699423792377768
                 -0.12019839570955767605
                 -0.27998328054582227731
                 -0.18311101150721473263
                 -0.12833033562457052401
                  0.32924057521099348023
                  0.06725048893255793081
                 -0.13653965669623105428
                 -0.38481913108371557097
                  0.04919026213969865391
                  0.28354270798192404701
                 -0.44090163385590824818
                  0.64984422917605200176
                 -0.36409811838240424553
                  0.45362398964003147750
                 -0.06177635991140457278
                 -0.03840669165255194972
                  0.07381856686912696697
                  0.96997552516369456299
                 -0.10178352843547489037
                  0.00340591607923898185
                  0.22338052388430248985
                 -0.80766601997654186018
                 -0.31020427999745753267
                  0.09664704801104781473
                 -0.02017783036914503475
                  0.48576736550057009190
                 -0.47288300783230924340
                  0.43476785254061939279
                  0.36346544279627140961
                 -0.29310630232468604106
                 -0.06265300171436276322
                 -0.18191285093725478861
                  0.11445414702665303308
                 -0.49180319207896844302
                 -0.47149014954048634740
                 -0.01855195198113919475
                  0.03640924563847972029
                  0.15265158118190022551
                 -0.31476695642028668098
                 -0.11881814624941530734
                  0.23717906018476542229
                 -0.04924254187836761554
                  0.19696076742521337333
                  0.06491669903742412762
                  0.35094105622688737123
                 -0.16604299882200534988
                 -0.23996491471115025118
                  0.17266828671662975969
                 -0.34763180650462693899
                 -0.30823125167112402911
                  0.30763215209249450410
                 -0.13363282387945460417
                 -0.43288346441706537782
                  0.08047842398855510615
                 -0.06298492193677115991
                 -0.04240223371856791101
                  0.63370168319474751151
                  0.28999685760355914388
                 -0.69851808405058490870
                 -0.92961180861813375031
                 -0.40833174059837057390
                 -0.61657886656362070887
                 -0.05789471257246460445
                  0.24020864678933218084
                  0.09674365888729639928
                  0.17434769925786119948
                  0.50363442862837082270
                 -0.01381671762008543705
                  0.51271682413938590717
                  0.07062361136072109469
                 -0.38824905663531489308
                  0.24224281308208764352
                  0.89659078885101872736
                 -0.28168272422081663819
                 -0.06688124247632758201
                  0.74149780276731913631
                 -0.14768733014376056456
                  0.02376467222806320084
                 -0.56623230252724821021
                 -0.13692122077714954931
                  0.18618791628653502679
                 -0.22378166527813642128
                  0.15313432270826388137
                  0.26788049211447356734
                  0.85513557116103777744
                  0.12604395968480008872
                 -0.04154823293093599240
                 -0.31452496522182965544
                  0.07928433412701227367
                  0.31566445745792265365
                  0.23869531417338984980
                  0.58514414475591158826
                 -0.21139715213514823078
                  0.10288029583992390481
                 -0.19414597374355324622
                  0.10799973134535505170
                  0.32184792515890897624
                 -0.07210623792519364750
                  0.13446255333260798137
                 -0.86738109769484739164
                 -0.20668431012537061275
                 -0.49236939175398852786
                  1.25794371084314748899
                 -0.33792716636474540159
                 -0.36776794925555728044
                  0.86449856565474769710
                 -0.09216499057156020414
                 -0.01178830400113650007
                 -0.41915360541373963832
                  0.55374426241393692738
                  0.10617958359599390106
                  0.81050834575329300247
                  1.02218971240609635132
                 -0.67554168848428031158
                 -0.68000033118843106195
                 -0.54516126098520101273
                  0.00698245788633841940
                  0.26316553641753420711
                 -0.00644606406301412912
                 -0.23734828209204472671
                  0.04965891047010446285
                  0.31731881440287457163
                 -0.00076298057159721587
                 -0.05911214508585387745
                 -0.47764055934141746995
                  0.66115714335661412981
                 -2.12850368177262216918
                 -0.96651607349903678745
                  0.89510470244248552252
                 -0.09602119288724519919
                 -1.22937368036597138854
                 -0.33735535966108454176
                 -1.75282647474890640460
                 -1.54532702571598279384
                  0.57588642724493199765
                  0.31353702498821911515
                 -0.44225076800280727074
                  0.84267032965176147385
                 -0.41136291125031693161
                  0.52899119857276977186
                 -1.06404298327185053985
                 -0.41380782590540554633
                 -0.02093338918028205681
                 -0.22254432791997041940
                 -0.07284132073167083610
                 -0.08741212453164791396
                  0.58095169204108043637
                  0.71955400644369316154
                  1.75609440059382593269
                  0.38570397137819611988
                  0.89395517795341805645
                 -0.09432091735243321173
                 -0.50780614476536811708
                 -0.03860931848517226012
                  1.24108088731368160218
                  0.62677930888440125390
                 -0.16939044911689091211
                  0.51081250276586032122
                 -0.05333929391614838228
                 -0.65338913518986418971
                  0.53307095377204094522
                 -0.33221893251853545914
                 -0.08483537895539933205
                  0.75977626249529595093
                 -0.08364366912806073251
                  0.07542154325197061859
                  0.39286343841523413412
                 -1.29581614506343512083
                 -0.17148058313968009281
                 -0.04539591456615674203
                 -0.30166068199112855419
                  0.62976991732882114938
                  1.11541223902025832260
                  0.90045615784973931373
                  1.45137613009798105423
                  0.40535700429191467986
                 -0.28745049064434563535
                  0.46498728410504769348
                  0.03734054399852375361
                  0.17530286270262576687
                 -1.31868820939159570038
                 -0.50661901093682215613
                 -0.23144131354090763386
                  0.31860818951042296776
                 -0.74260751498186350350
                 -0.09339497851415454188
                  0.15827595585232570596
                 -0.58745387264515347425
                 -0.35951501347731235070
                 -0.51595927989703671557
                 -0.10412004878593709989
                  1.41855290442332693246
                 -1.06400955026268517756
                  0.02509511743760930308
                  0.66721074527906709672
                 -0.61068114413629026593
                  1.43280353294132556385
                 -0.52327994867931626466
                 -0.64560934591605889654
                 -0.72005787954210320745
                  0.66551705006443029333
                  0.45479928823327286924
                 -0.64645655226300624552
                 -0.20560945824883980482
                 -0.44237092284906237571
                 -0.24689625030585554688
                  0.04030061337078285483
                  0.05073108989247045869
                 -0.33312766800636012254
                  0.26972338130542516943
                  0.18805441845150655533
                  0.00570373339919864712
                 -0.39554135696637421349
                 -0.38240951229419434254
                  0.18445557649761856744
                  0.33329565513332326532
                 -0.29717538895169032243
                  0.63443776819339325890
                  0.48891213293132379514
                 -0.50984384568397134174
                  0.33388163284661642738
                  0.44765731494412930314
                 -0.47480505682485502073
                 -0.57958381622328714045
                 -0.08446699061531939834
                  0.12094736022483698612
                  0.63741011736315211778
                  0.47909869387681908171
                 -0.11300167744190017793
                  0.81667683352298092725
                  0.03651760247351409222
                  0.06189136323122896438
                 -0.74690598428687382526
                 -0.11583692699905000223
                  0.67354126925403701165
                  0.24058968680368505999
                  0.88513309363232339777
                 -0.39344166986219952786
                 -0.56581995296645914983
                  0.42322667966178478816
                  0.18484989120981876187
                  0.00977339141690746101
                 -0.61275805200459187994
                 -0.40740929562973582367
                  0.11398365215194150579
                 -0.32410395234272415532
                  0.24659988893308867897
                 -0.43069018766838929047
                 -0.32600680030898615547
                 -0.07936925904955970112
                  0.58980854259857540267
                  0.06777909859465262865
                 -0.65742718531496713297
                 -0.58494135098491417679
                 -0.61915009360862605092
                  1.29993247087559238295
                  0.59869013921059255345
                 -0.73653988390340641157
                  0.68679355897251725960
                  0.22256883293474991059
                  0.00531838469363601733
                 -0.12513675557531667160
                  0.21634925542079927463
                 -0.25041457151713619744
                  0.08567950231701371155
                  0.06253847423413745610
                 -0.73405308991114859296
                  0.33023914474548948794
                 -0.42294222493870375912
                  0.14181935615029420128
                  0.36072352628535103714
                  0.08976228893090436312
                  0.24560391243862292332
                 -0.72275889351779298853
                  0.02929757040953268749
                  0.53707384218854947733
                 -0.22790185686579353397
                 -0.33590488136489493609
                  0.15832571839204170883
                 -0.24739002738187096386
                  0.23165097651665914058
                 -0.50065405279517349868
                  0.54471908701448545909
                  0.29174198721208194351
                  0.17720879071508741087
                  0.68295383563117517678
                  0.36455983632245475556
                 -0.60261507967950600495
                 -1.03815527356720371799
                  0.15254438542053957995
                 -0.33099931223424416959
                 -0.05446583050382619584
                 -0.79181332402645177027
                 -0.12187934454108269311
                 -0.47603883950049080687
                 -0.15333872603575088300
                  0.00617492163855690255
                  0.30326596483890821965
                  0.83473771184398615208
                  1.32095392361682173465
                 -0.17142862212761350582
                  0.25704076564367606128
                  0.17098920456769800547
                 -0.55792022471888780277
                 -0.33890203674868935035
                 -0.72186907114161535937
                  0.04944323548936680607
                  0.02885922428011154089
                 -0.23724781401958558447
                 -0.02786111233909659146
                 -0.09311241292681472770
                  0.49082991563272171387
                  0.55045913480085439939
                 -0.17852975650373686944
                 -0.14066392166286267873
                  0.54691895042401195148
                 -0.19605532648832532661
                  0.22219281730426107546
                  0.23537477658856448270
                 -0.06756486320318896843
                 -0.05612651955808489052
                  0.25492775416612445394
                  0.01217508141756390438
                  0.08918882960767532397
                  0.31351270421177118708
                 -0.11043994602888283774
                 -0.15291221831235415896
                  0.90100410440807210399
                 -0.41251413970304257051
                 -0.26231582725906632536
                 -0.10264412880035296560
                  0.19354942893212512267
                 -0.00478285611635973981
                  0.21046885523095723580
                 -0.15085068319428865391
                 -0.05366851433061533422
                 -0.10756192998934739624
                 -0.25368582132075984115
                  0.15388509473807354677
                  0.06197886825088891327
                 -0.04708203165669963552
                  0.03756988185105158279
                 -0.01698984021792691174
                  0.15275154284412154060
                 -0.05104455727663401859
                 -0.02111974822748376168
                 -0.04603100264562105109
                 -0.03685567916867128063
                 -0.05062826794930880975
                 -0.16351160813549206474
                  0.19293515123668353306
                  0.15974862547497792331
                 -0.01191951634321451736
                 -0.03346667418131280686
                 -0.23174357177393675733
                 -0.02800720975358645184
                  0.15418543981299193124
                  0.06113462117141609670
                 -0.04981684190661644224
                 -0.13816896922672988746
                  0.22398990783715347352
                 -0.36345636488259891461
                 -0.29323495805033772399
                  0.03721629453614388322
                  0.00800766911309961672
                  0.28268377361904445388
                  0.09229770847387921973
                  0.17622517158833200801
                  0.05873595648605671460
                 -0.15708178230981767465
                 -0.07697025385064192038
                  0.06870789111115178927
                 -0.00393204612518819902
                 -0.23066065303635116535
                 -0.11884680197725054629
                 -0.27038088312872227137
                 -0.24281888539999765819
                  0.13801852903469591372
                  0.29607979726176097968
                  0.01321978565515419257
                  0.18264939359398432717
                  0.35594970500479922171
                 -0.31316932666773755756
                 -0.07550047308677720892
                  0.10850191555680724353
                 -0.24863077006544756498
                 -0.05489024678558682147
                 -0.09145913095241436919
                 -0.44553203743917912938
                  0.03377063747904669733
                 -0.08652005619749146559
                 -0.17829674308228082857
                 -0.24952465441031868032
                 -0.01132883367174313503
                  0.20459864262709054339
                 -0.15463900769621136133
                  0.02570611653242836289
                  0.14661025253279455494
                 -0.19476812978929752829
                 -0.23120768929737164910
                  0.16732719694787881459
                 -0.49574783349526568843
                  0.37422831239888826316
                  0.70583491307325096908
                  0.46467159262547430565
                 -0.24283168919788822304
                 -0.44525925223279605447
                  0.37008486782984784114
                  0.05487246008240649620
                  0.06015855402592737433
                 -0.16702043596070448306
                 -0.51730428334271716384
                  0.47253568436817044995
                  0.77013538883303467308
                 -0.65901446370254990192
                  0.24064654667665000276
                  0.21645981454906304542
                  0.29888411159013633656
                 -0.01458576865993652279
                  0.20652074232205636095
                 -0.44434291828733668561
                 -0.02252761786214057746
                 -0.27450647890568113940
                 -0.47540247553698800065
                  0.41783415620270053514
                  0.74691917462033441399
                 -0.40411328187307876680
                 -0.26658510060562728983
                  0.14235789406895235643
                  0.30787799658483239185
                  0.37117272610803109245
                 -0.01517972704522251200
                  0.19852934437414582192
                  0.14279372931777664646
                  0.05745615240505485416
                  0.10469767474743021940
                 -0.08793013110653923048
                 -0.27118084235746253707
                 -0.35344981608475950496
                  0.34621756477585619027
                 -0.17813767858244319853
                  0.28552791484015238588
                  0.01350486975105517906
                 -0.16881245159374358433
                  0.12724504405896874815
                  0.01346889238114258591
                  0.09039477875152303332
                 -0.17663060321080736870
                  0.17117933199039750414
                 -0.28803475776874259973
                 -0.10273231750039668597
                  0.25952623082160974910
                  0.14820362584707558185
                 -0.09970635784568994409
                 -0.03444221473383461685
                  0.30907912830287814776
                 -0.04306362745015374777
                  0.24555519466946368334
                 -0.15477251876522177265
                  0.16246188228211189131
                 -0.17640379104195008653
                  0.10330502478504868802
                 -0.30796295095886844218
                 -0.61703712469815985564
                 -0.19213080340977309324
                  0.08084434964116907207
                  0.39889739821654351948
                 -0.13253284363372183630
                  0.32669936923193848566
                 -0.33247471341469220230
                 -0.19032687687778104824
                 -0.34415557622148945649
                  0.02766457693513153446
                  0.14332193912064541963
                 -0.00250840189857382814
                 -0.51577151732279125085
                 -0.39671669445189999825
                 -0.17349199814178475898
                 -0.01458269872452760268
                  0.36359475326689544294
                  0.30197843624525999573
                  0.16473921455518328316
                 -0.20506796102094512757
                  0.01226205853089777816
                  0.08701358624273912434
                  0.06579101440828089009
                 -0.08217927215001812058
                 -0.48541806842260820654
                  0.10179173873284513840
                 -0.20868880400668096686
                  0.29875283601433672009
                  0.02242524843984064833
                  0.22411434003020777594
                 -0.04669375084146606264
                  0.42208683817263309423
                  0.04377486363217288068
                 -0.07242674097816007017
                  0.12377705366087159156
                 -0.27425832690068019382
                  0.06935708943068930044
                  0.70384607530712706147
                  0.24251363512766982433
                 -0.06899865816791390938
                 -0.15069006182497088342
                 -0.21447319651458451872
                 -0.35418031379678005521
                  0.40983049165882418086
                 -0.58876979785707850290
                 -0.47712251417246898111
                 -0.43506545169300303577
                  0.16179459065865994805
                 -0.21648864340317575117
                 -0.74140919601549437612
                 -0.16294336370641085421
                  0.45689451942475822754
                 -0.44332122947128799195
                  1.13232406444208932861
                 -0.58112089000738986755
                 -0.34177962854951182692
                 -1.84067285937882441083
                  0.83990116985884311074
                  0.98881152760093382614
                  1.82483854334161277322
                 -3.59775592817387224187
                  0.15005143161527464968
                 -0.09240465377390813528
                 -1.14110746083276493046
                  0.16533696749651233260
                  0.41432410598760283094
                  0.81050220286166041461
                  0.65091668547811898371
                  0.92812939004435712764
                 -0.14677304575804833719
                 -0.47963014870138015455
                  1.47894738244478607392
                 -0.34994270215725142847
                  2.00930039279950412023
                 -0.10651987928688796958
                  0.87402816914887981881
                 -1.68325002743481055845
                  0.19216911897896496453
                 -0.08831758450114647607
                 -1.25402471875609755614
                  0.38763550457909567992
                  0.32407509583311638890
                 -0.19982330769901221479
                 -0.30954521574188481603
                 -0.47315383626778734216
                 -0.47774709318740193886
                  2.11632350747494557552
                 -1.30481602242663563551
                  1.12157957057327384298
                 -1.72619831621152730605
                 -0.48671556881432392894
                  1.10669866886549672635
                  0.81287551032246241345
                 -0.13944972006573874701
                 -2.17054189235036254502
                 -1.82979031371881428747
                  0.63404055077625032233
                 -0.99356098098361267379
                  0.21079393934388221399
                  0.04916888431642704033
                  0.97465195597880205369
                 -3.07538517447873260835
                  1.03480201822645301313
                  0.17242690094765403264
                 -1.38359143662634287431
                 -0.23360402251512435434
                  1.46820261352190306603
                 -1.73789231845775504759
                  0.22583535338339211229
                 -1.19850869480810096057
                  1.23323376464742051617
                  0.50947277785511202453
                  1.21653772174767738079
                 -0.28250454516059414489
                 -0.45674518226499583040
                 -2.14546279194202993423
                 -0.49685433998151640189
                  1.17267528119427288935
                 -0.65029619926166493116
                  0.86018170567001528415
                  0.88554705240179121262
                 -0.20370908287903452538
                  2.83318074008161469024
                 -2.06185368094959953211
                 -0.91106131624401376357
                  1.83803388401625289461
                  1.44169824375420096985
                  1.37166935584909355228
                  0.47223661453799026244
                 -1.22896007114057637111
                  2.55014181256691996325
                  0.15501252304497570300
                 -0.14416665345281415300
                  2.67213603594850424017
                  2.41802457466012388210
                 -0.30166057099611193193
                  0.10184077640600930348
                 -0.46279857228573556549
                 -0.78929375033985416099
                 -0.63585578056261504720
                 -1.40411760957026499064
                 -0.41527589490143262951
                 -1.08683015650704395405
                  1.69400105600629458102
                 -0.64724606248307114953
                 -0.68623727341993212558
                 -0.20012151706558814479
                  0.24970963443903465562
                  0.69204952750738257805
                  0.71234715538225057418
                 -0.62470569218519789167
                  0.00823680366507814621
                 -0.62770347631509704200
                  0.32925874933397381028
                 -2.11352509742484739874
                  0.41072367718560626182
                  0.72563626469716502321
                  0.41830426897535161190
                  0.91431927951028835189
                 -1.86870145178182212042
                 -0.24036968224396748628
                  0.19492869821289546262
                 -0.74385689903608209761
                 -0.18492936793999650846
                  0.89469092478052170136
                  0.49350732183352730154
                  0.06613352430397959059
                  0.58787236065293879683
                 -0.07418848566065178174
                 -0.03371004881435421541
                 -0.49576354853788467958
                 -0.41453625671202543046
                  1.85424135031872272528
                 -0.01666861944966848211
                  0.96411194365802388440
                  0.37359385776027126402
                 -0.02290708677765310869
                  0.09708061687396610240
                  1.60979838285833731781
                 -1.40505065947138851890
                  0.42863328888967566765
                 -0.18976927026063353243
                  1.24554902703779868389
                 -1.12225952420604202509
                 -1.17646035973789553353
                  0.98511304867950177933
                 -0.33391872753505946747
                 -1.18525389877141029693
                  0.01248603055892164373
                  0.60922915656825027408
                 -1.14572269181880659339
                  1.21242049208591273768
                 -0.63690181211003460415
                 -1.83875399586419474574
                  1.15534363092094394254
                 -0.64396259448236348177
                  1.15027947818228826193
                  1.31778582850887837630
                  0.05812975312249950982
                 -1.63957604259932265833
                  0.09787878539102545794
                 -1.36968549995293753518
                 -0.28181473644569443593
                 -0.10037325246369802056
                  1.03982016020508472032
                  0.58725711940130331801
                 -0.44086920377659866155
                  0.31093665690414251657
                 -2.16407684942711675546
                  0.85105586670302735275
                  0.12474780127322943057
                 -0.94006657532467730043
                  0.10995663566602267847
                  0.37405938758226991991
                  0.25080044623848146701
                 -0.91253610453567912675
                 -0.87395838905891931603
                  1.19698377006842204828
                 -0.63220198062672494643
                  1.48533016642242143845
                 -0.84921458664105609060
                 -0.93707141440557450984
                  0.86603698010067386992
                  0.82736040958885836982
                  2.23702799549729203221
                 -0.91714853957342057367
                 -0.26196820682971228011
                 -0.51282525928610889210
                 -1.64559335936911033116
                  1.55416578593979304301
                 -0.71209406603690783566
                 -0.62853361278511310495
                 -0.32590498165653447593
                  1.31513437341907635236
                  0.50644252017508262220
                  0.92695243269760796423
                  0.22962090205829413514
                  0.52418021649992918576
                 -0.41841740162584212248
                  0.25583541858096109367
                  0.97398887502109265935
                 -0.18378252145500345582
                 -0.53876078811390681889
                 -0.05640361307774603705
                 -0.25487695428615753102
                 -0.22268644242637813946
                  5.11472445201516556779
                  0.04216947111843441509
                 -0.92086852973692889801
                  0.24292797035792751403
                  0.36927922659656609028
                  2.60085459989036715811
                 -0.44480835839077353944
                  3.64315395113350648515
                  0.08702834050759476747
                  0.39137762235358741769
                  0.11461351854751117285
                  1.99058461387600438286
                 -0.16107178698585028487
                 -0.41664794577942027010
                  0.43349822734732845753
                  0.27933210483615500408
                 -1.35966502413920675707
                 -0.54757389752634400004
                 -0.93132397781633136091
                  0.26311316415684499193
                 -0.24674896812312846484
                 -0.05128010563810828787
                 -1.15744737992695601037
                 -0.66880535200961521713
                  0.67117637635112703531
                 -0.28948946611223819181
                 -0.23747122242642482171
                  0.22324037461816359507
                  1.21435019970856483695
                  0.78676208535389746679
                  1.53629065362151906449
                  0.39817128759177911057
                 -1.48292575420914585216
                 -0.37537621373924962009
                  0.11376383904445720729
                 -0.55087719032386361917
                  0.59529546312197822999
                 -0.02496712937259562906
                  0.11887297482575828744
                 -0.77186611065818644395
                 -0.96528050937171305801
                 -1.61832103120746162439
                 -0.50177581987686847853
                  0.47004271719426599097
                 -0.70763646283757175581
                 -1.00311425498664075207
                  0.35482680644522962554
                  0.88497136542387089264
                  0.06503645897309105750
                  1.32102852322654928940
                 -2.90791191519891434325
                  0.67059300348750017218
                  1.23448199124997470832
                 -0.78200291075816386055
                  0.68308770278922004149
                 -0.23759912287201484515
                 -1.58624217535739342466
                 -0.09370437114681184898
                  1.77549859948722410508
                  0.22399247080760981143
                 -1.28391115738640504418
                 -0.95394036521982683574
                 -0.68385272252929196757
                  0.83639997022697554208
                 -0.32502536891313360545
                  0.36923541750881405665
                 -0.73978990166910629789
                 -0.37175083325277097357
                 -1.61226605034945857930
                 -0.13693202898306941484
                 -2.11237808188263631592
                 -0.39010433123976928638
                  0.84365263641990873023
                 -0.79541744799362623652
                  0.11309260015214625539
                  1.30039987619233432525
                 -1.20063078886205754081
                 -1.20506416451467712747
                  1.13702164167642183479
                 -0.82128995017416228652
                 -0.45055324250838757472
                  0.33329997831125351970
                  1.77620999215279806727
                  0.55539255667241571590
                 -0.58042890134188274143
                 -0.46878294396312286674
                 -0.34969782138161792373
                  0.67344450296341207274
                 -1.66044039233575624337
                  0.19359418068988828998
                  0.30495847377635298958
                 -0.39270022685036598542
                 -0.43043559036380513172
                  0.22712491630515274643
                  0.35460652156875926977
                 -1.08259632244822778802
                  0.01031559088195164314
                  1.05981924420396889097
                 -0.60317593520422829734
                  0.24108964121076448262
                  1.70147137674194581791
                 -0.69468824761326919415
                  0.65785618993441419278
                  0.07975702738194194452
                 -0.38968280343796934950
                  0.73756601169735447332
                 -0.97783393929740836104
                  0.90536741574175982894
                 -0.19128267087964348492
                 -0.52581461939872653488
                 -0.88089568404207785335
                  0.17063868085773262195
                  0.84475574840116662845
                 -0.08718349633864241888
                 -1.11958355981026880244
                  0.66160034787053867422
                 -0.12688524276946747116
                  0.34233273915941658805
                  0.50113415981538944610
                  0.50670208479794365264
                 -1.49088755760680014006
                 -0.88793303571346804404
                 -0.21400443319664919084
                  0.08596552665975007446
                  0.06728730758989691363
                  0.66071170124081957109
                  0.09345822752527027655
                 -0.28972017397687666040
                  2.14583717768629389511
                 -0.07841745464816961275
                 -0.11925824827452127797
                 -0.34537547857637612703
                  1.80940619533366464644
                 -0.04514538451394040780
                  0.15835071894978233753
                  3.43934363388034691766
                 -1.37413539325129407942
                 -0.45244098031046414699
                  0.07533200539733403422
                 -0.04934580586601155366
                 -0.81879984981268005839
                  1.02985670935599515907
                  0.61954954676763152044
                 -5.68527634806011494817
                  2.45251817617236156366
                 -0.27942609250213612526
                  0.57641466547757080896
                 -0.77823338314635503998
                  0.40064577544146984245
                 -1.01123380495118531108
                  0.24303422630401394500
                  0.23008900692352041162
                  0.23230637778462037701
                  2.59807506654892739206
                 -0.86585643738092810118
                  0.88740919891109815154
                  1.13256578942117402953
                  1.07472003219463196899
                 -0.02926383715425372525
                  0.69043950132535347741
                 -1.46411361034739129217
                 -0.39038589238821586047
                 -0.85854939723968604071
                  0.82666453696020236741
                  0.52032231914740134648
                 -1.03180924101164084306
                 -0.73354994586510879895
                  0.65688402704504622598
                  0.08977376017370160277
                 -0.02490864357422334363
                 -2.57540027652316538820
                  0.08856794310358172273
                 -0.84805071704435763813
                  0.43731242337792974872
                  0.05855607963939817029
                 -1.23755514112622244660
                 -1.50845546357467719112
                 -0.24757081091699087438
                 -0.92550457496249149969
                  0.09535719528408921619
                  0.93900986625990112699
                  0.57190553844036096098
                 -0.72854498557501157219
                  0.51388302356366899470
                  0.28714644833626812304
                 -1.33581267151941363025
                 -1.35464732917183838801
                 -0.46349775615309873888
                  1.02807255864056323880
                  0.62517493312703920072
                  0.54251223244854995809
                  0.47761860799795241572
                  0.04906083565161263593
                 -0.94899908049869829973
                  0.56144279573907129866
                  0.37479343247298879671
                  0.74339464213876738086
                 -0.34539754625751123429
                  0.31362226081262489785
                  0.07353561778102765678
                  0.29626378645655826460
                  0.06950738772037665103
                 -0.34532619525011776229
                 -0.74224919217316509545
                 -0.06207049469193512414
                 -0.96693745564644306700
                  3.04148332102812002375
                  0.92654555872916433135
                  0.52031131082457027226
                 -0.15386692043212765735
                 -0.49577787791129268591
                  3.79201924933273071261
                 -2.17674404754680228535
                 -0.21059206642633440665
                  0.04064268827369152404
                 -0.94657690151515871957
                  2.03141680834659066335
                  0.26424024367695697624
                  1.00611310900113148925
                  0.75473284612807844951
                 -0.75914192350112374985
                  0.16332565293473644275
                 -0.57455987860788804156
                 -2.08402134212705947292
                  0.66679706708663111225
                  0.57611249705697031853
                 -0.42023480146639374810
                  1.15501205806597995185
                 -0.80701738606096373729
                 -1.25127622479950395551
                 -0.92953467503759357182
                 -0.31609680113490667974
                 -0.21271585589405000993
                 -2.26980855316140273104
                 -0.18439386618110509275
                 -1.96126898661722659511
                  1.20838407050991292202
                  0.06106361807023470700
                  1.00933937433811160567
                 -1.44022117630603307958
                 -0.45024700436585834984
                  5.25441163731302030016
                 -1.32644957826362985820
                 -0.18690931917893022218
                  0.93938849133419666249
                  0.30749053916450658219
                  0.26424748090172811565
                 -0.67443537391478758369
                 -1.48164511250243502438
                  0.81122238120609135859
                  2.18514977722098180379
                  0.06890472888838772292
                 -2.06724052476332520456
                 -1.49317451968182757227
                  0.61525707950898977927
                 -0.60978560284778560163
                  0.96380541541410358342
                  0.12569473579164086585
                  1.28758964716684776164
                 -0.18616816532818897256
                 -3.20160672170546733994
                  0.09426504036502696138
                  0.62862245269431993311
                 -1.49637313680698835761
                  0.42104490785399834030
                 -0.24720920288239736640
                 -0.31464841813580207708
                 -0.87458391037744165342
                  0.07018724625106961823
                 -0.38918804889860203478
                  0.56381500981585863652
                  0.98478663154889978237
                 -0.55619566842928680472
                 -1.09619399433234310237
                 -0.14342339792573957635
                  0.84855094101088368586
                 -0.68460512198221579183
                  1.58570063048419740426
                 -0.40180873160432206692
                  0.70296824826775916595
                  0.42812389263439315501
                 -3.93214596396000271028
                  1.54214625603261579201
                  0.03743953685789989938
                  0.60939969350833211870
                  2.19955020021887470705
                 -0.94337661679864048825
                 -0.32110983074428561812
                  0.94956278693760975962
                 -1.34436486310230307595
                  0.39944741215531009981
                 -0.37630441874989001283
                  0.37132345333787036834
                  1.32434797651753766168
                 -0.77076772945973903717
                  0.42264099188784820527
                  1.06936047832672342928
                 -0.08102658481721516925
                 -0.21887858905315468738
                  0.14555179475227861263
                 -0.29897259522655950104
                 -0.73367198504769060019
                  1.66424983893689315551
                 -0.25821018336309758956
                  1.22385297374488266620
                 -0.17995426919013979283
                  0.55154759032903755145
                  1.37218020379421168364
                 -0.67768972471152300052
                 -0.19754833208674918432
                  0.31107166241345785007
                  2.46724801599719745226
                 -0.63426985427096038705
                 -0.66276536757917048348
                  0.35501952985432305709
                  0.42858696992315592489
                  1.59874765825617393133
                 -0.15532149178297829928
                  1.36939578551198493095
                 -1.97180078389411628237
                 -0.43839244655012132856
                  0.11897020394371535246
                  0.40643791134876855464
                 -1.14197494095660112556
                 -0.86997685177235328791
                  0.38939330927529830495
                 -3.26598015102196326254
                 -0.45765074175723502448
                 -1.53634813338356113199
                  0.37596308812630296892
                  0.79440107974029716686
                 -0.07137578223891738460
                  0.58609909356810574454
                  0.06150726102677817053
                 -0.78397738450921694575
                 -0.32032231605453348466
                  1.13765427749977288130
                 -0.36729884973987991792
                  0.22775640140536407285
                  0.88156820338852426300
                 -0.30206464350940209762
                 -1.24100666503250445238
                  0.37412053990853477714
                 -0.06622095857256045381
                 -0.92085476255675979829
                 -0.84855757197768233446
                  1.77462338249820761327
                  0.43022965257695217067
                  0.29578404684246478729
                  1.13458967396316934284
                 -0.35348237676866178791
                  0.45549849982119966496
                 -0.19302156877282949932
                 -1.10366485955785842421
                  1.85167358682441762774
                  0.87025571340972718293
                  1.17979795585800784075
                  0.20335839150869144953
                 -0.29342524256616808742
                  0.92552285857515459444
                  1.11438645567860583618
                  0.16874671450680442386
                  0.26090361803415224040
                 -0.41274620612451101698
                 -1.23819329718943405005
                 -0.23651571058557810390
                  0.11377649900367614588
                  1.02297160598917447061
                 -1.24710008510546677130
                 -1.97420525055081097499
                 -1.26594868137986815704
                 -0.09876409464870897215
                 -1.26855428918427826090
                 -0.26878911370931207747
                 -0.43521052993541747833
                 -1.22650014583934829915
                 -1.34061180938458002210
                  0.32896793875295948784
                 -0.70327698369465108108
                  0.34403602681358147475
                  1.40635522843820015559
                 -1.15261810051983815129
                  0.39453464808250987561
                 -0.02752172408162102679
                  1.26398234524664365708
                 -1.44490147959808989953
                 -1.16059741049202780339
                 -0.26086879991576683580
                 -1.77480014157734555802
                  0.05667123529649813196
                  0.59292067387400115841
                 -0.57259788093646879492
                 -1.59281682125179102627
                  1.26365744974151139601
                 -0.46136915456951177461
                  0.08777058827571684874
                  0.41541807066048436203
                  0.06689670423144981892
                  1.76682345741026924912
                  0.47244725704883605566
                  1.31428992278595346832
                  0.63955924473091985138
                  0.66062357403131333200
                  0.60703056982139613762
                 -0.16555243826823781705
                  0.68897754926190946101
                 -0.44282390768843954421
                  0.57495057493697621087
                 -0.46319724719090299425
                  0.10321134348069599396
                  0.14478874599352797858
                  0.47696308238384327316
                  0.27943073423034864300
                 -0.93153140765966702119
                 -1.06904072779440029173
                  1.14916574700116802532
                 -0.28606503349498380029
                  0.68987964061276196848
                 -0.41467802163092309931
                 -0.12507537112480371366
                 -0.42117592972529438455
                 -0.35783320138196439419
                  0.08257593940715386716
                 -0.85008719016469436180
                  0.23648545608600576862
                  0.60611114272257615720
                 -1.39712075878707220333
                 -1.03285907189275105722
                  1.11395505982420517377
                  0.42278902002391166581
                 -0.42397321410252886142
                 -0.61330208624531301620
                 -0.35135653919383524890
                 -0.15373799001678636889
                 -0.33923387097729129636
                 -1.16219030327077543774
                  0.82088828563319216070
                 -0.11564557504186308290
                 -0.03284657572682534582
                  0.45183940436369673943
                  0.26915758286814928102
                  0.07563711123328534236
                 -0.38705810445232735617
                  0.36356116310929592617
                  0.39871000718596016910
                 -0.05930201916151058017
                  1.63223935448629164924
                 -0.79402145366788079439
                 -0.07861028348992159243
                  0.16856313390082994230
                 -0.45079801420140147572
                  0.02386829318174086764
                 -0.61182638034073699718
                  0.49125386244491503485
                  0.37093290551474283889
                 -0.22837021961260089986
                 -0.67143579605298353563
                 -0.18151996552796012541
                  0.00858927185901919854
                 -1.37822561084622541294
                 -0.10329252634660987531
                  2.07239813862967503511
                  0.01876055965304071829
                  0.25314796960563051842
                  0.34819800904460496138
                  0.31873421496895215643
                  0.58101272682659610425
                 -0.67408395660291586804
                 -0.19638402787788294956
                  0.66740560171733132044
                  1.20255102309265393679
                  0.39633984446590764250
                  0.03537687128391626273
                  0.80092548446860500899
                 -0.47012319470389402065
                  0.25314439190315418671
                  0.15030586209795110397
                 -0.38430882798974241865
                  0.17146294308466017431
                 -0.33543193965476686413
                 -0.72511277370939397624
                  0.02073502103531913235
                 -0.09266409627576298325
                  0.29102071593175665720
                  0.53888844112205125381
                 -0.61114547376792716094
                 -0.28852607587250572729
                 -0.49768918025939651306
                  0.37037352330703487979
                  0.72138580328170653910
                  0.03969387651791227156
                  0.58610745578278222734
                  0.59005078493712503906
                 -0.14901677276147662354
                 -0.30566417710519200313
                  0.35947221863671924291
                 -0.33300615464880506389
                 -1.19181920520783912743
                 -0.06364992183376103063
                 -0.64993932520257913232
                  1.27499605033211915739
                  0.38717416796934489565
                 -0.59020544859751722377
                  0.46491455132388043170
                  0.28541740286808026106
                 -0.70531332562667692354
                  0.04185912619702414350
                  0.29770700454306403548
                 -0.20530169275101345372
                  0.53839598894270224161
                  0.54685310694595190562
                  0.72781384182687880458
                  0.00995505743177725264
                 -0.48293530201257894863
                 -0.22364534446891434771
                 -0.00537117715105669968
                  0.21973865703309522490
                  0.59579031899102952163
                  0.06000975819203654971
                 -0.36146222442415454346
                 -1.18724189027969950772
                  0.52337040215943375632
                  0.57447661338408051446
                 -0.63013964125691934726
                 -0.31453723591895837997
                  0.62709256740887175940
                 -1.01672050409858205633
                 -0.22504580790120295997
                  0.38716365270833075218
                 -0.23818346960278705127
                 -0.10393188638439634919
                 -0.40356904864011922118
                 -0.22390522280529950860
                 -0.27037303735755507939
                 -0.73339885061557774648
                 -0.04921100190343997982
                  0.81250604095264056248
                  0.66100426521496546961
                 -0.08833715706519677802
                 -0.20340491257305021167
                 -0.28886175183461199056
                 -1.20559141901874622427
                 -0.21299073920929861847
                 -0.18340095043914264594
                 -0.33464230003507555722
                 -0.09033744733789569881
                 -0.17132795246162368930
                 -0.16802778024889972186
                  0.56700496244783760158
                  0.47871443939672936319
                  0.30949076678538989249
                  1.01678279311180008726
                  0.19079929872201065177
                 -0.05958862340361031212
                  0.57320026259895873189
                  0.68579131494556100357
                  0.53184384898855330270
                 -0.58051554184102993617
                  0.66877771057929125131
                 -0.99996573661171372915
                  0.52781423171935537564
                  0.52661678104131048883
                  1.04791101227352467795
                  0.01270919655066040689
                  0.82324520526531219655
                 -0.51084382538071071433
                  0.76791388943011174018
                  0.00831106733433116703
                  0.81960800622149432293
                 -1.02241120137365859577
                  0.11366370289782511127
                 -0.94659664604956628153
                  0.21694666929085101859
                  0.23270814561464200909
                 -0.02910028921415422007
                  0.46199253667086459529
                  0.62859566612872896929
                  0.56104697372083833784
                  0.68356927446075954613
                 -0.17787864688880930530
                 -0.26045442268480067938
                 -0.20700911723840748069
                  0.18713684412075690111
                 -0.97371107253813227178
                  0.23224232920866894059
                  0.14213669357270183879
                  0.47373890323324352458
                 -1.25484705237203031380
                 -0.66566511379830239914
                 -0.42086405436875906627
                 -0.04926581556716286281
                 -1.31732006749980068427
                 -2.00921410691857182940
                  0.25387317425126848525
                 -0.88881442951005984465
                  0.40437382199899946089
                  0.37088572194511681968
                  0.38745264947689683765
                 -0.29934457045058610047
                 -1.91123221523054698245
                  0.89860983579042652547
                 -0.31569046544795537068
                 -0.04169787565442250460
                  0.74876822184909208602
                  0.87669196822970119065
                  0.95876776917797945643
                  0.87133708147734445504
                 -0.12088875482694282082
                 -0.20539775183369374245
                  0.63673482139023684923
                 -0.63680249346846296010
                  1.73798055317560451449
                 -0.27277623527828337435
                 -1.02068254980349615302
                 -0.89895688883480062703
                  0.26604087897630501747
                 -0.56499926612147233218
                 -1.68529326879104490722
                 -0.50552415516555659902
                 -1.01695939116317624062
                 -0.27288006816238713492
                 -0.29789055852825024884
                 -0.02987112498729312116
                 -0.19118650617347093812
                  0.49088796915442162172
                  0.85656096931955383322
                  0.47693662396553831995
                 -0.32089467349229239268
                 -0.48497665208148138527
                  0.09323505427767637965
                  1.56170194002473050610
                  0.10413496199937104236
                 -0.34431488721157610389
                  0.63042623949035125897
                  0.15639761262252332985
                  0.86891243381263860712
                  0.23426346940288997334
                  0.34983703985304182016
                  0.70487214521029406544
                 -0.10491443955459114901
                  0.19956890792991036077
                  0.21031066167710663062
                 -1.07907482643267083056
                 -0.04049909591057437169
                 -0.38658995885243196966
                  0.51168487766103365466
                  0.09080984732710171980
                  0.24354415222376721295
                 -0.83700282996719110873
                 -0.16303539686529910924
                  0.14622051513245631904
                  0.60584540248790497152
                 -0.15572845750624886296
                 -0.84667014797901674061
                  0.31321118100373451787
                  0.16537739046869359694
                  0.26616582901417018547
                 -0.69043967038720177598
                  0.24278182748097837385
                 -1.19570846337740954723
                  0.55722260892714403635
                  0.80557465263635530395
                 -0.89779595532184308659
                 -0.51109542745913449924
                 -0.28185815884241038898
                 -0.32316206689968457466
                  0.81447889737509160391
                  1.37028901537780067876
                  0.02609140302179657062
                 -0.13612419171452960764
                 -0.96482348694860198268
                 -0.17629286716801417789
                  0.54006261501711771977
                 -1.34086994522095448445
                 -1.15041236528859358579
                 -1.08791518654577967773
                  0.92172156251812742411
                 -0.60809544148709293587
                  0.54098124640785605344
                  0.18685646898927146808
                  0.65991628783749023412
                  0.27424548251434949231
                 -0.08230720529224513915
                 -0.63682349223270806604
                  0.47236116661138061179
                 -0.62363865526640638315
                 -0.09307729966447882142
                  1.11858953713495323790
                  0.35146137534122862123
                  0.97439863220020961343
                  0.32540891001061345023
                  0.53554050515937534627
                 -0.22961235005674027199
                  0.44486903711069880618
                 -0.79854723212610068117
                  0.16517791225443961833
                 -0.08837649296780898667
                 -0.00084733285194896072
                 -0.56598240463260751643
                 -0.61511066385895951658
                  0.21853718277052641694
                  1.16735372935461456656
                  0.33721539700295077857
                 -0.03250632940322398245
                 -0.97478808453707976867
                  0.34970304662666529261
                 -1.70092032486438871075
                  0.34073245191406809074
                 -0.88990609552766286594
                 -0.24172850919697172478
                  1.39053145583068915592
                 -1.17762068196172009493
                 -0.14327858449072536362
                  0.86195009228976893212
                 -0.58326171602408127814
                 -0.80262417375050243429
                 -1.69923329728709671116
                  0.61983822827903722885
                 -0.98606243498535361969
                  1.57559839088726993950
                  1.66060770927462764135
                 -1.84340444365037270380
                  0.03588589620636888772
                  0.46174797878029660847
                 -0.64049472002908325319
                 -0.89698753446737433670
                  0.99116752598558344189
                  0.19399111080912906369
                  2.01602457843231164247
                  0.24295112023693393732
                  0.50578223294052770953
                 -0.04767795231252074106
                 -0.74498588481949312712
                 -1.61267780923677683802
                  0.82004168343445271727
                  0.45469215381538941045
                  0.31167258639851791457
                 -1.13389481684358783831
                  2.24822600309100018023
                 -1.26379800414027276823
                 -0.26040360946012508503
                  0.50724674225041233022
                 -0.87808987895340495644
                 -0.41899414641255677827
                  0.65402853654687953533
                 -0.82019495038308998236
                 -1.85548267853468318300
                  0.58238190280089385809
                  0.06023465015552580126
                 -2.51811231588759509847
                  0.67317653410278244230
                 -0.80290868738586473885
                  1.36661896507755153962
                  0.89317926507211398146
                  0.61536361883605861234
                 -0.29794332362444947426
                  0.53621598184939323062
                 -1.11084259494894754816
                  1.89082446694851302738
                  1.97629122616994923334
                  0.29747976340552995111
                 -0.02347187990895325399
                 -0.25991096275223080081
                  1.42636702227138734145
                 -0.91388552321513716326
                 -0.09781157820994684782
                 -0.21599311073281243778
                  0.62167420123550420907
                 -0.60280696138514822113
                 -0.80740587488797244120
                 -0.66218341473300912359
                 -0.96941403813614568374
                  0.01564372270812781907
                  0.61005849655600552506
                  1.29359643292836601347
                  2.21353061413362084409
                 -0.28747488946404653465
                  0.87654304016611195305
                 -0.92841638618229094249
                  0.69614735446550457532
                  0.60865202730927259189
                  0.85776753526161020336
                 -1.23936975030580054380
                  0.95779860318489429272
                 -0.18771579932472287622
                  0.49513874980746747090
                  1.67663901809584281466
                 -0.80509321392402222184
                  0.36221878031778292906
                 -0.67673110439391215287
                 -1.88055545328436113373
                  0.76848687234655677081
                 -0.28278022197330260346
                 -0.83068669020821417348
                 -0.54049704222581396174
                 -0.17876576602637142543
                  0.17244385398998748893
                  0.81225433765629140304
                  1.63014966300985264525
                  0.21482040490572695823
                  0.22449646501858275260
                 -0.50714248884676216278
                 -0.63966882573875172291
                 -1.29589945642717463414
                 -0.49262804783849190038
                  0.23713694243327423927
                 -0.02421469038808156740
                  0.49850148890966189397
                  0.12317300990168600361
                 -0.65053436970706246534
                 -0.53059790805999651475
                  1.02931016387323515104
                 -0.45001085533145407380
                  0.56899421057047283590
                  0.05362176208784668469
                 -0.01415215772437773342
                 -0.65487422763500369172
                 -0.93225921649297294191
                  0.84635561993723740226
                 -0.61273600269875672097
                 -0.18381659989852103254
                  1.95380109513578759106
                 -1.44340005916447422507
                 -2.30162561388171571508
                 -1.90877629132955628499
                 -0.19982405795002336490
                  0.43491377992016633236
                  0.82382130285279620008
                  1.69101673888163750448
                 -0.89191941011335240663
                  0.81765208484630591546
                  0.43390094147960273085
                  0.55017867374079709730
                 -0.30886130110956749872
                 -0.13248518224369609797
                 -0.18594496000893545595
                  0.75006601744291634404
                 -0.39396883582021380299
                 -0.26807626476565782347
                  0.90045959716703882769
                 -0.13620796145953867340
                 -0.34364380063084509764
                 -1.25969841309852537137
                 -0.02663943890342600554
                 -0.74737474628990330228
                 -0.52899199520753092951
                  0.81056587291910242588
                 -0.19340772754159618607
                  0.96395145105280644060
                  0.17885325168852223010
                  1.79939806685310754730
                  0.04273029082582383703
                 -0.56937444751693322420
                 -1.42392647603842781301
                  1.41522558431789602373
                  0.02187592534906607211
                 -0.06618603962584770906
                 -0.67132957498353595938
                 -0.82881555150345465055
                 -0.00513948316301308505
                 -1.39970771016763539940
                  0.32117078626008915831
                 -0.39373061328820374571
                 -1.38326272736551225684
                  0.70204362058199820673
                  0.46244547866336349617
                 -0.20985487491902871104
                 -0.62473910703557822277
                 -0.14038375271393205290
                  1.34967706258948960674
                  1.16370568371196769775
                  0.81854208297035790931
                  1.53919780344015455498
                 -0.48839057218507014868
                 -0.03042641505264976828
                 -0.77046844020130955677
                  0.41617282158518437152
                 -0.23079039850346361185
                  0.73710420122993136616
                  0.82038616256446028618
                  0.29141889424090239302
                 -0.06943489558915669213
                  0.46044454962849962198
                 -0.73496189336079054133
                  0.19421663344992956546
                  0.58464801942596889006
                  0.32820642345899836423
                  0.37458645490218944740
                 -0.25769230419996086434
                  0.70006900561089202562
                  0.03567401271064316731
                 -1.49346559591495853248
                 -0.04434802017113700229
                  0.03571425322765937882
                  1.55840825443747887924
                  1.24866313761931935211
                 -1.21075791043759073418
                  0.66240527513672797788
                 -0.88752068964250152572
                  0.22718836740306014299
                 -0.26185862112697572135
                 -1.36047788403640645960
                 -1.00482264165626000718
                  1.75479552681226413924
                 -0.11782284636389322996
                 -0.33435732890111713456
                  0.16824537382122112250
                 -0.11098502791010390889
                  0.69124243868516632716
                  0.43126362871132323251
                  0.26820564864791446302
                 -0.45092820567618724370
                 -0.62906384267765214080
                  0.16407333229215093073
                 -0.56570424651743900224
                  0.25105070134678947325
                  0.06793037901003416701
                 -0.01321530403603880625
                 -0.59985730672354420356
                  0.51797691719254879139
                 -1.32878313450983798205
                  0.54172276881418857108
                  0.02861712974159689657
                  0.10473526990908328671
                 -1.75262597598849678704
                  1.32469285246887635843
                  0.30584771960103135369
                 -0.48232655764353682404
                 -0.03778205297345652025
                 -0.46579917933408299113
                 -1.05075792475004803350
                  0.78976458498628976379
                  0.23171971604358257424
                  0.33243024007310162382
                  0.64898814245870306561
                  0.07754845736494571373
                  1.27414572986402396815
                  0.33280454259504715919
                 -0.53253435623576628188
                  0.00212144687159783680
                  1.64135427896514740631
                 -0.22346802830083589697
                 -0.09536016288185929224
                  0.12982305691276674331
                  0.09700782138310061475
                  0.48127492683235195692
                 -0.10364849711068468974
                  0.36277965294614211711
                 -0.46110881472675446791
                  0.34743340281302093064
                  0.54677137521403251785
                 -1.62010797624308455767
                  0.33237168511499348700
                 -0.06003985494222950636
                 -1.05194062752374750680
                  1.10630030418157510042
                 -0.47066426361603486139
                 -0.16093203111837670050
                 -0.58524590140602106292
                 -0.40506080388419801741
                 -0.17357084444082693242
                  0.27043940338132660406
                 -1.13246626054073074030
                  0.50900730152559048314
                  1.18689326618675994318
                 -0.17772194474699476441
                  1.04411515254399955843
                  0.36437826477369672507
                 -0.20491871714166839946
                 -0.83965661902709354258
                 -0.21810179707776142233
                 -0.58522384407380600990
                 -0.17408350275336659241
                  0.96394919912230658809
                  0.83232650940856545141
                 -0.99259415409633644511
                  0.30502676577404902458
                 -0.14437093336481859884
                 -0.27950235331584688536
                  0.52751781435314870627
                 -0.40095807327474553006
                 -0.50872029076488656241
                 -0.19387934031128592482
                 -0.00463843816452267840
                  0.16368742224876686731
                  0.05996593573279158929
                  0.54609822592243295603
                  0.01771559698241802899
                  0.56913533966764195959
                 -0.71899382667917355327
                  0.15506079037177061819
                 -0.53156909935822793667
                 -0.49183967833238095846
                  0.29095706235999185818
                  0.36129761477237637424
                 -0.24997982529934986706
                 -0.19065149134435349643
                 -0.05501354938030371400
                 -0.46020931432273343153
                  0.27969551815085036406
                 -0.29278457187914674886
                  0.86059698297683873136
                 -0.38207494824726973004
                 -0.35916622642959011857
                  0.26977340969581908858
                 -0.20697554608970672452
                  0.10029557912643888296
                  0.12153642391254923516
                 -0.50424520041667952874
                  0.37274030381094203079
                  0.03391443360539093260
                 -0.74903959547784915163
                 -1.44342214414659020250
                  1.33182615253358727081
                 -0.79528222104862500430
                 -0.25127390354885725809
                  0.01396310244515245116
                 -0.47361286118058776307
                 -2.40372966132149867846
                  1.30265334405086186109
                 -0.78933856376152111700
                  0.37617270590021834042
                 -1.27298118849723862489
                  0.49530200182153671928
                 -0.03732851279503891090
                  0.91318284010250483362
                 -2.67803537033132377232
                 -0.09106454497395144454
                 -0.34491146444215919908
                  0.76530229115984871324
                 -0.18356389875967382697
                  1.09649194838362418203
                  0.89843984754794781189
                  0.61858821079332615422
                  2.20389413153630808750
                 -0.66271111661278814253
                  0.30528039304694237766
                 -1.33061792934992029203
                 -0.02412648625167200175
                  2.12778991753657953367
                 -0.24918900564077756110
                 -0.22102854370125937788
                 -0.42553447396982757578
                  0.22660467349479140875
                 -0.59392753598198677611
                  0.83275659017260605932
                  0.05283168888504796712
                  0.20098388790493240674
                  0.68179653104573534339
                  0.22856334680523787695
                  0.28742482207258435167
                 -0.88103469665470302008
                  0.52234227421741419306
                 -1.81618179587409822595
                 -0.31541914481529936820
                 -1.78952030528100713980
                  0.11738299840278255959
                 -1.31285540003117207064
                  0.47221837420420914588
                 -1.90322913209746502616
                 -1.76578016136023574489
                 -0.16104993657635735538
                  0.10119817118696569636
                  0.91152722942849739862
                 -0.75184214786179071055
                  0.26657034838966459089
                  0.27578332058394089410
                 -1.49496317484507357243
                  0.12496297925355610847
                 -1.55759254191332074946
                  0.19700097268918478899
                 -0.27966532532586368953
                  1.05467996494115645589
                 -0.21066604842257330432
                  1.75192194892327690603
                 -0.60598210413019648612
                  1.45886291293049019657
                 -0.30722346810190920285
                  1.16782553805698219307
                  0.01146341488878260297
                 -0.20255810038309990384
                 -1.38337161860177504380
                  1.13644910912799401714
                  0.17287110224663529423
                 -1.15655812090483367527
                  0.97810207721401776215
                  1.85234265645160056657
                  0.16350537384004396046
                  2.21100000984222244682
                 -0.71872068080705597826
                  0.77951166449462916397
                  0.96685815127437391148
                  2.12001978521777667552
                 -0.54430166867169449407
                  0.30168574951028487297
                 -0.76276354493061260253
                  2.52983656237561138624
                 -0.58113861577034164885
                 -0.96583417577167074430
                  2.41658615236430884821
                  0.97597091725126350337
                  0.11612781766017267471
                  0.51832701028538608057
                 -1.19221467246313528321
                 -0.43832562941364161535
                 -0.17420283874278369440
                 -1.47681758991710321283
                 -0.42814054940800400084
                 -1.77594944645409813511
                  0.38714242640033091902
                  0.97241358295598701034
                 -0.86008073636826687380
                 -0.22893894840770634413
                 -0.44147596564175056733
                  0.83182585630335059701
                  1.33229178747848586717
                 -0.84342730844075763930
                 -0.28684111041563969957
                  0.64588597920034129807
                 -0.24427608248025720061
                  0.24482062036869176036
                 -0.36702279785826552594
                  0.59248180664650851313
                  0.01408635273364038445
                  0.79508473727519657359
                  0.68751272252489736836
                 -1.37364401884400777476
                 -0.11873616086499212685
                 -0.44579873329984764929
                  0.36571001328564362032
                  0.08699965168705638130
                 -0.35041236933822206279
                 -0.39901654658425195210
                  1.20682343335050368260
                  0.23895870979413710855
                  0.18252365202500306363
                  0.47252325956602336809
                  0.10001883995218326107
                 -0.35640208410217860679
                 -0.03611319283165477512
                 -0.28624159286836614591
                  0.31208211374166300311
                 -0.53723177168094138345
                  0.48621643548402027069
                 -1.32028370441889086884
                 -0.90539845763314052984
                  0.87020570480016523618
                 -0.40899646124705368866
                  0.15912017919615534245
                 -0.89364438063140083646
                  0.46038341656467024476
                 -0.48526821167908984478
                  0.70334333667978443660
                  1.27550341681780210479
                 -0.42948333077306288796
                  1.54723069633282395152
                 -0.75404768729901539004
                  0.13394157049985977448
                 -1.27552698372090889123
                  0.90407191317746671277
                  0.44962870363132056983
                  0.54440488621472737929
                 -0.56572131635272626671
                 -1.79319266725317838507
                  1.03151975479938418090
                  0.60000286435798999563
                 -0.39952669573747529030
                 -0.50121362538218572347
                  1.37523667005678285058
                 -1.14449693093641946540
                  1.54715825298051878889
                 -1.57005530983986885118
                  1.22573399831863882881
                  0.25943440537716061511
                 -0.19975958642574587198
                 -0.17249200480473478314
                  0.56944243825937612691
                 -1.33854796627133421083
                  0.19001955011802632023
                  0.12713045311788809255
                 -0.15532789611838732080
                 -0.72666465067665142463
                  0.59990686075082633177
                 -0.63091353571465469408
                 -0.66538090818320350106
                 -0.07812143789990953768
                 -0.22054227781291438348
                 -0.42885093932835732788
                  0.58541307354365135218
                  0.85751165991931832533
                 -0.19316865026681073747
                 -0.05402704025015825362
                 -0.13382174473506830426
                 -0.37023102401607715928
                 -0.03447449412891961940
                  0.50943963611614795362
                  0.49397035010536355371
                  0.01193365219888086436
                 -1.28921833976780986220
                  0.46945911821433106148
                 -0.94452115001166769837
                 -0.22547713228297255883
                 -0.05520709855243028513
                  0.22345892241231396502
                  0.03007111973115957765
                 -0.29302783164889950607
                  1.75892263138023263735
                 -0.03817173402101779744
                 -0.10904818702784428719
                 -0.15175598124011896450
                 -0.46373162697725228698
                  0.25155160085674876935
                 -1.06816025172305040236
                  0.28270630510326688611
                  0.97488045944221313199
                 -0.62641903576574398116
                 -0.52660449747830995193
                  0.48950314974215369812
                 -0.32706658684811568127
                  0.47025590269660616505
                 -1.08088798675111519287
                 -0.22577534903771048769
                 -0.04610147948253084244
                 -1.12840251888025511207
                  0.30323267092489669672
                 -0.07039289574258784932
                  0.93704878829800142270
                  0.14565592992980974651
                  1.42595977789904293509
                  0.56671604494390026563
                 -0.47405809255824249426
                 -0.11562098593769416788
                 -0.49178109510968132101
                  0.44009396339707351764
                  1.62843671871537432061
                  0.62999512379956801311
                 -1.67863277586754455761
                  0.60829104072535122860
                  0.36682628919437021420
                  0.06949885008800844866
                 -0.09553087105422018721
                 -0.45110137885462142648
                  0.33053893754329055632
                  0.12877068334079894152
                 -0.57392615604769536830
                  0.05441217816708977806
                  0.21184814061676257579
                 -0.30246426112325014435
                 -0.24633149430372014432
                 -0.00606262699609162996
                  0.20871182735120982765
                 -0.04036787738614454335
                 -0.24407267099332324856
                 -0.19643305145421335878
                 -0.19056599746680752405
                  1.02087955590241663550
                 -0.54080546084157921083
                  0.58495289762617397322
                  0.31125706019839738392
                  0.23463303871391716360
                  0.39857285403272085800
                 -0.15543799331180768730
                 -0.04175630848416306273
                  0.28732238639735441232
                 -0.27735708616381887781
                 -0.02671333271515395971
                 -0.40425563088621591090
                  0.78968484447027442741
                  0.55212943521590129858
                  0.02203543072734487004
                  0.04071775541693119227
                  0.08207088968585389555
                  0.83834763257921374180
                 -0.13658758309176952106
                 -0.26882023154447065583
                  0.55665159042295175862
                 -0.72106468720891392366
                 -0.60600449258255895124
                  0.13601292049457255895
                  0.23430507390488181096
                  0.13679161043877835491
                 -0.74660246214295766798
                  0.48086547431391424290
                  0.10599983692806436153
                 -0.49098293694255268349
                  0.65936427361361515942
                 -0.58736601176421709969
                  0.16833529108126343843
                  0.59158397003437912520
                  0.07285866735791750315
                 -0.69517510758757383726
                  0.10724632048559680497
                 -0.38036729078251269032
                  0.24746810530639740122
                 -0.01452876320597971081
                 -0.06513708025852379957
                 -0.69070413145704601110
                 -0.06324902674992716189
                 -0.53124122583743793591
                 -0.32933234566521496500
                 -0.68043119862371082007
                  0.42371744414521322897
                  0.16057512451033270628
                 -0.23163423054794851641
                 -0.16307745378073290610
                 -0.51618416270459643869
                  0.15437395798535935576
                 -0.23733881892394917412
                 -0.84535965049066608135
                 -0.56808612631114618896
                  0.68082660400260008871
                  0.12695462651416267175
                  0.18223559713807299665
                  0.16593009970481045756
                  0.30849968656508791609
                 -1.38702798486177614201
                  0.17928960748111302803
                  0.17689714272087608826
                 -0.28321557247885187358
                 -0.46699003337931460633
                  0.53006390889602528205
                  0.73825900601452976169
                 -0.67354629847337710302
