                  1.07359121006071922544
                  1.15014768896852959124
                  1.15724479599108542871
                  0.22822883893032971936
                 -0.11066849098354029912
                 -0.45282326554153745635
                  0.35943195575527647767
                  1.22009653942281137695
                 -0.61114549430119857742
                  0.04195208135969030055
                 -2.14082648865471680821
                 -1.58367685787936163244
                  1.88500670513108148363
                 -1.88406979967806398335
                  1.79305077770933785075
                 -1.11688356178631265081
                  1.84082336469995500039
                  1.59655100872912769638
                  0.86105200369505152658
                  2.55480605104314983933
                  0.91400097585629747066
                 -1.62423836697081891423
                 -1.69967136881386982061
                 -0.35884214846811079980
                 -1.11350298558610405486
                 -1.21293026570425310773
                 -1.00089805568855205742
                 -1.77558612869110099552
                 -1.13080445334333279384
                  0.76462781798782575304
                 -1.01012020568433058543
                  0.21991634124914052895
                  0.49799460506251702618
                  1.36905359609934706988
                  0.32353069394400540970
                  1.16271734761556144733
                 -0.69180344981686370254
                 -0.41051878807991765141
                  0.14766897139934212491
                 -0.03747720168898699411
                  0.01494174695747537210
                  1.11213444716719855876
                  0.11804977825779258693
                  0.68211437601874669312
                  0.60486021902228848113
                 -0.21116845941304593359
                  0.70157762349325458739
                  0.01283122955923062490
                 -0.70425401635772222342
                 -0.33407111386595705893
                  0.41569750808772343298
                  0.51904895074950063716
                  0.27862592261952695560
                  0.15942998639734815014
                  0.12255626372258694723
                 -0.44819610013203464716
                  1.10695336108084707583
                 -0.51760878675615440425
                 -0.49282251353954809048
                 -0.76037436001143221542
                  0.84240071044089115393
                  0.50704792083183380935
                 -0.28824827722201706859
                 -0.78739081941212207827
                  0.74196857660424953007
                 -1.45088742230899492291
                 -0.83249654582579579731
                  0.51549869431074790693
                  1.08957686663729202969
                 -0.74394039479488416333
                 -1.01018384141731498715
                 -1.86049200295007644002
                 -0.84525864320376364880
                 -1.28575902737583702695
                  1.18346892774840140028
                  0.96791663641471614721
                 -1.80394535364746633199
                  1.87634603113205322700
                 -1.44193214181429185672
                 -1.57534349441031817918
                 -1.59098690798610076236
                 -1.07095533989170843547
                  2.01530380923816831995
                 -1.81755448977394773458
                 -1.80980788727469454891
                  2.23628232855767716813
                 -1.98220269660460446381
                 -0.86513616752212685324
                  2.11581911427633961864
                  2.23597856806241468419
                  0.10555757895174326666
