                 -1.30529653069939133303
                  1.83790033654244489014
                  0.86536621942126557006
                  1.24004114508531326777
                  1.14782997545892939684
                 -5.05198725384525371140
                 -0.52760020826045883613
                  0.96810547174805183790
                  0.29704378369299139218
                 -0.59436943390788588015
                 -0.48602383454374975535
                 -0.74945066173201202453
                 -0.90681565811040498737
                 -0.40155420799317986802
                  0.69273140989321690952
                 -1.33646546684596656540
                  0.66931107271485246191
                  1.03993945801825216080
                 -1.08267021394568896397
                  0.28790747946598538309
                  1.13107239985792862313
                  1.94812286422934111130
                 -2.41037503434747790720
                 -0.34559472634780463718
                  0.39501810230032552429
                 -0.09916161077864588114
                 -0.91603271788654172525
                 -0.22017391514138601183
                 -1.28947741185294950661
                 -0.21901462850169825525
                  2.26070915919820958351
                  0.11091163750181484704
                  0.20475949012432323459
                  0.34700713028873125809
                  0.76607208393217340880
                 -0.58508317673921395041
                 -0.86751992665470878396
                 -2.95629342193448119147
                 -0.55865863886242850267
                 -1.81467611669655171092
                  3.80949804435906536071
                 -2.21271773939499771799
                  1.66484980323116271705
                 -2.29034360345625076505
                  0.89874447526726697344
                  1.37475104269248604716
                  1.09198382631610235727
                  1.85103181779944425678
                 -1.09874181677202575891
                 -1.45918841039371161017
                  1.53865363269836641358
                 -0.59629725051257453927
                  1.09396124080748236018
                 -0.74526940448349632273
                  1.48400735333081090772
                 -1.29431713214913290955
                 -1.01834694626866628653
                  0.23899847129027557147
                  1.38876132554865661106
                 -0.90309644734014848932
                 -1.27540398855976166992
                 -0.15777492681101978889
                 -0.31904984412964543239
                  0.31218983497139318750
                  0.72759282554444437707
                  1.01266187213121239274
                  0.16341602735841503913
                 -0.62564649925174264933
                 -1.29773221209597888759
                  0.14786458919149156332
                 -0.89722847707450159582
                  0.04415964023166198127
                  0.92350332724394368356
                 -1.09264570446437714324
                 -0.91718105294767204860
                 -0.02909850630782685049
                  1.52989209594094077715
                 -0.69172270704637361938
                  0.22175090517855025607
                  1.44218145812731179944
                  0.58616592941747680534
                  1.34323677532524121681
                  0.43285667383739651060
                  0.58898001730403126697
                  0.55662935119942968942
                  0.29217232368897244621
                 -0.52291392256227509083
                  0.03023364322422305434
                  0.99124927597325396267
                  0.80788759218799410800
                 -0.64504719795352427614
                 -0.81259232579297080434
                 -0.09565140147192861819
                  1.86711995781482453793
                  0.41994184050502181282
                 -0.59949254971898446875
                  0.38926844283488554188
                  0.95627407989108093034
                 -1.01271176220368919196
                  0.04104289386595008637
                  0.99288409835202329212
                 -0.56958603560381670938
                  0.85747786985273843907
                  0.25271987563319836534
                  0.29581605888058298826
                 -0.28203339022504958500
                 -1.17372545673055550530
                  0.09006154157130651094
                  1.89528744042043428841
                 -0.30373195221487359063
                  1.55853435633661496773
                  0.99972444367067092585
                 -1.69579446377447151661
                 -0.61173912188660461986
                  0.38435304186218888223
                  0.85983146720793424134
                 -1.62818786156177730540
                 -0.95712200417052462065
                 -1.09737994864648924498
                 -0.09682833290398012993
                 -1.08484677124121020597
                 -0.80227004217444397582
                 -2.00512992222751940119
                 -3.45917234680531970881
                  1.19039553264752240302
                 -0.88491516821433435780
                  0.63877118028321222543
                  0.44450712356454663565
                 -2.36521049965089069644
                  1.77055509984521775024
                  0.83326054739900978774
