                  1.76249051718186522386
                 -1.94174713405033805280
                 -1.69961331433633833221
                 -1.27689578113401269732
                 -1.71226831375869625873
                  1.34409232824101287918
                  1.44362120454850439977
                 -1.45500670307336754661
                 -1.17339895739782829054
                 -2.47095729243405948239
                  0.85772474845431057044
                 -1.18829587417493742763
                  1.15815082739052632732
                 -0.78071707202546525295
                 -1.23868148374898190411
                 -1.01640780856150936273
                  1.12806151852158254023
                  0.77358936553066137698
                  0.67155475013865939538
                 -0.76016962874842186615
                 -0.52676598123333129298
                 -0.57475083504756008246
                 -0.33252682477543971107
                  0.72070871915794421092
                  0.62511849874776181935
                 -0.30040412413368922095
                 -0.03174021757142237582
                  0.11904762594024506650
                  0.23887069492759413492
                 -0.23862906089423568945
                  0.22222025614182022712
                  0.11400214846866929541
                 -0.16972515031896104332
                  0.44139776991655399474
                 -0.24178384963516702522
                 -0.28151661632666447055
                  0.22712109409968983531
                 -0.50074950399063722362
                 -0.24423254781257822121
                 -0.00193459061110270005
                  0.95270648312244365918
                  0.73614309078376338746
                 -0.71453761390689096711
                 -1.44480086373437655034
                 -0.80640612664917166175
                 -1.15287560531799337937
                 -0.96742070021901482857
                 -1.21972454962467780071
                 -1.36236321357348200145
                  1.49372882576038334967
                  1.47825248770256711950
                  1.23732315022479166799
                  1.24416567911082642794
                  1.35041101825047471507
                 -1.87227701933233037224
                  1.76625267077420167183
                  2.39407853118045332863
                  1.46325233911553365118
                 -1.79962630454859517926
                 -1.74172039401741596265
                  1.44236745755495077148
                 -1.46843334667687064332
                  1.26487084561415685791
                 -1.42815758041377183218
                 -1.39757797025638330624
                 -1.16277618976944996376
                 -1.19876195134150620447
                  1.12689063184477777924
                 -0.94995287153524277102
                  1.02192686716186709184
                  0.98258310028748763187
                 -0.99193031017843358299
                 -0.81723624802638372699
                 -0.88266050204688395464
                 -0.77087913491038251301
                  0.67187144396235354282
                  0.83003816161117482952
                  0.54175560851518700378
                  0.47771795432008290483
                 -0.58830252201257737799
                  0.54336867602609861816
                  0.31171146147850214980
                 -0.42037676461418088669
                 -0.44451623508410631480
                 -0.33026236675101894313
                 -0.07556266821608516315
                  0.18318778717844194648
                  0.16974316059101868248
                 -0.16959014416258563762
                 -0.01951102224249338934
                  0.06035772033318557994
                 -0.06984437823694733538
                  0.14422800392614959497
                 -0.17949983645542122446
                 -0.32088998388128697759
                 -0.32382592778562835356
                 -0.10816952670556773120
                  0.40910390058478285358
                  0.42520216765883261933
                  0.51532638868135538512
                  0.46563239083343499480
                  0.57934125462769692216
                  0.72404247547818589847
                 -0.61939921402408848472
                 -0.78634683536158467287
                  0.77181789782186271953
                 -0.86399134617632555866
                  0.80936877772606219406
                  0.86344979589143422416
                 -1.16727589498960071523
                 -1.11923251110039401190
                 -1.16355357485255228589
                 -1.22878519768021732261
                 -1.18355714370025788540
                  1.19792406884493884967
                 -1.32363487563471093900
                  1.31287098284874192977
                  1.41692162946839217419
                 -1.37304730726098278559
                  1.51255570208684053668
                  0.10533710282430119864
