17	2	1
60	60	
1	4801
  0.1097596007005301	  0.2943193920769965	  0.2924339101269085	  0.2603616245285061	  0.0778066094245651	  0.1051704809146511	  0.0421125323331656	  0.1003900455996312	  0.0421781852991737	  0.1004776369011362	  0.0354781600503970	  0.1974960158350832	  0.1059717839246977	  0.0240943953573419	  0.1632715330323984	  0.0866793179321793	  0.1355765665767961	  2.4923610437883448
  0.1097598533684604	  0.6293451974394532	  0.2924347734780516	  0.2603620384192838	  0.0778067104576847	  0.1051707699282368	  0.0421125323334609	  0.1003903946026150	  0.0421781852992898	  0.1004779128716919	  0.0354781600505015	  0.1974961813356134	  0.1059719077967143	  0.0240943953574057	  0.2692022392084173	  0.0866793179326926	  0.1355765665769674	  2.4960509069169281
                  0.47375006973656796916
                  0.42268270988957840073
                  0.01275683686506019765
                  0.46412873195552328820
                 -0.37852877238839582885
                  1.04397681390835828097
                  0.29917129528500086000
                 -0.68524164917321050972
                 -0.46123039535826182433
                 -0.15516169417523312246
                 -0.27389225285934459819
                  0.35454619946256393792
                  0.82397198570854679467
                 -0.36054849229410768086
                 -0.37320414223281239696
                 -0.52482863764345921709
                 -0.41190960820407612752
                  0.73784158378714814752
                  0.79810736506851587269
                 -0.55954336817238559121
                 -0.59645063949392684854
                  0.92045142834280213595
                  0.44943060057003236807
                  0.32866570807192146964
                  0.21933365354577308293
                 -0.95542487891986926929
                 -1.13857902473676420030
                 -0.75182556920717924509
                 -0.42956014699956635017
                 -0.25122733028107896436
                  0.26897786509238097441
                 -0.36809041012291354722
                  0.40228050983426144604
                  0.90176059617214554542
                 -0.20643502896994303519
                 -0.65101978334190713227
                  0.53360129923782428918
                  0.47690817763898590842
                  0.37805740941733778637
                 -0.15765001254573129952
                  0.53134329526469614713
                  0.02001272970665328443
                 -0.45211786813856708056
                  0.36691162640759372726
                  0.07416872133279751866
                 -0.35794899825781151259
                 -0.41435911771945221904
                 -0.24481820839577358995
                 -0.29832252999136160687
                  0.85385042312925785168
                  0.41580686883429812672
                 -0.08334637864135364949
                  0.19166391703018184622
                  0.30083450988675497495
                 -0.11957086828703482329
                 -0.26430459619268475979
                  0.43937794566885263192
                 -0.35292269712548313132
                 -0.58904958317677480473
                 -0.65897721749245785627
                 -0.38442975917199989633
                 -0.31245979437773058196
                 -0.00484011323582520664
                  0.77167476983281368952
                  0.35831339815686708006
                 -0.67791712924002300866
                 -0.12103361679458971012
                  0.30550607715382505081
                 -0.37062916128105327651
                 -0.40523706451937824280
                  0.57289656925062892867
                 -0.05551822962659157951
                  0.49190124700992132745
                 -0.61396548767138525715
                 -0.16622119823989786602
                  0.60734876593683073676
                 -0.59610742501862623577
                 -0.48386927553583330974
                 -0.09333455154483932814
                  0.53531305569178455617
                 -0.55698464040044193268
                 -0.03635084933079084368
                  0.48453033319977700799
                  0.29927555074237138788
                 -0.14592799800499051122
                  0.34510211250612143896
                 -0.96904512265271491867
                 -0.06732044538385534294
                 -0.92182743592916183140
                 -0.59852177118331117978
                 -0.05311422023221343269
                  0.58020171054618119300
                 -0.15178137352749468403
                  1.09698637005141996781
                 -0.95565882623627451675
                  0.01147737791165461679
                 -0.79715688515938676328
                 -1.09759009725589939954
                  0.13108577339392288308
                  0.84557453742319743650
                 -0.24627018700062774936
                  0.83574133124057359279
                 -0.23354001520403366854
                  0.38090313671257181038
                  0.57095960097280185064
                 -0.28222830005885352067
                  0.19468098746753195738
                 -0.62100989670738304671
                 -0.38338990469992373367
                  0.28653053638164877048
                  1.04871479308345527670
                  0.55014248695159173597
                 -0.51271039709309051968
                  0.08358879752553917408
                  0.02508979685831367809
                  0.15606003291972528335
                  0.40532670425384764723
                 -0.18712801425485442453
                 -0.10045463714782461306
                  0.24747655592289702353
                 -0.57585029967227885361
                  0.40651856635737393386
                  0.37391555026858841471
                  0.72112625391068407854
                  0.47864501709230322657
                 -0.42257746462704820489
                 -0.53025655741403898702
                 -0.17521939666586339168
                 -0.86198835948378504934
                 -0.35309561445501275179
                 -0.32352404056426792289
                  0.38636015034627368969
                 -0.37218335037420058331
                  0.70145098251828852387
                 -0.55810911037304722360
                  0.22936202460956736648
                 -0.98242237238955587575
                 -0.45536609413980555505
                  0.94888931250626395997
                 -0.14372819871777567369
                  0.13562342676529678953
                 -0.41958062112505167818
                 -0.29251700067114616566
                  0.01878742638309505164
                  3.16734114961886881190
                  0.99464173515200571263
                  0.35564327400054551731
                  0.68200458377333017523
                 -0.88178855400252131869
                 -0.54212866842846130222
                 -0.36035166129724943707
                 -1.25470963801023271955
                  0.06553883239254137960
                  0.67991320329862692251
                  0.54901025482287546531
                  0.54249861327798709620
                  0.42119483371353794166
                  0.14718302855929638051
                  0.03525842873286967605
                  0.47952647632140976697
                 -0.44602242553355259114
                 -0.28836130259471931536
                 -0.62080358120086276408
                  0.01160231676215317878
                 -0.22840237441653460371
                  0.62573665458711436038
                  0.40954339777360604380
                  0.25118261235110317386
                  0.44016319273527559908
                 -0.43685616798418580586
                 -0.00566624111001022817
                  0.08526174465336353037
                  0.08211224195894592515
                  0.45552498520766226964
                 -0.88466852742282242605
                 -0.26517670644588636764
                 -0.69212339422838697889
                 -1.00493895466439853159
                  0.16889666904021433114
                  1.22833585753479179736
                 -0.58186515075055667001
                  0.87559750102648914449
                 -0.68681352562357134151
                  0.33423645579157956753
                  0.26336210695617467969
                  0.11720634829660170340
                 -0.51000125730598822038
                 -0.59542962746988326028
                 -0.32171351199608427818
                  0.42049266117190514658
                 -0.10023861110069801073
                 -0.23807271262600604445
                  0.69898909577092560585
                 -0.24259368228123034950
                  1.07170259171728399217
                  0.45870927684468598695
                 -0.10688898068836770461
                 -0.09421382140715860165
                 -0.49613600723687012461
                  0.72389964334370038301
                 -0.90749005545169414422
                  0.14549264250326238157
                 -0.44378518615296280725
                  0.49678680652556173047
                  0.22151446943733246742
                  0.09616051798505118042
                  0.65781366107475069960
                 -0.51387255073495796687
                 -0.54091817724425517167
                  0.14474566801541949301
                 -0.33995750164989979591
                  0.55648867687318315234
                  0.12591308133449546913
                  0.26518916591726804377
                 -0.19991913442042580362
                 -0.62760784564773031136
                 -0.41956013725855823004
                  0.71325296069257937415
                  0.92561349736228948348
                  0.14516005979141705096
                 -0.05385273612773768676
                 -0.24671116251501307159
                  0.32270762561532911894
                  0.68849405408404507067
                 -0.63406333685515425813
                  0.11251008194497781612
                  0.13192583399396817789
                  0.00709104548915069632
                  0.27253465211226834963
                 -0.35708114210770169894
                  0.51371822925868004805
                  0.33670695946396234088
                  0.40891249653736055913
                 -0.07735387508947512425
                  0.07483299832533159279
                 -0.18494602921071498502
                  0.48925677475845869013
                 -0.06844030591832159227
                 -0.70927985624107448004
                 -0.50552013693133079908
                 -0.06274290597374632128
                  0.71128596631359020108
                  0.29896350728607939962
                 -0.85579694367418446266
                 -0.68969330520360705439
                 -0.35804357844074213846
                 -0.18703898000149099534
                  0.36982793563192656316
                 -0.26733376432463884509
                  0.03837775627650549803
                  0.50001043666689160005
                  0.30912905440190752149
                 -0.49752022359485742475
                 -0.01807330428347245568
                 -0.17079578744298387627
                  0.51021132867162688473
                 -0.11017895951327665027
                 -0.58065217657186229960
                  0.80457863910995019996
                  0.12348893916756342737
                  0.27008427493224568261
                  0.51408752503093846364
                 -0.11429363565885033993
                  0.30422727066536286999
                 -0.20537303653501609579
                  0.69812948452097045582
                  0.02779504816756004498
                  0.11024068819442639500
                  0.12596477863936378361
                  0.44995318417443214143
                  0.32718688218900721099
                 -0.10131051831782166006
                 -0.34212011649796641999
                 -0.01374195185199095573
                 -0.30630838286781608693
                  0.41959529357585428899
                  0.17350257807582655789
                  0.75037605190611311734
                  0.08628807470046596928
                 -0.16550434489550752692
                 -0.48294809733550020381
                  0.52901192511576144994
                  0.28546097152434063426
                 -0.15591825285886881658
                 -0.02556415517940617554
                  0.90812572823542825340
                 -0.70887655106359159785
                  0.59368992549322652241
                 -0.73248700130074451131
                 -0.18402997491705458399
                  0.41577946979652008475
                 -0.35826112365378820490
                 -0.36276770472651909127
                 -0.44966762708353463784
                  0.57804001890191103463
                  0.23756230466148398062
                  0.12707690431200241443
                  0.14590329779312080638
                  1.22777964816076812227
                 -0.21170294626936075888
                  0.32250170290959856434
                  0.33649339190092020235
                  0.57447707148456272908
                 -0.55659738423208449110
                  0.00165358613604297752
                  0.01756145276874604075
                  0.24508189526545087755
                 -0.26020804860514884504
                 -0.71097232318787617622
                  0.02904200924456533731
                  0.34592615018348360501
                  0.11570438803314779530
                  0.39970371570305129882
                  0.21565344747504078260
                  0.25870200098346740614
                 -0.07271861465626781873
                  0.63324691286621082043
                  0.11870678829536868149
                  0.12568514537712971446
                 -0.02101523964940318207
                 -0.46641712483537123290
                 -1.18576241817211514018
                  0.56203741532797879543
                  0.51638678179036112681
                 -0.46607470011017948508
                 -0.04099878696687857260
                  0.08306463575355374496
                 -0.17529203576169227752
                  0.37591578902584621424
                  0.61903429755267791457
                 -0.75255304074736761866
                  0.79883510797152879057
                 -0.13589507824596011587
                 -0.49198204898904923654
                 -0.13520527021946965318
                 -0.09367121885630080858
                 -0.23766744392494740246
                 -0.54367236827163833990
                 -0.11158089299646019310
                  0.64985106919052937346
                 -0.58707824798071928107
                  0.59185091393006838967
                  0.69680726955031335734
                 -0.51212035194640814773
                 -0.53006331236500037196
                  0.23913569468572187793
                  0.60784305670546323608
                 -0.19751467145987414153
                  1.04954959766130961896
                  0.79835286083910261823
                  0.63509948222176848542
                  0.11296882092935661701
                 -0.83211945306014423185
                  0.37470650300827990087
                  0.14670006752740699651
                 -1.37904849655456396285
                  0.17703936869326486470
                 -0.21485695351233458084
                 -0.47000678713840693401
                  0.52857049492448515693
                  0.51328745179717438774
                 -0.68751334248851625475
                 -0.75516878746266991040
                 -0.03234472142760178026
                  0.18510578756203172057
                  0.23222662489902370919
                 -0.53900811837316076058
                  0.34028923417039841359
                 -0.55442453389736756630
                  0.77373761499156890054
                  0.45342598771008807423
                 -0.04151475746297005748
                 -0.26250448470040188553
                 -0.32878372509918374345
                  0.01849884085640891157
                 -0.56023390295802488748
                  0.10324812073853106842
                 -0.92745743570731375982
                  0.20180575414191737060
                 -0.88785962975614673987
                  0.42261970524002906435
                 -0.41755763498610259932
                  0.34409173106933393926
                 -0.02060448002114795285
                 -0.53370847954624578424
                 -0.07293965221985640457
                  0.49103112169699353329
                  0.69164472525261666558
                  0.49259376628135953524
                  0.54567592847680412849
                  0.50208868344649426607
                  0.63810571067560295511
                  0.21381842845540202647
                 -0.70167878966635821580
                 -0.94893636770325995311
                 -0.28386509009504445888
                 -0.10581202006666083626
                  0.02967883574376572325
                  0.31945060145253451056
                 -0.02721175350753798211
                  0.71403211344151606976
                  0.18517886540264066886
                 -0.23861797467273673790
                 -0.47996484130820826763
                  0.49309429488671052688
                  0.02842635621765944587
                  0.03221504459586461977
                 -0.73974732521685104825
                 -0.79933825440576677934
                  0.60959332570763358206
                  0.77137617773504241203
                 -0.30823596687935223004
                 -0.11416386039491081827
                 -0.50946463857675661213
                 -0.45326301060359169837
                  0.45736511579200272992
                 -0.04886562379304806164
                 -0.30088960362153244210
                  0.42555448111948190881
                 -0.45430708411056941465
                 -0.76622029044714146107
                 -0.00083464068372810646
                  0.42578301361397952185
                  0.73365420922697477391
                  0.26981849053765899482
                 -0.05742179508643519698
                  0.41775528917143694985
                 -0.33490041192406427850
                 -0.37298038579853537433
                  0.27446808169523129184
                  0.36818600012260044307
                  0.24043014904380730079
                 -0.06910362218194820993
                  0.15132111128381059428
                 -0.09835715507876485741
                  0.66922543813231993859
                  0.64351826839696679716
                 -0.25228819602497487562
                 -0.36467691789936801383
                  0.35609235160163460465
                  0.50353302244970432611
                 -0.31092192520335709682
                  0.08753881786929711140
                 -0.53207352227697990443
                  0.37519278844826248198
                 -0.14065387696817507890
                 -0.32540191028746034974
                  0.29760526451802604697
                 -0.29940668249719293303
                 -0.15944639736836369037
                 -0.92600992534187687166
                 -0.55099743916988197512
                 -0.46394165723288133263
                  0.67197626621436867822
                 -0.50848484786509495770
                  0.15085397394999922049
                 -0.02500172898997382598
                  0.73504000270336589118
                  0.65374220697451757012
                 -0.57093454943480603792
                 -0.65974608818294455670
                 -0.03127791488102543704
                 -0.54789540192353036741
                  0.24081590234493843727
                 -0.24717128435388499574
                 -0.48223246625074012162
                 -0.16757081450248981214
                  1.17307540785345243428
                  0.63732184433761618347
                 -0.29894759668677817199
                  0.12664565440425998299
                  0.02968862541177954076
                  0.18975862816437150116
                 -0.26729766686296257960
                  0.04435349633759101684
                  0.14356936759010405225
                  0.17202668463574430358
                 -0.35496219212193613757
                  0.42805029894908142030
                 -1.31924743606690353381
                 -0.47326631485480208372
                 -0.01588300355695454469
                  0.44860782221504180711
                  0.83390442707387557597
                 -0.00750104656718984450
                 -0.85594218087726170463
                 -0.01554682560647074364
                 -1.33984760854073048364
                  0.71689674069691045055
                 -0.41323686138754595065
                  0.04479916496258407044
                  0.47114049899650739528
                 -0.02142129919114024034
                 -1.03971063360634508044
                  0.72483046562068254026
                 -0.46588669451159120394
                 -0.30117402873789544948
                 -0.00431943837357215595
                 -0.78721594255109639260
                 -0.54022591532657004976
                 -0.07726203883645395287
                 -0.50947409147716704592
                 -0.38234046533020432657
                  0.20534233900068943335
                 -0.00821538758614544749
                  0.10395521729892454044
                 -0.39004377093835601586
                 -0.27429782598706220487
                  0.28434110734535000820
                  0.38289413948933759269
                 -0.16966146661866263190
                  0.21018253918986970485
                  0.24075617517727226913
                  0.13388316018390253315
                  0.63222259848518469472
                 -0.82662701337694144410
                  0.93910437618429365436
                  0.71697480387479228803
                 -0.95465821329547884133
                 -0.96981405723705915722
                 -0.10042018098840696516
                  0.08729375956705984207
                  0.47835425494949551650
                  0.43917680032365175036
                 -0.15207110008590887795
                  0.41033201549419973109
                 -0.43845497234609615012
                  0.05323879643380934057
                  0.08393488962391831842
                 -0.49597850763464834678
                  0.88198652412390632360
                  0.20179548373057970556
                 -1.16378584527081607725
                  0.60225776902511984900
                 -0.35553625377547093400
                 -0.93470786042025311158
                 -0.95028774363268875280
                  0.26012959380120459496
                 -0.17482583750709396186
                  0.78431159085133517195
                  0.52814080508114358281
                  0.34053584240165513108
                  0.41316194303008718647
                  0.37297537745723730040
                  0.02455871557108869896
                 -0.81580953411398271502
                  0.07967637349259752699
                 -0.54185621747526213632
                  0.45542790961620843726
                 -1.00217091158717508392
                  0.21575836937796208370
                 -0.13943902435166766196
                  0.79572188315404257519
                 -1.05441994506274450139
                 -0.49752008167258204852
                 -0.72811659623922564410
                 -0.21659010009142243280
                  0.61921100763845915438
                  0.96462870119544208425
                 -0.12331411530478125771
                  0.93843380524267905329
                  0.89878288584554422158
                  0.23935432425485012042
                 -0.28893527328627000017
                  0.20081124562264954236
                  0.59259573062380876962
                  0.73651245755143757155
                 -0.30896527355226877098
                 -1.18758756191453396234
                 -0.38988024871871285182
                  0.57016376140827995656
                 -0.40611039104605262118
                 -0.48352080360083909971
                  0.51581933660477985448
                  0.30182133724851556433
                  0.05702566897145793651
                 -0.58760653007572327677
                  0.13423780835866097605
                 -0.29210927979342460326
                 -0.05163061965601248998
                  0.21562955023554397638
                  0.03218049422967485251
                 -0.01071150940473431824
                  0.26818494688454930230
                  0.57046227011339412094
                 -0.82141911880511364608
                 -0.14954422846258094704
                 -0.00651873362463385904
                 -0.70424318839902166900
                 -0.15908024349106877904
                  0.69180423976874882985
                 -0.80455316177353874973
                  0.20844449117043717390
                  0.06034704066781017284
                  0.44159838452200750325
                 -0.07897269513625626569
                  0.25412581357180752395
                 -0.18275701026197591070
                 -0.38673394395420207514
                 -0.21680904468844969246
                 -0.29108378460921696673
                 -0.36552143563312167185
                 -0.44360171440768614293
                 -0.75650528872074807030
                 -0.52392028329489948035
                 -0.41583538126558450276
                 -0.10699854006782745508
                  0.54624402460597454301
                  0.53297564708338152073
                 -0.44986366754656198497
                  0.20629242101182698743
                  0.88991264269054193292
                  0.32051959710562033523
                 -0.21187391546723788327
                 -0.39283390252280520061
                 -0.41609973090530455453
                 -0.13209843578883773141
                  1.07759512948330238302
                 -0.75164461773062485328
                  0.38785076872621865318
                  0.43673296405349515403
                  0.26780426309433835730
                  0.30942200398273250750
                 -0.16695416908496352182
                 -0.12554634707944178906
                 -0.25574190555237880096
                 -1.34611325034134798884
                 -0.19765653531111612717
                  0.15749866570831866364
                  0.77282307611264611236
                  0.51500467953288664447
                  0.40792706299543757265
                 -0.13086490131739067500
                 -0.48210050605866477946
                 -0.07035819121589421965
                  0.69044674943576644921
                  0.12723579161994744147
                  1.15229837663123735325
                 -0.02203684566551700891
                  0.50549845007261628993
                 -0.23381146016340739746
                  0.08021216478456123788
                 -0.36855795893448806133
                 -0.87837997009700929940
                 -1.11942594703764952691
                 -0.08156908324441433655
                  0.28093865388436622954
                 -0.50146559417489455779
                 -0.44807783038602649883
                  1.02192951608131399333
                 -0.57312892653656477560
                 -0.86540495222158153599
                  0.47405056343914209194
                  0.30397890412385547565
                 -0.42985776430932359782
                  0.13620692486409036182
                  0.28817604146282438382
                  0.13389293631479112778
                  0.27112919091475778943
                 -0.50784694550710451910
                  0.45295763294159713253
                 -0.16002736606859743751
                 -0.02324927081226770345
                 -0.54289159129677100335
                 -0.08123231465875771495
                  0.41836763267035087521
                  0.31178751518658126551
                  0.83394238482907079302
                  0.11060825577724736624
                 -0.18206868455436206466
                  0.30860547828699802508
                 -0.13317664010011157072
                  0.29848169682437086792
                 -0.10003444075965517435
                 -0.78068044620356613628
                 -0.29882391073228503631
                  0.80227221386127378633
                 -0.29953130222897500490
                  0.45093730905301526724
                  0.17466130467810372928
                 -0.72465077964857327331
                  0.37469368686493076392
                  0.35271875422543014222
                  0.10109035628305368393
                 -0.26160576462705564804
                  0.27722962568541381634
                  0.65678538840052380632
                 -0.12617158078938214838
                 -1.17616106992680191645
                 -0.01171888044576167853
                  0.45853992963797252091
                 -0.01126608692312863931
                 -0.68927068348630560202
                 -0.27234418607564969683
                 -0.60794731378397037780
                  0.53332533247445956803
                  0.25209320607480334431
                  0.44031130481685770706
                 -0.43342955262662402616
                 -0.11475519550983148687
                 -0.54305998867219740234
                 -0.24312159242408215576
                  0.78420161670777532859
                 -0.16653080126335056965
                 -1.30312283426130393060
                  1.01954080579543115981
                  0.77373588824486694282
                  0.55535829431869931927
                 -0.34398979666315698811
                 -0.03211963444770347953
                  0.22045920901745266751
                  0.64180410503959661739
                 -0.12375857921431988873
                  0.46478129561632519628
                 -0.57363193361566922057
                  0.01301620421458760113
                  0.06272057743607173386
                 -0.15467571875276700522
                  0.15389283201285955394
                  0.06274426891311980781
                  0.94187775345761659551
                 -0.03154741797230893596
                  0.48653699398654515207
                  0.55274858548282412851
                 -0.67903897567129700708
                  0.35768569820574114271
                 -0.59720025717023272893
                  0.51514925655324661502
                  0.49604231140431792602
                 -0.13274061801134579008
                  0.00628351427281343376
                 -0.63621225677040527113
                  0.81245107151159634551
                  0.31900307964790330928
                  0.72090375791249439175
                  0.23416995702728071738
                  0.80485618096844635527
                 -0.00966645445402423975
                  0.14213568837897783137
                  0.34545223156116411367
                 -0.15417728460141960634
                 -0.44558854838871142512
                 -0.40762279215335772697
                  0.44474841874406928488
                 -0.33390474337046993636
                 -0.65632920711585884810
                 -0.50495301038470352673
                 -0.11700062224096594021
                  0.16470602911151877024
                  0.20786475649622254691
                 -0.03115105074259320178
                  0.67442469334281018867
                  0.75706685930467287893
                  0.23397866957388083198
                  0.15234120890820745942
                 -0.17499361040292107927
                 -0.39846832133606208126
                 -0.83540202955003950436
                  0.68549050697667923693
                 -0.09732206496166896648
                  0.01759348183354401615
                  0.24918160825306170936
                  0.26759718158988743397
                 -0.56638480458276496687
                  0.28353105905660425101
                 -0.35568358954197148991
                  0.45357049234260177206
                  0.31152739512941507449
                 -1.86515217286864420920
                 -0.18467084066926958696
                  0.71373529388979461974
                 -0.42132549298362470536
                 -0.38394425465261028396
                  0.07456793016581023115
                  0.64183575788383007144
                 -1.08841702830386610756
                 -1.40276025872520282434
                 -0.76084835480388213202
                  0.31432908503232093178
                  0.23687080719060252254
                  0.58456687405948970504
                  1.55302524346552384138
                  0.80631595764064922793
                 -0.70634776438136104293
                  0.22117609485345318676
                  0.24352262612356023741
                  0.48145462444820003034
                 -0.51080977536040672593
                  0.65757362527333729219
                  0.00203319513427480591
                 -0.26551784400388461771
                 -1.34673560365122280125
                  0.06323994282923568744
                 -0.49019673729416196606
                  0.58755456599574706900
                  0.37275317816178427099
                  0.29716401954541799002
                  0.45095814376427945103
                  0.10483523731283017622
                 -0.69122983338697652211
                  0.38480325083234134809
                  0.17937897098692287545
                 -0.32733015195793324636
                  0.32674319678388297206
                 -0.23000227444297133284
                  0.41351444679850718478
                 -0.11311990059914847628
                 -0.64794373379996927920
                 -0.34898746783374340330
                  0.95350626803964133593
                  0.10777273364900012698
                  0.15985083623278426024
                  0.29767926294982871571
                  0.40245806395873295891
                  0.07667323548893040241
                 -0.33023750745848040600
                 -0.80312695001495193470
                  0.51392905170103042600
                  0.47874633314074771517
                  0.17991867854945914340
                 -0.61212893732483875109
                  0.49120016523869980407
                 -0.53070178724712491203
                  0.57717731230246227536
                  0.67479785962941285504
                  0.22775799341155245070
                  0.26033210474179641070
                  0.38156407081134424697
                 -0.15491186728401576400
                  0.30784716463866779179
                  0.67525274991904993271
                 -0.02935034725973799385
                 -0.30305032710077062230
                  0.61679803490886120354
                 -0.10805207852349636710
                  0.02708005034890169013
                  0.32041377836298751136
                  0.86154308589449790645
                  0.09219454138072639970
                 -0.57561791532486861200
                 -0.89806007358594508450
                 -0.20231530000853020779
                  0.44891888546664254767
                  0.59832768075893949522
                  0.48649549047430712401
                 -0.39827026253668518230
                 -0.22813288414561747053
                  0.36000918332890202711
                 -0.24648687484367590161
                 -0.41973098369924327633
                  0.14908932731513102610
                  0.18387879390051722894
                 -0.49960181263935499185
                  0.26622735058136542952
                  0.24166507417008253888
                 -0.90649421185836454029
                  0.77023171452206851129
                 -0.17886024136137670948
                 -0.19577288125582276157
                 -0.53746596880634855964
                  0.42159095234039878353
                 -0.42115059605445043234
                 -0.52700627794266485804
                 -0.03081889529016889825
                  0.64654934671924613188
                 -0.20267100587360040165
                 -0.72199580695781628847
                  0.55064133266814618839
                  0.28789299534945900216
                 -0.46492931703484741135
                 -0.03404804116884424525
                 -0.22282608755176103177
                  0.20322075850009441167
                 -0.26657164232202462673
                 -0.45805152983030505975
                 -0.86839766641332205577
                  0.70051147567497085156
                 -0.46954161890842655014
                 -0.06428755985863683631
                  0.32011449456516427592
                  0.00350885434122856152
                 -0.45081583562559235379
                  0.02134377463560156035
                  0.73762312337198887580
                 -0.37861979433417913832
                  0.31503416109795390199
                  0.70579726105299844807
                  0.38109679512744198959
                  0.42218394598406400187
                  0.09973481415172007203
                 -0.06756412049924574725
                 -0.41553948911384175346
                 -0.16977867419902104018
                 -0.28881882767694522229
                  0.81702387549506494402
                 -0.44269960024046045577
                 -0.50807688432317232863
                  0.78791246021759020479
                 -0.58448445940650006758
                 -0.06336131739066769297
                  0.06814217372807231110
                  0.04330984206836404476
                  0.05840258654788674231
                 -0.95123482009127946490
                 -1.72353431891847175272
                  0.37766532751249026756
                  0.55732887012055376541
                  0.19117871942159425647
                 -0.20185605107509832501
                 -0.81720468795531575612
                  0.37443369820285737903
                  0.08119286832763634998
                 -1.16485506345456291122
                 -0.51257463379178491714
                  0.69267811253514410819
                  0.30957443838264026015
                  0.79485987729986706807
                  0.01963880540883121417
                 -0.76188261322475181458
                  0.27704540451051756778
                  0.17250939556093264349
                 -0.19682336412046536056
                  0.24838229449530363491
                 -0.21089482474836687698
                 -0.48842194856509907330
                  0.10623463523225767924
                 -0.21669186070306786784
                 -0.44034566823792720136
                  0.73597965278177635007
                 -0.73463645782600328626
                  0.26056960408130469542
                 -0.60342423233718922582
                  0.84326925305837430180
                  0.33791342045566047370
                  0.09247740110118367329
                 -0.07454021809794178499
                 -0.13489417254762905984
                  0.43864040553544891843
                  0.72489897014667281638
                 -0.63953025766035720423
                 -0.04858925079093723287
                  0.81803159536296976562
                 -0.09424930499967615338
                 -0.24919913203861931983
                 -0.09663048973705094802
                  0.04776611326071135422
                  0.14560964908498727488
                 -0.79996419157063092253
                  0.31171536164265983837
                 -0.03199248690298991948
                  0.57332062082125334612
                 -0.17750454312353480812
                  0.62286929545447866641
                 -0.01026330764124088087
                  0.66179701040336946782
                  0.24321111341256648752
                  0.21279971717273063470
                 -0.37509231838606388321
                  0.03429967579695203383
                  0.73749676779292361317
                 -0.66249549310005295677
                 -0.50121537739465082950
                  0.51390336565281635739
                  0.63843470002929902929
                  0.28946145910464271545
                  0.08202773793099098210
                 -0.48511886587473324051
                 -0.61721068520756816600
                 -0.32258444466018498797
                 -0.49590356164384957749
                  0.92571435326114603903
                  0.88471425931855196545
                 -0.41387858758897755340
                 -0.71383617425198075956
                  0.09205833357760469238
                 -0.15758190317970363625
                 -0.31253621815388699101
                 -0.22685136556145549247
                  1.27975451418534169612
                 -0.08234000561551856057
                  0.65753770778761200244
                 -0.24119732811348193469
                 -0.14745354761751922057
                 -0.41916096998784746486
                  0.60338690333051314685
                  0.29200894566381296880
                  0.06371901676080954369
                  0.22752168372656444983
                 -0.67694636158906185130
                 -0.43556729301888558181
                  0.79868270499435511933
                  0.99399145857092097156
                  0.26823253944261854498
                 -0.33304767812133917460
                  0.17436424055001098488
                 -0.01659273526178631220
                 -0.11108610935842458400
                 -0.15578330887402577765
                  0.22972758089843908769
                 -0.73381783278480017252
                 -0.37073166241245958386
                  0.36591949020501640666
                  0.56812141530167803438
                 -0.72199282946523746229
                 -0.09665106243389084972
                  0.14435249678829634168
                 -0.27255854012325053670
                 -0.26793712599431956933
                  0.08817496368372733373
                  0.73445836564490207810
                  0.50231435264395940532
                 -0.09255721555273210832
                  0.65600459003005984204
                 -0.19170079576176632385
                 -0.07209316066087853581
                  0.62653329436846472156
                 -0.61006379242778374650
                 -0.54605500969559961355
                  0.34047682649071819849
                 -0.96083128487720037558
                 -0.17650260191936814613
                  0.32629615143066381666
                  0.28260226022808515589
                 -0.18286696161234750058
                  0.21486720886958052268
                  0.14054879007013576508
                 -0.47826487591051747295
                 -0.35221453928245960441
                 -0.55830670544332750005
                  0.32276974079233339276
                 -0.07296141768549381512
                 -0.02067035596144136192
                  0.41109037427269151665
                  0.04632708448773044385
                  0.13606300897109410708
                 -0.18561963928084135311
                  0.27980489720424478461
                  0.15146494526366671707
                 -0.15096257553563596776
                  0.12402889139575352939
                 -0.46691139742446585714
                 -0.34036947358461977498
                  0.27307900523000083748
                 -0.31001611347680213537
                 -0.37999952586218116446
                 -0.07062112743210798016
                 -0.22764929912988648986
                  0.13151086940998585328
                 -0.47971567276715365580
                  0.26727148647424608940
                 -0.39087223138334947770
                  0.14394965017559960274
                  0.30023051507935194504
                  0.00273605838554947470
                  0.12239258029604525857
                  0.00684405837498339772
                  0.26611763650507358481
                 -0.42012715381115955937
                  0.36511286330751635543
                  0.23176300490973916757
                  0.14170467799090447070
                 -0.21479125826289890977
                  0.12853031616144422467
                 -0.00993889666673928793
                 -0.42596243215658191605
                 -0.26106273012652692067
                  0.38874742804235007387
                 -0.26678262560112847579
                 -0.31080171035562637050
                  0.26312284261838481125
                 -0.03799642566066750715
                 -0.25666711455817398102
                 -0.20634142509700378887
                 -0.23239662748790440583
                 -0.04627636043129034621
                 -0.07522796689159419459
                  0.35385710931941721791
                  0.03676754192791517606
                  0.03434259841703790617
                  0.03600750232234430082
                 -0.08335604430583712365
                  0.30556124152999297738
                  0.23177535920039540884
                 -0.32809661477363172288
                 -0.36351918975584890381
                 -0.23806229634632725123
                 -0.18379353852070376418
                 -0.43510355513888315793
                 -0.85883208244844022605
                  0.20819679377465591386
                  0.14721854074678150659
                  0.07694654630450269150
                 -0.25693105595393467278
                 -0.07192506750059363130
                  0.25058846347207991423
                 -0.19899972064201054689
                  0.55105809193251364952
                  0.41097950532459232020
                  0.09603155105184262019
                 -0.41151941916321482795
                 -0.62516256617593490841
                 -0.21515053467517245012
                  0.06366560481477931410
                  0.17122899895214213628
                  0.35241196488545512011
                  0.19275112785134329574
                 -0.19774481869765825337
                 -0.48220396889792832562
                  0.51569224042240624506
                  0.22042353504640915807
                 -0.06828552275635624280
                  0.59394560286845810015
                  0.85428260768820485360
                  0.51120077137827224512
                 -0.08592804006846428699
                  0.17196602337032326768
                 -0.22819853010404617111
                 -0.50124197659951619244
                  0.17421658660074795799
                  0.11071999049118300129
                  0.32584455308793935924
                 -0.26560615185373731562
                 -0.29749041493785477464
                 -0.20545465990875882989
                  0.04323757416076659532
                  0.20584056634443487210
                 -0.03778378083984516855
                  0.01153737619829516350
                 -0.19714360257462526516
                  0.20557435325226308676
                  0.29626776729320275505
                  0.20842526102213909667
                 -0.02150921149206369912
                 -0.16486822485692639861
                 -0.32754390332424559995
                 -0.30516831386895626466
                  0.01278979756564214976
                 -0.02817719997999854065
                 -0.00652705611967989603
                 -0.10013329894043544732
                  0.12420766278920808423
                  0.37351015220131644767
                  0.16932804738406792566
                  0.30032761227809040561
                 -0.10344873274519222894
                  0.26497807335374118365
                  0.33500995885828355192
                 -0.10198612323026588766
                 -0.30645121832490240799
                  0.09391849700844799587
                 -0.23311555796443284017
                  0.37058829876782833912
                 -0.02871942105927359490
                  0.37818739389658068140
                 -0.25950905131466350806
                 -0.12135925207601100384
                  0.23147660082306098506
                  0.05078666433118463747
                 -0.29918563459578617625
                  0.14809213159353679101
                 -0.53186295769935343358
                  0.14148631893261742754
                  0.05940192579966646624
                  0.07307521142482995002
                  0.15400849628455776097
                 -0.22608883922884878692
                 -0.07780204374135012146
                 -0.07456511236667037745
                  0.45700473953489795242
                  0.25223401213593710235
                 -0.01684676583027493527
                 -0.18814993610323621498
                 -0.16197200142325138272
                  0.01788334039365015865
                  0.28666620573549306261
                  0.05970137444075697408
                 -0.36898913321427412315
                 -0.37787250453454229726
                  0.17146954792852997507
                 -0.24693629345297896105
                 -0.24196100561820713115
                 -0.15911981098848504423
                 -0.17166513785525744362
                 -0.03339667180114450767
                 -0.32823193948664391995
                  0.06080724231728872053
                 -0.36012420347899026796
                  0.07910566639171125181
                  0.24311256904360792341
                 -0.08567577954840831234
                  0.06832511910189946469
                 -0.11003538419055430841
                  0.02151383722638456827
                  0.07323373698756578676
                 -0.18683040696100056133
                  0.11529922954562088488
                 -0.10484963734936011970
                 -0.27090162722826743869
                  0.28650856533686763772
                 -0.14178065414926241394
                 -0.06024141042142516778
                  0.29831326710791900014
                 -0.35492660981046386670
                  0.24756935394253867799
                 -0.16242456376194874812
                  0.03334116763407465878
                 -0.24865400760571279570
                 -0.23497828122345024160
                 -0.27045723527762399740
                  0.04885509674071916025
                  0.58146503291891638021
                  0.14789561966911524138
                 -0.07576758033779283641
                 -0.07433091227535681966
                 -0.09733949005109356067
                  0.00852912197913374172
                  0.02446933135731609033
                 -0.28691637013051102256
                 -0.00706390177949810065
                  0.37975518211384512446
                 -0.00005783433545705546
                 -0.20512765093542137396
                 -0.04591940357338103462
                  0.17330359749009746628
                 -0.05464184930830168208
                 -0.17262708950296809518
                 -0.32176762559592742008
                 -0.17025418278354606527
                 -0.13615502716061256283
                 -0.19707678781177603855
                 -0.21678297321310260881
                 -0.28440388013431089353
                  0.30855797709453847144
                  0.39728964438067360110
                  0.04325746265676777558
                  0.35656201779857515932
                  0.11696911902883133649
                 -0.12723462413415273509
                  0.42535885585421451260
                  0.15379691791240382437
                  0.08060062408500964781
                  0.55318145991730072186
                  0.03356440831523056084
                  0.37802858754005963515
                 -0.05375519800379723045
                 -0.48077541147703345414
                  0.11578141227966332050
                 -0.07795351190717232648
                 -0.23932207298719651578
                  0.50712446123353382976
                  0.01284039086914336852
                  0.27763110140279756433
                  0.39640418683568706681
                 -0.33534935554681805092
                  0.34060065895841201700
                 -0.12074999764771730815
                  0.08630525714957330841
                  0.17467860047685129787
                  0.08762110032664954806
                  0.26517050867938862790
                  0.16746541743402248992
                  0.24474644340341575321
                 -0.12800474522655275189
                  0.17155700811432122999
                 -0.08461415952939896346
                 -0.34187367466320511822
                  0.29185140056517433482
                 -0.03379604759784418655
                  0.20321490245873080616
                 -0.20842128912839433252
                  0.18189968673658768461
                 -0.06284643601218425912
                  0.17024239694947873591
                  0.31842970981336715663
                 -0.05657085142165820674
                  0.18923196653011703505
                 -0.03126688395834222034
                 -0.29931351382080972900
                 -0.23516276953971695929
                 -0.01256761641577035238
                  0.15084730695763251540
                 -0.23484831334858860541
                  0.25969307601296109933
                  0.04474156497195543730
                 -0.04374618032425783842
                  0.20260937968199196901
                 -0.03084670131657312256
                  0.15091858018196838143
                  0.39357769313725499138
                  0.28117101011337725103
                  0.23766131270140200549
                 -0.34237072814925495479
                  0.04546613432721514220
                  0.17249006186085003023
                  0.00435073189239004125
                 -0.27186926340124456525
                 -0.18430319181254958827
                  0.27617737132687064650
                  0.06397519207482735282
                  0.15798715131112500698
                 -0.05116809973201121714
                 -0.27557956682138895488
                 -0.15315734899800531599
                  0.07048029039237316273
                 -0.13645910761360657837
                  0.44035591586332856195
                 -0.30789220328865335441
                  0.08261993672642152509
                 -0.12700857966968920332
                 -0.18822616629638655450
                  0.28545672822124673607
                  0.29107135642910597628
                 -0.01066011029372538298
                 -0.24473913056918367159
                  0.02187501265805639680
                  0.10740416237443500824
                 -0.22062482615380890616
                 -0.08151696434595707974
                  0.20791979119351630678
                  0.18963786747603961214
                 -0.12426501351356236680
                 -0.43762714487487441861
                  0.03323184004704001632
                 -0.17329750195033441496
                  0.18828412786261791712
                  0.20902621627899023449
                 -0.09035572984689510534
                 -0.36288202367768368495
                 -0.10335233087918137274
                 -0.30322792052565894494
                 -0.12910835066715437014
                  0.39085293097640594340
                  0.01647867191031183315
                 -0.10659896739455911041
                  0.05474839326223306796
                  0.08281903949515000141
                 -0.18725906216326898557
                 -0.26189903095668509714
                  0.13115969140913472102
                 -0.11732134934451515784
                 -0.15681061704624216224
                  0.48039173183909839038
                 -0.13052738186859458303
                 -0.11063842134514038917
                  0.08742162856374226243
                 -0.07663923776001656252
                 -0.23651447284117957381
                 -0.18782144593486121975
                 -0.00284751686676918813
                  0.03151707284245384294
                 -0.31800108896367368372
                 -0.05378518208466130657
                  0.33560303718885103885
                 -0.32792082860767518548
                 -0.08687479014583103509
                 -0.20796216035328390914
                  0.29048926138119290918
                 -0.13633260768038038546
                 -0.32228135451108325116
                 -0.13201228678019660823
                 -0.15956885075561966225
                 -0.30904085675107839659
                  0.38909089506423877314
                 -0.12667469721624671775
                  0.06965659811510005461
                  0.39672098680230527545
                 -0.33140414275544305411
                  0.29748169370071780859
                  0.22206299647412072740
                 -0.04945273108059594636
                 -0.02783356107673425409
                 -0.32231522313426075321
                 -0.19951271294949043944
                  0.04612197907046025613
                  0.24143919366901051005
                  0.28267660078103129528
                 -0.06936595511334819886
                  0.21337525591195061203
                 -0.17448597559460668482
                 -0.18092802957098436112
                 -0.30763228355866339969
                  0.18883008431662484661
                 -0.08891794758302501434
                 -0.28247178736241962405
                  0.23700294169400612510
                  0.02203807923179778444
                  0.32433197760171034174
                 -0.38754039386409994128
                  0.22829868744328632446
                 -0.29164671491253751912
                 -0.27109139583203550883
                  0.22311255742394286994
                  0.23924945480814080456
                  0.23692592264788847611
                  0.08478618670334574225
                  0.06187101857511410896
                 -0.19650927203375598284
                  0.03587442103269970761
                 -0.06411367847124223307
                 -0.30062397186657896508
                  0.14179411211044259944
                 -0.05321855446443862075
                 -0.29684518996968489724
                  0.20258404540391911075
                  0.11981561771025094065
                 -0.37025538758248177640
                 -0.17596539067082794805
                  0.19009429977425790215
                  0.33555431205408703388
                 -0.06038995917288147997
                 -0.16032711039201402725
                  0.16312748438978791343
                 -0.26579722907534231169
                 -0.06533131543006177877
                  0.06968786722501495168
                 -0.35152763573130990649
                 -0.09955000705010588757
                  0.01209487580154941337
                 -0.12552544484054842244
                  0.11073218471113262240
                 -0.25816502085478920669
                  0.10124348684298889456
                 -0.19810636536134557106
                 -0.29737910518970245288
                 -0.07934002800355741125
                 -0.05232395956156313255
                  0.14548949572709726774
                 -0.17757877432616470115
                 -0.18937119400336457908
                  0.31731439741743017180
                  0.11378634674540798188
                  0.25782279615541942031
                  0.12965106079073407397
                 -0.19782171915283580654
                  0.14772827032314037043
                  0.09090396242098747193
                 -0.10960837638876674838
                 -0.08894207649927365900
                  0.33438421072265545053
                  0.04921151577378342357
                 -0.28245297080657905120
                 -0.01189953473471163509
                 -0.26549840330356971885
                 -0.32583855753136337086
                 -0.31095686159563867834
                  0.14353429318876859133
                  0.06643234862498717530
                  0.35418715818559465269
                 -0.08863174436783581578
                 -0.18955672850792812389
                 -0.15007795482824964894
                  0.27209790662299732089
                  0.05178614598991369833
                 -0.06635390644684532879
                  0.06495171073879821289
                 -0.26781387184778054911
                 -0.34359783152713618826
                 -0.22361726774722584521
                 -0.14508332213250657583
                 -0.30458845598227468621
                  0.07266565412987534278
                  0.22292542116119906659
                 -0.18437383801860574017
                  0.27452358228995143996
                  0.08884655479883775409
                  0.30442119443718024252
                 -0.04808851712933950862
                 -0.32333906760489122822
                  0.06492324192380782844
                  0.15663265525729930250
                  0.25678832549361935156
                 -0.24238549828031577538
                  0.21375532627648935469
                 -0.13206884706545371500
                  0.35428043008523207869
                  0.07447512792911803459
                 -0.04168719494830336325
                  0.28270444739253025590
                  0.05133426470942904080
                  0.22004143865084913045
                 -0.32476087788945223744
                  0.37208668966764479880
                 -0.01268697706674589733
                 -0.16218501720822631196
                  0.38902955420483470439
                  0.20670261122052949188
                  0.11402113296438047552
                 -0.25761635088563078488
                 -0.08686877066268827718
                  0.22277666520912511872
                 -0.09443940758932496682
                 -0.39102580802087971712
                 -0.22317645394184210117
                  0.41599607611201527835
                 -0.06707097688264626600
                  0.01328662512042941800
                 -0.12101481293509623594
                 -0.11877064817531922392
                  0.07595626409220182507
                 -0.11397232348601368801
                 -0.43658608778027718778
                 -0.43971971994959191399
                  0.34944449176398839629
                  0.12688685956082826345
                  0.04718072550739804000
                 -0.20048519651734517111
                  0.26447535664246230036
                 -0.25735568119980162249
                  0.32030408850998853820
                  0.31860601833896151636
                  0.16203674992141600675
                  0.11498956591268802430
                  0.02841418315734345335
                 -0.00761108477398572247
                  0.02927587906824463682
                 -0.21678576228883844612
                  0.19406112172708736563
                  0.25138542246018069637
                 -0.19539894322242215563
                  0.05322585864357223112
                  0.12937492367097100376
                  0.26907645959981407735
                  0.22451210730912926627
                  0.16446736517760920937
                  0.38566111389183288516
                 -0.12733500058914265507
                  0.23682296156000187670
                  0.15090649952764720321
                  0.01409786761082702788
                  0.25071649855002381413
                 -0.36235539437417080277
                 -0.02790089669449533766
                 -0.23249123627133669312
                 -0.28502032131761151357
                  0.08484253092604300550
                 -0.22589060847889302908
                 -0.30821672605520156196
                  0.22447252514479779095
                  0.23040809863352612608
                 -0.05488130961899177762
                 -0.23850514739942743625
                  0.23318486774213775803
                 -0.09008873305578858626
                 -0.04797049404967431568
                  0.04640330890657292512
                  0.50703836844191052524
                  0.16526677615830823176
                  0.23475121663026021768
                 -0.19695596630067122024
                  0.19886436065839152576
                 -0.03685248962114402727
                  0.20398338066364943288
                  0.00164959336063082119
                 -0.05440026954308063711
                 -0.26959338469970012264
                  0.05535914092663897501
                 -0.02478050730614941161
                  0.01854664856039929532
                 -0.32452715999501857702
                 -0.09094515049970773590
                 -0.21706437763915997774
                 -0.39906281208285809825
                 -0.48531004424357560012
                 -0.08171120009709570420
                 -0.01669879833878919542
                  0.17094578172915889103
                  0.38049648545921804788
                  0.18262234659185719310
                  0.25275888915227795462
                  0.05485251669092712501
                 -0.07136153029838961104
                 -0.14981398196533390887
                  0.26595920489095226102
                  0.04948710407241144194
                 -0.14507171362538381909
                 -0.00411571705141064274
                 -0.41040245842835382239
                 -0.00131398893594839548
                  0.03563054609838486875
                  0.36831943588874088702
                  0.36252888046948950063
                  0.36222835502425881904
                 -0.44373396348145427437
                  0.14221744673644504120
                 -0.29311468767179349459
                  0.25263435056881711205
                 -0.25638999125937156354
                 -0.29851450179601679569
                  0.01770527229728385832
                  0.16451330273447331565
                  0.20704655072974006980
                  0.28484501088380154155
                 -0.37806366706737515315
                 -0.10727406029931139952
                 -0.17246985542211504261
                 -0.27974854553556538495
                 -0.05603844227531570160
                  0.25207060855475538208
                  0.25553674467432990758
                 -0.46508177849436438400
                 -0.33516180213529206400
                 -0.02320193933714214882
                  0.25515037525032241428
                  0.01239896066730699145
                 -0.24943184068586049529
                  0.42764287461570787974
                 -0.46424940931866820470
                 -0.02055381031784285495
                 -0.12047773302385048066
                 -0.66535690804816016719
                  0.10209494348548889264
                  0.35794311317880739276
                 -0.08599588864761364970
                  0.06404775617854327474
                 -0.29927777992183740574
                 -0.30840704461868739816
                 -0.45399769117360633253
                 -0.34665230150439824142
                 -0.03207768083768131051
                  0.35185743833727711749
                  0.21860414233618760682
                 -0.53563752317614932164
                  0.15469017081497665744
                 -0.10624080022017930169
                 -0.19601464305613830463
                 -0.20072639054117938362
                 -0.10201240604104805376
                  0.19549111588880188628
                  0.57503220649969610800
                 -0.28123778130846738277
                 -0.05724405791971266810
                 -0.08839767847508402110
                  0.26923450027122836081
                  0.05905498909869949520
                 -0.12716624502944209874
                 -0.43652063946130092997
                 -0.19613149789755326968
                 -0.04878217646254831563
                 -0.00962330785559585740
                 -0.30925834861933959585
                 -0.21533129584001931001
                 -0.08838461874650235806
                  0.06886809993106197958
                 -0.07587933671221670784
                 -0.05997687209524494439
                 -0.31281408653295217359
                 -0.16960718982785438769
                 -0.45400001718414911833
                 -0.33337360263179288689
                 -0.07894343999645472842
                  0.38648264233389989508
                 -0.44691879167528913985
                  0.31694815017175381744
                 -0.10337915221645205266
                 -0.13255116128898375427
                  0.11646189519881923469
                 -0.23639246659405666051
                  0.26669502219456470149
                  0.30008247673147442347
                  0.04266557268766139194
                 -0.39970691660603635542
                  0.20559642105562753178
                 -0.32259685030489715363
                  0.06780691072467283365
                  0.19409610276215466529
                 -0.24547387758284749948
                  0.22180905138324388814
                  0.08751491049286048984
                 -0.15494133028831713617
                  0.03522800888472345238
                  0.18606399200736600807
                  0.53357735254809846026
                 -0.23710248866036362503
                  0.15713322075277655343
                 -0.41152472417473945354
                  0.08488416373288615313
                  0.16684493609446790496
                 -0.26117095090777198152
                 -0.48354467635440240292
                 -0.10292706399237738779
                 -0.20324375870558769597
                 -0.07604317055794107549
                  0.02999932488612502834
                  0.08968933991066348199
                  0.33114601511947794332
                  0.35605506576078116421
                  0.10198891590136373309
                  0.45887436485921900831
                 -0.17395191292124728699
                  0.14916447308379091052
                 -0.61567759598259663711
                 -0.45162280205257709920
                  0.07876760200804971968
                 -0.00589906695808893600
                  0.10978066686379515937
                 -0.17522596216400856961
                 -0.03438134931108525333
                 -0.40682097582860565765
                 -0.02042372244226699218
                 -0.30964367538073439556
                  0.16030397021819467462
                  0.10243768116265149215
                  0.38163954935207694552
                 -0.20385197511227129419
                  0.07818881007621038270
                  0.17924951895217153264
                 -0.44496449030002965808
                 -0.12376756371771929777
                 -0.14579868614267887938
                 -0.14658398879187017894
                  0.20600077924168666565
                 -0.09057598833924510040
                 -0.22695854411333590828
                  0.37772501253563844914
                 -0.17596484670978168596
                  0.33210708051422477283
                  0.29472358454327429733
                  0.16298328472050210847
                  0.02944860262638018811
                  0.40894503080086391789
                 -0.42585726951860802814
                  0.01478714312907914406
                 -0.16706158353086228430
                  0.08106244189771022457
                  0.13854729577902144544
                 -0.54376473887492871029
                 -0.04333378737133172787
                  0.16787803212027319066
                 -0.32829488220528091347
                 -0.02243914445416246572
                  0.63946104829977756800
                  0.27277885814502589312
                  0.26926309501033235394
                 -0.34361955213152955979
                 -0.11545872202174424503
                  0.01764643294134516857
                  0.32532940972730589602
                 -0.10333610116117426803
                  0.33048550554768008070
                  0.22750333691395210889
                 -0.06553087626117656828
                 -0.02078843593656597849
                  0.37593054620120430753
                 -0.09728935341755914901
                  0.17061928991313418669
                  0.04738662746371075096
                 -0.03605271300983748511
                 -0.13539041324963960178
                  0.00330955425937869965
                  0.07145446194326160461
                  0.15813666194282408051
                 -0.30967152232771094633
                 -0.36305840295699820519
                  0.56253148288567500490
                 -0.05666571699785741961
                  0.01187723669701206373
                 -0.02077534620468221571
                 -0.52470118429271317417
                  0.26334121464633641896
                  0.20945948488232959961
                  0.00525893759438512097
                  0.24065695650453863830
                  0.05356944940464456600
                 -0.15561466310514357470
                  0.27886722598570240494
                  0.01205766653897818660
                  0.00116696168042645801
                  0.02864036809375972853
                  0.09144397200501114265
                 -0.18526115567706727405
                  0.56212542195770121012
                 -0.03415022222858309087
                 -0.29327034295843201761
                 -0.62979887087581098992
                  0.09991967758085529283
                  0.22795577947256082108
                  0.19748713553802360599
                 -0.07556650653582523691
                  0.07990192110544724891
                 -0.22695610739068780570
                 -0.43678938879635653691
                 -0.21027960246469767913
                  0.32652204745833135480
                 -0.26772328206106416060
                 -0.05507094236352649136
                  0.25311661002067642467
                 -0.29472709511835298857
                 -0.15662522071942833191
                 -0.26769348293317629661
                 -0.33184004198517869089
                 -0.09802638294507086403
                 -0.22958860867288086172
                 -0.08664338695315262906
                  0.50937749456295300376
                  0.16110600223072807369
                 -0.15576773761118181683
                 -0.16808361120106701803
                 -0.38620609927396032379
                  0.15401330396244578003
                 -0.21267406988543341440
                 -0.07440398283173542404
                  0.36826868158560577271
                 -0.15604182003110589338
                  0.08592023511944367475
                  0.24330466816784293571
                 -0.01717400648194983281
                 -0.08545502262219990819
                  0.13748556011831636336
                 -0.32699880420245913681
                 -0.11263966088359121664
                 -0.06343829865415824554
                  0.06880356898615709593
                 -0.19874009197830960760
                 -0.16702887797688917293
                 -0.09909059134821812664
                  0.26953938874016153404
                  0.01076511703697767552
                  0.03315855765513738701
                  0.23148656883049606447
                  0.14358085188741481764
                 -0.12043264615189455680
                 -0.32951433567737592467
                 -0.21319866583559946016
                 -0.04593213366021615257
                  0.37849876447560043546
                 -0.07331905491606079128
                  0.21601500708240981008
                 -0.40390786547387103056
                  0.25139392103988655869
                  0.06192043969720910368
                  0.38658792476807346539
                 -0.01416785540783766471
                  0.28775255156158002778
                 -0.10131569060953386774
                  0.28803044351630474607
                  0.19429063724474121555
                  0.32084776558502964283
                 -0.12145789005877807853
                  0.25422750263626464617
                 -0.23963745235072320128
                  0.23193872645963878321
                  0.06504343246696607517
                 -0.10891839916483499195
                 -0.15754485631354173125
                  0.35932970561568222667
                 -0.07071162229037061819
                 -0.15870953054936995374
                 -0.05904989010329379090
                  0.00701410407003778737
                  0.05558783745283450012
                  0.19816111018054208270
                 -0.47328149596910662478
                  0.32485601221801463367
                 -0.02791455153214819976
                 -0.28313417010282554420
                 -0.20554836202144963209
                 -0.24468105224858544000
                 -0.00030708385753696514
                  0.24808937271829686888
                 -0.22243283195053573098
                 -0.24883145244209700642
                  0.15304759797671557697
                  0.25377022059737797122
                  0.25758767932884829577
                  0.03137652754616020861
                  0.23652482375332087305
                  0.10720937248679221487
                 -0.05600518448763207313
                 -0.29487688803346218114
                 -0.21249529379064310830
                  0.10744235382429304093
                 -0.05844960432853771315
                  0.32084628016547955820
                 -0.25657809639772516386
                  0.15227841264338612404
                  0.15666717450669909173
                  0.10017930373124041277
                 -0.11389133927505691590
                 -0.31367385044005369199
                  0.00215596424274945445
                  0.25661685049641352885
                  0.17394826016449851935
                 -0.09242145977294863313
                  0.14639199536029939841
                  0.13637488092644622917
                 -0.16235155319936531160
                  0.13068092820582399849
                  0.22525133444199593735
                  0.09106779330926711991
                  0.21831479382695928582
                 -0.26538013432436263761
                 -0.14716754395889786178
                  0.07613403162439361105
                  0.13371248264285487406
                  0.39312670814439321099
                 -0.17109415492621193877
                 -0.26010012128575321633
                  0.04947828532841853921
                 -0.07837665249881327345
                  0.12113564983423352750
                  0.17647076368959066506
                 -0.22787567551830698043
                 -0.04543533394815237741
                 -0.01682935022210380396
                  0.26613394343115986951
                 -0.24017176265382722544
                  0.30857150819721629320
                 -0.37562556109803812987
                 -0.26856707405806956590
                  0.21983730421586386572
                  0.25949225261762204342
                  0.16790432767257670865
                 -0.02212036648117483503
                  0.24522807104437543968
                 -0.21165792497533611471
                 -0.07928675568510164251
                  0.12671527028993048725
                  0.08106634723829814204
                  0.14090972181265420948
                 -0.09291367919769741301
                  0.25905030979484405806
                  0.67385899838770091375
                  0.15917888126476936739
                 -0.21607685058832304392
                  0.07671540455935949021
                 -0.21753450196537865713
                 -0.00226256499785522499
                  0.34915694597538809996
                 -0.59599957380758961101
                 -0.14625328243264473782
                  0.17609680429062618545
                  0.09822383644391226298
                 -0.24833923674708321960
                  0.17629442824438285031
                  0.29526828625148426877
                 -0.14378528414163638249
                 -0.08430111008718996213
                 -0.13141238292430726387
                  0.04675984875902921417
                 -0.02513598914512476384
                  0.08055081217822160355
                 -0.25528199218086106148
                  0.13674032808584951626
                  0.27619815097987515662
                  0.49916377662295918771
                  0.09588321118543742527
                 -0.41991805550142330405
                 -0.16395579806099266906
                  0.17443962384757669137
                 -0.31489606863549379767
                 -0.15490959905943682551
                 -0.21591893948536361458
                 -0.12986203687486064240
                 -0.15756442231091194461
                  0.08600183116740749145
                  0.15481631829479616802
                 -0.22005760056684853243
                  0.32132925471513751337
                 -0.05912157845425466962
                  0.03074565290836936762
                 -0.15584759508151443952
                 -0.02104472194863416662
                  0.16000144514444222810
                  0.06573158970528790446
                  0.19782217431515494721
                  0.25368808818261756599
                  0.33625004647506501199
                 -0.42076749437510180263
                  0.05372947634912349918
                  0.29438384512437981710
                 -0.24920670238070438685
                 -0.23178716233605015096
                 -0.36017386800624889842
                  0.51680433462062225214
                  0.18441887309192908639
                 -0.10400107773235059416
                 -0.24503404601424624842
                  0.06246721938871506452
                 -0.17561892958975086620
                 -0.46508176520592370284
                 -0.19225905547527991080
                 -0.09928061284667583086
                 -0.50916051820025565178
                 -0.20067203058053906251
                 -0.09739724643325120557
                 -0.16353446676501448565
                 -0.03413831858840742084
                 -0.07477940981255019881
                  0.18738554487696040818
                 -0.02193680687289464165
                 -0.35435169586736198211
                  0.31219861432444695470
                 -0.30535161771294483390
                  0.10547730364541500758
                  0.09219557130372600662
                 -0.41552056367623901867
                  0.00108296102829176077
                 -0.27407260535174576832
                 -0.25298515985253200444
                  0.28381035481683580812
                 -0.19450315682865215727
                  0.07975801250379518925
                 -0.11029803754455994036
                 -0.11767358511730420523
                  0.05583695652039724622
                  0.36275196577745094650
                 -0.42070284636031568537
                  0.41727157939475029158
                  0.12779087475517372785
                 -0.02031007324405742151
                  0.00109416484388514070
                 -0.29993772191016115913
                 -0.29949685666641040482
                 -0.13578193447588629561
                  0.04269940069217126322
                  0.00795271721783352530
                  0.18971367821600870762
                 -0.08441101594003465325
                  0.25757920219864882672
                  0.10158921255175785980
                 -0.08476960344590873941
                  0.06861418370688827928
                  0.17066691743764905720
                 -0.31144023131151454820
                  0.05228646257367696587
                  0.44882916247390480802
                 -0.13894964628592795797
                  0.16554526149610568342
                 -0.36353018309246032391
                  0.06943932864765399449
                 -0.05705202933282746414
                  0.22728013010258191207
                  0.16576885804220092835
                 -0.32942688145447041048
                 -0.04262517631067959389
                 -0.14853869144146869541
                 -0.10534644107220590692
                 -0.33022713093893268921
                  0.54624974651810587201
                 -0.01573213757848770933
                  0.40361611769513244807
                 -0.20532676850299594329
                  0.34533105885738307750
                  0.29106908375667361888
                  0.18285306335802628541
                 -0.44376342301563098669
                 -0.03904731358630109117
                  0.09523642532996129395
                 -0.12242363574412759575
                  0.29902512234570177707
                 -0.27333733055851344718
                 -0.02195134603481284016
                 -0.17786055986618121150
                  0.29341387190038492605
                 -0.01844048483952798884
                 -0.06317849193135852137
                  0.10661095764363451299
                  0.30792357887177501663
                 -0.15089411081519138458
                 -0.29966012786986306882
                  0.07593479130713519376
                 -0.14197772579708725638
                  0.06091017596604158396
                  0.34115884416180602967
                  0.07525571776521247647
                 -0.07407059925133617495
                 -0.13197975427129063353
                  0.25100428427444088086
                  0.03011790712111269905
                  0.02670600267089043647
                 -0.15569467508726728133
                 -0.13797156038810107215
                  0.14295830621832916751
                 -0.12333849183484879575
                  0.20033831218291614507
                  0.24032624207397698668
                  0.40332790050553646299
                  0.26045488712523323649
                 -0.02982864138672180337
                  0.30793338448470819468
                  0.31876044530324804116
                  0.09023671124969392943
                 -0.00470879366273613698
                  0.52590065471783342677
                 -0.18560952703072713943
                 -0.06166475382317602311
                 -0.23029960018944459210
                  0.09190799915759419181
                  0.29876571919462296956
                 -0.00721773856713406672
                  0.39218497589832296280
                  0.20292206954843522437
                  0.19955336579912569261
                  0.10461938190326168507
                 -0.06927068565330755934
                 -0.15344105323387152717
                 -0.12464868269214657293
                  0.04830913015523305432
                 -0.12228816529971132943
                  0.16743622989839906934
                  0.28809702527916974946
                  0.27491058445851901393
                 -0.01609330445297840056
                 -0.06389541455184272190
                  0.25973999053386442881
                  0.14060298859812797589
                 -0.09428471826285750312
                 -0.14440827787794904835
                  0.30273667575216078873
                  0.25780216830996255384
                 -0.00483531255796589531
                 -0.31694628269494307116
                  0.07604361519954992710
                  0.26607532165831832005
                  0.27939492516960467983
                  0.05547360160604568324
                 -0.23861067485455353387
                 -0.07782292696319748071
                  0.20126731556841487292
                  0.35551787971137355227
                  0.28272367400596826181
                 -0.13703587004665376825
                  0.06172602850398730551
                 -0.27288679175731000992
                  0.02320232749535067196
                 -0.09966922493599006394
                 -0.03959774973662148062
                 -0.15258591846927899160
                  0.41399746182205060530
                  0.11517716946914492715
                  0.35145023789086499155
                 -0.23784525829183414403
                  0.05095375893274939338
                  0.18687316435265929893
                  0.18929289886334507709
                 -0.03538407463933625208
                 -0.16297098714934202257
                  0.27009847308081297301
                  0.00528690130019969593
                  0.29754643846807754537
                  0.25989899907408514634
                  0.10495219019459406384
                  0.09897824848811871690
                 -0.34966650495155526812
                 -0.28303500152567545589
                  0.22491622835303307082
                  0.37236956596015541310
                 -0.16147687458704518271
                  0.26910899458232712123
                  0.32111065207292455170
                  0.02124508934776997079
                  0.21786411847196970881
                  0.11587177734939915763
                  0.15471573312732408989
                 -0.20372310785166192204
                 -0.02481696839581393199
                  0.10504787061615709909
                 -0.18348726814708257726
                 -0.27340285354710991417
                 -0.42001318212813737452
                  0.07818379268912777069
                 -0.17385412686450407715
                  0.25449536756232177259
                 -0.22296953428781729478
                  0.19245873984128816780
                 -0.99886170587346401195
                 -0.08177060331346773514
                  0.07029032328821172015
                  0.14084124937063652316
                  0.00334829451129806067
                 -0.35055311569142449946
                 -0.00692837353694733364
                 -0.36118362263743841734
                  0.18500623415785588666
                  0.04551124714831428913
                  0.19016720103467948944
                  0.16159194341274046858
                 -0.08352932228987872132
                  0.03503079274123954701
                 -0.01606751762171929054
                 -0.16111048001107042271
                  0.32110841886100549569
                 -0.57478662472879293865
                 -0.15688339601504255882
                 -0.16761395184841532124
                  0.08912903780307375456
                  0.11037253615333163237
                  0.27449488389904369567
                  0.35373568413050926473
                 -0.26512844493301540583
                 -0.27080647905895954830
                  0.31667710606335314205
                  0.15235974161519669212
                  0.03955997488044757371
                  0.06046344104651429907
                 -0.25304109550451420185
                 -0.34943193141057554696
                 -0.04169893840450621114
                  0.22033862394817724240
                  0.23618241462727240787
                 -0.12940107932004898950
                  0.24780323378380919586
                  0.06367903039185909830
                  0.05826282258341348302
                  0.33709561162908135978
                 -0.68229443637042230808
                  0.10224100746101104364
                  0.14086999771620434263
                 -0.01283990978009318974
                  0.15052687243806578410
                  0.17511701196576429096
                 -0.02035391362082099309
                 -0.29613549426971519374
                 -0.68621536883495892756
                  0.13204458583648126524
                  0.21357333550153723145
                  0.09420877732504383262
                  0.11986639717632557867
                 -0.47738242625448223944
                  0.35072310443193199792
                  0.29842777813548371224
                  0.26712470571871471670
                 -0.10252510804445751080
                  0.06501801125849290819
                 -0.32315597108726612507
                 -0.14095048296912682240
                 -0.17254479192769589524
                 -0.30755102144049845103
                  0.22321042901001619807
                  0.04086097659887971689
                 -0.21774495402269816724
                 -0.01611903456966459758
                  0.05344341636914232141
                 -0.24017908852171457323
                  0.12717685537912026827
                 -0.28962240694815671871
                 -0.26604113501667081554
                 -0.35673322398533929833
                 -0.17017814466211286795
                  0.05870411495812621894
                  0.28349014318002574431
                  0.20346357478726379009
                  0.38293659893548387396
                  0.23876672931150802470
                 -0.34239203487780117685
                 -0.32029461972759598609
                 -0.28153489988631047458
                  0.04631620485649697722
                 -0.08829730235230841273
                  0.05184035792092492323
                  0.17627864054231434654
                  0.18050019289654689603
                  0.46267512533779764361
                  0.09779911332344387587
                 -0.20149375253180840106
                  0.09640365523367305789
                  0.36498867131285611665
                 -0.21742816787024274450
                  0.02526621824310554265
                  0.06427272377475259924
                  0.29613744454808110795
                 -0.25728894425168263860
                  0.00856398249029867963
                  0.14225304389491133517
                 -0.07394754947122972322
                 -0.05486551681831465521
                  0.10756802477347136848
                 -0.18118534056917251496
                 -0.17240103873214121522
                 -0.13416042877800354871
                 -0.12906409335158136598
                  0.00755104462742312195
                 -0.19262829981859033723
                  0.06662715294981574887
                 -0.06996939057980541832
                  0.33570078589283414150
                 -0.05688376506895018864
                  0.35163601706022512561
                 -0.07592896260079316784
                  0.10072182952292833835
                 -0.02092425112884037028
                  0.03734479462627022378
                 -0.25721517041285796301
                  0.10652779825770992972
                 -0.16710369094101604204
                 -0.41846236779473072742
                 -0.01638269462062320533
                  0.15407256950976344623
                 -0.02631872967887733186
                 -0.12785227428868162214
                  0.26875423719853930304
                 -0.03378659052213973252
                 -0.38548818181508515135
                 -0.04092706251596423678
                 -0.13602237829541913294
                 -0.08132064806113228905
                 -0.06232366700345886440
                  0.17695146990252780261
                  0.18815211521404276440
                 -0.22370538962284311491
                 -0.51737282103991755200
                  0.30408329161171510080
                  0.07598228500650405781
                 -0.21604348459711558705
                  0.39806610201128367343
                  0.27183937228366594763
                  0.08032665712539333036
                 -0.12068584601527207467
                 -0.04267493913709798081
                 -0.19787581420798133758
                  0.34800770224910471118
                 -0.25738866765606804865
                  0.12701718954844457010
                  0.49859826273619145542
                 -0.19040105854389288709
                  0.04985495172691619542
                 -0.32983198534280766534
                  0.04759627664582297829
                  0.26584504344390252895
                 -0.01968442971677382414
                 -0.42281554076673416587
                 -0.10180834234238013425
                  0.04537294963202740533
                  0.30058060797371893846
                 -0.19025936432865470094
                 -0.80825892216308226068
                  0.34678705608588933362
                 -0.05372614673580105443
                  0.16378604782369274306
                  0.42886745805209380844
                 -0.26091087480874036730
                 -0.42006472008734885293
                  0.36255883726118481869
                 -0.69530463108077866785
                 -0.01180198379034337261
                  0.03506563700504063824
                  0.09287734674783813815
                 -0.28261342521401144889
                 -0.12535365250142618820
                  0.30805902964491110874
                  0.31007387628903138044
                 -0.30744887931561565297
                  0.05242573392937058263
                  0.19705650555354059517
                 -0.06230595787625765880
                  0.15583917965863733346
                 -0.13211164347898687876
                  0.17745319946021687052
                  0.93829692677316600680
                  0.15176139138199037926
                 -0.25492019393365689117
                 -0.01817193893307533434
                  0.18345264428895502462
                 -0.06039146932000154927
                 -0.08698955757578390180
                  0.35989447204966062976
                  0.32261268886107208331
                 -0.26800010806761104254
                 -0.18838461312930473990
                  0.24635779667853363595
                  0.19973448504947102777
                 -0.18889291203039332290
                  0.10619478105477535290
                 -0.12898226185520222931
                 -0.17032571279818320420
                  0.12684695649877247847
                  0.17629552309247301101
                  0.25419547936508057884
                 -0.12043158087294884850
                 -0.19072871009872202630
                 -0.11493984488854935844
                 -0.20484738997897725121
                  0.06104991818527581715
                  0.22864147323470296325
                 -0.12194595058685858691
                  0.11374813021169129235
                  0.58394675503013127038
                  0.06521424918742511900
                 -0.07821111332330649146
                 -0.19033061630583164581
                 -0.24609576155855258928
                  0.38840223217315439364
                  0.34472745829851619837
                  0.21773839557072027784
                  0.43118562336696991677
                  0.06000547789882945682
                  0.16864378825398892991
                 -0.40273307038109290579
                 -0.16854694943676190588
                 -0.23665842164279859983
                 -0.00518356703718477613
                 -0.32843579060911504142
                  0.01698808590154025563
                 -0.18297795911046721429
                  0.25962123732289632549
                 -0.20925594308916534159
                 -0.25239181740440064239
                  0.22682996113709466557
                  0.11990006287942138463
                 -0.03715166065067801449
                 -0.28093266317834947321
                  0.10197170105375795435
                 -0.21673630638290150574
                 -0.32987259599303320190
                 -0.23364405667254647958
                 -0.32787665189370490681
                 -0.21060789995955309095
                  0.22412270516484528171
                  0.08982120382922029189
                  0.09539199853882858460
                 -0.12383110541304373498
                  0.05642993385193589145
                 -0.19328459786856214131
                 -0.06047999059165487523
                 -0.41047474091694485798
                 -0.20416163948867052658
                  0.44302487440711246780
                 -0.00556639274973809179
                  0.19176262317289977100
                 -0.32075853073326487941
