17	2	1
60	60	
1	4801
  0.1097596007005301	  0.2943193920769965	  0.2924339101269085	  0.2603616245285061	  0.0778066094245651	  0.1051704809146511	  0.0421125323331656	  0.1003900455996312	  0.0421781852991737	  0.1004776369011362	  0.0354781600503970	  0.1974960158350832	  0.1059717839246977	  0.0240943953573419	  0.1632715330323984	  0.0866793179321793	  0.1355765665767961	  2.4923610437883448
  0.1097598533684604	  0.6293451974394532	  0.2924347734780516	  0.2603620384192838	  0.0778067104576847	  0.1051707699282368	  0.0421125323334609	  0.1003903946026150	  0.0421781852992898	  0.1004779128716919	  0.0354781600505015	  0.1974961813356134	  0.1059719077967143	  0.0240943953574057	  0.2692022392084173	  0.0866793179326926	  0.1355765665769674	  2.4960509069169281
                 -0.02711435747849914868
                 -0.15984285810100801184
                  0.44256237344896631747
                 -0.37809787292160984551
                 -0.89971142283775484838
                  0.32897913889400087761
                  0.02262468098462083049
                  0.08369400462096529547
                  0.90979561588508295333
                  0.43002012038874809496
                  0.39368380263378105477
                  0.41217676234723138462
                  0.18642353081506538026
                  0.40876898887138329863
                  0.06900515203777446427
                  0.13080752055238392684
                  0.47847666612380013174
                 -0.58493551732168602708
                 -0.47055997654560455246
                 -0.40734600314629065831
                 -0.59456506586288726535
                 -0.42115430624847177699
                  0.70987330952216398661
                  0.23496516048383223052
                  0.24317246876378628695
                  0.94863799291467199026
                  0.83307670268743516662
                  0.30437330421432806649
                  0.17272183356173012592
                 -0.01356656836852598511
                 -0.23941963627284590377
                  0.30912353413661947110
                 -0.17469199843688135165
                 -0.34288033067708506563
                 -0.91610570494716492274
                 -0.27356991929892343629
                  0.51889885594488271980
                  0.57425256832890958503
                 -0.00654932808101730234
                  0.99669128905415915742
                 -0.59155967604701453766
                  0.15043662951022976348
                 -0.70486820440756281503
                  0.82296121663103560806
                  0.46247619734475237108
                  0.54798238543728394756
                 -0.25456935645087752640
                 -0.25150194029437489274
                 -0.12854724997823827048
                 -0.11376533194689593398
                  0.19375073176320198320
                  0.71666830355319266488
                 -0.47731249019047616855
                  0.60473018186173188582
                  0.21657171709795328129
                  0.52754875976076820443
                 -0.25877791325498733510
                  0.45968634648566386591
                 -0.40782708469982564825
                  0.57426994229030436934
                  0.45399234252103465304
                 -0.43510342233767690390
                  0.60317804154038123787
                  0.41784423729756708932
                 -0.08950203235216254438
                 -0.23076465066609927468
                  0.26563150986615996496
                 -0.13545470542900017730
                 -0.24025791149858463647
                 -0.18560646400375654941
                  0.42891897383806831812
                 -0.32013286410147850924
                 -0.68253863223333899324
                 -0.04665445764327775385
                 -0.59171725876875636008
                 -0.46430713563897080265
                  0.94855408560151088793
                  0.78949162668803607446
                 -0.52472720406339767862
                 -0.52961522284741402444
                 -0.75928521050087016686
                  0.26501212075431707094
                  0.53427714396703251953
                 -0.31681638959346769546
                  0.37114936262659131705
                  0.35238153167159075307
                 -0.52136152588154638376
                 -0.46121301337776327012
                 -0.89882369925537453081
                  0.09030380311114878655
                  0.36043170289610088064
                 -0.31263999467478170713
                 -0.27159665629560669764
                  0.47943974022451574246
                  0.20548732432174726670
                 -0.33847752896638549913
                  0.30949196647927268433
                 -0.45805456280531958724
                 -0.19934130017648538091
                 -0.42996753814854687947
                  0.40616764900874663402
                 -0.55961544747915947795
                 -0.12238558078944258845
                  0.68886097859122275011
                  0.57908665350974042330
                 -0.11046628144594390630
                 -0.59711349710673788937
                  0.19679907244235861352
                 -0.62018044810364825192
                 -0.79526747762820682031
                  1.32755837110496055509
                 -0.08032532933897026939
                 -0.25025547736369496699
                  0.09730713067912181991
                 -0.17465529761901468775
                  0.28817519618531017844
                  0.07123249242707473117
                  0.24944755467435791862
                  0.03347553886133139422
                  0.14887270528657062241
                 -0.32281623454684116314
                  0.12247926579312017059
                 -0.13743329610296139975
                 -0.29330480672842973444
                  0.71646275637566836370
                  0.52574239912724607393
                 -0.89253155993609700758
                 -0.34740401654192926140
                  0.26956952853430055095
                  0.60451688650855539553
                  0.84186844713535802232
                 -0.03956623221613891211
                  0.36005976803851696966
                 -0.15968274990342515296
                  0.17836655292253428273
                  0.40336874492106161716
                  0.10179052701065123554
                 -0.66256167911973051776
                  0.23279335166039363814
                 -0.13344515556912944776
                 -0.67189394344119901525
                  0.46511365230222273537
                  0.57689854841707566280
                  1.14706492076666211055
                  0.45174452240068713182
                  0.21197970406405775012
                 -0.05334718113835609787
                 -0.44930124141234312196
                 -0.62158448328405624395
                 -0.23687562381734159067
                  0.29558944746361121014
                  0.69329998485113908391
                  0.14524361125462367794
                 -0.10398152496686945134
                 -0.66072888623074632619
                  0.93277252621257866760
                 -0.75145480767039207759
                  0.13945613292760361546
                 -0.79737963625807029011
                  0.29497726481534730647
                 -0.11213467547898088583
                  1.62716506008012684603
                  0.05008864710913474988
                  0.54180695783319110514
                 -0.45597591713251200973
                 -1.05265258493813607110
                  0.50842194067660273493
                  0.87756446147129318902
                 -0.50722101260524743438
                  0.37768983391732130483
                  0.62223608261372076456
                  0.52339893934155323763
                 -1.00427278985912749043
                 -0.41388921879440537799
                  0.74565505900632789160
                  0.55373169106781339188
                 -0.39193847495514672064
                  0.62633126288315099650
                 -1.22072225569896164465
                 -0.80697811544677422457
                 -0.28515697559886987733
                 -0.15451092939974600537
                  0.54406954765414150543
                  0.33996884037368740872
                 -0.37546159671266660096
                  0.72841082899024400810
                  0.07762022222697116669
                  0.38636841522366821566
                  0.61109293235302308833
                 -0.86371867246828748499
                 -0.50296873994232638161
                  0.40081829044542943707
                  0.47699106764037618733
                 -0.29394968782959518538
                  0.15219326593914722645
                 -1.58012438390496501306
                  0.44126813563255701256
                  0.40924479828254523017
                  0.65261494755274096491
                  0.16063605875954378721
                  0.10840741039961934722
                 -0.21417075723007333865
                 -0.43851202653429149914
                 -0.47673795624526682513
                 -0.25382103159780228241
                 -0.40983541419503194403
                  0.74787883214837658219
                 -1.21860044034918257871
                 -0.64313063959193250696
                  0.15611808676197899692
                 -0.60788606128371780457
                  0.39112282701859452105
                  0.35965290705308583519
                  0.91190661208098355850
                  0.40992657086691131063
                 -1.13493400125825738556
                 -0.44012845667946015604
                 -0.01804606703789643149
                  0.27255784412745348577
                  0.20009448587508923967
                  0.33026594193501673802
                 -0.51757130805270357143
                  0.54181693584897372418
                  0.74451649773234596097
                  1.39648767403702667167
                 -1.04282522998705529105
                 -0.47297381441437785776
                 -0.13122799610727087227
                 -0.45048565081539704291
                  0.33400986914647190495
                  0.86743411181023077905
                  0.82707908430902943309
                  0.91251674436389440537
                  0.60672903531215949258
                 -0.01287439567182319111
                 -0.59830316392630922273
                 -0.33714307351972128135
                 -1.28484162575409577300
                  0.01709657702856431233
                  0.48349984316641636539
                  0.49920127532489577682
                  0.06871609508196788174
                 -0.87518841765325983140
                  0.12395110573278080024
                 -0.32011416041162649160
                  0.04259212913166594838
                 -0.59666437433661534406
                  0.27293938704903408787
                 -0.31847502071877303864
                  0.58178126463576018690
                 -0.20855018173480407984
                  0.84554794251222631374
                  0.48848910618987595456
                  0.35638576708630181900
                 -0.37530651106501927705
                  0.19594384352813967731
                  0.36475589943410319238
                 -0.53658512075725051105
                  0.22487609638688049740
                 -0.51574112098223734435
                 -0.39466586088616861794
                  0.24878051568853082332
                 -0.15664806215217561003
                  0.53462270000974243533
                  0.47907858475100778550
                  0.54540958574255249403
                  0.20292283252103801572
                 -0.29207153906476779337
                  0.45034345057578389904
                  0.38415321594591206322
                 -0.42139068736343926469
                 -0.69561988255088647026
                 -0.21286967034467987880
                  0.37992465091025834356
                 -0.49584507290852009032
                  0.16434823322232286480
                 -0.17507961371231572922
                  1.52343316657663740976
                  0.51123090785963998250
                 -0.82917795229977642180
                  0.23969033993743005251
                  0.86190530258363462490
                  0.85961063160200823496
                  0.18009720265277517903
                 -0.68252623124486411221
                 -0.67482696006886688789
                  0.04006587832006665989
                  0.07114896552542594732
                 -0.63262291819893734512
                 -0.64098505785048043304
                  0.51215723540337554365
                 -0.07032406717184935818
                 -0.24985071436524236566
                 -0.19492010794335676294
                  0.04117166305264159665
                 -0.00387974024144132961
                 -0.39487042751414475061
                  0.30158649491735189940
                 -0.08978651382296855277
                 -0.03394181697755807581
                 -0.55144465241510720599
                  0.23537800596997146552
                  0.45860330485813483037
                  0.20280439053424184626
                 -0.78721948965616639349
                 -0.41709931510914316499
                  0.12803733466819239295
                  0.34544904196684117492
                 -0.64222376882227771855
                 -0.02685836066972513425
                 -0.14259547843074468765
                 -0.52148238239888089485
                  0.33586610747408401911
                 -0.20221160909789279159
                  0.26051845491940761601
                  0.51208354307456160903
                  0.51194369897402902669
                 -0.47463977837978699181
                 -0.66209595881084082336
                  0.74614433621639464356
                 -0.56608846931512424305
                 -0.43999381663880987592
                  0.55238298482348036078
                  0.28183357151866611501
                  0.51136369948750493020
                 -0.87483596803144847431
                 -0.41128114451099395676
                 -0.09099347270077613736
                  0.29614951613688045295
                  0.22919363162170119930
                 -0.48064754142592330810
                 -1.47588411258421259298
                 -0.60445565334837958460
                 -1.24855848270199021322
                  0.58836223691974731675
                 -0.18810696291312015149
                  0.96743242188288025574
                 -0.12740649982486215719
                  0.57148480279555935457
                  0.49429852530297418989
                 -0.28086761493037559756
                 -0.60286997110508466768
                 -0.42537124793727382199
                 -0.01983241407693339675
                 -0.62860667971804828902
                  0.43171530320359308153
                 -0.47390275050388575018
                  0.85501844119614855977
                  0.61370835957303893071
                  0.21178145771423281807
                  0.30895874926586092135
                  0.45569036778429800050
                 -0.67216042975848477870
                 -0.11216608750275258721
                 -0.35905242114167601475
                 -0.15947903235261839949
                 -0.11024098083790465075
                 -0.37968148243397437103
                 -0.09771514575545316161
                  0.62016941174750517263
                  0.09620869499020988369
                  0.25658315380065632727
                  0.28691019195885103521
                 -0.19872264473126355355
                 -1.03962527143822525133
                  0.02782222226900360126
                 -0.16059066011332595592
                  0.08760776246595924910
                  0.45629682412774608125
                 -0.18352926093778917926
                  0.00294388091686899724
                  0.50053386588116766109
                  0.82664728027347411654
                  0.60268870795431273013
                 -0.68048211941034197903
                 -0.01228516813513424316
                 -0.32745962600501554718
                  0.59442140072040605681
                  0.16281405117315905784
                  0.92525803548704999013
                 -0.24695729347844239121
                  0.36187084347658116101
                  0.50422317296037355572
                  0.73049431067168568710
                 -0.45101829031183954255
                  0.58856534775067126386
                 -0.25269581991033202018
                  0.37943089967611864921
                 -0.93203180119986384078
                 -0.30760939271138021400
                  0.09534344132413165307
                  0.64114847655548523608
                  0.57663053973628575211
                  0.71303134198886952699
                 -1.31841186061889614756
                  0.61938637248314798445
                  0.43415673210361943601
                 -0.05295169654585364649
                 -0.27111892473943816073
                  1.18741215461729576752
                 -0.47251649213944363348
                 -0.40928409086663780636
                 -0.97101850779503140476
                 -0.43934241943723628676
                 -0.51245864909879701443
                  0.23695651318030072630
                 -0.29647353570667406286
                  0.42144648472503820624
                 -0.61559600080413212631
                  0.81486800847871476705
                  0.07148451572442521273
                 -0.66766784728323880227
                  0.38417412181503363122
                  1.04329931738290238030
                 -0.87700830438154564472
                 -0.03157861830868586434
                  0.26459028332860029531
                  0.57929460063865989561
                 -0.27396728152979121784
                 -0.18475995918492893466
                  0.39979420841626628347
                  0.20599630869940779854
                 -1.62749156692478558206
                 -0.05329025797815821475
                 -0.05831603225535840485
                  0.57790965922924153464
                  0.39546150469274587991
                 -0.07328975611739906026
                  0.09533260991446543264
                  0.65180651991788540744
                  0.59827689616766710490
                 -0.42386979483491249443
                 -0.07285543162904722925
                  0.48894738096836604102
                 -0.69971519858615294218
                 -0.39027729877511363465
                  0.48123161127615160515
                  0.35255268899323799481
                  0.15297294598186814141
                  0.36539685807338562196
                  0.37392833361902372280
                  0.34031770899829211219
                 -0.22531862111324094111
                 -0.59840257359609594356
                  0.47695706913508217895
                 -0.03892454284072355275
                  0.20896955139592604533
                 -1.00569339247171574137
                  0.45146155481099364826
                  0.24563366368560310415
                 -0.07545242258997500451
                 -0.32294415429606904144
                 -0.47395965497540326616
                 -0.06805746610383911488
                 -0.14738405592856973492
                  0.00929492990787513483
                  1.02324587415944279201
                 -0.44081529705726407720
                 -0.13918122924103379368
                  1.03447479602677772093
                  0.87340386934068681146
                 -0.64192180248320984681
                  0.04183886606221930149
                  0.83288644240094211746
                  0.85758448756923144618
                 -0.19224605974960748411
                 -0.76783483794101947684
                 -0.15874926683446460851
                  0.25830822893910632132
                  0.12823829887039106534
                  0.56629125560458437594
                 -0.08708556688186822048
                 -0.71542633119798515473
                 -0.41448477878317407930
                 -0.01686708446021675453
                  0.02110038415559568545
                 -0.24284986969596530915
                 -0.75480401762735471749
                  0.91184845736247899239
                  0.11639572097510268722
                 -0.48615469936416227936
                  0.32685784015745616982
                 -0.36930935575969442430
                 -0.59804031725423367760
                  0.55934131977411594150
                  0.53374533054012274214
                  0.86974513135584397006
                  0.08978019977018979192
                 -0.75095945208399450532
                  0.24272247883049111183
                 -0.64056295193994794435
                 -0.16060935430673856095
                 -0.37901719753520324296
                 -0.41406734234057612776
                  0.61564899186078969606
                 -0.29580046396546250120
                 -1.32769240716294434357
                 -0.15456087982505231637
                  0.44017252030142750563
                 -0.54606785576379490710
                  0.40844481251915509823
                  0.84869361617890115568
                  0.80295834659830744862
                 -0.15602948565409555104
                 -0.43753159042373401810
                 -0.06936447845046245231
                 -0.62619183923569088357
                 -0.40090227354568402918
                  0.77692701225785287811
                  0.49815440524218307372
                 -0.23754674892870547565
                  0.13945378292778937146
                  0.38976689043568396587
                 -0.14420355584956087713
                  0.64697511391728046437
                 -0.09319927506869497835
                  0.49629239970198785192
                  0.13355308389343092945
                 -0.85801477900400202614
                  0.68680575216731742927
                 -0.35885806829773070348
                  0.15731781514491208207
                  0.57395968685281351096
                 -0.01257516584742441289
                 -0.22777981310697628659
                  0.46374941850898160345
                 -0.54392464098154558183
                  0.53517033494097754343
                  0.03998911147915377995
                  0.03539116563468105298
                  0.48824116242160392476
                  0.24514783230916831203
                 -0.72876719090141572899
                 -0.43595421275761925273
                 -0.61797232403786872545
                  0.39130223413851439318
                  0.35415224875294121221
                 -0.18321009476455368814
                 -0.00438963393167199779
                 -0.30168925478836222664
                  0.33871810454088085995
                  0.72358642756828284170
                  0.67330768891633763218
                  0.24016570945343596044
                  0.97319186361363574367
                  0.43633372307965384573
                 -0.35091083368101932960
                  0.83088939224116187265
                  0.99077068436284743136
                 -0.18806516399503434012
                 -0.40325125975271991496
                 -0.51964287133814146546
                  0.28036517924218834485
                 -0.00527503079632928897
                 -0.24154734789725226807
                 -0.05646585729830250200
                  0.66896110650069473547
                  0.36917836532953129947
                 -0.71714256591604019775
                  0.01105730453468137253
                  0.11094505331426410266
                  0.30374509368066848758
                 -0.40155968176923578783
                  0.13986525115565562327
                  1.24499175535307871066
                  0.81780771833406173954
                 -0.41461775406441603309
                 -0.43521801104404633787
                 -0.01712262266042277603
                 -0.55011407177374849198
                 -0.68936505243061152459
                  0.29010897949555630726
                  0.78572829937710297887
                  0.11382304950476528072
                 -0.13090260013663304606
                  0.11518523198293288690
                  0.46100092883760873663
                 -1.18431307252876427683
                  0.53189323925832132645
                 -0.15703918858112839163
                  0.64083351631982787833
                  0.44053706339209530718
                 -0.38449496907991786987
                  0.31981540202009067775
                  0.33587586202548935788
                 -0.18481067044064042326
                  0.61387403196245315939
                 -0.68451763201778847989
                 -0.56420271174195757435
                  0.08605777700633768235
                  0.29372498564154481127
                  0.71371679151444222811
                  0.52044566256700408591
                 -1.00562658993858655698
                  0.15986381274208039116
                 -0.43826438600487621633
                 -0.27879852091023371585
                  0.27364507556149825218
                  0.19192355724465029465
                  0.60211836296839382765
                  0.53612731925413992240
                 -0.69123355015504239773
                  0.43699704699790625773
                  0.56230511596987242662
                  0.27541653471321042579
                 -0.58606004449869697481
                 -0.40770669600472547733
                 -0.22990845337200724319
                  0.77113120764057097034
                  0.55133473872832683416
                  0.26249563867812275575
                  0.25345594726813008846
                 -0.61479846343142208198
                  0.27869389533852345631
                 -0.30568875837675313356
                 -0.83334307292560594327
                  0.46317866775223304199
                  0.68535811606400265372
                  0.42200139341612874500
                  0.06552601665322344004
                  0.17439420774356467758
                 -0.20541934905905165354
                  0.39487781132682953089
                 -0.86815675322953855808
                 -0.09923615216174305753
                 -0.12114045798462023951
                  0.05127285133413218843
                 -0.21920256838123722276
                  0.59686398207575319663
                  0.28905922836433872725
                  0.51565581263962190217
                 -0.53046941500568034478
                  0.40495828507699060950
                  1.13924374635392444688
                  0.66702961492477907957
                  0.31237534284606349733
                  0.28037155912303446392
                 -0.44268047632291984694
                 -0.56924088805875261432
                  0.79734636792405078065
                 -0.06999406508443435648
                  0.50739371502105579115
                 -0.34290882409404571662
                  0.36512150411552141138
                 -0.69002393159314789894
                 -0.56771769801003280076
                  0.45740683292125694503
                 -0.34127835748211621247
                  0.06128443480861978099
                  0.51187518626926808984
                 -0.72325578092709486011
                  0.85030245932371406603
                 -0.46617144179369585100
                 -0.86281493760625294076
                  0.71294998618537475110
                  0.73145706173972524500
                  0.04757503624195775355
                  0.69230755819946765417
                 -0.35051844030931644802
                  0.37658261361089417907
                 -0.17566073631440468072
                 -0.64898551291164774391
                  0.07455220276009927316
                  0.54893980925958496542
                  0.08234496843620893458
                 -0.57804016295842686191
                  0.44607680430850371600
                 -0.46272477542436407649
                  0.22329318450016019670
                  0.23775365096164674528
                 -0.14824968664226331749
                 -0.70966195916871177563
                  0.14734344562704645987
                  0.03952133139229260100
                 -0.23027831259769088179
                 -0.07134649754093999596
                  0.57786620962091195253
                 -1.03339212041923578234
                  0.32552688687922204380
                 -0.43306546131953821410
                 -0.30477148036563994626
                  0.88424897404020352809
                  0.30398958944232740143
                 -0.33168472517702696223
                 -0.10093866826969302708
                  0.02125838307644921724
                 -0.70516562152316675238
                 -0.24648650456515949769
                  0.91269565270370878185
                  0.56526199223144912853
                 -0.02543290310684817590
                  0.04430858024259288347
                 -0.02869797640922722159
                  0.20714781311957766730
                  0.37464055328005418932
                 -0.63846483393630293346
                 -0.25895789652347606102
                  0.32149610632981384661
                  0.18359529272277405609
                  0.62958509296336129246
                  0.03250858369455221497
                  0.37183843818939521508
                 -0.06016701874252229632
                  0.28637053618267438448
                  0.58933215717038489601
                  0.75267875385963323165
                 -0.09776768000632941880
                 -0.63056596494112715501
                 -0.04314537217198499003
                 -0.12241403901667305409
                 -0.39397454627835648555
                  0.46966801241475530926
                 -0.58334653353582766044
                  0.44741285394553048649
                  0.65246351037222993785
                  0.05985845246583959556
                  0.22763168721918497495
                  0.11921459273104319243
                  0.81205728314551850477
                 -0.28676023473215861426
                  0.85731850208178872474
                  0.07152415090247868368
                 -0.62980115621443433227
                 -0.82801223104360377469
                 -0.42687779505451539652
                 -0.26334080875375798225
                 -0.26091404305666782149
                 -0.40804769611710639543
                 -0.81993846461019370686
                 -0.28840237638239984985
                 -0.10248780375798617615
                  0.41821184278070777651
                 -0.40237768133886547828
                 -0.34846113549473850535
                 -0.48576143172531527359
                  0.35176975275416733080
                 -0.28493733100443696671
                 -0.84092066135418219730
                 -0.40380597609250185043
                 -0.17148038615371782867
                  0.62642333167041452935
                 -0.30238411630364708804
                  0.26365185002696134298
                 -0.62977368592551019599
                  0.21493453357342715004
                  0.08883917524659837306
                  0.08374222769802996957
                  0.14120727429015719756
                 -0.70350624647994230987
                 -0.25638023438410251220
                 -0.39036153565551967581
                  0.24968799903476893154
                 -0.84334358599994052597
                 -0.05395745150027086295
                 -0.10834751243158842471
                  0.36121842468134324200
                 -0.09197882279500134428
                  0.07857639544056767289
                 -0.09680454174159944247
                  0.47801560955114563711
                  0.73957331625144784315
                  0.62972909185238634677
                 -0.11686899901559298642
                  0.75022626882490850431
                 -0.33242122562463771729
                 -0.48056185415908170278
                  0.21037163656739210627
                 -0.69653343319976257497
                  0.51669077615500913492
                 -0.72967905216449102657
                  0.48423160486092509114
                 -0.37305394688114462687
                  0.70725414046677892443
                  0.45736754466817119980
                 -0.09483514570293666290
                 -0.18315851427107857075
                 -0.53004089671671339445
                 -0.53636855662239080189
                  0.25616675369838137755
                  0.51945997163886947767
                 -0.65598689067196946922
                  0.08518481853016952876
                 -0.30405048197912726282
                 -0.54910799892492268004
                 -0.21496209227037216261
                 -0.83054279183010026877
                 -0.53287111765722738888
                 -0.56455245691955413534
                 -0.02653549434481024261
                  0.64178494571396382806
                 -0.20671288581757937819
                  0.52819643263801230315
                 -0.78103234242776198304
                 -0.74557879985093911124
                  0.20532602135473329574
                 -0.31593585593015649504
                  0.03349850806713270540
                  0.64026408406067225609
                 -0.13520634885261925695
                 -0.66453300466174614058
                  0.02108574743093689224
                  0.66060092906683065550
                  0.07109215723297812595
                  0.56148769107209972606
                 -0.08172928658677712510
                  0.41188348346370107222
                  0.49097050789465840337
                 -0.31944793339162996793
                  0.30021362764563652714
                  0.73023517631939693917
                  0.14268328324174953115
                  0.24248883395984094369
                  0.46410011387344735079
                 -0.39844743457658032826
                 -0.05163753726119688081
                 -0.77240865571276873247
                  0.37145379155919472369
                 -0.33140286136415286755
                 -0.47643569898229481963
                 -0.06323259344953456595
                 -0.00200360331834548936
                 -0.67777288349350706120
                  0.31996339654834732302
                 -0.15030043900429701509
                 -1.05618018576084882199
                 -1.06916493031729453733
                  0.53807669024209603403
                 -0.09557455959219346431
                  0.42812505810518836080
                  0.10012210327036263902
                  0.92994085495236356032
                  0.53464113687433534317
                  0.26418920093282627359
                 -0.90666403019931207652
                  0.38247905928030007106
                  0.34535648582753725178
                  0.27863438260238038158
                 -0.10138917064037562821
                  0.49869712890924255966
                 -0.72179626122971807245
                 -0.48527058976338388607
                  0.23272541426531351272
                  0.31820637911389204611
                 -0.43302039187939839193
                  0.26698906682241302368
                 -0.55441654247958127577
                 -0.38377005329667573941
                  0.53471448648669372972
                  0.05992142177611699261
                 -0.06608491741301641964
                 -0.31108762817598428763
                 -0.04055356312871261082
                  0.06495807589589275288
                 -0.69513754990725895588
                 -0.31881745690729990095
                  0.65501065861392082645
                  0.41369886985922099676
                  0.00836153673986600454
                  0.16217706075963522760
                  0.29640348241102171256
                  0.07974920953244754585
                 -0.67338517067927050608
                  0.09951418180154701643
                  0.02643269540626962816
                  0.59113528905155976467
                  0.81100670955351861213
                 -0.49522512073562424684
                  1.05641554770355816650
                 -0.46100669372124541967
                 -0.27983180338386853814
                 -0.23690499585173413477
                  0.06009967381981156515
                 -0.58657740586894524526
                  0.88602227209481998482
                 -0.44290209346538239599
                 -0.27493475719196358575
                 -0.02970016681899663447
                  0.26373183383710813166
                 -0.43874753111503123071
                  0.72220511796315756126
                  0.16186638246966453258
                  0.47514600082537788994
                 -0.91809008373288492066
                  0.24390120084351199492
                 -0.42315175210705019415
                 -0.26400457361715068405
                 -0.59423268920018501582
                  0.69705144808264318801
                 -0.47033279211422690524
                 -1.06178147298195169057
                 -0.41986109301043139652
                  0.63963666752060066578
                  0.13191998160752138602
                 -0.24366592116221261199
                 -0.39538831621426023810
                 -0.34256568641452389556
                  0.31209610691285305517
                 -0.04491905777599264349
                 -0.03243879247129539956
                  0.08192378590561166796
                 -0.48885433764770086507
                 -0.21487330407731308757
                 -0.85064614181506947865
                 -0.68825129510822680157
                  0.64260668694044731364
                  0.53263367519605808731
                  0.00708178040271394832
                  0.42217185148191582744
                  0.52422254371269061402
                 -0.06141567400138536054
                 -0.42286999656643853296
                 -0.21684594366618373251
                  0.10552550475105500205
                 -0.60668126203151029330
                  0.45692324817738666498
                 -0.24300939450463548974
                  0.10974385611210091263
                 -0.05864191027579200577
                  0.15595013655200068436
                  0.55479286198620336723
                 -0.16149481222639305855
                  1.14800894951620269246
                  0.44056442340747897779
                  0.08948106090123048029
                  0.31646802690362746402
                 -0.13929836042269730378
                 -0.10504686280206911031
                  0.69465486849006830017
                  0.92280628742440329315
                 -0.30753446397340061802
                  0.58716251179444700625
                 -0.55125445913155191047
                 -0.50887039806193745672
                 -0.07114173971641124528
                 -1.16405236729438610332
                 -0.70214976417755503579
                  0.11217686940594481793
                 -0.48143644768987142735
                 -0.88311099205995058359
                 -0.42159256716022536216
                 -0.01021716167555900175
                 -0.21668501349270960499
                  0.58125610985945053155
                  0.19856080308916423949
                 -0.04575944466895508211
                  0.36414994691414798167
                  0.08600166829413855019
                  0.10119088474565814118
                  0.18285008537953403862
                  0.52872764271687322513
                  0.62109514744328742086
                  0.01004197457090944511
                  0.53201315861233411386
                  0.88346687100379650559
                  0.58838855829793912378
                 -0.35948547235413158552
                 -0.38834177664094476912
                  0.43370754382324117060
                 -0.55053686990729755468
                  0.42526691129120491874
                  0.13618395457152640549
                  0.26185592305717070305
                 -0.14477108949301426000
                  0.24928142273699227527
                  0.02851135585726680133
                 -0.25060482650275622829
                  0.44384140680695655101
                 -0.54203390320663402679
                  0.04153350354696809521
                 -0.78860199858708912579
                 -0.48996736084450842608
                 -0.35177668116025101464
                  0.11858305607157464123
                 -0.11047241526795112398
                 -0.02904219605249342556
                 -0.73809816168666786407
                  0.76390537942200054111
                  0.31714172238942522908
                  0.03523821086581818002
                  0.22099571389114464059
                  0.52415633962814456304
                  0.81492276208594682796
                  0.57281692042526732855
                  0.06006136516456489494
                 -0.24969710531371699935
                 -0.18130251210739883883
                  0.38030428612528383026
                  0.09303982253093459609
                  0.57412998931257952506
                 -0.18788305927762538605
                 -0.03540150954293930924
                 -0.70856595744858041908
                 -0.43785674133989493928
                 -0.35944874699125939355
                  0.36667656319532176967
                 -0.55399164716706539302
                 -0.38169946550641892236
                 -0.21388968978397962517
                  0.52332838991246455329
                 -0.04207998514886870933
                  0.42506675657103887289
                 -0.08918323816984072283
                 -0.42120536257515200917
                  0.48868757052135647356
                 -0.45103196095713304903
                  0.43801734797920982567
                 -0.56261130933296965573
                 -0.36368921406637505500
                  0.74386988041674528827
                  0.24528965406264935378
                 -0.50764131271352708197
                  0.12471168537152751976
                  0.68085493119458473377
                 -0.53643412554553193683
                 -0.50751589235740246497
                  0.70415935907040183572
                  0.13608001238414196843
                 -0.19166006320495831972
                  0.37614699274625301717
                  0.71957743756161829385
                  0.03076526137212883677
                  0.00521185306951479563
                 -0.15388048717102148499
                  0.36638087049310208432
                 -0.26717456488485169519
                 -0.34689583073429591797
                 -0.25857291047024838493
                 -0.32169924034173996708
                  0.43007600921385380488
                 -0.41840716990239884554
                 -0.15248840501750562937
                  0.20372591537351669722
                  0.37219630050873014904
                 -0.48026819136690879208
                 -0.01992098213359949632
                  0.37428543141005637951
                 -0.25295045307108315891
                  0.08346858809847235161
                 -0.00555005780146923273
                 -0.19730578343817792297
                  0.48235629970837412550
                  0.25988462812151486014
                 -0.07864731519143365601
                 -0.04612747391769300709
                 -0.28512514074029809974
                  0.11844111993432480945
                  0.20101257554637008695
                 -0.34719915616401814118
                  0.19037708918339038555
                  0.29551682958120178979
                  0.02573646027401132325
                 -0.04436134924806312690
                 -0.11951740156609676202
                 -0.45540559164291438687
                  0.30543260350614964693
                  0.08930231567097859924
                  0.14431870719905320888
                  0.27266141997928372565
                 -0.20135802157713417193
                 -0.38798694685683976502
                 -0.13460609068933301891
                  0.12447662602345360705
                  0.10657687475110315389
                  0.12035072941268187829
                 -0.13764179291426650864
                 -0.22043123055344987504
                  0.38008862097955620207
                  0.03096284459199253117
                  0.18184451444748345184
                 -0.34069197778020410272
                  0.18077628198286038730
                 -0.01750858236797874293
                  0.02003872994745219127
                  0.31297705376506185226
                 -0.06047477135652568753
                  0.12758634843604432785
                  0.31461782361315054901
                  0.00083918017409282774
                  0.18788217922974162488
                  0.01639171048036102557
                 -0.06101950230541832582
                  0.18624662964038254942
                 -0.17593511074702686270
                  0.14548657766783545942
                 -0.30576542950802487741
                  0.23220646296198810266
                  0.16323401828797609592
                  0.25744823689005874590
                  0.28624938693565504799
                 -0.12859454972933936912
                 -0.27753504664194156293
                 -0.31532496311149199597
                  0.26589345027334726490
                 -0.15584809782582850768
                  0.10016707605431315886
                 -0.28383493392681502510
                 -0.09790187927752105890
                 -0.17534084790714346558
                  0.27068313991356662829
                 -0.28895032725556896169
                  0.21415041538997228732
                 -0.01646107318709674056
                 -0.05569436354156857144
                  0.02086185615243360894
                 -0.26645351984124182598
                  0.09046801795734690788
                  0.31237600190017045243
                  0.07500419762496297882
                  0.01443129828306762702
                 -0.05013636290657712269
                 -0.14834082915604854258
                  0.27568752764260767707
                 -0.45823767457031827632
                 -0.14030057101103185491
                  0.04226632326679292256
                 -0.21032201534423727862
                 -0.43075295873135277525
                 -0.16206381019722251868
                 -0.26613114979266078164
                  0.29059180044960042366
                 -0.28336469921414086937
                  0.06689253070378926858
                  0.08917275493165624511
                  0.24015364509220651912
                  0.17986860391826892114
                 -0.05580761691314224671
                 -0.25439900897681488878
                  0.25356658487953809278
                  0.06591688943229256914
                 -0.01890107851602095337
                  0.26316439016263176720
                  0.15883581918315201054
                 -0.18506839321188478520
                 -0.22705930617400160720
                  0.26366464936479200309
                 -0.29464707643450088748
                 -0.16578261408208494476
                  0.24808581916843538973
                  0.30486315149613141262
                  0.04149870767305765401
                  0.04147837167879679654
                  0.24888338706670279366
                  0.17689372161031738373
                  0.23745107821876612619
                 -0.12697474634295330409
                  0.13224808792414419201
                 -0.27303317794017600839
                  0.10972841927575345544
                  0.13677211821644061351
                  0.06102031491562484589
                 -0.19455766792448267455
                 -0.15181083049236623883
                 -0.02850968911118793511
                 -0.11575853581289963223
                  0.17905392413043821898
                  0.01753246408708454898
                 -0.00669282461301989005
                 -0.27766661697830247180
                  0.19817670714945229138
                 -0.02712116226953232428
                  0.09117228284452719156
                 -0.25942553652416400212
                  0.22223333111595389155
                  0.29432986400886551603
                  0.07105516471202123763
                  0.31265209934495535871
                 -0.07509246554036064225
                 -0.22311541251148617193
                  0.02633240697274705222
                  0.11589931500200924275
                  0.05175522895508867516
                  0.01584678300698303885
                 -0.29955099060675161038
                 -0.13032568271395986170
                 -0.14940674581020560452
                  0.22821346390174199192
                  0.29006786085230185090
                  0.26032063938124266889
                 -0.04821898464425899283
                 -0.35853561158208158144
                  0.28071966785044144554
                 -0.10590316265705022880
                 -0.33082649542469666493
                 -0.21447135287805155213
                 -0.22493616572881378057
                  0.16364691398595360150
                  0.21948092121792714404
                 -0.06196953349062825356
                  0.20768194291255115402
                 -0.25400730639084401208
                  0.05048105612715386020
                 -0.25115600590735093212
                  0.29803552102186453565
                  0.17447473998542772922
                 -0.23547364427165862200
                 -0.02124144600365578464
                  0.26827639720324913952
                 -0.07951428740749659496
                  0.20098338620827627121
                 -0.16570337877518664937
                 -0.17437411369381453086
                 -0.35782664977537875783
                 -0.00191588058499762154
                 -0.00059812020061658601
                  0.15484767529968795907
                  0.19777221903553030002
                 -0.25615411707864116364
                 -0.07932733429423352578
                 -0.04554824396887553750
                  0.38289253586035160160
                 -0.20074290716120335443
                  0.01358505238423007334
                 -0.10442623169020266716
                  0.81164909694086384562
                  0.22407792365804071744
                  0.25721386772736548609
                  0.39676593828288214683
                 -0.02480576780858376879
                  0.28657013114269802578
                  0.30042145946148901547
                 -0.14575372428289803950
                  0.03416634783576776718
                  0.37278139655183467616
                 -0.07951496117845442690
                  0.25748440897608532163
                 -0.20623508939942089557
                 -0.29449507599392116264
                  0.32824378116490482427
                 -0.00159764495033860084
                 -0.35238183089250657565
                  0.04687955117065800703
                 -0.11815300551347261704
                  0.10188675255094603589
                 -0.61632676786458839846
                 -0.27277162441497454504
                  0.13582462330427333419
                 -0.21413663827752701940
                 -0.20184521156288437460
                  0.42370031211656955517
                  0.10812869814146354452
                  0.21266441651713088867
                  0.24556540737557538967
                 -0.04177550073096106958
                  0.43065561889890041636
                 -0.26403687649094470524
                  0.05210039030827849638
                 -0.10362518011422873487
                 -0.05718712143730664971
                  0.24026764084513088648
                  0.20609055044910695731
                 -0.09576809522709849032
                 -0.16235336335631048166
                  0.21108599418589774066
                  0.02311264515070042547
                 -0.18384114861570602373
                  0.15091987172944076878
                 -0.22507147982618871951
                  0.29256680373804766493
                 -0.41458337075717049958
                  0.12576831714528000083
                  0.17175961700313346903
                 -0.06530870075456367274
                 -0.23128979110135203245
                  0.26581354540071949755
                 -0.20872302494161454334
                  0.05781650868593903037
                 -0.23099053026513627351
                  0.27617507917750461210
                  0.02385026910188399810
                 -0.28565382238362818645
                  0.05390822330775538185
                 -0.14168688951351218752
                 -0.00984611125526035219
                 -0.27573678546875973749
                 -0.23395374269147636848
                  0.07369841790948800098
                 -0.16092321457439848209
                 -0.24713476682814672358
                 -0.17113891362261418605
                 -0.17651634682208336424
                  0.23281665634644954643
                 -0.13441990838948558729
                 -0.03920751144427375018
                  0.19457054744943780289
                  0.26717747445781525606
                  0.25216311351454551160
                 -0.03612888308893232037
                  0.12201025065604635678
                 -0.15777563215203263547
                  0.14304161468413120750
                 -0.27839210387453355855
                  0.28960360277512409155
                 -0.13656560541660486829
                 -0.29043966006846827499
                 -0.26989255144896684424
                  0.01163002531788548226
                  0.17158713006294837311
                  0.05720791555825629343
                 -0.29368878477879245548
                 -0.33344345467725811094
                 -0.09513013170221643056
                  0.27871786382408603178
                 -0.02106034392927829887
                 -0.06604050610345990613
                  0.10361010305955443977
                  0.02227201365840477537
                  0.09295271549762781915
                  0.12915431646945432775
                  0.08527806785765634778
                 -0.08975125563305937082
                  0.15749192128118608136
                  0.33038713518629780896
                 -0.29216304850055058173
                  0.15489866771606994322
                  0.04579812428811924629
                  0.18264083500882696831
                  0.07671591460375551397
                  0.14520945898458090251
                  0.13272290169680353578
                 -0.35192321861939035443
                  0.07885949756002069710
                  0.04737858196753457624
                  0.06778612134081112017
                 -0.08197041255557302453
                 -0.21668528107077394962
                 -0.31389202360916235168
                  0.17580797863533975667
                  0.05419748920051963709
                 -0.13126848284449796345
                  0.33680969235718549726
                 -0.19287665058278985475
                 -0.19574819315393807151
                 -0.33678690764571139749
                 -0.13524293270619955343
                 -0.21553021625076587697
                  0.05333985253388384001
                  0.28407330914716938386
                 -0.30217936145382362501
                 -0.14974672215551240728
                  0.25569149462128892836
                  0.06199320794523263678
                  0.22474839923409434261
                 -0.25792065985362272462
                  0.04790706733017589120
                  0.17435563902492753896
                  0.24652117560361250237
                  0.09704292357875488051
                 -0.11993000101343220809
                  0.23324696658441138042
                  0.28982397828725253719
                 -0.02526413848688533262
                 -0.31771099624142296047
                 -0.11502482691137258519
                  0.32260507045025421657
                 -0.31392553917067289593
                  0.32677854825511426506
                 -0.34286277968429063057
                 -0.61388155685956014018
                  0.33412191504561300492
                 -0.04738828717950507169
                 -0.19736318025614635330
                  0.38737335718777221594
                  0.20800537967242607729
                 -0.01435711535036019934
                 -0.03115592460059521049
                 -0.01887502731068032430
                 -0.43862692839103695208
                  0.17524641113562725026
                  0.14441492062093416737
                 -0.35426803164146974945
                  0.19979309340605586054
                  0.12236736779656563756
                 -0.49422289159668020275
                  0.21215687602367511166
                  0.01364409408342891900
                  0.10570246699406868340
                  0.00757219241148267969
                 -0.31900695732052003484
                 -0.11982599910384385267
                 -0.19721384452441248492
                  0.15452177426983901287
                 -0.20788004902734369406
                  0.24591995711918959722
                  0.23956553824981993706
                  0.10440183149588483369
                  0.20485956190712553693
                 -0.23227361083440975498
                 -0.16592933414319624430
                  0.45612757224732730643
                 -0.22019801019066764791
                  0.11092061480437753751
                  0.10805912553288581079
                 -0.24825766632434323467
                 -0.18990695049833417052
                  0.11861530452917751211
                  0.01036680642773526485
                 -0.07487641585358324747
                  0.44262690034385759885
                 -0.35058047861434038506
                  0.16393272149729090637
                 -0.11220033390347625146
                  0.34269697846352181747
                 -0.21896046652670900223
                  0.34079614448389372594
                  0.03620496310179227573
                 -0.19639364299314304718
                  0.00344849822925917234
                 -0.01413039230733890289
                 -0.31044107233788303946
                 -0.11668088506212312416
                 -0.29995032885326816663
                  0.18994667654286795377
                  0.13117263256070368915
                 -0.00614327108881392199
                 -0.19169353206536487999
                  0.01346985996583063318
                 -0.26198168308176361663
                 -0.29395776174616444765
                  0.08935524874564876319
                 -0.18126369834766814515
                  0.26961253742599800010
                 -0.30609249560018747527
                  0.12841619426844969043
                 -0.00156491798132886179
                 -0.37070090881804551586
                  0.12225237338390110287
                  0.28709014399390070382
                 -0.19141126635490890440
                 -0.33643935729693230652
                  0.20956324404791307203
                  0.05033581207730028484
                 -0.21829731492016413164
                 -0.00970768866472104808
                 -0.05789200708549675084
                  0.26819229104023828425
                 -0.10726772760779577920
                  0.09216506081295897101
                 -0.16386316619237475956
                  0.05939931452992311400
                  0.14159823222443207458
                 -0.07352814282698086346
                 -0.12817721555383168597
                  0.18791270241103263938
                  0.17835738572293577398
                 -0.11188158506248406521
                  0.00978593643460407003
                 -0.20912268025326485876
                  0.18553385992066717680
                  0.19346246153199664342
                  0.19498864516650951662
                 -0.00594736480893419406
                 -0.24797344111696911773
                  0.29175641387835160590
                 -0.17997084267136390090
                  0.27774808791895833071
                  0.08788853900515025686
                 -0.08441395778979308984
                  0.07991754410600096503
                  0.24506399915170762327
                 -0.24887120443920413004
                 -0.03582571286252574094
                  0.13784259775854820762
                 -0.07421321352836300622
                 -0.38409075863734104539
                  0.42254494487678029291
                 -0.29300934992575916604
                  0.06091255320889016334
                 -0.15750308609598220877
                  0.11959444200526522795
                  0.23755251756371972838
                 -0.09123344361154230031
                 -0.15199540301865391290
                  0.29473787396755185553
                 -0.53066627173931202321
                 -0.04613538003010322908
                  0.24718766500130109898
                  0.01190108507219600487
                 -0.18216768024456725383
                  0.11546957327571215346
                  0.12741242653200293700
                  0.11956386136828016375
                  0.26701056188788063750
                 -0.22498945187505209331
                 -0.10442913244435257647
                  0.13872167868203072461
                 -0.00386648571518849113
                  0.04770986824555663308
                 -0.12310353829075001975
                 -0.18771714756757240661
                 -0.11807113605995674110
                  0.39334429266159165461
                  0.24772750600419465861
                 -0.48126398655730501241
                 -0.08845431407435536131
                  0.70116771162486279945
                  0.29855115661037617825
                  0.22292515296250903223
                  0.10941242872090173321
                 -0.38240376314643331757
                 -0.09210626528577238459
                 -0.06511511193240558659
                 -0.06550866355755309567
                 -0.24900814425747874736
                 -0.14986346692168087125
                  0.15164956879286900504
                 -0.10763268994091459985
                 -0.04419530987218162066
                  0.23591842985453773118
                  0.11992771373211684460
                  0.02119689226731893972
                  0.20385733433316327590
                  0.04287897287129444762
                 -0.01382756091169398682
                 -0.26004633062035076296
                  0.15097180489727357600
                  0.29853963491022211807
                 -0.14910519183742038107
                  0.36979644088308838423
                 -0.27531866503125501655
                 -0.10428446662096106656
                 -0.00184879062717412503
                  0.18814854806484249128
                 -0.01555729290460792537
                 -0.19682314812444232088
                  0.14409770918110639815
                 -0.13719931059285597752
                  0.31545691080539156603
                  0.20918676407856265365
                 -0.23121155720000541312
                  0.24067373423486290718
                 -0.02243323683510605945
                  0.13838865265294722495
                 -0.02326346447539673692
                 -0.05841340636787718810
                 -0.07998297681166793849
                 -0.16413681310936625857
                 -0.22928256649594966343
                  0.24720723897946214609
                 -0.29385243503356955896
                  0.16785502766314971956
                 -0.07223654676435051214
                 -0.22937757271323189201
                  0.23082723237109545322
                  0.23746509188367606602
                 -0.29022110407971779544
                  0.05360707947889519626
                  0.13145849971666337397
                 -0.28433810337127202184
                 -0.27224063273833659649
                 -0.24956661637559826583
                  0.08876100172697119761
                  0.21547443659522019788
                  0.00868269249532405661
                 -0.36192649155988160237
                  0.23070726219566467519
                  0.17652237089280056748
                  0.34518316131804394065
                  0.22637455763463812386
                  0.15075525703900777286
                 -0.14465274586036669380
                 -0.11430652121363955864
                  0.49151158274508760515
                 -0.35244373387928917829
                 -0.01102127258170799810
                  0.08463209512325502171
                 -0.01307973226436535095
                 -0.02084872333071635664
                 -0.35524402623933726275
                  0.13687538210475574951
                 -0.44251845052247973378
                 -0.24704515728800086061
                 -0.47577896846394257535
                 -0.40425955487605480521
                  0.38876154167176724119
                  0.53677445785614075202
                 -0.24727821299742169803
                 -0.11358472818602959042
                 -0.47513985155268001481
                  0.05837855923802873909
                 -0.56610160975265655381
                 -0.35115909877194462219
                  0.10485880190020697988
                 -0.02760905592827060315
                 -0.14895012084477016190
                  0.32958931519146289491
                  0.31331782855963957735
                 -0.22256405387906921800
                  0.27637813905705721496
                  0.10205236124741964843
                  0.19418349405377999251
                 -0.07919635950745035347
                 -0.35590705063993405277
                  0.08364598486420027346
                  0.22157614544100703857
                  0.54911583124264984335
                 -0.33607594915982297312
                  0.10518409127055362851
                  0.01429960292396801821
                  0.24644146321267820787
                  0.06927344454753367464
                  0.00071856283449066999
                 -0.04296715611671511614
                  0.05168496584503212005
                 -0.18546848573870455823
                 -0.02018035342250018918
                 -0.04797369189853634835
                 -0.37558731244907139768
                 -0.01611490905524886816
                 -0.25313200536765989579
                  0.15733241250970209091
                  0.15299994272835096276
                 -0.23014852351305276068
                  0.10644759541347785514
                  0.04685300536943962785
                 -0.25470098180495387430
                  0.32816793759910295458
                  0.06146497088016107668
                 -0.07484279557353339107
                  0.17205513172396974531
                 -0.03012901069391421549
                 -0.13076994083655224532
                  0.17355778368938967748
                 -0.01535592880579786552
                 -0.20000278493756371012
                  0.14887744017229440074
                  0.16985887356776369073
                  0.18635990222605672284
                 -0.03023995388111056989
                 -0.01788907264516725534
                  0.08381435930098907194
                  0.08711051720162320267
                 -0.04469915279574601663
                  0.08647154895746587966
                  0.06403066994730448325
                 -0.38710580844102254749
                 -0.12268854767166860464
                  0.02641144742470293710
                 -0.16608168109371379551
                  0.28763130254855856505
                  0.05626182312512439943
                  0.07952290155591713872
                  0.02183060424537357561
                 -0.50173417236541240083
                  0.25894506335742284442
                 -0.24456400384199189491
                  0.05732126585187528878
                  0.62718451632476535096
                 -0.04464771086991563276
                  0.28645520819603648155
                 -0.15365615195654519498
                  0.00989304230039800628
                 -0.01124384460848816374
                 -0.32659907842897151209
                  0.29420746769639272156
                 -0.29405248389566412959
                  0.31658907714463740968
                 -0.33643813102675623750
                 -0.09354102112868351027
                 -0.10768947288960531439
                  0.28678213714233319331
                 -0.05734760458167516284
                  0.19202593690420705075
                 -0.00651530064352286858
                 -0.43826860927234562171
                  0.10781571832421166235
                 -0.09510683333878355850
                  0.20677126919991442588
                 -0.19634095422446024015
                  0.11809162486381617752
                  0.22492195460851593936
                  0.16372671136845723394
                 -0.15496904507663289419
                 -0.29863631004351459675
                  0.30101840818051173176
                  0.40589590385915808035
                  0.14022001462229849444
                  0.26771805209625515465
                 -0.34484522682093021739
                  0.40726094265967571761
                 -0.14695980735755642677
                  0.38281345747102019095
                  0.21905362960285426621
                  0.31200603065389226343
                  0.09031677841591571887
                 -0.02908152356448365922
                  0.24360214044591585458
                 -0.04346742701613032916
                 -0.12377683528933619561
                  0.20534993429319794989
                 -0.04997314032801278283
                  0.18843680634866979973
                  0.06967873988267223040
                  0.35970803061207329288
                 -0.19290878709225153798
                  0.15132703411405840077
                 -0.07708325908617599809
                 -0.35303348285384722471
                  0.04403770348974623411
                 -0.26906349747428709440
                  0.20377513206373651378
                  0.43547950674626528800
                  0.16859414826616031524
                  0.00821992708150115839
                  0.20091612870356762022
                  0.08571535587034992409
                 -0.14059097990560101565
                 -0.42466645184299833815
                 -0.42605836871890750972
                  0.28452356889123864292
                  0.08686690141830577527
                  0.09193914369730508962
                 -0.10275256915691405313
                  0.40717187621942296794
                 -0.09291982458567571435
                 -0.06027253318415790040
                  0.11552962484682688382
                  0.39380554001207651593
                  0.55603008174834567257
                 -0.22114233852576559158
                  0.23766446011700678720
                 -0.05600815465186692599
                  0.18256646633511988687
                 -0.17941184363125206591
                 -0.12269511820588296924
                 -0.24055513715351659054
                 -0.10634809614096658870
                 -0.41490006123765760249
                  0.20746323178724004888
                 -0.28437647888091244219
                  0.05777839493991995812
                 -0.00710223860168298585
                 -0.04560921691896741015
                  0.25289412556160267842
                 -0.15511193114411511718
                  0.04809430721006027754
                  0.30300625444199569269
                  0.17878842751049628390
                  0.08183295682487648492
                 -0.20782311074290141240
                  0.28184479631168218861
                  0.17498835929376740927
                  0.07294426247539084751
                  0.49078359009514022082
                 -0.23992959900622790048
                 -0.21663094516911698961
                  0.07097318953120200502
                  0.29890346761156721955
                 -0.18933362622702840095
                  0.09993509891724010330
                  0.10995460064479221918
                 -0.29619997352895732767
                  0.15250718193460299776
                  0.32044997716286199863
                 -0.32483036998337089241
                  0.13440309625427063200
                  0.18444536783712137118
                 -0.01516958193305912098
                  0.12582505021693843328
                  0.18046977592883584052
                  0.23122997817257487374
                  0.32702538842436590372
                  0.11842632793192743590
                 -0.62678489582505325650
                  0.03931930204230769943
                 -0.01532976648541839633
                  0.19270139927777385491
                 -0.47629703085647412397
                  0.38751950364611420508
                 -0.11399088820999297988
                 -0.16487882353813243519
                 -0.15718107708150025337
                 -0.04554716836312375922
                  0.31575448252416460360
                 -0.57383366155534176745
                  0.26362162830704716221
                  0.02389081857586871152
                 -0.08385677266885945003
                 -0.32461872093631510827
                 -0.12771220198141841617
                  0.21204126720186652899
                  0.09363410207392512674
                 -0.16221726988685930548
                  0.10695834052872282838
                  0.37007144335103059340
                 -0.02020800502366415508
                  0.29349253471869629628
                 -0.05876819109378499800
                  0.06071722254253606593
                 -0.49654512029912611926
                 -0.01618250933949904116
                 -0.21242299225144867236
                 -0.27897519772679946204
                 -0.45065681491252462809
                 -0.16819634728747562269
                  0.00125624828313332122
                 -0.19864743101328716235
                 -0.22191149261603915210
                 -0.53925146384739175431
                 -0.07261488929772570711
                 -0.16774925785471375694
                 -0.00771341933847277325
                  0.16673447792343021323
                  0.04951938344063793601
                 -0.41899339258145135156
                  0.09992806728444939002
                  0.01114998468552167062
                 -0.33950006805533922138
                  0.23548743445101077976
                  0.16637121713957425673
                 -0.02329809387615426608
                 -0.27582656213860090588
                  0.17572275416992680364
                 -0.33533309122680426961
                  0.22107312421897185040
                  0.04677250443726548718
                 -0.22432582366659645223
                  0.03005770609270317154
                  0.08568721269023427123
                 -0.07853309778091339954
                  0.42851319553740951918
                 -0.04513829109910168919
                  0.21538544625209155026
                 -0.12284446851601063533
                  0.27203080095480502987
                 -0.51144059415557063808
                  0.07124896087320163607
                  0.28971839655572151351
                 -0.08580358229299007988
                 -0.14848609426958289670
                  0.28966963398336986746
                  0.15640339832047764346
                  0.06999780257422279217
                  0.29778704799432187400
                 -0.25755177155557412716
                  0.19080130918546941987
                 -0.29548222409424629298
                  0.10781387659351275576
                  0.12942264437520617504
                 -0.27414924177039584618
                  0.15956163933147390899
                 -0.33935330310685973831
                  0.15438383825048471176
                  0.21521653179150423973
                  0.07480275487936850765
                  0.07268129014033471169
                 -0.23161668287880757267
                 -0.00792914336615981215
                 -0.17218661467484300265
                 -0.22733838955992799469
                  0.14463644392741711875
                 -0.24940726788812941916
                 -0.19836795047582242435
                  0.04144337900826997739
                 -0.09300999550990554643
                 -0.12036750878785582031
                 -0.31748216765229969605
                  0.31197573107345649701
                  0.37993011521300962263
                  0.27046561298255139549
                  0.18170424978618540668
                 -0.30287568913069984333
                 -0.21442207466764950929
                  0.30711601598086207821
                  0.27767615536228784645
                 -0.00702258206076070059
                  0.24596157975266369489
                 -0.02229962517229966759
                  0.14305792150461085765
                 -0.18519651851456758740
                  0.08948985835717462867
                  0.23445865055847919800
                 -0.10806119851926936082
                 -0.25813187034505102879
                  0.29112598046302962107
                 -0.16395572869706415142
                  0.22977627220978924516
                  0.03340236792684658784
                 -0.02140236738875846145
                 -0.24713802468538162427
                  0.03889569906871911259
                  0.02677098189975903042
                  0.21636017039176819177
                  0.38390041259740281809
                 -0.19405179450123447027
                 -0.28702030661893646046
                 -0.35109637550780614657
                  0.13917377211810011417
                  0.15758577784206806438
                  0.14869033771004519506
                 -0.07482767861992309366
                  0.10441890842520032412
                  0.30579657640067858804
                  0.15423910392142545223
                 -0.28553727664309702661
                  0.20759383125857919228
                  0.20527533389495600247
                  0.03045870411974740607
                  0.08579964390406705221
                  0.15851489413530367445
                 -0.23950315832167318186
                  0.21818048602691322846
                 -0.32822062743125274276
                 -0.06737018926407369046
                 -0.11565347568432096659
                  0.24530234880479201420
                  0.20030457670102724821
                  0.31881638383693317040
                 -0.20460868437781012941
                 -0.17423519238538040521
                  0.17756142691815945955
                 -0.24665771585460749549
                 -0.19858482232763705055
                  0.22594490829229169071
                  0.06639858970284455431
                 -0.48837890246973764130
                  0.28658352751861271290
                 -0.14855774897120271882
                  0.05308289420719899260
                 -0.25471761753196453526
                 -0.13161500115678814726
                  0.13684871137276674591
                 -0.51612162650036774725
                 -0.29954073057430125049
                 -0.07457598357896230712
                  0.10588516196347941278
                 -0.31157583305413910635
                 -0.30465785112198706663
                  0.04329302867067544996
                  0.32346313193835218858
                  0.04815097076511529878
                  0.11436876778775105501
                 -0.08925806166325173097
                  0.07494015422268519855
                 -0.29006034757695320359
                  0.05124050108898352274
                  0.07652834351047271833
                  0.12320330105374197038
                  0.05306269852476678400
                 -0.06922743445802929940
                  0.44584361036200936823
                  0.31619278804467249033
                  0.03578983771347807319
                 -0.11066991492705691158
                 -0.31159428968335978194
                 -0.46157536750383637569
                 -0.25130360247939637075
                  0.28210673793697205181
                  0.18339557726783001224
                  0.04089289501037372127
                  0.38738919032322882696
                 -0.13081515004700847160
                  0.09178767631460901799
                  0.55973688180246417012
                  0.16331852155590903530
                  0.26743449121893431153
                  0.24166954287661149281
                 -0.08257501151092197511
                 -0.17207604941448517710
                  0.07341428948729793180
                 -0.28162305078670579750
                  0.08550971335488180558
                 -0.18406990489085481300
                 -0.27567521060063632232
                 -0.09406407363602768690
                  0.25850033242174630388
                  0.10605783600779938869
                  0.20348470901200446659
                 -0.06540096091401316480
                  0.12839711524548114152
                 -0.05022095378304181068
                  0.08665582365167776024
                  0.31691071720985097837
                  0.46358507719881436593
                 -0.21204813244275330653
                 -0.54595072453647408572
                 -0.42278237404137081201
                 -0.24689769712976034066
                  0.09763337928157829471
                  0.26481154727818490002
                  0.33949486675936446645
                  0.27494133140153109718
                 -0.28019888175855045542
                 -0.29742403349747181807
                 -0.08766154368685810661
                  0.33375125436360386644
                  0.19863666968300497384
                  0.24030391771604081574
                 -0.26753160769719647183
                 -0.12943789791319421090
                  0.22670468820756353723
                  0.12452039343933329896
                  0.01643420210270766374
                  0.18112531431112713354
                  0.05390003080343767905
                  0.03292045238126754814
                 -0.05145745254990829326
                 -0.33145114295308741870
                 -0.12397990927922543369
                 -0.11945870959836960012
                 -0.29502656711011693291
                  0.20138419348023733901
                 -0.26250632462359291264
                  0.17773534078769859246
                  0.00011823698589738681
                  0.11194568611348398868
                 -0.07845595919584941180
                 -0.13427862268398188528
                 -0.08186643473593628595
                  0.14461594297611449211
                  0.18048031430874525438
                 -0.56137733249557553172
                 -0.15274604876410594057
                  0.20337430719551258251
                  0.01155635477115793744
                  0.02855804444506161027
                  0.19638716374688222621
                 -0.09624109590909388223
                 -0.16172054208978395295
                 -0.19933331140261401071
                 -0.12860501322789169576
                  0.12664358048428875358
                 -0.32677772804188548461
                 -0.08756019187959517003
                 -0.09923337812808948055
                  0.16993307914006108850
                 -0.05412297159843437733
                 -0.02712743326852250919
                  0.21404812980763288088
                  0.07139643635423328916
                 -0.12963710640024031506
                 -0.42858176765483552151
                 -0.28082910238481323395
                  0.21389303048084482017
                  0.26054335455232624508
                 -0.05941652715094795228
                  0.17511479027817561382
                  0.03288928981831970577
                 -0.32476351532665953536
                  0.30048671087924466727
                 -0.21750508807961146940
                 -0.44721228716203892395
                 -0.26119760323100887911
                 -0.18769126071358663288
                  0.00449092895324335224
                 -0.26933671670113279450
                  0.01108921212555958637
                 -0.17205960931628436206
                 -0.09888421490204379882
                  0.38973817287318995861
                 -0.36731576190683917771
                  0.22691918973141106397
                  0.48674931060299808649
                  0.28844294743590609409
                  0.16634273565023013908
                  0.29996649983368994796
                 -0.43606631355504954506
                  0.11650531675216165006
                 -0.21979177725458406978
                  0.17924681125312319496
                  0.27354174787373242150
                 -0.18081986793723542339
                  0.21106424966167317003
                  0.16284622371185816792
                 -0.33607099776785598344
                 -0.17393347490902311137
                 -0.22695524473922956687
                  0.25145914987569029098
                 -0.01596799079119860798
                  0.06800203721821920788
                  0.44643911822030962755
                  0.14616597072985967887
                 -0.10022012020990321568
                  0.30201708173146535330
                 -0.12040347602140095973
                 -0.04707102263993050845
                  0.05714915963981453961
                  0.32868867188615974451
                 -0.25940255357257463453
                  0.09794409006617513236
                 -0.24388470588659855176
                  0.18968630077601986161
                 -0.15567991004011000333
                 -0.06081841092270405535
                  0.11228009965486693278
                 -0.24843617219670049989
                 -0.13338572503903747823
                  0.25908937796599118553
                  0.17119436024997927714
                  0.12700917515056589502
                 -0.01884840111170668978
                  0.36182093322394326407
                 -0.09491707820529779460
                  0.04849154836052287088
                 -0.19478787591037863280
                  0.40357279274520901913
                  0.31630901019403778740
                  0.30786696730145768353
                  0.22161991501513975122
                  0.14376231943562667315
                  0.42092491805385351400
                  0.25018809062490043882
                  0.27142575040347355353
                 -0.19323745307229517332
                  0.23960373774179830053
                 -0.27494669842588864705
                 -0.36744177503759045678
                 -0.27286112427572573047
                  0.06925055042002097039
                 -0.11053432042759890608
                  0.19969317067182182357
                  0.15232987456701629903
                  0.20045378912208014488
                 -0.29398642068434438501
                 -0.25075529887459696576
                 -0.03251221158096050112
                  0.15118203205186203641
                  0.24254199589758795863
                 -0.21991575052877593288
                  0.35998667870935430191
                  0.08619021711843044553
                 -0.12784482992844506399
                  0.07698686610937051367
                  0.01143002091943288480
                 -0.06303792686547267377
                 -0.06216474449192217755
                  0.18411862688121333198
                  0.04202417630448233160
                 -0.34301031907399182064
                 -0.24684917423171140460
                  0.18871771384523822190
                 -0.15588662493623878236
                  0.07124050786062169349
                 -0.12143535322706885959
                  0.04748477615301808369
                 -0.01652739110184363314
                 -0.07023529681530395197
                 -0.04269390319999960548
                  0.54443793895898129342
                  0.37928747139935925503
                  0.25402726721709040225
                  0.18647207969357290636
                  0.44386278172969451106
                 -0.29690497781113400766
                  0.20717069897346399032
                 -0.22955818248943976601
                  0.36522810248056170046
                 -0.26125820962256462998
                  0.28534634668967545634
                  0.00095676249894019656
                  0.35283478812257412782
                  0.07849180242034869970
                 -0.08722071028989576702
                 -0.04658523616344816681
                  0.32844805179910230297
                  0.18767541787989058810
                  0.01760207205475557840
                 -0.25134941450284076225
                 -0.25164992484064729883
                  0.11033027522006959298
                  0.09503716768035079532
                 -0.05382309934046294181
                  0.16466173321594079759
                  0.09380722783974475287
                 -0.14520651556091790368
                  0.00452233997333234550
                 -0.01278612199927768762
                  0.51598136423791263194
                  0.12198076871117810582
                 -0.09625044564286530657
                  0.16903635165171634891
                 -0.20817412285033456976
                 -0.32880019088296241758
                  0.10528064080117005563
                  0.35420142802794696291
                 -0.02121163538935446138
                  0.34936260835089955057
                 -0.18982132273148730195
                 -0.13992437372862026601
                  0.30089839180302513366
                  0.11540890898021356759
                 -0.04339962297523933255
                  0.16132357432022645383
                  0.16795320556381407306
                  0.10275154560064286846
                 -0.20651972432306800465
                 -0.10820718692721363607
                  0.18429409538379554201
                 -0.04430146401837668779
                  0.19519034362043108377
                  0.08204785989181515027
                 -0.09666480597825563570
                 -0.00515335512502358532
                  0.08292261947253082299
                 -0.07892220462368230993
                 -0.15852153733284538029
                  0.18485546075294781443
                 -0.03096340808631445340
                  0.13346448460564822036
                 -0.17318177644243301638
                 -0.29295889897859916928
                  0.26709502179801541955
                  0.04633974704675555140
                 -0.21416426359333015639
                 -0.12142381106976531113
                  0.21526319534047066995
                 -0.16096800877877684433
                  0.19110614015993052095
                 -0.09769547709025293292
                  0.34742327808684303481
                  0.13759393594661437077
                  0.20167865556909420066
                  0.05572328309919397787
                  0.11991394727221528493
                 -0.15595831708357363321
                 -0.16451247787163406078
                  0.31398853234648771426
                  0.20222439471849568138
                 -0.11590860642235643885
                  0.34080300118469769588
                 -0.57010642207503325896
                 -0.18768150373955092003
                 -0.17505107484248660921
                  0.11882870104673948219
                  0.44211383395673703456
                  0.15603556756895065050
                 -0.19694538336003375445
                  0.01284657798190035061
                 -0.32488577209828289893
                 -0.24825169179686581988
                  0.41334288290782505992
                  0.08594476252172075781
                  0.25121948101319474533
                 -0.04988651581155845172
                 -0.49492170082355591010
                  0.05763811013746377582
                  0.17562255345574243059
                  0.31185153767146184256
                 -0.18824956075057458493
                 -0.25242762923808326203
                  0.19948085517884342477
                 -0.14234930392736078186
                  0.50060657331171998230
                 -0.05303654458514486802
                 -0.15604411007721014082
                  0.10965639465255966334
                 -0.16724470661056201060
                  0.25799345545385071743
                 -0.41592904307456851631
                  0.16281830188446205776
                  0.00104852875606675474
                  0.23660120692949970778
                 -0.01027622797216377545
                  0.51960587028870253157
                 -0.37839952328776005341
                 -0.45763007351708478998
                 -0.02928558116795405494
                 -0.06063280734883760847
                 -0.25537441718364756182
                  0.17245160432772976833
                  0.01696560428903294906
                  0.20470199899340790761
                 -0.19425375938210628912
                  0.17410082276718885641
                 -0.17419279778956528459
                  0.14630602239198231551
                 -0.14972358971011937023
                 -0.08629514901916077174
                 -0.15653929278691519622
                 -0.43412764356889327333
                  0.20266297769644753268
                 -0.10693541424400486439
                 -0.03723234316417765866
                  0.14370601210434036377
                 -0.26610309931485170987
                 -0.01304093084815473313
                 -0.06017282110928257044
                 -0.08945823752902963555
                 -0.18949003055964955267
                  0.39608369415193078744
                  0.16278301854670235160
                  0.19637145294128521833
                 -0.21877478042383791124
                 -0.09710833594427320525
                  0.16074179334878463399
                 -0.05843438254239878560
                 -0.28157012815537590944
                  0.26420967766015557299
                  0.08741053964669245890
                 -0.18657991863891493223
                 -0.34007159231746536543
                 -0.09979195407398788742
                  0.02208610996598759507
                 -0.01451242530285308877
                  0.06305856808809662262
                 -0.19923194438783484173
                 -0.22699502098683765894
                  0.03724586200487892129
                  0.15384722609614001620
                 -0.05000892254645805668
                 -0.58360924783246170833
                  0.33054532304041794877
                 -0.10513245807081447736
                  0.05109785729814817629
                  0.01737774433128630794
                 -0.25036800890734262071
                 -0.35196038593748019130
                  0.56848160424636118293
                  0.21093527022972805018
                 -0.06311295127311832009
                  0.17541643289044941967
                  0.10303643826909089642
                 -0.00064166198146598831
                 -0.26229070085216993347
                 -0.18505447160653326621
                 -0.15646149948946039276
                 -0.27175633029092205462
                  0.23368792665848983625
                 -0.35318620192564831317
                 -0.17254706478063483455
                  0.29769677992882981332
                 -0.09251452836594561968
                  0.08628786750118046245
                  0.15923542701210335881
                  0.28134434525234863766
                 -0.07153414384869949405
                 -0.08776489894706572537
                 -0.10153056513696341601
                 -0.16094650334343055254
                  0.18163993669804273656
                  0.46807118339925962713
                  0.22114528004293967922
                  0.08634700230901998230
                  0.29641776154095028639
                 -0.29405919827795867771
                 -0.23018942083573384894
                 -0.02060751644216912704
                  0.30612100021658084081
                 -0.38958953836754134370
                  0.27915138691021823547
                  0.07176845542468122952
                  0.18300955600640350651
                 -0.23825070801329520376
                 -0.15926009826663514723
                 -0.08536086457089676893
                 -0.04027213455405116022
                 -0.21422881181649083837
                 -0.20736680271616741988
                 -0.10489067005357291529
                  0.19391455747496913475
                  0.23093640016661823311
                  0.35044092212673949582
                 -0.02107514539662683206
                  0.02112741372420160260
                 -0.25704912662855777805
                 -0.00354893058431308538
                 -0.05207093955602990626
                  0.08558407183880105407
                 -0.18187692121904691644
                  0.15723650056520271923
                  0.08927425342534564545
                  0.00316270329812237423
                  0.32108991666608288629
                  0.33018885017161048179
                  0.24041857832552965268
                  0.12873271215117021438
                  0.10695138316588813365
                  0.28307700474067254426
                  0.18024499560715104285
                 -0.05958926032339383755
                  0.09158051491030240465
                 -0.37898174050580774042
                 -0.30766167145884221190
                 -0.44894146332074119643
                  0.21757240980632838734
                  0.33482212922116089127
                 -0.36798022807266000944
                  0.12006878156446629258
                  0.24778001877885419413
                 -0.54276479994584014843
                 -0.50370361633904270349
                 -0.37173322670612618523
                  0.02905314725923197061
                  0.00429729900991326907
                 -0.15065010241659743118
                  0.19974593846478994053
                  0.20459706063365998285
                  0.00779958420048968652
                  0.09625504755400114687
                 -0.19530803057701284775
                 -0.50522107522715897776
                 -0.07327286199369226205
                  0.49216514375515607593
                  0.19142229796571422207
                  0.18700579702125647019
                 -0.09783258038557543501
                  0.19153938167520900837
                 -0.24517144823533357223
                 -0.30235684308605537129
                 -0.00383338211003726986
                 -0.12875580767678451721
                  0.03271871141191509680
                 -0.21440848315755950404
                 -0.05240172856030791276
                  0.28670955447695178897
                 -0.16952031045220170014
                 -0.36205694625708451095
                 -0.31633667269278897827
                  0.31403686692291604698
                  0.15765650689158056119
                 -0.67312565884177921749
                  0.20572385885364408153
                  0.31878368073466095689
                 -0.36918814272976058222
                 -0.07124471386905591175
                  0.17833310723236975304
                  0.07990360181499857328
                  0.13573318709304049712
                  0.18722897893178033768
                  0.16240551095832059247
                 -0.28609034408876643507
