                 -1.62335964759113249301
                 -1.27488531829786366778
                 -1.44823053969901560656
                  0.33746176752611695138
                  1.18095691390122214948
                 -2.65826521611095190067
                 -1.14903534136172780222
                 -0.54887240458291985945
                  0.86007501843277012199
                  1.37005086420553512383
                  1.23063266199399778955
                  0.47404444821562508050
                  0.94325696853686302745
                 -1.14840460580093361997
                  0.43846234386172489028
                 -0.48021990111189832851
                 -1.49703636443612109197
                  1.29586656928367816022
                  1.34233340674033208018
                  0.46785644221193650738
                  0.90951364927676792149
                  0.12802951302899331920
                  0.03465471947852424156
                  0.24462035224154243807
                  0.89907321437526876995
                 -0.22457543893997702900
                  0.91730351478256788589
                 -0.30705894373376130257
                 -0.14573453627817892220
                 -0.03318594438260337454
                 -0.46726033625703089491
                  0.75891535338400462063
                 -0.56004145144775641096
                  1.29956765241813898548
                 -1.57066007486886127786
                  1.83742395472907338316
                  0.91888997918160786327
                 -0.57401801705288890698
                  1.19151890900534884743
                  0.24950383423499300495
                  0.98086336157861842011
                  1.49265676316714590577
                  1.52288938118581262948
                 -0.14119373846231175751
                 -1.71112148969598698578
                  2.15774443860345188639
                 -0.80519959973572108325
                  0.48770625222279084809
                 -1.29611941478513315040
                 -4.26522607176755830238
                  1.18304282379481007226
                  1.01055061506845667019
                  1.53175539190147325108
                  0.74719921568021496761
                  1.31563934155920825297
                 -0.88347863394199654952
                 -1.47319534031955012843
                  0.83633057092058482596
                  1.21230081110425147450
                 -1.04539806110984190290
                  0.71373949883669451921
                  1.45797377959357521426
                 -0.97238229278529175748
                 -0.12652324215087748516
                 -1.53913136933687999530
                  0.19575932770684922879
                 -0.97055861101025042714
                  0.00837098803047211029
                  0.65077515443904920822
                 -0.71613840864380728934
                 -0.26256731902888247321
                  0.81012030445870097939
                 -0.86960114177677039216
                  0.60427930801599583077
                 -0.57000518939192057477
                  1.00380441895358551996
                  1.03810218692256261974
                 -1.03384335390156212320
                  0.54478661802658423507
                 -0.93338827677598579236
                 -0.46113811824569655995
                  0.41665752782881987359
                  0.26039645841325692599
                  0.27924295137832305658
                  0.00437924716328628918
                 -1.15055328980821025553
                  0.80723265422462542329
                  0.12402201344557502172
                 -0.14584260632369355770
                  0.06587309631303832347
                 -0.26342015689277298307
                 -0.17284798452708061145
                  0.23621822986797064159
                 -0.12909582153108228875
                  0.78938468609304712764
                  0.12633048185354148196
                 -1.06421310010418457281
                 -0.00462509622708300299
                  0.03257484524622123595
                  1.26154083861952570622
                 -1.02132013618901984486
                  0.02839636087109714824
                 -0.10297667235293619936
                 -0.67457684988214872135
                 -0.57052722203944572499
                  0.45447060141740641681
                 -0.46158657335297925695
                 -0.96201411662564717542
                  0.58696833379153368071
                 -1.02899360711198828433
                  2.41339929088671745205
                  0.98033539304159700301
                  0.88073535969311866900
                  0.02905469373799029337
                 -0.52958706669176747184
                 -1.43495380612858269842
                  0.58777281060360442311
                 -0.07808812400473662263
                 -0.33221593306961111347
                 -2.19878004048681052751
                 -0.81566227570739435748
                 -0.34361629025335788112
                  1.29595813413920457613
                 -1.52427759140810836769
                 -1.69619448866882560623
                  1.29036302646709644115
                 -1.47060594516587417324
                 -1.54732480434269259462
                 -2.14731354984611177983
                 -1.84840246031294852536
                 -0.67730952062136917657
