                  1.57550128062179362054
                 -1.07075506786892815647
                  1.09227118426450897637
                 -1.69235904412809845532
                  1.37945148051871124828
                 -1.04667112720376409563
                  1.74425706383507828079
                  1.18062543048958557002
                 -1.81363113202292525195
                  0.30334481953300584944
                 -1.06648139732055802220
                 -0.27692227349340908793
                 -0.53358579709450049133
                 -0.88172812662363042602
                  0.76147245838898036663
                 -0.95106021856562272809
                  0.20696970060067310104
                  0.45962963810233131712
                 -1.55097184066524507173
                  0.58169344911610709747
                  0.12209125357167498194
                 -0.79199281387875775096
                  0.53291761261345405032
                 -0.02961447027660902079
                  1.84709525165708510208
                 -0.89537526404731015983
                 -0.84122966449800162803
                 -0.88378736889258580067
                 -0.71389916573435108216
                  0.18863368378875031151
                  2.22892291757389804374
                 -1.11524441156492959415
                 -0.93221326392877834621
                 -0.05375234973070218414
                  0.39899108001790584144
                 -1.59627516797784041458
                  0.79714825535999422890
                  1.51453214544347369852
                  0.47142353545211890253
                  3.22816560672870656035
                 -0.72799159097274135366
                 -1.94274177301547235075
                  1.11951049834802107696
                 -1.74128344858391970185
                 -0.99904297897905014469
                 -4.05474424485262296969
                 -1.64121094981899706688
                 -1.54987187730762343563
                  0.99435833219603841915
                  1.57986870306134519204
                 -1.32264684345451621894
                 -1.09442974389923941558
                  1.33104922229563427116
                  1.33337311264886437812
                  1.67445332477185648834
                  1.14537142236963718211
                  0.76503192596174507401
                  1.69745341341201116947
                  0.45680312202685047218
                 -1.47054577998818070128
                 -1.02272663017358489412
                  1.21182449371881717504
                 -0.70321669978193934725
                  1.26783252053566486417
                 -1.21369740853910035305
                 -0.90768397108279730290
                 -0.36696454124308192091
                 -0.56803095659951829965
                  0.05255044982231815015
                 -0.93189858516187717985
                  0.55388378155627804311
                  0.42209190856635880884
                 -0.30761012286852335018
                  0.25097694636646494804
                  0.85578194625412462582
                 -0.44651105733821960797
                 -0.46712782060966751008
                  0.58875620414909235478
                  0.26237993635554035521
                  0.00556166688019974799
                  0.04344146097381440530
                  0.05985624207696609717
                 -0.04226918068525026967
                  0.58970667665657428014
                  0.50390949581926092193
                  0.72895891965452319639
                  0.51821468904118472842
                  0.07170081187385080046
                  0.13867776884430677020
                  0.52579455372569827709
                 -0.55229515351417046709
                 -0.15913657880410272960
                  0.04185700209365614960
                  0.01252575739606041558
                 -0.22331630543125449706
                  0.33289056544637501966
                 -0.12717336445126584121
                 -0.64110589359819225574
                 -1.25217379592083877249
                 -0.45753037389336687069
                  0.11822241323193077855
                  0.03823729428257812563
                  0.45201414997545352747
                 -0.08477705346892835947
                  0.82126273571350627556
                 -0.31251918410964585338
                 -0.43810214296786825772
                  0.01146115198639515928
                 -0.51664359687355088102
                  0.33344541511288899871
                 -0.33474246443298394382
                  1.13738800879623291884
                 -1.27512206847492515216
                  0.15910120415299144891
                 -0.48230063748774537613
                 -1.19329393839816710887
                 -1.30250507107845070465
                 -1.10889950263447389922
                  0.37294914388199468247
                 -0.44520297029805189215
                  1.30904504802119192597
                  1.70009690359287612971
                 -1.58617405901670815993
                 -1.18776481906977893210
                 -1.03067707922769269402
                 -1.25717456869973753797
                 -1.98999777369600860943
                 -1.48750124129355065783
                  1.69961697031670522229
                  0.37511599662520100917
                  0.99203522293886048367
