                  1.78416217158382917063
                  1.88154607345876678792
                  1.67920134894394212921
                 -1.74717130360249539578
                 -1.78247857777626750320
                 -1.84047980507729969091
                  1.21502948366692176130
                 -1.29851267548486126735
                  1.56881281221694224293
                  1.66395997334367851117
                 -1.41202187742819007532
                 -1.32400202282624435135
                 -1.37891976215462808142
                  2.11495611263732108398
                 -1.26901831172114132329
                 -0.79798246174553599808
                  0.53006902075082162895
                  1.02158190824076422487
                 -0.81428940375292202525
                 -1.04262598443092713296
                  0.51494542692562039754
                  0.15715781238483791937
                  0.59768854209303601266
                 -0.51511370215567642283
                  0.20361327774476001284
                 -0.38629781375701144341
                  0.31931108987016426637
                 -0.00593517028494670688
                  0.53439990787504865200
                 -0.04556544286597968840
                 -0.00658991248971331836
                  0.27672694360979649408
                  0.73550823815060850652
                  0.57119974855083321952
                  0.72165550174680248574
                 -0.38402840230849499825
                 -0.36033182711508626728
                 -0.03849500230731348061
                  0.30998964329167016940
                  0.74668549533559103182
                  0.23531675237142121726
                  0.56911258409272269532
                  0.83312931964709657784
                  1.17557441252091310346
                 -0.68956623867598132449
                 -0.86154244353300013515
                 -1.24683904274742318741
                 -0.95949872410596337424
                 -1.11567089909657712887
                 -1.73945200603807292872
                 -1.36764097588274768924
                  1.68418744964970445999
                 -1.26754755118197048880
                 -1.43917487516690445482
                  1.90630796799369917061
                 -1.51537402709925772548
                  1.52561989156863453410
                 -1.67550077218869186702
                  1.71183513983601631736
                  1.74988231597642651671
                  1.47343142205396016031
                  1.47346259718607774936
                 -1.39551850920381714793
                  1.16769624319116349653
                 -1.33881405821084475960
                 -1.13103718573584455243
                 -1.07004561516187290948
                  1.04754396159966067792
                  1.12207309661871468265
                  0.99680127080578340149
                  1.05189390415115902044
                 -1.03021726684082781667
                 -0.77821891305937607175
                 -0.92577823112876689304
                  0.75141131902956770361
                  0.76054114587790477842
                 -0.68370568005502296849
                  0.62320043004009362253
                 -0.62455620113956400452
                  0.51246368861716196097
                  0.57887822993330262378
                 -0.37831441696431394872
                  0.33347072407331668220
                  0.28118029822738177526
                  0.39686055439311429538
                  0.20928376370503093407
                 -0.32539619582266821052
                  0.08275376914330243028
                 -0.14376374352120746547
                  0.05227439063064275721
                  0.00328965341002571219
                 -0.07442259012978744148
                  0.22786078316680119515
                  0.04714565132736722036
                  0.23827581608540784885
                 -0.37343023114598766776
                 -0.26791950713612594503
                  0.38068493367937855654
                  0.32957395479814932671
                  0.46059326827204177812
                 -0.58348978547060703637
                  0.56670868212080816040
                  0.62535339775083931269
                 -0.69863640479669797401
                 -0.69207683099055516962
                  0.69343094733112997652
                 -0.84298849292747468631
                  0.74590820815281588807
                  1.14502127859348057370
                  1.00374081899138212215
                 -0.86274107766182894785
                 -1.12139605114644358430
                  1.21815779046053918044
                 -1.18274180577100063161
                 -1.30720633541103037345
                  1.29783346935292143165
                 -1.34456043498748734066
                  1.35050118828940646232
                  1.46891951292197164847
                 -1.46367257226704805539
                  0.38065478122913476433
