                 -1.42362308338376042371
                 -1.25943827522074425218
                  0.96975912694891042154
                 -0.79892553336129923380
                 -0.62521272876441136290
                  0.58112984050514759904
                 -0.54118661854383898202
                 -0.67468143153208115503
                  0.16893637678944994907
                 -0.14702357919386560559
                 -0.06517710055024796001
                 -0.15754622048848876403
                 -0.25752200031254657286
                 -0.65066030991880074996
                  0.56469595991152254921
                  0.81241066953368135106
                  1.03669302518378536604
                 -0.93577301788804223559
                 -1.27403773283029653207
                  1.38364747412544586425
                 -1.59962469656873373935
                 -1.69105162410741982626
                 -1.53822188245579538624
                  1.54752865093193570090
                 -1.62064168959259546909
                 -1.59892316243396770403
                 -1.45968618292433083283
                 -1.45481097815486237756
                  1.39602823831669109467
                 -1.33936856474472532064
                 -1.31497616558326924086
                  1.20230370553090781804
                 -1.01777627132865955417
                 -1.14650396599749471171
                 -1.17985849311041901544
                 -0.95438712039547479726
                  1.19441008194742548376
                  1.04349100669963767984
                  0.81396115774288924083
                  0.89250844545700036559
                  0.88312964666308568784
                  0.66161193415747421298
                 -0.57607247543504702669
                  0.64385372215959502107
                 -0.50319277358111513809
                 -0.76952053971468836746
                 -0.73912519174056423577
                 -0.46575869851671475308
                 -0.59496031770042878684
                  0.50900162295836703930
                 -0.41263008043082866072
                 -0.54079949109774272387
                  0.43619177917213114437
                 -0.51703050961546814790
                 -0.14177846429244930770
                  0.32168599386696794529
                  0.11810447017750796972
                  0.11002466634641623611
                  0.05552865654817639579
                  0.02067635554908445195
                  0.16219746096514245370
                  0.01419772474296184320
                 -0.17387399223110630575
                  0.18791852085874713452
                 -0.07651860182987001158
                  0.37013171080030976556
                  0.45463996928689048849
                  0.30179846711571650664
                 -0.37524544430239509252
                  0.35799160164341498058
                  0.34638369684626457712
                 -0.46556319798985718039
                 -0.27532841158464166353
                  0.55845962306337992853
                 -0.84539969179002649735
                 -0.70903374188474410644
                 -0.65283467704503583828
                  0.73437402681888030997
                 -0.72043480188366537664
                  0.95122188648620742413
                  0.74296755007763692902
                  0.96868472981223474605
                 -1.06232579566110318936
                  1.01416859191650177152
                 -0.88881569509517976968
                  0.80225722254055720217
                  1.05506244306629803908
                 -1.18295111983830536495
                 -1.20108563947361823843
                 -1.25127632135875122010
                  1.48213240703201365456
                 -1.19748867684884929830
                  1.31228316837936231920
                  1.43798550422648974134
                  1.34564327819665652264
                 -1.34713592186441610821
                  1.55796048596434477673
                  1.67516834913501821980
                  1.75721525478593210146
                 -1.62191376549936161489
                 -0.75022056384209467872
