                 -1.40094613389346811516
                  1.36745907638037600407
                 -1.10050808466643612604
                 -0.80835647245424757656
                 -0.43571245596341917627
                  0.56541387383201735517
                 -0.71946989244038161981
                 -0.07345437600466700467
                  0.21417527896368748763
                  0.32817435054197824362
                 -0.58634345417641142717
                  0.31270881613642637076
                  0.22621970086569812008
                  0.59060995419555173402
                  0.49884023764970980563
                  0.89174888612707969848
                  0.70210507024289670053
                 -1.11469696670490914236
                  1.28993537303855698717
                 -1.12744968833426639776
                 -1.55036054074276985482
                  1.69761518524105725625
                  1.69039229660489431772
                 -1.58764065914952356984
                  1.51878409259562729972
                  1.51636748613985350431
                  1.35509961297104819522
                  1.42971167460311510133
                 -1.45593674376235249213
                 -1.30488603419861526334
                 -1.13039398873879837204
                 -1.17847157484865561194
                  1.19078448167689132653
                  1.13267699741026151017
                 -0.95806891041116404306
                 -1.08618630639016111594
                 -1.07608993966869270764
                  0.99373712852164497455
                  0.94004775025582509862
                  0.72398803815976819909
                 -0.87797877590614425980
                  0.49919534092416528726
                 -0.90293862583695572166
                 -0.71117144107188223767
                  0.62055753918174705319
                 -0.58118318088968023982
                  0.48050386707117831442
                 -0.54248911377312780679
                 -0.50171277804687408608
                  0.60723233313233215824
                  0.44236189037719308992
                  0.29190149279090471524
                  0.05920874446898449772
                 -0.42703327152757802887
                  0.29316362660667982798
                  0.29097993723254927945
                  0.15830113199877679508
                 -0.05184641112982316807
                  0.02890152110971795640
                 -0.10422361758351876559
                  0.10552589943399090511
                 -0.00318636769214336590
                 -0.04302779606963063469
                  0.21024102924217011323
                  0.06570558818517070743
                  0.29433789720181308125
                 -0.27696330387144835194
                 -0.27013755197059774460
                  0.39057491146968331686
                 -0.39030307430238048161
                  0.46260749737697959283
                 -0.51142353259490569428
                  0.36061731406629510266
                  0.66093038151124416935
                 -0.69218960636348869642
                 -0.44305205545026293823
                  0.45055630958867115554
                  0.56733798558534931367
                  0.74546149981832965370
                  0.96517739174876560071
                  0.70198362449841056332
                  0.97597848852951374354
                 -1.09486447672746090021
                  1.15559805103503210333
                  1.10766823889766730105
                 -0.98105324505664148749
                  1.13632990327675309494
                 -1.13890558259124685669
                 -1.23529798439016347267
                 -1.23165233055905543047
                  1.30808057230405161420
                 -1.25186533926156551288
                  1.42124020996105460135
                 -1.33813185787250499281
                 -1.70057812954880582801
                  1.64725039398898798204
                 -1.65576538654825156094
                  1.66589922094225628690
                  1.66405561752923203400
                  1.73127595089775132564
                  0.99023554718248307793
