                  1.54021081722741248754
                  0.35343157786390216879
                 -0.00261577106256872215
                 -0.83488102628443550124
                 -1.37580837919019161042
                  3.80392409408677556470
                  3.82037069211544499936
                  3.29251314654375137891
                 -3.22400763831587777730
                 -3.27657426635385728986
                 -3.30097284012321967595
                 -2.18438649563337028425
                  3.03132346948266651054
                 -3.38450356398618090736
                  2.66410608913506230522
                  2.68764505058576297358
                  3.10888115966621292330
                 -2.57976403441320467635
                  2.96881153591363977640
                 -3.19518090273849875160
                 -2.78031252537637429967
                 -2.42267202732897901640
                  2.68011983438776768551
                 -2.87065847988157107906
                  2.98502639432970662270
                 -2.96010098061538107217
                  2.75669846818718866643
                 -2.96265134133053686938
                 -2.63850304924698209064
                  2.58805292134407949334
                  2.53096344163338926592
                  1.63791078000477341448
                  2.06932799378606002705
                  1.81972464532824251826
                 -2.35488123035795782201
                  2.53404366872173802960
                  1.29081494923338202518
                  1.63886063447690277783
                  1.96080256529207264116
                 -1.30038632232495698915
                 -1.63908548564934464231
                  1.95397414736876995356
                 -2.01768902556422435879
                  2.16369474538025841071
                  0.82943720844837298678
                 -1.55278860562119236377
                 -1.73146995442654594299
                  1.81421607739839552131
                  1.94066805500527972406
                  1.42838880125411304967
                  1.04071299687661000810
                 -0.99249597612301754257
                  0.83505772901910002570
                 -1.01379765779895714140
                  1.47267349916700673873
                  0.09033291797970455228
                 -1.38316449128297835891
                 -1.20032948300965158772
                 -0.52832203670577959631
                 -1.14903515759450658429
                  0.15915724092847977067
                  0.77420895468508210691
                  1.04627373835566594984
                 -0.61501042302488928559
                  0.47245633191771679860
                  1.07151015587183917610
                  0.17890412500310071131
                 -0.79635089292409877437
                 -0.66412661449814769377
                 -0.04563422879316925834
                  0.47211190236354144689
                 -0.52773169168130662499
                 -0.36834271052568862137
                  1.20181327844090435342
                 -0.17482310391649583114
                  0.22041817501200428042
                 -0.17604859816221246627
                  0.04741640101494569437
                  0.81897966351747508718
                  0.40065814915699615728
                  0.05308852997807261831
                  0.61900060377908339149
                 -0.14168345104542717783
                  0.12001743045693331891
                 -0.28846724383754934751
                  0.04826473970843100925
                 -0.18473382079075403861
                 -0.40194602952214641967
                  0.40751143869125261432
                 -0.04043235810764809340
                 -0.78825426246240992700
                  0.00255521863883224551
                  0.48133462494369133600
                 -0.78436903889134990120
                 -0.98685523598622804098
                  0.94223035264316135073
                 -0.82235686503511029599
                 -0.46950591840404765076
                 -0.52950192816137653384
                  1.02848627947351745071
                  0.88792147306093238690
                  1.36246386762256177505
                  0.67496804223814099721
                  1.09859501918531909936
                 -0.28139720813575064273
                  0.71040423453977086243
                  1.44541937954143784317
                  1.72717081013156281699
                  1.45687294529604760562
                  0.90403403955685457394
                  1.71159141763022337734
                  1.91508590982691129234
                 -1.66330536558591290941
                  1.61861361882707011084
                 -1.76624475845537998175
                 -1.84499687319987826228
                 -1.86873984282853600192
                 -2.04367681350771412951
                 -1.96636546071790352386
                  2.12091880930332976618
                  2.06523575497589328975
                 -2.35660129191239375857
                 -1.97511682446140213187
                 -2.38709422678465488232
                  2.25219520028775299636
                 -2.32963017966184704477
                  2.41226264021120462289
                 -2.42217202185639646217
                 -2.47191813305658936173
                  2.48518809087161773874
                 -2.07779728244363326439
                 -2.88608639777233522139
                  2.72901584085429060877
                  2.74477056392203833113
                 -3.13186586811393707919
                 -2.84879892298758452540
                 -2.78693171210424983641
                 -2.31799526269688227487
                 -2.77562554178910270153
                  3.07275178644970159425
                  3.09717738592597680025
                 -3.15845754725690808229
                  3.05259482064126919099
                 -2.99968347584217287505
                  3.24803199869717840187
                 -3.35516290810361894614
                  3.18607035033106189559
                  3.52286546326643623672
                  3.62146737962717990555
                 -3.55756700717655327537
                  3.51237725820561008661
                 -3.73917992620922268188
                  3.70571398321152134514
                 -3.42273892347286334825
                  3.83851385176707227131
                  0.40241519741852399550
