                  1.27478586795660975284
                  1.75772981354988533376
                  0.74496423897528618596
                 -1.70756095336669599938
                 -0.37264056559266389712
                  3.65970157287787367650
                  3.75203755324619203648
                  3.56249917596956988675
                 -3.69507968333365344193
                 -1.55595427463989199879
                 -3.16535943731426083758
                  3.20276204294853350518
                 -2.91441965128958901943
                 -2.88359652620425377378
                  3.13278257580777053093
                 -2.89459671942819252166
                 -2.54422341321968215055
                  1.10364722637830636742
                  2.53455060099363338466
                  2.49195889641649959145
                 -2.42141241888226188550
                 -1.86879845783453957253
                 -1.69757087593219813115
                  1.95723891724155496519
                 -1.96444659954102118782
                  1.29704310369552611171
                 -1.36616217352924862460
                 -1.42932887004939734865
                  1.67339707963531481028
                 -1.19662916647196393427
                 -1.71604241710776017626
                  1.24195857933693809549
                  2.31413856195701495011
                  0.86211677630053662469
                  0.57893037697434024391
                  1.36946046962271439362
                 -0.13129190354284447917
                  1.89581019767332326076
                 -0.95504464280625533945
                  0.09983618625643464473
                 -1.41501398887670792881
                 -0.24529419593492796103
                  1.30543477746823954888
                  0.44278998194908758546
                  0.71067807345245237460
                  1.15044854382923578129
                 -0.04310197653468415824
                 -0.10010061349641871664
                  0.09438950427604822502
                 -0.84375572940046472681
                  0.38434159719363375496
                 -0.30574139313402726170
                 -0.22410983351681107445
                  0.14061460579724541220
                  0.73011262862989489975
                  0.32660711403125036734
                  1.07728479787933872913
                  0.97933585639266340639
                 -0.24344364600020090839
                  0.47255115433329591967
                  0.07208171579515661176
                 -1.04523770750309807909
                  0.72215360124461569491
                  1.03935255576375995545
                 -1.03317011723613050300
                  0.76598340882920090689
                  0.61177579184688557490
                 -1.33439989379321510832
                  1.00172169485312534398
                  1.17641171188529680691
                 -1.11781072900432043582
                  1.44753764342559199108
                  0.71757141753548958629
                  1.83343008513665761683
                  1.16357935211425145283
                 -0.76459434807810566781
                 -1.55158118844412684645
                  1.58459579120912952277
                 -2.15073555900176716094
                  0.94921458238383604744
                  1.92797752193138349774
                  1.97267397841204683573
                  1.79656000635850343627
                 -2.10922501404990470064
                 -2.33172315066664337380
                 -2.16062733370491555362
                 -2.39256986615498368209
                  2.29522057400595702603
                 -2.39412467170901344105
                 -2.72327033313067357057
                  2.41071338290430103868
                  2.59355183278402012803
                  1.48951513543702618314
                  2.74215481753377465779
                  2.80744814595836800208
                 -0.37808697732052526375
                 -2.13455845118487408385
                  3.00855116353332885382
                 -3.05816066835687827563
                 -3.03949800394518154789
                 -0.14045612621440475842
                  3.37317599636722009748
                 -1.91670503367699174291
                  3.44291375058029114342
                 -3.21935361676459397273
                  1.08821509302546037823
