                 -1.20111839965711419964
                 -2.23848297814556307372
                 -1.59914318375043240650
                 -0.52090847771656179077
                 -1.31837555510729331765
                  0.79941934555536475759
                  0.49661233643661734094
                 -0.71465733213146342973
                 -0.85861735409211414893
                 -0.67028318575471002028
                 -1.40205057470625038540
                  0.92868674460333844323
                  0.80436631683919568303
                  0.91074530736690229027
                 -1.43711691834663368716
                  0.35610708192951989748
                  0.92241912762539457482
                  1.53396183872042302099
                  0.43782406935520540303
                 -0.67039508374393241841
                  0.11115807239524945482
                 -0.43230931100572361769
                 -0.15713185266106188820
                  0.46310139230942198862
                  0.15491219620134227819
                  0.24013081953884987674
                  0.66232945811581389606
                  1.10838624257126094896
                 -0.05257841803933691049
                 -0.85169221468822575716
                 -0.68359712596902177939
                  0.58214825594414976173
                  0.34100634171040772324
                 -0.46141536012100781150
                 -0.22526914753581703255
                 -1.04494326457017505660
                 -0.48757899471712840000
                 -0.68563158531824364150
                  1.67567160980302576334
                 -0.64262482293722267279
                  0.69431268090764386436
                 -1.63170642580300162550
                  1.29366934384803977665
                 -0.99161664622088940835
                 -1.16217286317558232689
                  0.93978537557123953405
                  0.16133910881811319715
                  1.48477708248129514068
                 -1.16030584579111595289
                 -1.08210797650795664815
                  1.12833966220033055095
                 -1.40979545151661311841
                 -1.28435365087352515445
                 -1.61619364715250357634
                 -1.05801959147807300710
                  1.16579965562558274250
                  1.25443512033126314265
                 -1.05018869794479319246
                  0.68374269561962741637
                 -1.91847034787852543936
                 -1.20727284255041955596
                  1.02964711994238200532
                 -0.25521876611654115141
                 -0.64062699639106934768
                  0.50757817117755310576
                  0.38016230889508767499
                  0.06368201090090283567
                 -0.14879682764121743288
                  0.08574728822296054376
                  0.61396157772612813819
                  0.61286842070288560791
                  0.78760567435524941882
                 -0.66728079537157924950
                 -0.35381763180764624899
                 -0.06827030299505471023
                 -0.14289835532486236391
                 -0.12994368986114374076
                 -0.11681093801329661686
                 -0.01196984707846865219
                  0.13327635422312825164
                  0.34632741771474623294
                 -0.73549900511475163611
                  0.53042098529313552735
                 -0.58658404933022867400
                  0.68207996814403137886
                 -0.85974197422638032329
                  0.70793079196773500694
                 -0.89581021671726879241
                  1.02594421509731748010
                 -0.77837139310485625732
                 -0.70036125478430666380
                 -1.23944690342462848776
                 -0.97409254620203278296
                 -0.94171330009110365555
                 -1.32046702630190804229
                  1.23313672636546867167
                 -1.35784969487214035588
                  1.00277041189504489971
                  1.08583117697938580370
                  1.19330372687416486066
                  0.50745306280921353981
