32	2	1
50	50	
1	4251
  0.2784511601882206	  0.9378911781094328	  0.2782109397002206	  0.4758980656618162	  0.2215464064656540	  0.2220283375403795	  0.2214056969687630	  0.1362470452446577	  0.4768610100882901	  0.1556904317378697	  0.4449808183692436	  0.1554301173594906	  0.1033537403305897	  0.1029325721370431	  0.1033400452327308	  0.2084220382781953	  0.2088019808714510	  0.1084054587806463	  0.1081312434582778	  0.1086764495003692	  0.2658608224783080	  0.2089196026439979	  0.2090074904502110	  0.2099163787192800	  0.2087439989292098	  0.0696576984755391	  0.2179096371387329	  0.0736823829982820	  0.2505007427305522	  0.0868781320489804	  0.2107538764326021	  0.0866603465676482	2499.2673650000001544
  0.2795650620249345	  0.9462407482586093	  0.2793386153811394	  0.4769825708186601	  0.2215537326187482	  0.2220365876224858	  0.2214147543828736	  0.1362509391377603	  0.4778123227002510	  0.1556916725151715	  0.4450012663922975	  0.1554313890119320	  0.1033567253700734	  0.1029347392793866	  0.1033422070189824	  0.2084220688414899	  0.2088057720018817	  0.1084089343629890	  0.1081336514069590	  0.1086788574490504	  0.2658620305105941	  0.2089280853206983	  0.2090075210571456	  0.2099164170406247	  0.2087440439914297	  0.0696577028129537	  0.2179196795776580	  0.0736823902940436	  0.2505018155026497	  0.0868781334310845	  0.2107539331743058	  0.0866603480016598	2499.2673650000001544
                  0.15890781999460476537
                  0.45844877588518129219
                 -0.92133569447871432878
                 -0.24583906139406727642
                 -0.87157142519465757857
                  0.05601435562950585895
                  0.52834676272304181843
                 -0.32621031210780898624
                 -0.22846633752053507882
                  0.48618836573652701727
                  0.41652995446191526385
                  0.17244040199904064892
                 -1.10996771196405452642
                  0.64752045905117017188
                  0.31134226815619753248
                  0.00273600934535850283
                  0.41145520342689378968
                 -1.33205332071638316016
                 -0.14582607396798935584
                  0.31985428777844060466
                 -0.74274421725090900015
                  0.28969678333199244680
                 -0.67882487450318507172
                  1.07076322960101721904
                  0.52462192686729214319
                 -0.07420221839416824006
                  0.34030100818079533909
                 -0.84172069295409857048
                  0.26329907203188784859
                 -0.41394685647236484360
                  0.73867790075498518387
                  0.11594567622966853171
                  0.08598179615211608284
                  0.08387941738081559906
                  0.11846122973489138508
                 -0.36206814191397446168
                  0.11530626239856373028
                 -0.84812350317305196246
                  0.10459735013182365482
                  0.08440899450956682037
                 -0.21095101365450263931
                  0.81734937796386930575
                 -0.20022446278409739007
                  0.17987382449954963937
                 -0.33481204228621952446
                 -0.03393267740656873144
                  0.41269936520280070535
                  0.02652362845168385747
                 -0.62182764799334255823
                  0.32140873540197256730
                 -0.60237703436190614958
                  0.48993198318397046531
                 -0.33725374943115410398
                  0.38040523191506225853
                  0.38647952983422140250
                 -0.44152464100978566774
                 -0.79638956032070962188
                 -0.06572514838775758705
                 -0.02306056006380267573
                  0.01879242831630679664
                 -0.30218544013295300932
                 -0.32539392085440144164
                  0.41204132345728655684
                  0.15144032623071240762
                  0.03748531686625872217
                  0.66785587807580748532
                 -0.33396828199553341143
                 -0.05648107301991001777
                  1.44142364213034746001
                 -0.08229789462798976774
                  0.11144902630939396149
                 -0.02901915299400657788
                  0.16657744625335177413
                  0.07109564032491161312
                 -0.02111048933066941857
                  0.22387272192533455573
                 -0.17920484126435079486
                 -0.26685365939051264306
                  0.09372985955196166952
                  0.44438269772053962114
                  0.44630344564512941519
                  0.45774274359086059016
                 -0.98218714332623457963
                 -0.00590906745569286414
                 -0.28052127791114794819
                 -0.36933408855294197481
                  1.04541169940531153415
                 -0.42234414618624377402
                  0.26252266569264681717
                  0.49241935498021166540
                 -0.11699557765518277253
                  0.13081883751776438030
                 -0.39830679963393322840
                 -0.46412802375107947706
                 -1.23663613052643683865
                 -0.47471968276562487299
                  0.46870227820401638708
                  0.05854482203175329080
                 -0.11940122776004159777
                  0.13936685342452279079
                 -0.22326707538686788035
                 -0.09514566302811396092
                 -0.07072072537504110745
                 -0.13322435971468479798
                 -0.55276333765260887709
                 -0.12653815761615963553
                  0.47383583594429651287
                  0.26059008866157673534
                 -0.16394120629367994746
                  0.14140326477328679644
                 -0.63343101487203168354
                  0.25786395550082930050
                 -1.09539580138425285405
                  0.63741393288953385188
                  0.38596499221242797084
                  0.22190483596755425366
                 -0.79083731328942696859
                  0.00133622611622637253
                 -0.24419586420925215586
                 -0.65744846219956487587
                 -0.00724208335690840546
                 -0.77483538282429897937
                  0.69923982568612563782
                  0.25250358137744988163
                 -0.32777962904694474267
                  0.79400573664560913922
                  1.37568281797727554050
                  0.76190964356630019871
                 -0.18244592770467227272
                 -0.69894034719648423515
                  0.89836331905076705073
                 -0.32418210443245898400
                  0.36171098589130734613
                  0.57888212677463068978
                  0.34145648449658017043
                  0.02327662468208416269
                  0.38438947070675061335
                 -0.82684903402268716821
                 -0.93849263052861153778
                  0.16289649421030097387
                  0.36109603443059412609
                 -0.07723937450975856822
                  0.89367604239344367034
                  2.25796129506846687818
                  0.29799309925190825554
                  0.86894039224015129363
                  0.54998626162399300021
                  0.54658825521380660639
                 -0.16820913311151450276
                 -0.14116133845188086338
                 -2.04298699415816731317
                 -1.13510854526413940135
                 -0.48523008332905770423
                  0.43595442594328942532
                  0.46719571801491227570
                 -0.55986237384641823756
                 -0.61837390905400912988
                 -0.72277549541865393490
                  0.32809381802135401118
                 -0.43635700605409943886
                 -0.01811704092081928980
                  0.04408918926184497711
                 -0.32655518613957362772
                 -0.21040969804350495576
                 -0.06214285669403360468
                  0.54530997307892536963
                 -0.42105363403196988115
                  0.09768872384258249497
                 -0.01205998541327074798
                  0.54355434679465253200
                 -0.56747805918072846687
                 -0.14856708540462301715
                 -0.25482990504675467891
                 -0.10281865491519942557
                 -0.26885321569112902163
                  1.00902138565028232087
                 -0.52108085859615516089
                  0.92862973733205433913
                  0.52759655263782256895
                 -0.75884249020145144726
                  0.07722240326540491528
                 -0.77251802033885896837
                  0.13738543160701469081
                  0.18063957768228050549
                  0.12590828011251242735
                  0.24298313983160066409
                 -1.01281886999030668051
                 -0.05962331262303704332
                 -0.27973699033796661784
                 -0.10876353394216933812
                 -0.38059243013976917780
                  0.86904768270241317119
                  0.06036290119059015136
                  0.30211876532858705779
                  0.10509444543507776015
                 -0.09531713567361339845
                  0.16378637110914090469
                  0.33282289895776501210
                 -0.17659419663812592205
                  0.21172883583915463879
                 -0.29304617915417813245
                 -0.02351965748082392171
                 -0.12349808037992351939
                  0.64404270127999252438
                  0.12865469946481994379
                 -0.85957755020354487119
                 -0.24821606027033707442
                 -0.30362368751980189918
                  0.11344595124048302559
                  0.40055334022075478329
                 -0.60189730718890877004
                 -0.49425962365474107596
                 -0.17768275694046933855
                  0.18269564184823763875
                  0.25589855895579133316
                  0.01531722237211507152
                  0.12094132442506917713
                 -0.02455047085196448292
                  0.31206458619382115849
                  0.05503291168867442684
                  0.38535748292262844705
                  0.36544017317070631723
                  1.57108198662774656285
                 -0.55137717508211325779
                 -0.15645872052335801916
                 -0.47012219725899978551
                 -0.67072244266046310290
                 -0.50746270456491260337
                  0.37826649090955621890
                  0.31302984947366574442
                  0.21157682221411255874
                 -0.45802556812918532314
                  0.41002522365138532878
                 -0.09075841643097896927
                  0.17249580446014226021
                  0.51868193532993434047
                 -0.57513229805675891715
                  0.62237373108482818562
                 -0.30552367790382717327
                 -0.75483070068140245557
                 -0.51638110074377574499
                  0.46882829083451865726
                  0.21236630784957677420
                  0.28378659671306050161
                  0.32037893599231404007
                 -0.33986340888602217802
                  0.15175982383376510065
                 -0.46787789993898099006
                 -0.59523126902882694811
                 -0.23248555877674031978
                  0.20638106450145662918
                 -0.08290278577421716921
                 -0.04799521571881253806
                 -0.04494462277983287540
                  0.83357798977413799513
                 -0.21488138470932111046
                  0.94413788668034381857
                  0.33420377001829204566
                 -0.30354590755356913867
                  0.29490758997378541117
                  0.27470810441376913857
                 -0.21173357581031784780
                  0.31837364774554977043
                 -0.28688935416348076979
                 -0.15960217332404172397
                 -0.55154844342298259274
                 -0.71284943580964132970
                 -0.01467120208510890728
                  1.42404909226128117972
                 -1.06242153713074016785
                 -0.19307762669662881239
                  0.33587975237796774408
                 -0.85975821871691293641
                  0.60426530021332203191
                 -0.80901200551187146814
                 -0.66244836557588171466
                  0.49878796189637147895
                  0.28039827105945719365
                 -0.46409877460607967814
                 -0.36105456119765605427
                 -0.22281875532623662828
                 -0.24143603902521243443
                  0.55096722143789633730
                  0.10332123388173808376
                  0.13426990063093466321
                  0.04020741814626892924
                  0.39884014725774957766
                 -0.64341188348825528731
                  0.26445284509414729301
                 -0.19768957322463293069
                 -0.25781841556447959718
                 -0.36212895222569618792
                 -0.02934188422173955937
                  0.89519962276135056634
                  0.38535352984115261998
                  0.08119243289938814223
                  0.07758022963706757980
                 -0.07881380571962466608
                 -1.19841036036658543651
                  0.42602079251689545236
                 -0.36364555594499720081
                  0.45449261243063859839
                 -0.41707410195597244273
                  0.84395352893759434387
                 -0.24337121604743422454
                  0.23332775536910210779
                  1.61993655446127249320
                  0.32786682731475080832
                  0.22941476135614954912
                 -0.77239010202812352635
                 -0.80046399882206531462
                  0.23501208845808896353
                 -0.95041646598146412028
                 -0.02561324064705691739
                 -1.16978511335434620655
                 -0.47944704315767383562
                  0.06902280583205795683
                  0.37033624626792593926
                 -0.64515794863324393837
                 -0.00114835577508615497
                  1.10905578359884016137
                  0.18502993224795416527
                 -0.68484688312628838602
                  0.33705764784096858833
                  0.07627908882804902702
                  0.53806394261674284074
                  1.39777610623582004834
                  0.02816789778149387038
                 -0.47509603512028852901
                  0.04141813424737031402
                 -0.53024540210874904211
                  0.06960269920830647328
                 -0.24962901456074748641
                  0.44278886727543009805
                  0.30146933113382717861
                  1.80017847104001460501
                 -0.21480006302698048670
                 -0.25084436321082342891
                  1.10948220366543881532
                  0.51995673866935931962
                 -0.75492995003753182726
                 -0.10890262208259084142
                 -1.46594493371037404295
                 -1.10123041322977521794
                  0.69440448344966498873
                  0.59629412669265036140
                 -0.81166184210206038241
                  0.70814683471747708055
                 -0.27844937202705016821
                 -0.80424277079185657602
                 -1.63478376619275600490
                 -0.32657874668160119525
                 -0.51775331751258468760
                  0.42294851494151092242
                 -0.21567704675107765566
                 -0.59497303079332597431
                  0.41821664639691757959
                  0.13759580676775348684
                  0.22509636969413135410
                 -0.11472237037291350970
                  0.11580178610539357265
                 -0.56953194783000415935
                 -0.15015050143959554618
                  0.07128036037695938132
                  0.78202511510752392709
                  0.02893384415563760026
                  0.42399606132030848160
                 -1.27824219940649430605
                 -0.11799214180254402606
                 -0.17733243134469048319
                  0.01578996408174192581
                  0.10435514282795488317
                 -0.18235943445589780643
                  0.46270681922348649850
                 -0.32189563320409225744
                  0.59312223719383705411
                 -0.03970297803101655726
                  0.30554087738089180659
                  0.36223989946197732159
                  0.23304006510172853295
                 -0.18386583538047743258
                 -0.12904330387083995380
                 -1.59207206767122100288
                 -0.40169700082849618683
                 -0.26285113250603103774
                 -0.19320578320501960445
                 -0.48543841364597078991
                  0.39272986967087891719
                  0.65005234334195027834
                 -0.50577869317913048963
                  0.57359420331119370662
                 -0.14058950887608018254
                  0.15296594962665488460
                 -0.49252487355741425556
                  0.36101137648829861870
                 -0.24029576077842421111
                 -0.64491599834101864808
                  0.75178355612574554456
                 -0.56319257814909273741
                 -0.72738257328713173955
                 -0.20360693796522699728
                 -0.98475934961212896468
                  0.15333592272076349006
                  0.61657328697833579945
                  0.18191314638926370240
                 -0.16999329555549491655
                  2.21768184107777921454
                  1.27050489759424545255
                  0.46325248593081314041
                 -0.53042111884968146107
                 -0.47977813537724078863
                 -0.08039440771815525855
                 -0.34106348400031488710
                  0.07023908820897194205
                 -1.68033829042503146667
                  0.72237186776687023482
                  0.40674678707817141232
                 -0.18893792111678650580
                  0.30336250640621248431
                  0.45922914343594900544
                 -0.35292772540110489699
                 -0.26977702172246170731
                 -0.82433637129623182904
                  0.05344700675315178229
                  0.34480894391788308173
                  0.61266303972485069984
                  0.97657600308643655040
                  0.33066823587591043232
                 -0.91723823253856262561
                 -0.18135573443106967062
                  0.28010973847408210391
                 -1.28654647237138286542
                 -0.90863515166394992484
                 -1.55213433398825140230
                 -0.22056974007931873238
                 -0.02959222538018378007
                 -0.70421793513106878404
                  0.47154353748549882042
                  1.25840446956932394684
                  0.53109907001659739656
                  1.76336417497301556345
                  0.74419269898525386431
                  0.52562953791855904218
                  0.12580635002527476574
                 -0.20386534818535811953
                 -0.49560966723104304954
                 -1.95057902993548837323
                  0.25576909166983591293
                 -0.23978640062354938944
                 -0.28155036724628029754
                 -0.01323284215136272951
                 -0.59345020646282176102
                  0.40568551662515078826
                 -0.64477915692384568658
                 -0.10782179992619525533
                 -0.54403634943547607428
                  0.15721413534307251969
                 -1.29114446203913790789
                 -0.68118638412403043070
                 -0.11821537455024958008
                  0.28524297913813362326
                 -0.28070081419721909510
                 -0.06656011640964187848
                  0.82641722502392922500
                  0.13604023698113873464
                  0.65496470742920798180
                  0.53511792185251727538
                  0.27884019092044903809
                 -0.25814915502040597373
                  0.11562074513341112636
                  1.31127001747001581400
                  0.02645313688902789853
                 -0.10040025658468559877
                  0.16433722993139046609
                  0.51928921011801276730
                  0.37144743538926766613
                  0.58395604421818980700
                 -0.24587341530226916597
                 -0.52112572290983949497
                 -0.22115508912336767633
                  0.29478639479456497652
                  0.20940449615383535664
                  0.24014166952696067159
                  0.01346184619586067964
                  0.33052709078525721598
                  0.17472930156451033090
                 -1.25873488863690585760
                 -0.53325643931596322656
                 -0.03905776632279427119
                 -0.51883466794603605443
                  0.07896371262102611088
                 -0.22998508617393501052
                  0.20153734714762450153
                  0.58559829461014867302
                 -0.42970284087777865789
                 -0.84257614865063235055
                 -0.81932680991445816510
                 -0.48000164690479202312
                  0.00480503535514395941
                 -0.11870429815991234701
                  0.20379397770023371939
                  0.86933094822200562835
                  0.98482192533312540306
                  1.70665921447050128457
                 -0.79455771954440956861
                  0.28113293260655553008
                  0.46268891923194183091
                 -0.12499217521925544416
                 -0.04655562313614555747
                 -0.60529206727742734806
                  0.54244482419020756403
                  0.23495016029820359194
                 -0.03577984052712917390
                  0.02146037880811707890
                  1.21540642773842111346
                  0.03657902992453587743
                 -0.85962372061197289685
                 -1.68584508908647801029
                 -0.51558521288366832014
                 -0.88806666077776175161
                  0.61446559032146486068
                  0.22615320073153424851
                  1.00680590783512213804
                  0.37264635129937212499
                 -0.94865183559414112402
                 -1.04676008338271242515
                  0.61927908212215998507
                 -3.73604270141064631616
                 -0.59962455730712838076
                 -1.62286725019204491893
                 -1.27361702149573541298
                  0.96893412226929853670
                  0.20022628921689661352
                  0.27240244467680113649
                  2.64327449698112593168
                  0.79292609166797334286
                  0.91355894593776532098
                  0.09371798996907866608
                  1.21607735650006221206
                 -0.45241151236880655651
                  0.05479293430178997643
                  0.76405810219567815711
                  1.18546158459805450747
                  0.33448039558436315488
                 -0.61139041747053179954
                  0.05949268938546122681
                 -0.11703765533407646526
                 -0.46404478128237691692
                 -0.31725704085633577023
                 -0.26168069686346012714
                  0.97218765484659652731
                 -1.16615954345428818328
                 -0.74109888360401310337
                 -0.15178504853264337959
                  0.35400667239823407906
                 -0.12094425115459413178
                  0.06254635183851310620
                 -0.62368961380419574159
                  0.59028425062515477162
                 -1.59155451910345191457
                 -0.67256761606732839986
                 -0.55096109012001526217
                 -0.30054538043212075671
                 -0.57181439561330504873
                 -0.16597357236618351384
                 -0.34901642838196200724
                  1.62013912024682205093
                  1.23605372375543387520
                  2.54526548860127954654
                  0.56035899224131335838
                  0.45211268238816504361
                  0.25326067383948747125
                 -0.00981257107631709063
                  0.32729525414882393308
                 -1.31425926483238142417
                  0.59529653540861393601
                 -0.55435176098329996819
                  0.22213421595713045420
                  0.12412611237622564464
                  0.13890648806606806231
                  1.25836176671057797805
                 -0.09284500953165994441
                 -1.47365706363266268930
                 -0.22891286460149862236
                  0.38730085177718037714
                 -0.63184865264771161719
                  0.81714787705877434121
                 -0.60631185555077249383
                  0.70275550474877834795
                  0.20630598541340536278
                 -1.20117204187570214557
                 -0.53144576591959580281
                  0.06161241929977658710
                 -0.07477510372888190870
                 -0.20380904647605158075
                 -0.26796309256987110858
                  0.20679274847710690799
                  0.34903106247909354565
                  1.76644480057035480058
                 -0.25963286249673933614
                 -1.04690405046579471104
                  0.13351323089115019194
                  0.67829929449447823320
                 -1.04688681272960693036
                 -0.51913180248847556886
                  0.01459601643552956539
                  1.61125650535322373358
                  0.33697889796394775441
                 -0.41926456313655380281
                 -0.16431196740967551895
                 -0.14023749171487845389
                 -0.28968297045826213454
                 -0.06358906101924102772
                  0.29168915987249022237
                 -1.07306205454756775630
                 -0.11703163049546015662
                 -0.51760424828193518643
                  0.14811283939211414284
                  0.45021879549154525391
                 -0.75200070385012685037
                  0.83235051331080711634
                 -0.20768919508378561045
                  0.27978822102253664283
                 -1.63503804489658777221
                  0.88589281190475333005
                  0.06534231929091542657
                 -0.62611934661358958909
                  0.25680714017673877958
                  0.08566135443805582284
                  0.32820888860196789638
                  2.03250122545306677324
                  1.49686286762532216876
                  0.88244604700105877537
                 -0.69416423965532314533
                  0.91531376503988659543
                 -0.35810992597015922634
                  0.62708633665664836876
                 -0.53512518469615244499
                 -1.76459137009564948073
                  0.12995613109889475600
                  0.18740964472709856214
                 -0.36575159541739904467
                  0.03662153412333210567
                  0.42809949629114518732
                 -0.32410862852493582675
                  0.15585746994225552209
                  0.32437582286031485523
                  0.10306535912156480905
                 -0.40428467510374638261
                 -0.07274412112869751978
                 -0.19895606255034020693
                  0.20581321163015553477
                 -0.81321664034933915932
                  0.37306484597603556397
                 -0.32028931211999878137
                 -1.16654578153852628297
                  0.75382105292969470156
                 -0.38189867558938844772
                  0.68208592015483360260
                  0.82553203398753538522
                  0.06690840863909401637
                 -1.26494317965270086646
                  0.11820776602716405457
                  0.80288139079492271133
                  1.02435692159323954442
                 -0.04905772802342966976
                 -0.24076742794499880751
                 -0.11682301293987587543
                 -0.39250714607897252417
                 -0.50926710137372266374
                 -0.12869490414665010758
                  0.64916753631619739107
                 -0.12565870911515444885
                  0.10749927466155279054
                  0.28187830927800316960
                 -0.15102846584396911744
                  1.50235332805276966539
                 -0.72522590435548728305
                  0.16285825768843717465
                 -0.07642687772798772983
                  0.18514520744177431766
                 -0.54972715700729735122
                  0.80595608793391204649
                 -0.32289395518435021204
                  0.94467339775194891782
                 -1.12776034818347259403
                 -0.47721357773151656945
                 -0.51749561828239443173
                 -0.30273694825404845465
                 -0.20089004865543835798
                 -0.69479737674618791132
                 -0.54486575288005723028
                 -0.57677477643293328935
                  0.96625540376879703874
                  0.69779064224017861573
                  0.07799389079777491185
                  0.60038436033914455159
                  0.22341391270782906542
                  0.44426514378930476168
                 -0.10915072831058422742
                 -0.31332581105432755209
                  0.44864897500256856189
                 -1.15823112677120554359
                  0.59367437535173728236
                 -0.52674209520159775977
                  0.36105663103374396883
                 -0.39541018926172938341
                  0.24644488782140749894
                  0.39590324161410689330
                  0.89370582126110675869
                  0.07119288636489298772
                 -0.23128537541447435899
                  0.12934052738668483373
                 -0.02536335795920534666
                  0.44154705132691024483
                  0.43207065032415847838
                 -0.81341476291321523906
                  0.14131166410263681921
                 -0.17865275485110479470
                 -0.45441601012602905740
                 -0.22297073307656320451
                 -0.58349512675628023572
                  0.39802580988589625344
                 -0.13312635925904844902
                 -0.14492854117718889650
                  0.04259114760635705071
                 -0.34224014321796847327
                  0.54237080144551086391
                  0.37483065073707272363
                 -0.06978982623282110886
                 -0.79595261667178240916
                 -0.46250859308072705955
                  0.15494077219823487734
                 -0.00212743899476660215
                 -0.98194163890088914659
                  0.25131103525182701963
                 -0.32952174781720366958
                  0.01922261976157355751
                  0.36679802575944642218
                  0.14462141864599709074
                  0.22519004431257735876
                 -0.33052672446838271547
                  0.70143297978168994700
                 -0.61612923272353747883
                 -0.18460575958876856983
                  0.15089137485534462324
                 -0.52423247869857048098
                  0.32275688086965104162
                 -0.06717659138031707722
                 -0.12871466692127356279
                 -0.52545633715370065886
                  1.49431809086300559919
                 -0.45272756806608072111
                  1.11478231259736704217
                 -0.66450621135586351862
                  0.73472128858010044006
                 -0.67218053077456274558
                  0.29624203233073953534
                 -0.84472704593915370896
                 -0.70575183307484989914
                 -1.45062344563161715882
                  0.45901318479584468646
                 -0.06789653265972228624
                 -0.50463992974092597432
                  0.07692653523001223570
                  0.05291593920000328688
                  1.35343043621067682380
                  0.40580577438261478118
                 -0.33864096529800080670
                  0.82192360217910365172
                  0.07932456408088384148
                  0.30739201948450750601
                  1.88707626210549217483
                 -0.43193079064347994489
                 -0.48136481729731250834
                 -1.31960710205095388403
                 -0.26616859678010096335
                 -0.73032319879576301780
                 -0.55237828021951207447
                 -0.11484575812752655100
                  2.06100342742299380561
                 -0.96527026859437881079
                  0.65845824362550309239
                  2.85945619390389182968
                 -1.07331201043540169771
                  1.99455037816642111181
                 -1.44973680120460013399
                  0.01172654337427308895
                  0.50278994644325769592
                 -0.49827673847677450558
                 -0.95559304434022052099
                 -2.38101588627495219797
                 -2.69062830091136451216
                 -0.78460337414880088058
                 -0.47947145817084807495
                 -0.32326623347620647708
                 -0.16940514872118278555
                  0.59236302648775984725
                  3.02135296919103302216
                  0.77274284171583340619
                 -0.09018524583845362319
                  0.41750777944396316732
                 -0.11597049134340023380
                  0.48536928870189455232
                  0.67951283620929214813
                 -0.16899255674174845643
                  0.06601285923353218676
                  0.49730569672402669124
                  0.08215884780522030029
                 -0.17122722756610714301
                 -0.56231557433579526517
                  0.42496310197994863200
                 -0.22705428071792935207
                  0.24106772314681013114
                  0.62013777523605839725
                 -0.02747436043132297362
                  0.10412114254824997306
                  0.55827794985504330949
                  0.39635221569389200713
                  0.86461826725666124371
                  0.02439502453502617393
                 -0.89277989200764062971
                 -0.29422581869585284764
                  0.63479370396408152377
                 -0.11761364529543411050
                  0.43314909249355321164
                 -0.30378043037036989160
                  0.19212908888236279736
                 -0.20005752683409502857
                 -0.56793607208031959832
                 -1.41206064447671297835
                 -0.32583015316936542183
                 -0.29959821218823540212
                  0.19898072748956599498
                 -0.65767242148180304895
                 -0.04652588916995037405
                  0.63561294583959238036
                 -2.78570444845928522071
                 -2.76658753911081589649
                 -0.55737030295165057581
                  0.02617620268232892511
                 -0.09392375520604279160
                  2.98779608643241134658
                  0.58292743242138289617
                  0.17372273632543019928
                  0.00509981077196157428
                 -1.92197649461766228995
                 -3.67631959196075630558
                 -2.57234659876148086255
                 -0.07291982843960383154
                 -2.20040493875106824007
                 -0.64308332373629029100
                  0.50712576975801471058
                  2.66162071005709455207
                  6.73000464559009792254
                 -1.03591897494181917061
                 -0.61183585690923236733
                 -0.00098076076752811117
                  2.93942185835329983234
                  0.05118170091050162213
                  0.59516132896859852419
                  0.42199729999007612458
                  1.46306132908173758267
                  0.08676596680531083183
                 -0.06674519300719827797
                 -0.65969913419094716733
                 -0.13118076958795218956
                 -0.11546009325166498027
                  0.10820848271790352302
                  1.12606384853400354196
                 -0.22728461750352682569
                 -0.19155391667459398253
                  0.16639018111527006938
                  0.75943070540263002410
                 -1.72629543491673254074
                 -0.30491719345903461891
                  0.25246806669621146835
                  0.38216771283665090797
                 -0.01702946997906741936
                  0.84172398300684125871
                  0.31961629581215622586
                  0.94614416299863601800
                  0.54121293693190175578
                 -0.30268465309162839727
                 -0.86339963301491462477
                 -0.56053880277025602830
                 -1.30302219920666706443
                 -1.54679884016740198938
                 -0.38492990447370889484
                  0.15582597890971336407
                 -0.97504899005954415170
                 -0.02090695142972153961
                 -0.60602553677014781019
                 -0.13259792661355043752
                  2.51221201161740248509
                  0.47242935835608124151
                 -0.02504080690401498319
                 -0.28961635666847673765
                  0.03009349159960410594
                 -0.26431307648996099635
                  0.53472761153830417058
                 -0.50465420135015059966
                  0.01019788353369783032
                 -0.77431192529337788955
                  0.09898787400725123087
                 -0.33860753273520927120
                 -0.64761273938717855980
                  0.09436081672920269836
                  0.19727912934953134583
                  0.31141454594730894057
                  0.39005338459112254279
                 -0.61026093503354017500
                  0.17643158061622568611
                 -1.39163252984143404056
                  0.44213532180064257782
                  0.95760343189554797405
                 -0.47261879573006487787
                  0.55192130845260312100
                 -0.28051145511330338733
                  0.60348393252947118981
                  0.33759895443372706092
                 -0.32294826778961349678
                 -0.03901826547768592196
                  0.55202443868393169524
                 -0.13405917395593050512
                  0.17196245182641670124
                 -1.45560102952359238238
                  0.22759476551200530370
                  1.45117578760264964721
                 -0.46015206287118726181
                 -0.36680461224203747550
                  0.23293923934503349416
                 -1.17282167951583748966
                  0.56428860960219584531
                  0.80158485471914209253
                  1.02339220396362384768
                  0.51757176371362367817
                  0.23042443373546511731
                 -0.46971472941638037213
                  0.30457265084648338371
                 -1.23462397379244270823
                 -0.16601676656580519054
                  0.78830131400724801072
                 -0.51287270587933808663
                 -0.06708351121896299896
                 -1.14001770681883662917
                  0.03454946774322199821
                  0.76297866798943614342
                 -0.42254475882879144466
                  0.08760829626447491636
                 -2.01989358579109978820
                  0.36149114013113542443
                  1.62100565855017531014
                  0.67662793825550238136
                  0.17620281503049112226
                  0.70889553932997206864
                 -0.25835264242102962129
                 -0.60265327008293934075
                 -0.88271451923144728102
                  0.57094917920144694357
                  0.31597888120591111072
                 -0.51690239256660908129
                  0.01086816991136390666
                  0.35682839004869626454
                 -0.40750438707297664820
                 -0.40960421860313539488
                 -0.51291047907059905686
                 -0.08340331295361388952
                 -0.48589164412914487290
                  0.56138884351743534307
                 -0.67191056407666871486
                 -0.35598361853955401424
                  1.02710355726632163176
                  0.06263241001698101329
                  0.08179604391081157777
                  0.56606082251004752326
                  0.53008550175812907401
                  0.55369258854829994654
                 -0.20309661273825341254
                  0.94425920901794180295
                  0.16758647365269235818
                 -0.52455256764766122757
                  1.11298516113997392196
                 -0.26552072228440382062
                 -0.05148772637092617621
                  0.52487458741616321856
                  0.53923396296880321543
                 -0.11343215379922985675
                  0.13458406313025039758
                 -0.30511697179266411561
                 -0.13534517513885108153
                 -0.13437992116759733818
                  0.57233203253988862436
                  0.37853263661005237539
                  0.27142571771739232300
                  0.29770632293351789732
                 -0.61316192309416539530
                 -0.15721693400407987795
                  0.25893029089274655075
                  0.06403020467370987290
                 -0.19138625079591203848
                  0.14209611403781483019
                  0.65372051524342300599
                  0.06903092098790991615
                 -0.39912135067511972375
                  0.10716533539637197736
                  0.06879519778120182782
                 -1.87721665605114340636
                  0.03076162058500283084
                 -1.30730712829109307904
                  0.59871644960568703997
                  0.54866573646953187282
                  0.93564513272860039272
                  0.35882272279585009089
                 -0.28171209234860178361
                  0.00713091115341586528
                  0.04773491665348802288
                  0.02361757556962399904
                 -0.11964321230197909329
                 -0.36032593407726848378
                 -0.17204035185121380191
                  0.84354836160848634119
                  0.78157530241632811041
                 -0.21772284127795876740
                 -0.03535491053737698647
                  0.45558625259245533190
                  0.21907002906212327820
                  0.25144431521239701821
                  0.00137049273492582621
                 -0.62027242397925719253
                 -0.58639783123455346825
                 -0.39986064516248570611
                  0.31211472113523053284
                 -0.15635827004787761219
                 -0.33007043589605827849
                 -0.32636400137709870029
                 -0.34890912653977645963
                  0.35972216621261149383
                  0.61244455906056405325
                  0.67803679486653989361
                  0.38164533991169835581
                 -0.35765526415141452032
                  0.55961032429895263274
                  0.23591274794810868087
                 -0.14102682554669093706
                 -0.66605635852396460894
                  0.05448871024228374438
                  0.19381356244028580260
                  0.32586335438053404268
                 -0.02384592698406287625
                 -0.32590498243612242568
                  0.10975117603863618343
                  0.57385996333943545267
                  0.43969645327370743271
                 -0.35864234811442136097
                 -0.12576538569485534724
                  0.16264858021998904181
                  0.02860164577358220370
                 -0.66038633438988136870
                  0.03765198492121121093
                  0.11525782348659273369
                 -0.31914634708351447001
                  0.75549324873817214065
                 -0.26251194905957753178
                  0.25634021137273288460
                 -0.62889499181583552456
                 -0.12823892963101402032
                 -0.10366478775659740408
                 -0.19536490070584489054
                 -0.34051324979936792303
                  1.14445255377078880521
                  0.22843989888449112158
                  0.82277804131951803868
                  0.14064567507809352942
                 -0.49470699201547457813
                  0.43199533253723604309
                 -0.21691251023860330660
                  0.27446262597872100875
                 -0.90088970239599286405
                 -0.30142203436478676171
                  0.01847496481225942636
                 -0.78120255831892004839
                  0.35812618962330838857
                 -0.46148658616638299490
                 -0.00474107454490899170
                 -0.22196899175519524405
                  1.01772525127795110400
                  0.19869030162982936893
                  0.10142907189942336477
                 -0.50639514426832299421
                  0.01040629577476543527
                 -0.58253888416251564664
                 -0.16803881140581866660
                  0.47137619549288461984
                 -1.17313297680045014459
                 -0.17136459234239487248
                 -0.15299052321681941291
                 -0.23306992173362289789
                  0.40082668511892688423
                  0.18597389633696276290
                 -0.85010048673592641943
                  0.64880462399116278771
                 -0.14589091038145043933
                  0.20683957292952750984
                 -0.66547087901805113130
                  0.45295921963294571988
                  0.81729817193667575470
                 -0.05417767821622600233
                 -0.58083785461527981386
                  0.34494031988332224392
                 -0.85272245638600008277
                  0.67094041885863020536
                  0.99355288758322157783
                  0.50658605749428242682
                  0.16056767947759711945
                 -0.28545439500370989316
                  0.46346617001006223946
                 -0.13263579435179867483
                  0.11628041441632891440
                 -0.07312470252191421993
                 -0.36759699049832245121
                  0.30872597974559545797
                 -0.18747585645120792841
                  0.42517690999968626997
                  0.37221615719049083726
                 -0.27792325197839190531
                  0.51402315580446167331
                  0.28137169350775320664
                  0.32077053992049103792
                 -0.46957833801785137107
                  0.03091098303733170322
                 -0.13765340525341107636
                  0.31088138458555725219
                 -0.66056049662274429757
                  0.66744945161130253553
                 -1.12014628750606615171
                  0.70811964304763352906
                  0.03989570496661000443
                  0.03888704040342198798
                 -0.39310648415076526740
                  0.26309674157741919087
                 -0.16135586427492470962
                 -0.95789026217940620445
                 -0.40205308888040286464
                  0.68152130460960225200
                 -0.87822770654631321374
                  0.27102739026023081603
                 -0.75684587555987115071
                 -1.04333009124407172230
                  0.10380790005417353528
                  0.55708188671675229475
                  0.36162536303409054117
                  0.27562455153546144837
                 -0.16497061895816861332
                  0.25506129517533121520
                 -0.17637287948786464775
                 -0.88082998450427096859
                  0.29505806775431481226
                  0.33668571770046973324
                  0.50016143029559168021
                  0.00345764820392502076
                  1.11417046498905758511
                 -0.13628870172080434497
                  0.10302724609622458674
                 -0.39124418333111909973
                 -0.10722806222746744664
                 -1.18589090922549122986
                 -3.17861677799447406301
                  1.13727099705403578156
                 -0.51081481758502167434
                  1.01180251237990526114
                  0.83672690054951714966
                 -0.13624921416456975409
                  0.05363974163860488198
                  1.55210726808957710787
                  0.94810625734341136273
                  2.15841218548363045215
                 -0.33502642310175057005
                  1.08035727139684545328
                 -0.08019205822265451644
                 -0.99378675182633757768
                  0.10178766446889390973
                 -1.91468340345644971734
                 -0.41263466326936010242
                  0.67603468267392141655
                 -0.08947798927362775323
                  0.03883320540891382205
                  0.44218327004921442747
                 -1.15318283059398796198
                 -0.23452979029815565482
                 -0.63282881474252894449
                 -0.29867168410514344234
                  0.58703109559421806640
                 -0.06701883818445715513
                  1.44825142404237627858
                  0.17431229473036233268
                 -0.19622878924178566162
                  0.17763170625440877215
                 -1.59394017958716660566
                 -0.99920620018960126796
                  0.30579464127422661957
                  0.23552513505580668918
                  0.09163806078924072174
                 -0.65536618100164933942
                  0.57123719522110016911
                  0.36921250644077518999
                  0.00539707115833803000
                  0.13489965177253646078
                  0.19907100194525195747
                  0.22623009878905372960
                  0.37819907418942250166
                 -0.21784727519631830184
                 -0.23738419330553450770
                  0.11328539599633434543
                  0.57925412863785064044
                 -0.00628407878912386197
                  0.24132220175608196100
                  0.43457581830357538966
                  0.69226503385641702248
                 -0.16295767512044548320
                 -0.40172341815990630920
                  0.98220593110683818150
                 -0.08990112720417794967
                  0.35899763592291211722
                  0.29581664569221682859
                  0.83716401447471433528
                  0.11087602275088519199
                  0.54883237172482368660
                 -0.66711835502803440434
                 -0.30543184012894475376
                 -0.36403455905833964623
                 -0.47281264506804149272
                 -0.51868515835633888234
                  0.06374832676415347066
                 -0.73506407061580969486
                 -0.77766965127828224791
                 -0.18492813182893091950
                 -0.39280010540268989194
                 -0.40018378515369995574
                  0.07404814512722437958
                 -0.26497441422194689675
                  0.16024242085407114367
                 -0.70345832915906025828
                 -0.09948917657233656564
                  0.65381862484131914037
                  0.52400470015285205427
                  0.51435014858477634547
                  1.61683131958441039799
                  0.10313176861710252052
                  0.29165459833788803801
                 -0.18222442158741869456
                  0.40415185472097980846
                  0.68839850250599565751
                  0.07495229439335811261
                 -0.21316919790835200943
                 -0.07556129480413337207
                  0.14612975152038876203
                  0.57632328735598314928
                  0.10706503953466676993
                  0.19439187027349816295
                 -0.13064535151600947804
                 -0.56515647219835196680
                 -0.13228288666205348378
                 -0.75540702402152937189
                  0.22868267271439354782
                  1.05415770342074277544
                 -0.34217376546347905153
                 -0.25217069108715234327
                  0.38274203540947182578
                  0.41796955086501308418
                  0.01410967295631632146
                 -0.09009282044913625997
                 -0.65151890601067974362
                 -0.25985306192916202139
                  0.69508793156705028782
                 -0.72103192676369443070
                  0.13839166075742401207
                 -0.15964329727131965075
                 -1.18654943645216115478
                  0.08084258478115376179
                  0.02151572878329940930
                 -0.25026549335567505050
                  0.18821050250419923966
                 -0.18832252271641397590
                  0.01868154386829409472
                 -0.17817573843207798467
                 -0.01591577404631773496
                  0.16111390257229521450
                 -0.20387716066313962826
                  0.03752671270482962201
                 -0.56446501322473408013
                  0.27191384420996916882
                  0.20937454369871588700
                  0.06271056522103285458
                 -0.34217455398940033184
                 -0.15343253863209846410
                  0.55413972459851290608
                 -0.50052191578459259702
                  1.04613997037035377780
                 -0.64856978147064014983
                  0.48796810141141871986
                 -0.30417239650601224366
                 -0.64319792008428289254
                 -0.34453497192289717077
                  0.29057291166722371001
                 -0.45089390233424869736
                  0.12933614151755168376
                 -0.21687424995789528204
                 -0.31419639682557282123
                 -0.26802776726281718478
                 -0.12535038114335617099
                 -0.23504457974708237167
                 -0.31286035079641960621
                 -0.76108759754971821998
                 -0.73075870419156729874
                 -0.56322513956805908553
                  0.11308279371158282134
                 -0.16822569515288451902
                  0.31865502618919944178
                  0.09076106696790699202
                 -0.21171603124563692644
                 -1.10942331491501189333
                  0.03544312339026800540
                 -0.85417618292837749205
                  0.27601876818866294405
                 -0.77023178018986515614
                 -0.37894345196346579385
                  0.27743337317840077727
                  0.63067256107902203155
                  1.01662795664439253862
                  0.50598855646965557042
                  0.24202273895808118498
                 -0.62953560145419573679
                 -0.15086406916561417857
                 -0.02985075585254904490
                  0.00927698615615769710
                  0.47495655912381268271
                  0.32620265891238192646
                  0.82087630928132526709
                 -0.39116070185356704991
                 -0.07266012273138246214
                  0.51405478665068338184
                  0.22404539686484775673
                  0.04607709281677967866
                  0.09249290004115691410
                  0.51556564600263576903
                  0.13263969863126964799
                 -0.39469984002124819389
                 -0.08816165517823830455
                 -0.13440781443394206329
                  0.53913474152442619758
                  0.16440146241972472541
                  0.10251515993433443774
                 -0.26447874343632304939
                  0.07629773581758556023
                  0.09819864229965510893
                 -1.21076385981277923065
                 -0.82069945207455430314
                 -0.10226499372633528206
                 -1.07867175351268662631
                 -0.29051150029754330140
                 -0.26079126327618118442
                  0.53538990745201986421
                 -0.51299185316696527259
                  0.37542210094051847724
                  0.49252660756578875434
                 -0.25468215677331978997
                  0.32161218661365487126
                  0.43321481042283604967
                  0.68720323718080578157
                  0.45074747868080872193
                 -0.03134459056462642057
                  0.36343234884322522804
                 -0.01249665142092685338
                  0.24600363548878093067
                  0.86120819843187879084
                 -0.68923547452151256998
                  0.51593777779554450547
                 -0.23524063961445107473
                  0.07093215605936575852
                  0.47929536082830864752
                  0.46067613738400059464
                 -0.22368001098522374837
                 -0.09805276005321825195
                 -0.10393745380296519343
                  0.25009698041189110107
                 -0.50246907649980399047
                  0.32859486686372502140
                 -0.08053481851086986831
                  0.17240116446650943782
                 -0.66288596287681544883
                  0.51378486535663658863
                  0.11987884823347665086
                 -0.76584194265103189281
                 -0.42317182535923458797
                  0.10441557181993965653
                  0.00950237041272143819
                 -0.00129905918616367104
                  0.44753290550639418521
                  0.04519199729265075544
                  0.48608220043177219338
                  0.03036413816452452480
                  0.32206498501965663550
                 -0.31328944897078486731
                 -0.49598171534960355800
                 -0.00030143642270752424
                  0.49684113581917976887
                 -0.57576955182534383937
                 -0.25637152093774601136
                 -0.00224366762663010325
                  0.00644383050289058009
                 -0.36122897086406918765
                 -0.11609044925393811887
                  0.26477649120084356671
                  0.53752443661456306145
                 -0.19924340191739023376
                 -0.08818229665032978337
                  0.39605049103699258017
                 -0.64758361159860400313
                  0.62111254485614586507
                 -0.09496574454339209992
                  0.12535349325056821534
                 -0.10094630960389174013
                  0.96758180224452872142
                  0.43531761980898042719
                  0.29759609879518555964
                  1.13069111616376516416
                  0.43478038243129801810
                  0.14759366464353645965
                 -0.63617151672561944586
                  0.46537658567326362080
                 -0.64885007674415084988
                 -0.20569263805736903716
                  0.74513007017741061944
                  0.43801671977522399493
                 -0.04880254771497655186
                 -0.12154533641114913245
                  0.47481731825603468167
                 -0.87198333405485262126
                 -0.53293692342069454160
                  0.78891243814209199847
                 -0.16791410427755393275
                 -0.12421352646374753115
                  0.60827440976207203249
                 -0.01310220046168749861
                  1.04198268647741176807
                 -0.05163424816459071670
                 -0.15336052223520588167
                  0.00340335205466381569
                 -0.38093962381829571395
                 -0.09707211125021099341
                 -0.09902003615451004936
                 -0.68655036664594737417
                  0.47544655302291538579
                 -0.88964405838813653826
                 -0.74771525037323194329
                 -0.39314133549546143032
                  0.62825014272391965786
                  0.26513559897539351606
                  0.08247029600820968143
                 -0.33211197048443380497
                 -0.29534845727749753364
                 -0.15314902392305435042
                  0.98425072168092053726
                  0.05214081373829649452
                  0.61003373940794103358
                  0.34369925660014027935
                  0.51213420544276377910
                 -0.22615154606455922792
                 -0.65825038769808297268
                  0.20495408777516402332
                 -0.08849562692818491172
                 -0.22925024538246113748
                  0.25278876836261332528
                 -0.18047260738275247571
                 -0.46835460461541239541
                 -0.76912964684912077384
                 -0.16740328808862839360
                  0.41166353842096031768
                  0.31622591327208610101
                  0.01672385003398032741
                  0.36702580867731532388
                  0.32380152583579513426
                  0.32568079104897956766
                 -0.51337098923004054196
                  0.64209602042768021413
                  0.18674990776393074476
                 -0.29021031296656862875
                  0.02719957553220054072
                 -1.29674188169611270816
                  0.42448005535865657167
                  0.99540669636435874512
                  0.66246580220719075704
                 -0.09191080558751670015
                 -0.27297140027495769843
                  0.82169851733782761638
                  0.53309951670775523880
                 -0.07506959779330905913
                 -0.67094453210542193133
                 -0.67495276987787866663
                 -0.31730637698794567081
                 -0.73973168375740194769
                  0.76618891958848600598
                  0.29043006787310166050
                  0.30270918548876230014
                  0.07452147694003054268
                 -0.62566849407118707571
                  0.29303520998215093485
                 -0.27879782028053723408
                  0.02035207229987068614
                 -0.17615545561129031249
                  0.08224486737558059368
                 -0.14296530236388707569
                 -0.24026572763657633169
                  0.38187553822355069233
                 -0.20438872186286749510
                 -0.24260661691869431222
                 -0.06530396977547785198
                 -0.05134579490197109519
                 -0.27716180753526398206
                 -0.10932709455999940762
                 -0.06881920632649685121
                 -0.79632578481693105932
                 -0.38679819681825283739
                 -0.16494501621857432516
                  0.14988456834570451637
                  0.79408472928318540873
                 -0.34252325233212427280
                  0.88296937412685483348
                 -0.05257507995407559309
                  1.01918275128709612254
                 -0.21198059067363211883
                 -0.05076387060892120773
                  0.12476409489725145963
                  0.38989635733022892650
                  0.70320461069040174351
                 -0.69973598047653551291
                  0.86752876659871525078
                 -0.09789428772773532683
                  0.20132960840879576825
                  1.24571382287676990508
                 -0.07461483248052522277
                  0.06136868002555524032
                 -0.67554646504161852683
                  0.39138068467696018882
                 -0.57503082921092729674
                  0.23973012612052468917
                 -0.46193040074721603006
                  0.03118915267698836591
                 -0.37035320430411228232
                  0.77488598212066639448
                 -1.35762249960694125761
                 -0.28251794730050766580
                  0.63174159227595505506
                 -0.01417289672551027419
                 -1.11527565327097533121
                  0.12135736646016298534
                  0.48406153186543848799
                  1.74574716378962002672
                 -0.11719420662852772508
                 -0.47297144835719662215
                 -0.18797662886152202710
                  0.78865747054706381025
                 -1.20366068411609727917
                  0.01077442494137596102
                 -0.07221100649056905185
                 -0.70903565470288820727
                  0.11314606316133328512
                 -0.12290404769237819882
                 -0.23114984732105078868
                 -0.43998562084640380210
                 -0.33651203305992288817
                  0.16098516032112283880
                  0.37679678502535601803
                  0.37473200886095703321
                  0.04381689201333451716
                 -0.15626830577398509448
                  0.11103092302899009169
                 -0.06708010386928675572
                  0.13705672149341019406
                 -0.21725819613573946198
                 -0.40887771188220423113
                 -0.65413728431108009165
                 -0.00474718836916064243
                  0.59697566924684120071
                 -0.22962441969303887257
                  0.11059420411605301593
                 -0.26435143099725072480
                 -0.23141636954388272729
                  0.37247799982828061482
                 -0.67894826239415007052
                  0.57883917701349429930
                  0.20519818369133427383
                  0.23760487700447877057
                 -0.25472336501436299017
                  0.11014692615429882983
                  0.14193199432819106343
                 -0.36906969369337122577
                 -0.10424147169034028715
                 -0.69989106796432587476
                 -0.04689813363182978451
                  0.31297696282677689439
                  0.05119760462414732483
                  0.25758592312838946015
                 -0.14678609713750481736
                  0.48044018320363784946
                 -0.62405119002819575691
                 -0.26523921899554908643
                 -0.22494108657261924211
                  0.17588298455457837544
                  0.39604031172604658995
                  0.20106823899161518909
                  0.49925909921372940703
                 -0.13836128365630381842
                 -0.35067958408846078289
                  0.60285684612788026371
                  0.21746983480761097884
                 -0.29486247364835271867
                 -1.11055320754696218444
                  0.33414289295067040042
                  0.12838627343521674673
                  0.13557443631697080333
                 -0.08839876765460964736
                 -0.38513118545974195372
                  0.12330095923805084457
                 -0.21543339030525554545
                 -0.22553903367668343138
                  0.41273228554227825438
                  0.01754768443423952023
                  0.25125802494696447553
                  0.24766030343086922749
                  0.12094049520940416964
                  0.82323153143994065584
                  0.61383807693056358090
                  0.00641428317330437151
                  0.25056695296746217538
                  0.67841803934992961356
                  0.44129288844816294546
                  0.16696796450235856790
                 -0.28207104987766423720
                  0.32867353902572710167
                  0.18601331562267620079
                  0.03252565397420004167
                  0.04271728085010293580
                 -0.22199945866434434016
                  0.13311239038988159633
                  0.25513214100342163082
                 -0.18924135163779012836
                 -0.31924864143000719618
                  0.05456523156673644820
                  0.08975149758136871658
                 -0.28332604713841741395
                 -0.05848065232056868373
                 -0.11195067532355457152
                 -0.33624181649450213261
                  0.25243923174465698889
                 -0.26950063683103603340
                  0.40224805222120552095
                 -0.14887580569317737655
                 -0.04749048499342615332
                 -0.41950884632279600295
                 -0.26222325629857473617
                  1.10332803435728599162
                  0.71992833817392110074
                  0.01200808572033861508
                 -0.15561777220409653277
                  0.17547802174343024584
                  0.11259110171244664234
                  0.12719261908847320774
                  0.80502440701208111129
                  0.36384572649738516903
                  0.31786331383186228194
                 -0.25286992605112934562
                 -0.32838930714864650318
                 -0.46589597206326521794
                 -0.12018863628502714225
                  0.08953128655626102494
                 -1.61421974279901836447
                 -0.44647766553924767008
                 -0.22907974854790821850
                  0.02325773629831890191
                  0.08781521059909955240
                 -1.20399819510709638060
                 -0.44390662165821676011
                 -0.13806921085365506108
                 -0.03734946418408986724
                  0.82676583048145058097
                 -0.30054090400770128166
                  0.22681936168254512864
                 -0.20400228730484204487
                  0.42832817550069046675
                 -0.19573574686091613217
                  0.19991152691412358844
                 -0.09196897091857889062
                  0.27394997574502455429
                  0.09577415519690309076
                  0.23168684429809013881
                  0.21559528544495959457
                 -0.17372534375796727657
                 -0.84983901793304073014
                 -0.10258715144137947606
                 -0.64287880113481432609
                  0.60624817958312238186
                 -0.56610706390582266057
                 -0.37405594492087640424
                 -0.15968558322452508502
                 -0.27698262659313560574
                  0.35512791247232189384
                 -0.86056744196642509515
                 -0.10503270146710959321
                 -0.49686722804900224082
                  0.04038528200432061482
                 -0.23951715546554547265
                 -0.61092509631536051629
                 -0.07802465740262487515
                  0.54311623213194082371
                  0.17477859749628926744
                 -0.60260651180371471725
                  0.62617267136585841314
                 -0.13167377095490778727
                 -0.15438890010754716120
                 -0.22068904352318299833
                 -0.17936297141283719103
                  0.63617359295903264105
                 -0.40704596983162522061
                 -0.22870812352838842951
                 -0.44199114490774071839
                  0.98803556953110982519
                  0.08585538441850085190
                  0.79168601944478633747
                 -0.66990797520865497106
                  0.75775433953546733612
                  0.86542791459669843324
                  0.04848681769075780662
                 -0.08989760385840127321
                 -0.19694841757098696666
                 -0.50940408113761159736
                 -0.27939671694340112440
                 -0.00250859034871759191
                 -0.51300594523333031827
                 -0.42093353888687012887
                 -0.84751557936405508276
                  0.26761380222174130372
                  0.04683884873379844105
                 -0.25946234501358533819
                 -0.46063271544216211062
                 -0.12142885664947246360
                  0.31556961743356698458
                  0.20206472763501923118
                 -0.95762005819966045106
                  0.12224766782964197054
                 -0.68115184816984120086
                  0.10739060631225551268
                 -0.30035704552605935191
                  0.25374413188511601991
                 -0.37415237846705567959
                  0.69032561193889174778
                 -0.58857325955468997591
                 -0.40719328202747995249
                 -0.76349101069191604996
                  0.11171450974131112710
                  0.40444666978631066412
                 -0.69695621452574618715
                 -0.94615976684415070697
                 -0.03325744888343364070
                 -0.14264434430224906536
                  0.07311350863633797603
                 -0.00640539855768919395
                  0.68716049807508472469
                 -0.45138498816606442698
                 -0.85261764350503099763
                 -0.47582849380046016163
                 -0.07456458133742255301
                  0.98314401153238550890
                  1.15170458885067072963
                  0.09529527259633896463
                  0.44134901001012111221
                  0.25794593602033311086
                  0.74399012605561198885
                 -0.36178541121999852059
                 -0.26934178318303769739
                 -0.00169562782595537864
                 -0.32916678400521459658
                 -0.14414916740993294342
                  0.42708076035148700988
                 -0.10887293007504526832
                 -0.40699312672400006496
                  0.12499175431355036281
                 -0.35005098000318046747
                  0.16260950359225401218
                 -0.19763586219293530211
                  0.04573073762921592289
                 -0.23646717169209041653
                  0.51073773512440001632
                  0.64662385781991738032
                  0.41623121952562064374
                 -0.12796164804271506488
                  0.23010429953387695479
                 -1.06233936851290255987
                  0.03572931446923661297
                 -0.51467388804946900827
                 -0.62405495746695804904
                 -0.25300831679030449939
                 -0.12214682942459524628
                  0.39056668755974266460
                  1.08643289386492636339
                  0.86590944021416060838
                  0.27870351360694184395
                 -0.14857090038757075900
                 -0.60680349403397559893
                  0.29733526290806766568
                  0.32877965541089149148
                 -0.32921431441920345762
                  0.49632860157221375674
                  0.23974087472131805354
                  0.32098806103698268588
                  0.82720433969107298733
                  0.30693988632428437224
                 -2.08271524693467968703
                  0.31803106689556065456
                  0.17844712967212186805
                 -1.24362480196384517228
                 -0.04475515220198384575
                 -0.28830575192774177129
                 -1.10713098040515856013
                 -0.48462698759620015387
                  0.25497159508144723317
                 -0.73119010002970818984
                  0.27435287703490424116
                  0.27385811248329489098
                 -0.29702492568226646075
                  0.82343122424078130095
                  0.25213959648595990481
                  0.53744455198475504787
                 -0.33085508248637773843
                 -0.09834457520342504422
                  0.68516894837134900698
                 -0.67889667874133607928
                 -0.09593565195691527991
                 -0.09804353138864624340
                  0.26879061764579220695
                  0.48264259385397417779
                  0.29233981556785387790
                  0.38849883468865087366
                 -0.49336173275498407254
                  0.33647202189988351106
                 -0.25872603292057089197
                  0.18955073087886731287
                  1.30326508923047401645
                 -0.00972848071545088719
                 -0.17639192466713579655
                  0.40845088908637716685
                  0.50023054586650061992
                 -0.16435900401580288976
                 -0.26312927335586694388
                 -0.13988337244125659264
                  0.45056857154165635970
                 -0.17843332145099330410
                 -0.01178233216891333944
                  0.09923410083123426761
                  0.52354254184470372380
                  0.23579920790900668615
                  0.28666230122415758963
                  0.66445446085488779620
                  0.11164072277512089582
                 -0.13137923626571207381
                  0.20432545772711807608
                  0.02582660738491959415
                 -0.27794338245836935908
                 -0.04765778468010046370
                  0.11396306970119564339
                 -0.63109167664516074847
                  0.16040485933615006298
                 -0.77708887595010289751
                  0.15253441838398837382
                 -0.06988968626358452174
                  0.12347860319060091627
                 -0.78237423908894476732
                  0.59793828432319262589
                  0.26174847446870330714
                  0.41635781930500120884
                 -0.14572304729409774060
                 -0.16268122722547823100
                  0.46075873206687045780
                  0.31806479373367541053
                  0.07632810347234213200
                 -0.40288880278863525852
                 -0.06763175837164860094
                  0.13356127836272704834
                  0.74523313095209520185
                  0.17032063765064534011
                  0.00191071412636084279
                  0.11789993937657572420
                  0.12450059362513175854
                 -0.44649426980349432581
                  0.21323984668968981593
                 -0.13695709926434809778
                 -0.37745146310344734886
                  0.18866022326390108343
                  0.72072763822628027608
                 -0.13467317683194687805
                 -0.04990759324587597245
                  0.40908635948475791100
                  0.08138060692750158365
                  0.23280777482110084908
                 -0.20089003167543384443
                  0.10830569160097387738
                  0.11404011744980477316
                 -0.25418429741516385123
                 -0.08951648527671260402
                  0.01790694687823153955
                 -0.20559938920704778909
                  0.33838116804150492056
                 -0.24343414360366666394
                  0.39626906473354006621
                 -0.19834775221046918592
                  0.68766999707534381958
                  0.00351692393870028756
                 -0.07251177754140875065
                 -0.21754120496228437909
                  0.28029856487614079885
                  0.38597830120769005546
                 -0.34219186042514498913
                 -0.78273031430507733486
                 -0.34198343079360332686
                  0.08346199256976186143
                 -0.31391574685377127141
                 -0.14546192395183871193
                 -0.20037866618761090987
                 -0.17299516990123339766
                  0.23579388251280603006
                  0.52415260715226963395
                 -0.86746453404693246725
                 -0.19325135557021808075
                  0.07471114436533993208
                 -0.11234843536376337703
                 -0.19370991247361968313
                 -0.00321022806515735594
                  0.28316482119457486721
                 -0.29693436891638480546
                 -0.13027871649306149715
                 -0.15262225480129332222
                  0.54904486078245529068
                  0.28813029021260166962
                 -0.52540610437870882699
                 -0.49392694158161054574
                 -0.20819532289905778866
                 -0.36182365603530608489
                  1.09378130509682125471
                 -0.45533796216964811387
                  0.09392900883031141124
                 -0.58367620322510493924
                  0.60483541949448416108
                  0.31294074965492091334
                 -0.27982773797544319150
                  0.04788260266670744947
                  0.17663833447584489922
                  0.05419060833560625234
                 -0.25433906547815604560
                 -0.34238722086808254241
                  0.39582776840853928224
                  0.35042435977299990491
                  0.34244043466883006266
                  0.21770449885960985181
                  0.03017170947557046984
                  0.21000665229575973814
                  0.43878941892554251814
                  0.72212011121242214440
                 -0.51192656394578361922
                  0.00663511232029657429
                 -0.04318819271877597649
                  0.29166958844636042825
                 -0.00248067268233033347
                 -0.38814480578627197360
                 -0.23480668564249090879
                 -0.38160807974478611060
                 -0.09676850320223220892
                 -0.57189014272691029994
                  0.31230564993491771730
                  0.06289368487456294121
                  0.16007864119549763959
                  0.36972035836107081108
                 -0.27167639627899481392
                  0.16312589181739164945
                 -0.10280371086498739375
                 -0.57660138761717572020
                  0.44403937885396754792
                 -0.15970592824466373072
                 -0.30521088998044604290
                 -0.65261903664248399615
                  0.37405845148928024146
                  0.61546008459686907255
                  0.23795810258209407206
                 -0.23458590557076844374
                 -0.01661699607343360141
                 -0.36114456958424095978
                 -0.28937058186563274775
                  0.32399567704893378339
                 -0.48225632645241633956
                 -0.21122370616239222185
                 -0.71433534178227142686
                 -0.21780841668669015387
                 -0.04162726446160661120
                  0.09488407324720012082
                 -0.29344192532434504317
                  0.05448740632899689434
                 -0.52941422177047903208
                 -0.45864717556575546054
                  0.92956503311861149452
                 -0.46612449586929255441
                 -0.54809212239110960407
                  0.88722919515428222414
                  0.60406608628911018233
                  0.27085271676342459468
                  0.05465654159655778527
                 -0.07684632364636800883
                  0.99460696047389751673
                  1.11654863482489496995
                 -0.71021320649377117640
                  0.40279981114840762713
                  0.47493818179540292501
                 -0.78793650566735584651
                  0.31702462807507436615
                 -0.44154046776674304997
                 -0.16913970262806443667
                 -0.13430013021031811382
                 -0.02157266772898540005
                 -0.60451353310113176143
                  0.25916247078858201114
                  0.67292288835654545665
                 -0.22234607859439703414
                  0.98152903683801828727
                 -0.55893092233474173103
                 -0.06984103094078264462
                  0.11032408895142990779
                 -0.30524643395495032472
                 -0.70774028603177574492
                  0.33664376886773683673
                  0.18420595822292512578
                 -0.36745278311777485047
                  0.10779455543118188210
                  0.37644721670851799544
                 -0.28059224734186732908
                 -0.04912881024710208377
                 -0.42078833199979703839
                 -0.36249418362374513647
                  0.05499944930716023361
                 -0.55222483891912554910
                  0.18199731841036129176
                  0.22087894047952924548
                  2.86687161718471772431
                  0.65840668642528810128
                  1.05823423104721503485
                 -1.06996906351508491717
                  2.83080180439420647787
                  0.91804277221044372492
                  0.63245421508757948548
                 -0.58128766227631156749
                 -1.20209963837380073848
                 -0.85214189376933358044
                  0.02005605202772749521
                 -1.20112570002214291698
                 -1.55095093547695506153
                 -2.18764344825246226378
                 -1.27395120209093204444
                  1.22691420156109720629
                 -0.65293215780520807989
                 -2.53354483567162969138
                  0.22756112415940904503
                 -2.57025012590144141811
                 -1.86800398980286108674
                  0.07678854375990561143
                 -1.03172606704740044137
                  0.28383812281645109943
                  2.82551273932205582184
                 -0.38212053281917152114
                 -2.38714500101104043495
                  1.75891496439962224940
                 -1.01635178530553837994
                 -1.00434127581520704631
                 -0.07561977798914577831
                 -0.08435396752542498322
                 -0.39440904896404938018
                  1.13263763545732065730
                  0.86225229415580706416
                 -0.14157178845675638668
                 -4.11426511493441715572
                 -0.28055329830768943600
                  0.30358468313126280025
                  1.84289458804693184746
                 -1.15175493892932245821
                 -0.36794523019633207372
                  0.99967213557567413673
                 -0.40384078531248013277
                 -0.06349593039154356744
                  0.76224682323413295304
                 -1.44947073560486949795
                 -0.96404322732553349162
                 -2.62084052167588055227
                  0.19709651830013727447
                  1.07482115240743447693
                  0.35078237241003168423
                  0.52965954785250213277
                 -0.17851309585704927541
                  0.77077964342038729484
                 -0.87456339914318281803
                 -0.84505633729702944734
                 -0.43214249194697262890
                 -0.95029817170885877431
                  0.25280460943437654819
                  0.99198014313081583904
                  0.12760408725886365766
                 -0.52316417249759550323
                 -1.09839612201503711297
                  0.47208818733927926381
                 -0.27361905272202696748
                 -1.34627956629338574324
                  0.53732499674503020337
                 -0.22100330280606975131
                  0.21695215965448663709
                 -0.89037075692097089608
                 -0.88749709015043376503
                 -1.16366217318454823193
                 -0.73427078693628589079
                  0.76151025323091980912
                  1.04963743332293635291
                  0.19720676008645535160
                  0.40766328317402061865
                  0.47555727875988179632
                 -0.20196799792324474088
                  1.04051728043887425912
                 -1.24958705739261888290
                 -0.12201272324179281148
                 -0.09417448029587908997
                  0.81872513516867084782
                  0.05164504117599318794
                 -0.40711513483961303539
                 -0.15251067165757833943
                 -0.97517692237905739816
                 -0.06926914073910495073
                  0.52824902620916502904
                 -0.66050747585694258301
                  1.27754418808531067242
                  1.74432603196194291328
                 -0.04866749650494330004
                 -0.94740700302273950228
                 -0.03623993902038109144
                 -0.43454527282120952725
                  1.43431469992001225933
                 -0.42071889534465500837
                 -0.10246312513441847847
                  0.23490413620143318907
                  0.68523242029949904541
                  0.21371379096455367375
                  0.09118140147870643086
                  0.10310113690743946679
                 -0.28522353235156705509
                 -0.18828606713350132251
                 -0.15468400151892142125
                 -0.10803631122979186208
                 -0.00424693721007052879
                  0.09258411328605206658
                 -0.75245355542605929511
                  0.37926386429258390764
                 -0.27495377603483101003
                  0.06813611755921167301
                 -0.25406475108797582640
                 -0.02447223996765376594
                 -0.13849713952872211298
                 -0.19241004700941244376
                 -0.19243789482495279874
                  0.33542596176566752408
                  0.29523172852348050776
                  0.33575328179745711488
                  0.42337909824744562881
                 -0.52209278913843881753
                 -0.17673991053547943864
                 -0.52382730835415536319
                  0.34586091668631763207
                 -0.27867560090953819030
                  0.25152011719517852750
                  0.01347820701592143504
                 -0.64240813007500197074
                 -0.00095458944279942434
                 -0.15463379075603470025
                 -0.64366345184521478462
                  0.13436726434268370101
                  0.19085218353835090022
                  0.33309063802635496820
                 -0.17902150992334658897
                  0.00320927680554615544
                 -0.06493741336545794107
                 -0.12991407317900161011
                 -0.47405313630514200884
                  0.30019326109529054225
                 -0.46491562339511455226
                 -0.04533267698177217281
                 -0.27230185673496670740
                  0.24482422984891735740
                 -0.01033551315210762440
                  0.47898101783316210378
                 -0.56074305253726564047
                  0.35006035073122165890
                 -1.11984424936536575146
                  0.58675488886923621301
                  0.50425779493804390174
                  0.31534260651244844231
                 -0.26581884204242378633
                  0.14175703167903994095
                  0.47467711501001547125
                  1.05942455780864008830
                 -0.24201793650011405035
                 -0.17330660499937761143
                  0.77939091353963940723
                 -0.20196415148108140536
                 -0.90514388239762577637
                 -1.51968100486298807184
                 -0.85001160545147247394
                  0.65861678786312793932
                 -0.51091429140406263709
                 -0.79416001256000945396
                 -0.33530530537840591565
                 -0.58062706837625532863
                  1.43484563122178965244
                  1.21799449824505789941
                  0.09926431441263033895
                 -0.90495653132668596452
                  0.18140270113354256543
                 -0.34642677943014382747
                 -0.26340529080860936029
                  0.20637460837078314135
                 -0.78836183178059515697
                 -0.50297116402210650943
                  0.45809297360521894493
                  1.46892712020977023180
                  0.87040661768559612899
                 -0.46419052972294222448
                  1.08140060091596068581
                  0.35662915554292162756
                 -0.25139033866636434356
                 -0.23945610792073773743
                  0.53959856551947948944
                  0.37287865383856760859
                 -0.60040145779599674025
                 -0.18408260862594866270
                 -0.23755264196344347272
                  0.57074272058439434741
                  0.98504218906088036878
                 -1.04034326817625366601
                  0.00458338441751091150
                  0.52434033126555501525
                  0.16539226481293467508
                 -0.29023381798235631246
                  0.09749738904942199802
                  0.56603418686103512680
                 -0.25994543490632482374
                 -0.28299599108722328644
                 -0.03161897991136544683
                  0.20535522204916809019
                  0.48344260315955678298
                  0.29475788229294580534
                 -0.28507938103012253617
                  0.02217443760595895486
                 -0.21342505398511349424
                 -0.07995001557209963083
                  0.04782435181195381080
                 -0.02379529403205068311
                  0.39532367802641588117
                  0.03927154799027776644
                  0.24659203701920376361
                  0.50537367044842307351
                 -0.44620513250819160422
                  0.44938618312904859975
                 -0.17777222351107624387
                 -0.15957727724339515474
                  0.26357530493754244283
                 -0.33487462496480474572
                 -0.27666738614595243195
                 -0.05727801123212398343
                  0.19180625501404680033
                 -0.15728119690686406806
                  0.06047370605570862034
                 -0.16457371997722486379
                  0.45357921582567523044
                  0.06170982839066738168
                  0.63984341623801854748
                 -0.33319947717460640657
                 -0.25023414556096634787
                 -0.36980950411712831816
                 -0.11002175698526807379
                 -0.10250655164066797831
                  0.16360367307127793302
                  0.44049044923794244966
                  0.09048951321487293253
                 -0.19210943026043311721
                 -0.30322688650386719900
                  0.08999867823905946529
                  0.08015887384875360067
                 -0.00673889118381097631
                  0.03258913003605287684
                 -0.34861411160952143762
                  0.66363810760784636145
                  0.18460051283501599517
                 -0.28258760881831518352
                  0.20622595667375501205
                  0.08472855321846284316
                 -0.07577430822276882971
                 -0.23589056047155945728
                 -0.40752575622563413926
                 -0.01756163781198922386
                 -0.05401137624417568645
                  0.53984830347946410889
                 -0.06284991662171857119
                 -0.38918897731574964016
                  0.01259590488588145651
                  0.03688055209491730713
                 -0.37781345315582054445
                  0.06639130068386887851
                  0.07386848539714722939
                  0.08064191079095379966
                 -0.33390224380924088399
                 -0.82502892477502554058
                 -0.16890553761301835278
                  0.36113470207730391515
                 -0.28401278694691878268
                 -0.19534974060593923717
                 -0.01901480389917973093
                  0.35377136095991523757
                 -0.07322515890582992348
                 -0.40174424193553642803
                 -0.33917294405262909951
                  0.27903913833441879033
                  0.32642860948362756313
                  0.34367000555367793746
                 -0.23539216854823710734
                  0.25545615069400784414
                  0.24617208837179238579
                 -0.52640601029874156680
                  0.76591766306846242873
                  0.76922028397559150115
                 -0.27610103083930725987
                 -0.34244393527281064005
                 -0.14881466361970946410
                  0.18214749432538457352
                 -0.67174735780974148547
                 -0.11298577948337566734
                  0.16503307420741633593
                 -0.49665124742135269287
                  0.96152373240243238506
                 -0.37929041684899228448
                 -0.07375161767251486866
                 -0.12511602382226713615
                  0.18859955030294572875
                  0.23447653294206172170
                 -0.38457066990637295278
                 -0.39836071975041104087
                 -0.45905274617917496416
                  0.09888052106937605945
                  0.10124043591627961136
                  0.29376577870959286187
                 -0.93143775862644162533
                  0.66369815449991076406
                  0.06205337390163570555
                  0.09398234016515413791
                  0.40577550363674519396
                 -0.11984430090490232057
                 -0.21623018797969870142
                 -0.59645567281797040593
                  0.50703671748219925064
                 -0.30720665247671596898
                  0.28558824650598563233
                  0.20799230330371787367
                  0.00087315894609032692
                  0.07999371090356065250
                 -0.38568431251730478371
                  0.02315581829906169023
                  0.16542097654163304132
                 -0.55139509057648872226
                 -0.52364160635032563906
                  0.13269113577081154132
                  0.64958249323394590125
                 -0.16101986656564401534
                  0.24002505846993779648
                 -0.10357604587625865444
                 -0.02200186605329653919
                  0.22759107193483765763
                 -0.00803555210914683703
                  0.08635892250836778306
                  0.13549430466187015187
                 -0.15675085764709587033
                 -0.06913589847547259304
                  0.55155333734416611691
                  0.02298259169572684085
                 -0.02692480616859008538
                 -0.29117444305068435062
                  0.10762413770370141131
                 -0.35697303888577425202
                 -0.35049679006905237744
                  0.64064343249778665790
                 -0.36116805178501604212
                 -0.03173610505475474297
                 -0.00799656827767750503
                  0.31592452021565153863
                  0.07843588491395252216
