32	2	1
50	50	
1	4251
  0.2784511601882206	  0.9378911781094328	  0.2782109397002206	  0.4758980656618162	  0.2215464064656540	  0.2220283375403795	  0.2214056969687630	  0.1362470452446577	  0.4768610100882901	  0.1556904317378697	  0.4449808183692436	  0.1554301173594906	  0.1033537403305897	  0.1029325721370431	  0.1033400452327308	  0.2084220382781953	  0.2088019808714510	  0.1084054587806463	  0.1081312434582778	  0.1086764495003692	  0.2658608224783080	  0.2089196026439979	  0.2090074904502110	  0.2099163787192800	  0.2087439989292098	  0.0696576984755391	  0.2179096371387329	  0.0736823829982820	  0.2505007427305522	  0.0868781320489804	  0.2107538764326021	  0.0866603465676482	2499.2673650000001544
  0.2795650620249345	  0.9462407482586093	  0.2793386153811394	  0.4769825708186601	  0.2215537326187482	  0.2220365876224858	  0.2214147543828736	  0.1362509391377603	  0.4778123227002510	  0.1556916725151715	  0.4450012663922975	  0.1554313890119320	  0.1033567253700734	  0.1029347392793866	  0.1033422070189824	  0.2084220688414899	  0.2088057720018817	  0.1084089343629890	  0.1081336514069590	  0.1086788574490504	  0.2658620305105941	  0.2089280853206983	  0.2090075210571456	  0.2099164170406247	  0.2087440439914297	  0.0696577028129537	  0.2179196795776580	  0.0736823902940436	  0.2505018155026497	  0.0868781334310845	  0.2107539331743058	  0.0866603480016598	2499.2673650000001544
                 -0.26351517550299291548
                  0.01347824019231754628
                 -0.34488669384084691405
                  0.28594699300145581811
                  0.45512750303070181879
                 -0.76980243333649678306
                  0.43299579244962210778
                  0.12033603581968822793
                  0.37186412912301419764
                  0.03357653027804412271
                 -0.09599510259352207753
                  0.42896876389142729602
                  0.22843307744957727645
                 -0.80849444502011746927
                 -0.34371719171954306926
                  0.09009528152082674213
                 -0.28112327469623027421
                  0.90848752929087173147
                 -1.06970152196690460045
                  1.01158163812960544270
                  0.25006801652864008023
                  0.21375243354983530786
                  0.02878106156338364890
                  0.09291202710470157500
                 -0.66596937950321477562
                 -0.17815869817568702471
                  0.16751536970857985875
                 -0.36261015880670982581
                  0.76224541450991856184
                 -0.34176194612835303355
                 -0.62771633703464080334
                 -0.23462508512360544244
                  0.35225626794675829467
                 -0.10836107842978162652
                 -0.22805136477170193099
                  0.17606328822505870613
                  0.32595706481900421636
                 -0.02322134040748189202
                 -0.04515879919649752605
                  0.23804923313183964928
                 -0.17270017237425250300
                  0.50414503755669959340
                  0.93529173826555278559
                 -0.42771704679967120777
                 -0.13718900006809281455
                  0.53461651277905997137
                 -0.05244479847201603817
                  0.05420580883168790720
                 -0.20008569779677679024
                 -0.60541119083042749249
                 -0.33903840164034965143
                 -0.62075307017057634873
                  0.20207505869797182108
                 -0.41776625573664238900
                  0.36276117657258638571
                  0.23834780904245170263
                  0.00138232673867175909
                 -0.33887527109056514441
                  0.47324110171240513223
                  0.00180807169510312183
                  0.12615555818640641905
                 -0.64510874388787542433
                 -0.42048906212273534644
                 -0.19123411682903196374
                  0.18020019438867276862
                 -0.49444456806972619800
                 -0.16270738277980958952
                 -0.42657146905690723759
                  0.60092924026838057117
                 -0.64991310943135094380
                  0.18899267437010530690
                 -0.39635082244465763557
                  0.09882738360916337728
                  0.32795236751311024337
                 -0.34614730452366598845
                  0.10584701546527415517
                  0.03112287787972209049
                  0.02645499532059617312
                  1.03436212697062868138
                  0.43235224016303908101
                  0.00970582290099879924
                  0.26489459153113853462
                 -1.30780120483885697880
                  0.72622808440657804496
                 -0.03921285124948157425
                 -0.06907194249574133416
                 -0.06912206666004568067
                 -0.20240176979909302313
                  0.50893455101262685680
                  0.07640930847459133368
                 -0.17985613613350029394
                  0.33262135170401119222
                 -0.09830507701836604939
                 -0.67154394282997631471
                  0.42375434983664767019
                  0.83211155273017634038
                  0.48426161269437656420
                 -0.24583904785503810086
                 -0.59217647135931594793
                  0.42912351522532610204
                  0.34883667599647782964
                 -0.40998482148597731323
                  0.25122826347720256246
                  0.12223004919249186306
                 -0.68347877927699518530
                 -0.18114987413593550136
                 -0.83249615136719101738
                  0.05583348141619057931
                  1.36372722581521754748
                  1.10926309776802223261
                  0.89147168623305905744
                  0.22471835044287188921
                  0.63058268179944654275
                 -0.54810841297500745295
                 -0.07832502807627397812
                  0.39926377275281776935
                  0.60471942932325017939
                  0.46444020778640576763
                 -0.69068066698477503795
                  0.22259421251577563017
                  0.70158474501463330419
                 -0.39034496232604148913
                  0.17192268868560650619
                 -0.23452974758217337570
                  0.10865215524977178685
                 -0.78457102052310412343
                 -1.27328007882381166738
                  0.61384520073467940815
                 -0.42119145818537884196
                  0.10849296197710790735
                  0.00491221340960955669
                 -0.66502548883877843355
                 -0.50850886337988621122
                  0.18828356464671311410
                 -0.01650871896357214777
                  0.19608200933592240256
                 -0.17816073220008005196
                  0.12234833587789184506
                  0.32273911031369778568
                 -0.40784200614508275828
                 -1.12629529517827808860
                 -1.04032155979084284247
                 -0.49532560422839028158
                 -0.32702798911866548526
                  0.01290069130684800246
                 -0.14452777946588218905
                  0.83657920757739334672
                  0.55193283786659785850
                 -0.16226682395918695656
                 -0.25710504740812822888
                 -0.34462616817560232096
                 -0.29713049513186712280
                 -0.36079885385922627616
                  0.93559335231349127771
                  1.01115708844206841910
                  0.47706866942299447354
                  0.42100620178045411457
                  0.55749643312352237245
                  0.87584276563154717099
                  1.05771581173840090173
                 -0.80053349817730756754
                  0.23069048689046875444
                  0.38910397351087011586
                  0.43782409991271098448
                  0.83158807650845367743
                 -0.90153045137519460805
                 -0.11683053157822410884
                  0.41510118976768067833
                  0.05524304476867494818
                  0.23353681483840532662
                  0.59866963188014343800
                 -0.67144712475630252690
                  0.53161439177612102025
                 -0.36273085056133419490
                 -1.08308769530724635644
                 -0.00484801270970227488
                 -0.45939669663076976303
                  0.70231385801747769904
                 -1.20067406477289906341
                 -0.37969597918404190962
                  0.37088395019979769618
                  1.10337436188883852850
                  0.22726781188595041039
                 -0.34546777595633992863
                 -0.30875723176231623102
                 -0.42756513685232000466
                  0.74939938035546516115
                 -0.53046941088951504728
                  0.25771320250584345279
                  0.39916625595117871672
                  0.59567169348134829665
                  0.84576092948223746681
                  0.45351370031632659563
                 -0.19444006762577797920
                  0.41800747969818752292
                 -0.74192784345200535334
                  0.13752791967455985089
                 -0.15541182295692962390
                  0.64844455825331903664
                  0.81859396087734870306
                 -0.00283451950690287446
                  0.39974537132305526521
                 -0.19697645726138682254
                 -0.33440284117808077857
                 -0.26997869235055654835
                 -0.74237636397469808358
                 -0.06762176544689907365
                  1.11513221885329794070
                  0.39927267715146097515
                  0.93290381786399989572
                 -0.59195337444633622237
                  1.50371329068568049259
                 -0.67678117877743615427
                  0.48556350246966190065
                 -0.72082588295407468149
                 -1.05902742454157161589
                  1.03809959701484011418
                 -0.56909383654151213250
                  0.09690681182677857164
                  0.17818509962944784064
                 -0.05772160415660805566
                 -0.13369868598930118031
                 -1.23338810661950959435
                 -0.70156204514072262324
                  0.18413833202304299985
                 -0.29028136398024190212
                  0.80757520361408330345
                 -0.40609307358520790876
                 -0.66982078684217094544
                 -0.62172087480628146494
                  0.71298733684835602364
                 -0.02963207914101556248
                  0.51090524153745808800
                 -0.25895563802380505702
                  0.17044169269821912716
                  0.56451707448193022554
                  0.00871395269527143121
                  0.11092614384639493119
                  0.63649961795410159304
                 -0.09557435281260250048
                  0.90929340429139382529
                 -1.03509702314967655390
                  0.51089890535270598981
                  0.26129309419571361550
                  0.07298752969878828656
                  0.14941510496736135072
                 -1.29331091821686494647
                 -1.27108111974701287750
                  1.00392769212118926347
                  0.34917548459562608443
                  0.95235562297360010220
                 -0.32677046093350103906
                 -0.32912793265443462953
                 -0.08072172235419657060
                 -0.77888844679195123888
                 -0.53802866749129951707
                 -0.75627869092465427325
                 -0.09180372638508757510
                  0.23774060248057057865
                 -0.56214049307880753492
                 -0.40934775748907242798
                 -0.61152133734170699420
                  0.89047514958807560959
                  0.29251872121133576377
                  0.43017450662677814144
                  0.04958488305389115169
                 -0.75026831961312179242
                  0.32205086390209453073
                 -0.77918729454400292855
                 -0.03722870989101560724
                 -0.95819156480999534420
                  3.03975785518805663443
                  1.09897164851730377855
                  0.41536669693082950428
                  0.48555057076297408747
                  0.23299700974173223611
                 -0.13630017223079393673
                 -0.26229521108566195009
                 -1.35304094455116374895
                 -0.34205605717647236119
                  0.79182871883164462901
                  0.32053397881001927106
                 -0.51919392964231880772
                  0.01933024549399907019
                  0.00519832901248540834
                  0.19385715577390580378
                 -0.51096610163343925137
                 -0.05574456037687725019
                 -1.03025178672283090897
                  0.27071485050818139273
                 -0.41453506232403780629
                  0.53150697372008059993
                  1.19076650114453630458
                 -0.25806487665259297826
                 -0.86476555285491030212
                 -1.16161973160079057266
                 -0.16826754630590426420
                 -0.02664496996379544375
                  0.21348284634385822356
                 -0.98587898562487008558
                  0.75476018904150332656
                 -0.19137004896406256682
                 -0.12372518640010010671
                  1.90522143149396105954
                 -0.80789329882628713175
                  1.28947012871173005699
                 -0.16136733765337693547
                 -0.91605746224035011771
                  0.83285479778124915651
                  0.01525381048971495568
                  0.14770746367380055419
                 -2.65381395261274910524
                 -2.36653884611586562414
                 -0.77264780693528711808
                  0.66461890054376904224
                 -0.14444622565489617649
                 -0.16045597656160826006
                  0.02006441318950755170
                  3.22289615838087684097
                  1.07309471805066181105
                  0.44175524699681623098
                  0.37489734980263655917
                  0.28674039765844527849
                  0.00605566600846065180
                 -0.32830857027712145868
                  0.00206437766722173148
                  0.08647868502186284445
                 -0.46431583583519348002
                  0.19152757109965987126
                  0.21799501338731883116
                  0.09516586226122189518
                 -0.43531980747301840529
                  0.28211949055873852821
                  0.29712516956949452940
                 -0.10880407898753599594
                 -0.52389229050163099721
                 -0.57619422667264619253
                 -0.31495505410185603568
                  0.19829870724800482962
                  0.07649827338699055623
                  0.41435261180294019612
                  0.83137571334606708007
                 -0.45775710688365672807
                 -0.42677380237650142103
                  0.49831123683048722528
                 -0.02096984198198547159
                  0.81086131499684244162
                 -0.19548864488651557236
                  0.43670933410355078363
                 -0.17830122461999806105
                 -0.04770121977313734885
                  0.40405480047954789313
                 -0.30412466621081840623
                 -0.34010780733268319853
                  0.12213110371321155012
                  0.23275937865305337815
                  0.73417392165826034223
                  0.06826508922291676940
                 -0.17724030696254450268
                  0.84213035385954548850
                 -0.33686691709596727762
                 -0.17780208584643733549
                  0.16129031245655711668
                 -0.45460418845764005713
                 -0.42203440349449122815
                  0.21363463581199204633
                 -0.35936460842762202317
                 -1.82842528803525405934
                 -0.39465298067546578098
                 -0.04267544596979631205
                 -1.43830201880230235112
                  0.00430737850540425810
                  0.11632594182710910558
                  0.37651638709859519549
                  0.99617069287404913513
                  0.44174742597176425152
                  1.41664572188432047462
                  0.10169900163420370065
                  0.70723424864706174731
                  0.53395303480002631602
                  0.70341466896455484559
                  0.87896567833509697820
                 -2.06928857593827419947
                  0.13497518840732386503
                  0.69808129492119319615
                  1.63529079974746949233
                  0.70916113537688196811
                  0.57734229536600978339
                 -0.39455821486351289051
                 -0.03767614187825017724
                 -0.11854462322741365909
                  0.12972664707297368314
                 -0.02728051779674587132
                  0.00376631014560336024
                  1.00592416635051296048
                  0.59678001748858910958
                 -0.67600634479731847026
                 -1.13769486293509958230
                 -0.47112110610822105494
                 -1.59036791931589127636
                 -0.34221827769990953438
                 -0.63696873555830912927
                 -1.69207748008188874067
                 -0.42993271745181610433
                 -0.35410548491903370838
                  0.48993162343528251501
                 -1.07012109942030386733
                 -1.81112302165717986568
                 -0.13444121151707347228
                 -0.62196825218161488902
                 -0.63760288015659705163
                 -0.17472835543014086923
                  0.34694208993991304535
                  0.23091443587111706859
                  1.00955733007806758295
                  1.01548872455542049664
                  0.40709912697080835597
                 -0.22291452042778034381
                  0.35178752537941282430
                 -0.12653662918774782886
                  0.08106576324711722847
                 -0.64357729111512695930
                  0.10502987728036171367
                 -0.36034069584797628893
                 -0.12186997146463364461
                 -0.02143510640930341646
                 -0.48804786174532416299
                  0.55335634782207576698
                 -0.82968820260551912060
                  0.30504066805526613981
                  0.89910894700101973154
                 -0.56874893098489898158
                 -0.25890689078291567737
                 -0.07913392354465359491
                  0.07193774850739319271
                  0.67103470173681489808
                  0.42296115013779039815
                 -0.24045126772625136091
                 -1.29685660652375034374
                 -0.59150700131926436942
                  0.77604764293804917585
                 -0.18144753228056773042
                 -1.21892257903037171118
                  1.36664171925839372790
                  0.22555200494474494932
                  0.42987248256031901361
                 -0.09832543915849417671
                 -0.33328492140660226362
                 -0.38362278922998893638
                  0.25542501408812212649
                 -0.31286479877649109316
                 -0.42683588212347572943
                 -0.48333656408305175622
                 -0.27947692923427780443
                 -0.25242841295679468994
                 -0.37584530099136165271
                 -0.16566715512037447078
                  0.49696006823514293771
                  0.20608160144230722177
                  0.04076918472363284113
                 -0.11879250307226457695
                 -0.08933480334803714507
                  0.12929129151656143515
                  0.03716254092467801556
                 -0.62695598943255614888
                  0.30247311008690724865
                 -0.12840114588250323147
                  0.12714195461821181654
                  0.19770740043132287167
                  0.19050377629829506887
                 -0.62621562192076463127
                 -1.73119580592522459561
                 -1.07394956948056430335
                  0.45048955192455458763
                  0.59391435375797974050
                 -0.47950608005268335887
                  0.18202371615651566361
                  0.31824838706616054296
                  3.02648062381544225019
                  0.17968112975629640937
                  0.52815793164252367031
                  0.29246770177308017979
                 -0.14842346878963239010
                  0.19970947049158710440
                 -0.00539800074717497556
                 -0.92665063943239434074
                  0.57935120268366357976
                  0.49271794210575270423
                 -0.05348957205147537169
                 -0.56701897074929141773
                  0.35774943747770687752
                  0.36112568518129600781
                 -0.97149127873380669573
                  0.01233077981838318765
                 -0.71801900810646301920
                 -1.13317225129697107811
                  0.70922027430836931394
                 -0.25372049901824278439
                  0.65138897204401757790
                  0.95336801510393942571
                 -0.44033758841502379511
                 -0.05676810382507363473
                 -0.20259540183190924423
                  0.42728388302405029275
                  0.68010362608017060904
                  0.19625606310761406492
                 -0.08956300036071515591
                 -0.36326988526583364747
                  0.24126487878628011252
                  0.13553804833581950540
                 -0.49572051377020587282
                  0.22862580907704579958
                 -0.69147742005521606323
                 -0.22064155114442807193
                  0.05684681742102162122
                  0.06859052792468667281
                 -0.26187827957164572235
                  0.06311308333723947284
                 -0.21318487611992453790
                  0.43811294717670029586
                 -0.67725054351589675239
                 -0.22841537619476012799
                  0.58334336420254362388
                 -0.33024532241754372963
                 -0.10918370618541103911
                  0.49223835580540148404
                 -0.78863060914347049568
                 -0.92201913648589384209
                 -0.07496595954964023478
                  0.32113524192616788033
                 -0.75618962157310021244
                  0.45982242312640614346
                  0.10688098123928477245
                 -0.11117416127192976394
                  1.00810860223826792570
                  1.21235296212991316978
                  1.68980126703394684107
                 -0.01606913114849591734
                 -0.45603399998236821000
                 -0.57252919992759609968
                  0.69695390760249387174
                 -0.25565100395022966051
                 -1.31417798896863491365
                  0.20120305667391255589
                  0.03710407574782743911
                 -0.04655867342586121616
                  0.16866103221509068377
                 -0.31838698085520139580
                 -1.15464857045555935322
                  1.96096925518890619067
                  2.11366635718355988516
                  0.93224167386229050969
                  0.01461683997553185274
                 -0.17737088252393651278
                 -1.43795245129383109095
                 -0.51342609853824483501
                  0.09343207855999630107
                  0.53834097489407273240
                  2.17173428586837591325
                  3.01646469982935894194
                  1.85066880890918783464
                 -0.86648392864555923154
                  2.17885947840251148477
                  0.64227900208321386799
                 -0.67953768386518742517
                 -2.52089213807498158104
                 -5.24484248066165203994
                  0.31982797123258466243
                  0.46587583974659579900
                 -0.29196221747150169490
                 -3.20619994123947460452
                  0.59910973551065316300
                  0.71871974251542980472
                  0.01226957515888236691
                 -1.20270199572312597169
                 -0.49355476872116427201
                  0.37156613337861504887
                  0.32498891297948312440
                 -0.21893056663963436637
                  0.28159881233150196866
                 -0.04722495266889700782
                 -0.05320577030270982888
                  0.62050807548848152528
                  0.14992422778202005307
                 -0.32306244874247125320
                  0.36502180952325308239
                  0.19297875563599897752
                  1.11669014927314247387
                  0.34497942233820144686
                 -1.18824012754631791466
                  0.33947711419165960134
                 -0.68504410968805640181
                  0.08581340072376471284
                 -1.68597225553013463362
                 -1.34759785015645983108
                 -0.02628302681867058371
                  0.03864433839147640021
                 -0.19105597799912035772
                  0.03313611726438569355
                  0.23122883747905390028
                  0.41323591350127042432
                  0.97874160799394849253
                  0.87370260977582991924
                  0.88543016875090119200
                  0.37006322646070066718
                 -0.18125777560517628006
                  0.03197480693796309753
                 -0.56648934141903928285
                 -1.51798112059369438853
                  0.62556312899493771162
                 -0.87306608378625105704
                 -0.59062130699826154157
                  0.68199422994202618664
                  0.19854286344817259624
                  0.81981370510033846344
                 -1.13357830497245593016
                  0.06427165374616468363
                  0.07821871498084843888
                  1.23194238836239899904
                  0.28515989635698762994
                 -1.15463496141248112004
                 -0.56027039785209675760
                 -1.03673200123303765885
                 -1.96180150466775149454
                 -0.50486011733919300415
                 -1.17186469539194182410
                 -1.99266313737508182768
                 -0.20106369730486400860
                  0.29558856871432903635
                  0.71000481579981489233
                  2.35981234147405549706
                  2.10585849745399222854
                  1.02142183320372370581
                  1.18448461053890130579
                 -0.06773686462298643407
                  0.18820905476173976911
                  0.25795677790718740674
                  0.20476393788966160137
                 -0.37989400368511222483
                  0.57505029867566292978
                  0.66609208984470769099
                 -0.47881459077383170531
                  0.13129659305271190739
                 -0.06735716794694829312
                 -1.09945406303288817362
                  1.58057385373865444400
                  1.02843962707001712609
                  0.39495335251326924020
                  0.23913031505222590023
                  0.40943851498892025464
                 -1.82072643201978801031
                 -0.02941605662651105083
                 -2.20012600715864925505
                  1.88778218421466692512
                  1.22273999322396753620
                 -0.18950774038597020810
                  1.31876054814869547727
                 -1.03111530620514724177
                  1.26699167770145493250
                  1.81351421879743557319
                  0.56996407037892593550
                 -0.73830108607874478377
                 -3.41774521317848556379
                  1.17783503758540275541
                  1.25133486822702932884
                  0.20841067748471359122
                 -0.77062844181984213598
                 -0.35840491586769740451
                  0.73181777762082533823
                 -0.49991677935135975241
                 -3.24112316687165202822
                 -0.33210790842989384997
                  0.12314444659414741645
                 -0.52052940921893153803
                  0.11710159610024861720
                  0.15869279876486266923
                 -0.68613581258312561495
                  0.27151461542211807743
                  1.21369646010079001996
                  1.26272304656340494944
                 -0.05504507154354799925
                  0.61932045086283848967
                 -1.03291090623403336579
                 -0.01763337080986615568
                 -0.38736820137157462751
                  0.12323047868179441700
                  1.05050944529651624215
                  2.97403109187996728124
                  0.60484485780865038240
                 -0.57122094621912866685
                  1.62388505717789399796
                  0.15285144840147615874
                 -0.19648768468813207488
                 -1.64693502856941931256
                 -3.51909311653522438590
                 -0.47249353612309108463
                 -0.67664572187973803796
                  0.39700838034540097965
                 -1.57530563295023418036
                  0.59848187673003216958
                 -0.02388877887055916929
                  0.07376751038180162645
                 -0.54826185752657896622
                  0.45555368688928998822
                 -0.77689289611009493264
                  0.52761808165423573769
                  0.00692920625698148669
                 -0.61432188501202111830
                  0.04582682257063037251
                  0.51271753021025046060
                  0.61210858113438015859
                  0.42611398534185268572
                 -0.09001181306295322204
                  0.45863628790564808790
                  0.04643987330214002091
                  0.25376303694132013034
                  0.55195267532162728408
                  0.75233507908675567588
                 -0.54969355850120482643
                  0.83950278066313099856
                 -0.31211951534744636350
                  0.67151946794067285396
                  0.19357408859737920692
                 -0.07688706212435765519
                 -0.28179424746668718660
                  0.08266122996027056025
                 -0.44601575176082164376
                 -0.85434045193449725808
                 -0.40274215659733808570
                  0.40801052485102146106
                  0.17724954333269363205
                  0.23232846808595253307
                 -0.13532242799600627259
                 -1.03109302981347772388
                 -0.56194930540038889877
                  0.09643012628048759638
                  0.09008218975359555403
                  0.22206449084449786380
                  0.00046818952794967675
                  0.07411419452652792672
                 -1.11521780029755479546
                  0.45240283318959090275
                  0.64136469737441759165
                  0.07437329478678129935
                 -0.55530930509051013022
                  0.52372408442481099833
                  0.11365146590955853279
                  0.42669039983744116995
                  0.03134095675163321715
                 -0.06104513096718306581
                 -0.75929806293926482841
                 -1.75259439843824171845
                  0.62456329866582804833
                 -0.63739501416886579221
                 -0.08337614634055168228
                  0.15505375026486986623
                  0.24490053894691346525
                 -0.46998958591643757998
                  1.37122680134954055831
                  1.63566506501823516473
                  1.34736157003318757219
                  0.73019533835857741710
                 -0.03280369365829916006
                 -0.54337566444387352949
                  0.55861914986150118523
                 -0.67015417850513936404
                 -1.54148528277473939596
                 -0.12956069626013635987
                  0.87874753800583804697
                  0.03725804352540429409
                 -0.54914230417525911054
                 -0.16206410642533702893
                  0.56283860329402979339
                 -0.21510819975339853793
                  0.41767716169690194405
                  0.93035655686470397630
                 -0.01003083486842959969
                 -0.34656319485095521404
                 -0.89778987914852503849
                  0.74681743216028573240
                 -0.66996115104193953993
                 -0.63891370881537823401
                 -1.06978675552597923826
                  0.46114788493715436202
                 -0.08787119715273779275
                 -0.10293255166367006048
                  0.14968632987851462901
                 -0.31102731896309282478
                 -0.85869870925049440746
                 -0.48617191986525332137
                  0.46859677977397895532
                  0.48725322983980290381
                  0.67823950382093456390
                  0.22309029151119574852
                 -0.67542836118587168404
                  1.08723917991575791397
                 -0.65615019993067380533
                  0.17783397111848095462
                 -0.16693587469789947231
                 -0.63076530616190717993
                  0.16090674902232285359
                  0.29792039475152359840
                 -0.13567249575028433872
                 -0.05235548266890356628
                 -0.31720453331789505436
                  0.03087182917788315259
                 -0.33569874423599216362
                 -0.07192721228855726567
                 -0.00452327955046848834
                 -0.42067159701445511200
                 -0.19375114511822133512
                 -0.30342730992697936054
                 -1.29143335936430792010
                  0.29835808786924028491
                  0.40998105678762347681
                 -0.38385063725384477307
                  0.18135140828564466631
                 -0.66282063515833766765
                  0.72112831521976017424
                  0.30172478767541160982
                  0.22170734741726080830
                  0.36544000746983890116
                  0.10888705844557114433
                  0.53536891559698052134
                  0.17349749664759331336
                 -0.11981505852237978038
                 -0.21470064693606796813
                 -0.12254759397142318822
                 -0.05170034234091698544
                 -0.17974505718186670200
                 -0.39380648268254658806
                  0.93909471016450885017
                  0.32690474112443329568
                  0.41783256485203884578
                 -0.71231508810732580006
                 -0.68163780962544684439
                 -0.44995139008551993109
                  0.32184264780359850278
                  1.25401611479207453215
                 -0.12744957796797845573
                 -0.26195326855714834435
                  0.64495187021972943953
                 -0.91448569625431408436
                  0.36195311855687928304
                  0.93795852240592114679
                 -0.31304972185194968048
                  0.52343210628688818797
                  0.31936037592596761003
                  0.21394367984354431544
                 -0.01059824096113812057
                 -0.11750161227592652302
                  0.87440579678417329479
                 -0.18234656280122285565
                 -1.12034609299317766684
                  0.72634936497193258731
                 -0.19042254876240033434
                 -0.67258034440176550639
                  0.38264560548648690608
                 -0.66057433777895768756
                 -0.35662883040787873856
                 -0.11765967830283804996
                 -0.36866584842566330060
                 -0.06397274711059112995
                 -0.51048138392326547486
                  0.05370044922266997700
                  0.50315037556112496286
                 -0.23822873906750191564
                 -0.02610731028577590804
                 -1.16538064943257024808
                 -1.71441275032034479153
                  0.58567532009493850076
                 -0.66511472286088635375
                 -0.04215617155378773018
                  0.35013394643214906798
                  1.41826895794225049663
                  0.33431208515018678851
                 -2.25684964863582449013
                 -1.43130632082818887163
                  0.99896925679779546847
                 -3.38394163886054100132
                 -0.16841300727402602755
                 -1.85251484605229710390
                 -0.96672234770250331515
                  0.76483863312963429326
                 -0.30674769872183765829
                  2.33474113381689596380
                  2.45387561729098724328
                  1.65073458992763488773
                  2.23797643010446867251
                  0.47765173111424874541
                  0.98278460973107106824
                 -0.02550115475322042163
                  0.33718488175313982014
                  0.12040436986027119870
                 -1.94270813294409561145
                  0.07554182681673947408
                  0.60807733428659060948
                  0.05686909822339461518
                 -0.43977475070901417276
                 -0.01635393397734812362
                 -0.99615073670246756521
                  0.53419714287008457365
                 -1.29767051819949696956
                  0.48792152522605269915
                  0.07816857929732459742
                  0.11810529661145656444
                  0.13798817920154626826
                 -0.08104851399820729718
                 -0.30579666766048901883
                 -0.00568232906060779901
                  0.37850130777418028449
                  0.17678544222250691664
                  1.06662098576259523064
                  0.06489588049731337405
                  0.19412417113695984439
                 -1.27171098507675650602
                  0.01495198852843892222
                  0.12289020413740615878
                  0.14697980477401623167
                  0.38814904298937807914
                  0.41330891381586781774
                  0.24696555033074690799
                 -0.19108271702944198966
                  0.16427830015238922834
                 -0.49279851140799074694
                  0.22588232932380539197
                  0.15468559231671413778
                  0.48199218144265781882
                  0.90440886290536248726
                 -0.29694216270749773656
                 -0.01561566351885562524
                  0.92927163939902512890
                 -0.07777475704521380484
                  0.08423258030314173528
                 -1.15038930708687470172
                  0.41172869585517746227
                  0.44959073663503801299
                  0.19645165113589771466
                 -0.37569555963443856950
                  0.19754102018333327684
                  0.05270257784756537250
                 -0.93441893721645508109
                  0.29733478350127812151
                  0.17272953736111937295
                 -0.45787639226710818985
                  0.70106545784785856412
                 -0.90300167901457861763
                 -0.41061412894746934787
                 -0.94377968322346861285
                  1.10510224905939868911
                 -0.22193556798396843477
                 -0.18917129716368338843
                 -0.94351199667933860482
                 -0.06190939835494973370
                  0.80535568079334651781
                 -0.26026036022136189718
                  0.29558119843734559362
                 -1.01831345485676694196
                  0.46217980150385329363
                 -0.18367038051992498615
                 -0.23942588538895845374
                  0.29477021380545304075
                 -0.39650536277990994227
                  0.09851728680206323085
                  0.24435218474819012102
                  0.09182783401925583011
                 -0.22397893987177863728
                  0.16262201974299175800
                 -0.65463518998695513496
                  0.42903988099547707424
                  0.03865822553461248368
                  0.01644572537716192454
                 -0.49426593762585979697
                  0.11400414290468061096
                 -1.52446737785315877822
                  1.21546778685832213007
                  0.45836052130916599134
                 -0.57782350471686261262
                  0.35520040496074251068
                 -0.23439189000325111323
                 -0.57361080055868396421
                  1.11177022926416313453
                 -0.16943975270551878132
                 -0.00032327374710255989
                 -1.27237504690763603143
                  0.04375972968880979808
                  0.59830532306144068588
                 -0.05967683263269826788
                 -0.15191022561310851824
                  0.30835076391344773405
                  0.57681429776826831368
                  0.23114237809274046365
                  0.22616873092458519845
                  0.36406970760704843171
                 -0.50054340118433460205
                  0.59754165483640375722
                 -0.06092776341093522618
                  0.11944816259872050035
                  2.69254499634780186668
                  0.20000849079548721487
                 -0.09300589746431912885
                  0.03281151877231128222
                 -1.04719626569199064647
                 -0.27563522409904894772
                  0.60631149064159950424
                 -0.83571280114218882140
                  1.47059494888926933776
                  3.50307279453019626558
                  0.58636131968355631461
                  1.15323287955293407592
                 -0.16212023444954284934
                  2.48108276363892699123
                 -0.17664367513643333685
                  0.01770575294747956871
                 -2.17076646162637709736
                 -1.67870494364688638278
                 -0.59329752490157883216
                 -0.34868214853438567191
                 -1.65714258236697786764
                 -0.00009403151114377320
                 -0.07108545031262755720
                 -0.74260197935421767834
                 -2.06526545696339436375
                 -1.23285637826415439555
                  0.54542755765338069018
                 -0.27658112013217928116
                  0.45512488604671980097
                 -0.38094121326536772854
                 -1.24403677194605077894
                  0.40765403768792335404
                  0.20709405441425018934
                  0.55799154727642474860
                  0.29745342333530178092
                 -0.13503035503119256711
                  0.18436133477870561559
                  0.13462625619086104889
                 -0.63990664672112240741
                  0.39020687264477782463
                 -0.23689866584123456250
                  0.88229450658804464691
                  0.58571685913346660524
                 -1.36653943273137956638
                  0.07014409596283092962
                  0.21390917603407774705
                 -0.06310223451907563674
                 -0.33006944253938769185
                 -1.36074065569673430254
                 -0.39437550291962752969
                  0.64093711773826567146
                  0.79195545851923565550
                 -0.35481369998833461876
                  1.18452414364661962054
                 -0.69408260918148290131
                 -0.80506848342775150229
                  1.36784885970640912589
                 -0.28016281391368069720
                 -0.08283939770163047112
                 -0.28744110987639487353
                  0.51917170428176118158
                 -0.06141131280591640568
                  1.13607822451604523195
                 -0.98300151243553957059
                  0.70149026179958873239
                  0.29033564559360897084
                  0.19636893106436123513
                  0.60951941911157325737
                 -1.74519752897077018439
                 -0.50610887566532847259
                 -0.15018209710226584908
                  0.23033942330002382670
                 -0.32436286432840855110
                  0.39895364552918882728
                  0.32902090575705456033
                 -0.03189503421050560866
                  0.72194592792312139995
                 -0.21610508435004216476
                 -0.07002022831247813051
                  0.70327485581222526356
                  0.06645920119924396408
                  0.29902273860465489186
                 -0.05414040239801131554
                 -0.77174833920084329186
                 -0.62472723106591565578
                 -0.16163316620855047723
                 -0.23621133571601310441
                 -0.09485158546622382558
                 -1.01776733696421572972
                  0.48718401467438487984
                 -0.43206814201472043546
                 -0.20136232583642504901
                 -0.31164432944236059031
                 -0.16478065589724641415
                  0.10905438424524366292
                  0.39497510268306523784
                 -1.22159426202326470978
                  0.30316400483463384896
                 -0.43431275294163890210
                  0.08217512452182365590
                  0.42725194212931494331
                 -0.38525005750005553162
                  0.26701040083837701555
                  1.40855699976296544484
                  0.71062798080454936400
                 -1.68860256751936055331
                  0.43898449272368811336
                 -1.26316382571914109789
                  0.53953960149946200708
                  0.39189441013975834238
                 -0.16747867770331201220
                 -0.54363777238787369672
                  0.09952970969609112317
                  1.82388585353032550707
                  0.59874436115191320695
                 -0.81073022342320255618
                  0.80357327393194821763
                 -0.41175681258042168276
                 -0.05856118563895118534
                 -0.23455954914105911491
                 -0.11731561966691428367
                  0.36052680159350125599
                  0.04702749660633013390
                 -0.33315512021182175362
                  0.27589287122727140789
                  0.56202665536951124103
                  1.75468029742945463845
                 -0.17503922599472079846
                 -0.39715896011290108270
                  0.01108356917263392249
                 -0.38161763348178662225
                  0.16490403760431615598
                 -0.07281954078918290163
                  0.83126722009368558819
                  0.33358455873263725966
                 -0.26076248567591059357
                 -0.13987426069978758925
                 -0.90614393524027470050
                 -0.97222931131405687655
                 -0.25009316457915425902
                 -0.73712169541016248075
                 -0.64069072344884048231
                 -0.47733922018326707670
                  0.18139291489725761775
                  0.03026348457570025852
                  1.14286887575494877645
                  0.06520642112882782393
                  0.45415085794238518879
                  0.89717184327998078519
                 -0.33373662869327314073
                  0.32153041777126112333
                 -0.09442953708839608995
                 -0.44103259709638648056
                 -0.26719550812382392158
                  0.25966662738698376156
                  0.54024110621047860548
                 -0.57893881507131361719
                  0.33567164244106462156
                 -0.27840851352466333690
                  0.41061077186005728867
                  0.57546358398177466231
                 -0.09804271797231445262
                  0.06214110884493682929
                  0.10391589904929221522
                  0.48297990936788498528
                  0.39784778899089645599
                  0.27313353074583052171
                 -0.25736330220865805130
                 -0.46035934828438529465
                  0.09360107993610380928
                 -0.12728713297584356989
                  0.81027430304618575096
                 -0.27213102119411258784
                  0.02137132972942034845
                 -0.08188110940449740138
                 -0.50732995400329461422
                 -0.23266391321706916817
                  0.05339974450468402967
                 -0.24097383410996281450
                 -0.39689519012917767737
                 -0.07928372200133129710
                  0.61465130628914743660
                  0.55664920825567065776
                 -0.61427592477853376618
                 -0.47405225062662847968
                 -0.10771229648401536849
                  0.40548731959098488487
                 -0.50934351260499610703
                  0.74829282219964365908
                 -0.14071019227094547221
                 -0.92768998801492152939
                 -1.11245029240902604251
                 -1.81375014702957404467
                 -0.99728461979532512238
                 -0.14646858598730252976
                  0.37379363208977212096
                  0.29370398172529210701
                 -0.01072466730893176061
                 -0.81218193587172138326
                  0.36533742469598756708
                 -1.05791312119401692549
                 -3.73614335688426724147
                 -0.82518268179409937080
                  0.09732451745477928295
                  0.13318421967996021960
                 -1.01752489679997215610
                  0.85175847615739286312
                  1.34720261370908023224
                  3.23947938164393622884
                  1.76514109154717790950
                  2.66158505017002022797
                  0.19256218137879502206
                  1.60232675660931511707
                  0.09620344025955203382
                 -0.48861238917010224592
                  0.09489273165741374250
                 -1.61208972686123819251
                  0.36695083230729891310
                 -0.10365926209173925709
                  0.11108891377923681143
                 -0.23940001717071590637
                  0.22978411743464097206
                  0.71023121372171937882
                 -0.09645657764700635295
                  0.06099859635026253640
                 -0.95962933958599994089
                  0.44005280628983250990
                  0.19147243217538806315
                 -0.18653406222402810211
                 -0.05471546902680594210
                 -0.34302140525083796296
                  1.04794980013967364840
                 -0.92037602980780996997
                 -1.88661151484775890808
                  0.61244970367006845713
                 -0.46103737020591850637
                 -0.07009920726642657196
                 -1.02579137935527708869
                 -0.45754334259617512881
                  0.47711521888918473344
                  0.76751498807351503650
                  0.79748486120180539505
                  1.27807626965558984722
                 -0.07926567529245855115
                  1.20055542957494232326
                  0.25314880843385795250
                  0.08598491194216513478
                 -0.21333058965452261768
                 -2.01129470419602185416
                 -0.27424800816857058949
                  0.35975421629642700960
                 -0.58398414329247727572
                 -0.22154607688477592764
                 -0.11559919283531419620
                 -1.05396973045049247020
                  0.03389743449953069171
                  0.69103452084088756724
                  0.10277759766578443978
                 -0.89254943331082847724
                  0.44762944938235837977
                 -0.54437992022197578823
                  0.02350971411475376999
                 -1.02286474007434269318
                  0.89981725414242352823
                  0.08304267137951379385
                  0.38763486832287152861
                  0.68663162685279044428
                  0.62924181302031445551
                  0.89017729402303080732
                  0.33853003404701970114
                 -0.48266238562427604686
                  0.18269888773991951880
                 -0.76175324690275725281
                  0.66143998579936025273
                  0.74998683421053913278
                  0.38146964853937542772
                 -0.00759090639718503976
                  0.22423410867604320895
                 -0.91432010690841591938
                 -0.29721804655886407964
                 -0.59727788194457709370
                 -0.11306464329752034803
                  0.32302929126848567432
                 -0.66285456193126601754
                  0.30440890719198937520
                 -0.69206829467248220933
                 -0.81269558813717368562
                  0.86179318350595746079
                 -0.40652602150080191512
                  0.66799208325803194342
                 -0.72979962539966647395
                 -0.51833836318807380295
                 -0.49351323560691823245
                  0.68486811885721010640
                  0.21499487240018178014
                 -0.55489905805097761160
                  0.34398060243782990764
                  1.33915401267101730198
                  0.11625360255902107698
                 -1.09662895607049248881
                 -0.28499805155913382482
                  1.27763444277050663977
                 -0.01416974914894894057
                 -0.79780602395621125211
                 -0.92772926351127493749
                  0.20581542029404265026
                  0.74935892996323028026
                  0.62973778228209920105
                 -1.48432046737592893138
                  0.49835973399288990837
                  0.21995823791932656022
                  0.78476226351120570435
                  0.92796230753796249413
                  0.13452642809432527327
                 -0.38415308232112288511
                  0.03692612781904102554
                 -0.15994792041948729944
                 -0.25318880828945394823
                  0.38110087303755674215
                  0.17274008330363110897
                  0.10110526337680228459
                  0.09107764938094591034
                 -0.42711502466489481566
                 -0.46196078872841261909
                 -0.16086941441444765899
                 -0.09690997450172438021
                 -0.34590631389558007536
                  0.61576206643069075763
                 -0.38123434082759188879
                  0.30943487940617819820
                  0.20033203603712448904
                  1.01045293159023774621
                  0.45103361704409689059
                  0.40954006063837178342
                 -0.71835285531862902442
                 -0.61135230366100778987
                  0.12984396352704405397
                 -0.41425043099376479550
                 -0.22452132942603617027
                  0.03558852506934003651
                 -0.79795298731657093860
                 -0.27901921547769426013
                 -0.20581376986711255594
                 -0.29861512601908335451
                 -0.15880142098021285402
                  0.39028575436461193648
                 -0.34218933960687658580
                 -0.48242421606818791657
                 -0.30834562382227531652
                 -0.59667650092176505172
                  1.19680503729626641629
                  0.04497548982266538764
                  0.41623499230844884789
                 -0.63888249390773299563
                 -0.50574281416855115801
                  0.49655150373737577674
                 -1.49392466302792081834
                  0.16136907598764332894
                  0.83876246328333392555
                  1.49740180672855793809
                  0.90032476081638779242
                  0.60609094689779219323
                  0.65096021524313063544
                  0.15944466473862103917
                  0.45616889520323561369
                  0.41150956074009475971
                 -0.08769854229631299236
                 -1.46616677864705535761
                  1.29258560164640545764
                 -0.68845517846411752316
                 -1.16379597359611408613
                  0.04344075634094057142
                 -0.73979881403909042437
                  0.82727734359911508921
                  0.63742909693890914546
                 -0.56035695827417497661
                 -1.37374894807212277748
                 -0.38269837272360213154
                  0.44479027066003867796
                 -0.34183668674209061189
                  0.17497393950577391775
                 -0.41259011771465181617
                  0.46868678269443025952
                 -0.73996297986847392458
                  0.22190248930902789493
                  0.32823924719829811192
                 -0.28042399791938066311
                  1.09958816587134777798
                 -0.29691837548316779571
                  0.31460826168256544877
                 -0.56067245996897041582
                 -0.57626799625503255520
                 -1.23091812946351453206
                  0.08679243713969096718
                 -0.29953836611266848600
                 -0.26339585140406818198
                  0.60658269930206998310
                  0.48412695654271520329
                 -0.36362060057643846855
                  0.37464286931764984034
                  0.26643296729334020601
                  0.09321049129808403610
                  0.81407557800255225811
                  0.10407731316138731092
                 -0.14793779669452028491
                  0.92211793000138053689
                  0.07999428529368994567
                  0.18043648696803935016
                 -0.55400800851868658992
                 -0.12638049527499020663
                  0.99880255994890054794
                  1.15303875402530686678
                  1.29794670891846974925
                  0.27709159138391081800
                 -0.66955932019364372554
                 -0.22445915482734959956
                 -0.58003288163261390586
                  0.10760587088091723429
                  0.75191778721341195890
                 -0.24152356827122775651
                  0.61512306091840940336
                  0.05454488454264876801
                 -0.89329097495334364165
                 -0.56741167570800821185
                 -0.14412188042506260399
                 -1.75983043376028280846
                 -0.33425261806974604362
                 -0.84974501698630799940
                 -0.46330840967748204706
                 -0.41504985971186320048
                  0.20022745001130684561
                  0.02797449705702153774
                 -1.26970401005965727315
                  0.07323466467830867799
                 -1.21129933472158146657
                 -0.16184386663760416680
                 -0.32546555981689762049
                 -0.51552645949831465977
                  0.35212780745664762350
                 -0.31880645223960873968
                  0.04137636166368461460
                 -0.07741668496398038113
                 -0.05874797835487521186
                  0.42180739990645732540
                 -0.01807005310440620502
                  0.54049779144967269318
                 -0.38898170902793655079
                  0.86464684998861773835
                 -0.00262298769153729381
                  0.04646208208530559769
                  0.26253206989747951416
                 -0.43733445244926566486
                  0.79415567084576044188
                  0.05833438202516253585
                 -0.65243863314951278110
                 -0.17255741246260336563
                 -0.01989644893230402625
                 -0.01526914814308173197
                 -0.63096775730419163430
                  0.19062482221574669761
                  0.63337177683461298727
                 -0.84088550115123583684
                  0.17180913877827552749
                  0.79677893022540280388
                 -1.54413401392909488408
                  0.82825032739192450126
                 -0.15044195933318016412
                 -0.19713130064222891824
                 -0.64499116429670289019
                 -0.45596673453138325538
                  0.25437497570372102906
                 -0.10262378372997514597
                 -0.19794410779767046549
                  0.19377718110010502817
                  0.17974729207181941448
                 -0.09192523732991059182
                 -0.16995671035985704389
                  0.38539002416810519414
                  0.27520049794659035003
                 -0.29252866231552393517
                  0.20805709260988672349
                  0.03563750879624407591
                 -0.51692376295546016429
                 -0.00013159666142123901
                 -0.18223420434535109180
                 -0.26923119662569144905
                 -0.05143250062129908068
                 -0.17791230982792166637
                  0.08233516745826417738
                  0.99050288875753422779
                 -0.08345282700412036403
                  0.59365152744877003332
                 -0.66078036145280505398
                  0.15489938813738365897
                  0.09290112512961687385
                 -0.58270193977684758835
                 -1.00441381132241813745
                  0.02307455371539625030
                 -0.31507393615927303809
                  0.36090782560535172863
                  0.14472306384660288403
                 -0.16971435344650173671
                  0.51822723249950108926
                  0.01963223116754836753
                 -0.24089744287639214271
                 -0.32162751617441498464
                  0.07994401718907667709
                 -0.42433714162105345968
                 -0.08099725706333249509
                 -0.13295183437263322079
                  0.04621360138877551871
                  0.00991344561672220792
                  0.24246708002090269773
                  0.14512457936413575288
                  0.21647690865623886447
                  0.36270990624154575421
                  0.66243807195231785290
                 -0.41002266967685785382
                 -0.41332027065287724188
                  0.53453297828389145785
                 -0.00148663752121665563
                  0.07550128010957822544
                  0.60662895285939566481
                 -0.35138111923499204536
                  0.86868571266321903401
                 -0.77708646098005951242
                 -0.44490850222651717738
                 -0.11169229653640731781
                  0.52114821916868747653
                  0.09758853310568330053
                  0.01958775752237234408
                 -0.04417610119308130329
                 -0.33937278348381810789
                 -0.54036189215801733177
                  0.18887550683014681097
                  0.70048255839248674270
                 -0.53886275897491042741
                  0.44597689430533465904
                 -0.31672909081660072239
                  0.96779150581131223596
                 -0.10542978062034659426
                  0.52532921940366106295
                  0.90327004304501434806
                 -0.10735088750306910621
                 -0.44722023642064406834
                  0.04511954408236022729
                  0.27997066461327307918
                 -0.72624409841285719747
                  0.75885339804917584239
                  0.08547046612694766954
                  0.19725169442474962955
                  0.01711955220528955934
                 -0.10725358826572910231
                 -1.12669725812505916451
                 -0.19948764809301111622
                  0.42790872612130542718
                  0.54303961504983389030
                 -0.62481241116684715919
                 -0.01001113273474411175
                  0.87779770529361456077
                  0.70226714239507814774
                  0.26061098793390247153
                 -0.49753777775923402338
                 -0.46748032971657710322
                  0.14692766388898476082
                 -0.08324628346247091304
                  0.82620874539676480985
                  0.13876398808275550167
                 -1.39888883298773114561
                 -0.44561011440894598978
                  0.62473195138879811239
                 -0.84284074913742179636
                 -0.02825023706976805687
                 -0.33551263904913258829
                 -0.39672787242238910510
                  0.61201569143624712233
                  0.21015545583608549740
                  0.91899488502704307358
                 -0.35130894890244784845
                 -0.08192994751932682063
                 -0.22282437111168712507
                 -0.22090817485696695455
                 -0.48863337029184944482
                 -0.64063201342674269689
                  0.17058166085325865424
                  0.80565067256097011583
                  0.34890804617788673259
                 -0.82356083549595338056
                 -0.39881695590604904211
                  0.40326872668476171357
                 -0.19030431807471395733
                 -0.42033957856891912552
                 -2.28896882796150169526
                 -0.28584971908681228170
                 -0.05007842566708151089
                  0.77117865013649045114
                  0.34747091246683831089
                  0.06149456936790462930
                 -0.41089150937873791802
                  0.02026592043238700791
                  2.17599024043111732851
                  0.47156986150326885010
                  0.26117081128085795072
                 -0.25618038659728026296
                 -0.04637147536662464958
                 -0.01628870996081530076
                  0.02220560214751989350
                  0.35645034804097891490
                  0.61177158085380578534
                 -0.01782004140495825617
                  0.19820854765021353461
                 -0.40364983275642069005
                  1.04907757527035117029
                 -1.06657873683886372795
                  0.40908483634375331084
                  0.17594420457818357728
                 -0.18828882026378079839
                 -0.47238839232370444243
                 -0.26505073551691649136
                  0.57688051118611216594
                 -0.42652880746219240526
                 -0.41316201692524007205
                 -0.15153367906045356328
                 -0.11448801012339090977
                 -0.07868446455814916141
                 -1.06344078357185400918
                 -0.02246321605133308474
                  0.40182801155687991601
                  0.21310316378352481270
                 -0.66462448369620197308
                 -0.33032800902861247927
                  0.60553193879864841698
                  0.59942235373758712136
                  0.65193681298856576145
                  0.03666304481488429773
                  0.22581238073630696683
                 -0.51881548784187103696
                  0.00663563366786885413
                 -0.39976051417781871544
                  0.13330531601463338487
                  0.30696981501791881231
                  0.43561668755361315775
                  0.92094529762252419491
                 -0.11030012551283709110
                  0.03493816735035219084
                 -0.27445079650071502186
                 -0.07534156225414583019
                  0.12770298175715091848
                  0.57242347521546910194
                  0.04977169337061859017
                 -0.26067592883148010818
                 -0.11644299235357721822
                 -0.09575602737267636944
                  0.77559652104498888470
                 -0.27281547363629371494
                 -0.02881951140644766624
                  0.00947294308068528761
                 -0.02726449244198009964
                  0.21720389496373360139
                  0.46400447653232018697
                  0.26264102054062954394
                  0.77217081357297856492
                  0.10816661268580626820
                  0.36867777838189391693
                 -0.15662608850392145676
                  0.24640983308087499593
                 -0.24965672800947663612
                 -0.95761694793629681399
                 -0.59510808596815800708
                 -0.08509011671778854424
                  0.01870921378576792873
                  0.15621566571363446063
                 -0.25943969452330140069
                  0.66354961701006975883
                 -0.04921292533157173993
                  0.89238641713823996238
                 -0.24084558227525793006
                  0.63538287673055382498
                  0.05324118266175251885
                  0.03464966451541399983
                 -0.80355452079262457143
                  0.12750093547598431720
                 -0.68908997287588613645
                  0.26870174257828965958
                 -0.33228303129548869554
                 -0.57561691494386457713
                 -0.31898317885256322057
                 -0.00448908232972971590
                 -0.49509456723996786431
                  0.11436869816514363962
                  1.14823299842497283940
                  0.11094181067088139392
                 -0.26741408630957363979
                 -0.32297129296923693387
                  0.02498426566946865615
                  0.75241356302905282316
                  0.50511857501950141458
                  0.20932647147880847904
                  0.37419834682526115222
                 -0.01279951867502000101
                  0.29439248682476593100
                 -0.43308018084769062117
                  0.02757300936057553026
                 -0.25322907072347228263
                  0.18427383392729113076
                  0.08885592655605777102
                 -0.21624794472927819089
                 -0.19451648836127122255
                 -0.21601981284517537962
                 -0.30602400246841443554
                  0.06919029828132852722
                  0.40601892138707695867
                 -0.20103663942066052339
                 -0.30418987531199270791
                  0.23848501934576479822
                  0.92155807081160578953
                 -0.28042136788253119173
                  0.04498879787206194053
                 -0.70624739245423728828
                  0.49776743309764143186
                 -0.10146430256288008209
                 -0.31601675917881771882
                  2.12709176068437288976
                 -1.44923224393379324049
                 -0.08259178164872675587
                  1.04148120705341717951
                  0.21238308686606061082
                  0.50502651028412770540
                  0.16184719774921804691
                  0.46549777302844197457
                 -0.42891729412822443557
                  0.05204083107810421327
                 -0.22629551250429572051
                 -0.24170834282942363358
                  0.24397434599347161965
                  0.14726502557807130689
                  0.50872745452513157272
                  0.67978479580639550317
                 -0.26217378523779655275
                  0.59618932277685154908
                  0.52179723160734503562
                  0.75275903650468189987
                  0.27266193514337150328
                  0.43512878702244095486
                  0.01026012879654466907
                 -0.57255184607942821717
                 -0.15772039916159902306
                 -0.50066215091241317303
                 -0.06071293402750274626
                 -0.40610863380027456548
                  0.15356526721056590334
                  0.26948242291668889070
                 -0.38859235551633997119
                  0.55201366646376315295
                 -0.75932755766125192842
                 -0.56490601058446521243
                 -0.12992730739340013768
                 -0.32840233049547262745
                  0.56896342036336078340
                 -0.12026879315233378331
                 -0.66922919772400202287
                  1.66705855859764007221
                 -0.63183066909296980995
                 -1.22775484562219339146
                  0.73886186186465130366
                 -0.46307763030880660926
                  0.48782618818313228104
                  0.56019885141780934035
                  0.37070757749977673035
                  0.24800734323316867003
                  0.60215145074818965387
                 -0.69179175206937726372
                 -0.82123599969140037569
                  0.75006414210683325372
                 -0.03875478288371385360
                 -0.83686137999176624103
                 -0.30871577069131261872
                 -0.17888867264741578622
                  0.60648693842163348133
                 -1.22248865958804153742
                 -0.26662515476987797003
                 -0.63330395776753445336
                  0.06005989829086734455
                  0.83510239522668583412
                 -0.51144775088393301665
                  0.76742571399474934779
                 -0.12759859029588438428
                 -0.05961557069827835148
                 -0.53887893063836944663
                  0.37616246603059000364
                  0.05975630590522996999
                 -0.34548745928374124947
                  1.06395427351656235437
                  0.23334202712135068691
                 -0.12495199948766130826
                  0.91971043605993452186
                  0.17552254854180637800
                  0.11732390026933268989
                 -0.31753259681897860744
                  0.18698277929164813793
                  0.69001025027954487889
                  0.10145728110556145873
                  0.04321852052921627829
                  0.53258438862003443237
                 -0.58238539765407815185
                 -0.01377898332534173605
                 -0.37000542380742534876
                  0.74584708432866853034
                  0.39452750541783759841
                 -0.43423058327587371608
                  0.27239120885719270149
                 -0.55320402598274642791
                 -0.06444084166271665803
                  0.64085003952549313144
                  0.63965868187005325840
                  0.10269763934191528110
                 -0.33967166505310808500
                 -0.18523028964021442944
                  0.71174199381413005838
                 -1.00908516256300417879
                  0.25678861117028928263
                  0.07146228967499704265
                  0.66810211460640223091
                 -0.41606312370685344382
                 -0.57750323945784454160
                  0.57925095397546710885
                  0.10353027843258547080
                  0.15828526761505293252
                 -0.97235928578828767499
                  0.21294501354356171197
                 -0.15866702126847237464
                 -0.41715829004681992398
                 -0.73310933687758594868
                 -0.36515440226226408837
                  0.65247331502507355250
                 -0.23522196901062031316
                  0.25530615959092001210
                  0.57509383407008141109
                  0.42477965735415623705
                  1.07685008949725213867
                  0.50202748183386947112
                  0.83087713019825470973
                 -0.38916720389063297336
                 -0.07643701207564976285
                  0.01491881560463198531
                 -0.41972535885060358041
                  0.32745948871102564803
                 -0.11507995420926711572
                 -0.29160580154459703195
                 -0.48949227973922793122
                 -0.00116843619551743787
                 -0.83601953980645282716
                  0.46522778863660396720
                 -0.76035307825480746846
                  0.87149789005068878378
                  0.94604127786568104064
                 -0.11607468029428956446
                 -0.77775220461251060033
                 -2.46080479506188654071
                 -0.08757983588092901894
                  0.04565967646845239120
                 -3.05443782219935000555
                 -0.68598911514297922221
                  0.35723773174557488241
                  0.45676368541479117624
                  0.32725718620233779088
                  0.20476088094088173985
                  1.47207493034705527712
                  0.95583016441863521973
                 -2.39630852717227238458
                  0.42899384990588140809
                  2.00693493018454338639
                  1.17467575949055103024
                 -0.59605359688906989213
                 -1.28892168449992894352
                  1.30322401074010962851
                 -0.58000523073182097544
                  1.74057058845692691484
                  0.32486442912501883873
                  3.96485708295153527203
                  0.27429759971967504484
                  0.50502586793489823158
                 -0.52129539625170084882
                 -1.46692012862890486247
                 -0.82579084043940131910
                  1.01427180369444069896
                  1.15217481324660808717
                 -0.34036806399832436609
                 -0.22599387160755579629
                  1.66120899539725530580
                  2.45062929173991772558
                  2.44103878204936775020
                 -0.82685169748938636136
                  0.59227613944558343828
                  0.80412143254654322444
                  0.44205305471625538916
                  1.16318841519210347535
                  0.11207155249809773456
                 -0.49586924648308239316
                 -0.62751972747642970063
                 -0.24768938536767515224
                 -2.62666132434889831870
                  0.75994727601640543746
                  0.03380218926369284865
                 -0.31020019701993684080
                 -1.02758942778537054608
                 -0.02096443700606444305
                  0.24545787773539623489
                  0.41523859546101277163
                 -0.53544940976315280601
                 -0.04720203793561605909
                  1.20473291748579414140
                 -1.02318701053760241493
                  0.93145973976662010951
                 -0.01282533475968666674
                 -1.04455128935163710224
                  0.06119712665299450322
                 -0.19727735172109525652
                  1.56124922323196524410
                  0.46128072325999985859
                 -0.92609975040107650468
                 -0.12426130373935412310
                 -0.15408198103911149857
                  0.52823781755984922093
                  0.48426163221836238115
                  0.93799077668380548278
                  1.14865537930994254801
                 -0.39024160570512966828
                 -0.73581172188261445566
                 -0.80548970642291750632
                  0.86355600024046630381
                  0.45569139749054138333
                  0.71786099821032967050
                  0.77322479819217115882
                  0.49055044062222974421
                  0.67245113521989086092
                 -0.28082639413088356095
                  0.33990691754898677557
                 -0.71679221214375266058
                 -1.40224179658880254706
                  0.87717626473986065605
                 -0.28068955618292712462
                  0.56331846706449795192
                 -0.04095490613298068128
                 -0.24812221566415845753
                  0.60824043609985289915
                 -0.90865888901414759715
                 -0.23584455084280847581
                 -1.53496873031003944199
                  0.06311407275762195845
                 -0.40690125696424900292
                  0.59568914298066089064
                 -0.22150960276135109317
                 -0.19113090525715542567
                  0.09111681722270427441
                 -0.39215361758256461755
                 -0.13852675126276078887
                 -0.01551741824805004735
                  0.66521374079811834701
                  0.08602745463102851042
                 -0.37164488598301553823
                  1.52660151642176455944
                  0.44615727585976633351
                 -1.30604214818956898547
                  0.26344321397380737748
                  0.08405213775973452428
                  0.62527324466868550168
                  0.21526538442410361740
                 -0.34433805316015703157
                  0.37885337617275421929
                  0.10238225554967861353
                 -0.64360088880347665619
                 -0.96139834201981722028
                  0.87487573829910891821
                 -0.27404808957800591562
                 -1.13168659775023239256
                 -0.36189166606189410169
                  0.46276742810035959019
                  0.09992214158191588258
                 -1.34500786343594036509
                 -0.15931633941612183269
                 -0.19576286003742343622
                  0.34087313186368506379
                  0.64144221306369886282
                 -0.81472443868213884066
                  0.30843156815843814078
                  0.05246474020339758626
                  0.58303958999718463740
                 -0.29302957806497975657
                 -0.68366127428377720943
                 -0.05826773543433507591
                 -0.37692523198491850733
                  0.63758880898502390266
                  0.12824165907617149363
                 -0.20388184206690443401
                  0.87663679832073571063
                 -0.05850997482540858108
                  0.00407436503541192419
                 -0.10255234494268478107
                 -0.22341152060675908975
                 -0.66297683887301128713
                 -0.24092040885406706963
                  0.61797403080779744755
                  0.19303314567012058722
                  0.23821122635864311334
                  0.09236407602561894081
                 -0.02146310199444339054
                 -0.84550752757768088408
                 -0.10111892307420086712
                 -0.32621969663660660421
                  0.02290412911826595829
                 -0.40133765265607734829
                 -0.30591088431008539583
                 -0.25155533701684856807
                 -0.10176894636808662964
                  0.29017564218570857104
                 -0.78749728218633652244
                  0.08195421935349087028
                  0.10346960246650338533
                 -0.15099553256074615959
                  0.40209917049624849250
                 -0.17712375101110428011
                  0.43658084529099244753
                 -0.11156342577210534572
                  0.13770897070086168812
                 -0.69905354632766991685
                 -0.01737743329851483901
                 -0.13488593701580375850
                 -0.53444486871189555988
                  0.28984710106751848668
                  0.56113429430177419466
                 -0.39862576096538421266
                  0.25218439591864472149
                 -0.35738515698682032928
                  0.23350812574883958450
                  0.86917253232186386658
                  0.38570645988058388509
                 -0.32293952890126981226
                  0.28381385539739695245
                  0.36664030529318575313
                 -0.26575615846521066787
                 -0.04824649430695452518
                  0.00164376579623481131
                  0.00683970071060013406
                 -0.14297844497927802987
                 -0.41741780551130197585
                  0.67754928474073627953
                 -0.00546651508324620845
                 -0.32506724561919414507
                 -0.83688799469189512070
                  0.25303251885340721783
                  0.35455232277106346617
                 -0.49058281325883262847
                  0.25216758987926135571
                 -0.37543094172411745069
                 -0.32672792488628565888
                 -0.10145120671065362139
                 -0.52225106808181742668
                 -0.23911602186360364497
                 -0.69926093322109794670
                  0.30316944070744561435
                  0.66208535932703527216
                 -0.67540347219132057521
                 -0.08995315838072538706
                  0.12843951082859195179
                 -0.31426603516286266693
                 -0.18294291022068587260
                 -0.18225502358880862896
                 -0.07828346533432421761
                  0.02451266477105704805
                  0.48273913806819673811
                  0.08752744885972342515
                 -0.09135524301959904725
                 -0.12634378899874212920
                  0.66905854839002110168
                  0.62560835937491010572
                 -0.16305480739201594353
                  0.30471117488731835898
                 -0.57603037345434215943
                  0.25607163278063371781
                  0.43377982988650970464
                  0.35144167515752233744
                 -0.73374008950613600621
                 -0.43257025271511034825
                  0.39918950071376435584
                 -0.13423129021992080689
                 -0.14799894025363427574
                 -0.23556783647399370807
                  0.53048073974760168170
                 -0.49270516593664920313
                  0.31342962469019164384
                 -0.57172579054418237732
                 -0.21503192257840403334
                 -0.02054783978751315021
                 -0.25287502023708763321
                 -0.27005947581966038840
                  0.09626525742191593960
                 -0.40299931665257204827
                  0.05639949390922326805
                  0.47352555049983363622
                 -0.07538377852025961168
                  0.02222252378132261869
                  0.04205244555474382806
                 -0.06743329067617305494
                  0.04618979226508642538
                 -0.23055439996269658232
                  0.06804147935144497228
                  0.27185359560536381807
                  0.30481351680600032861
                 -0.31582298935182623323
                  0.09515600542180310817
                 -0.67481155230871625594
                  0.43037485022859478523
                  0.62923051095801674215
                 -0.48426940865445111672
                  0.00196525469381761495
                 -1.61429911552698923671
                 -0.14648336837418540757
                  0.45341483428651946364
                 -0.06163697490683599234
                  0.10921629249706928111
                  0.23369271808630545650
                 -0.99569600226122945141
                  0.63660078302877098899
                 -0.04576076739570449775
                  0.58997217444474725490
                  0.05964755774014399159
                 -0.22591219035762921674
                 -0.08093371397554546820
                  0.47648708102543785303
                  0.09231558034101827737
                 -0.17911358060303095296
                 -0.26103072960670370417
                  0.00539382170777375804
                  0.02092557762706679508
                 -0.75487870699317105583
                  0.17530107334571581879
                  0.37087929600940755526
                  0.28289911038678611233
                  0.78149724205433346302
                  0.93678304506738929724
                  0.00477945453044610093
                 -0.28832143096178597386
                 -0.19296097153178662365
                 -0.02213823452637671621
                  0.50836083505204177069
                 -0.09846155206323661813
                  0.21867187035006510620
                  1.20595709901350001125
                  0.30898492268039218223
                  0.34610683959961918710
                 -0.11580102118470403383
                  0.07754143357175051487
                  0.23321471648884856132
                  0.13982086310530092432
                  0.22790155501574027586
                 -0.29081796881965032986
                  0.15466842771136121715
                  0.05042483043331397186
                 -0.19873440744516937539
                 -0.18886172129745479320
                 -0.90560811820796616178
                  0.28264329178446789825
                  0.26674305644990770059
                  0.01721949574248706621
                  0.26278404764572715901
                  0.45380963879487068446
                 -0.05176477455637096270
                  0.07162298865728307373
                  0.75070767248079273148
                 -0.84795795144871066729
                  0.38767968125847357408
                  0.78469055636177320601
                 -1.01991888864562896266
                  0.13713591476343195419
                 -0.70638573792866254930
                  0.50431102816467199279
                  0.02118554140846156883
                 -0.18960827367484031636
                  0.25820442265618481770
                  0.30975941628912401216
                  0.80007801518143262243
                 -0.28992288406853716776
                 -0.09598172565443696680
                  0.10177999809015045307
                 -0.00053607661188199724
                  0.04462935872704787421
                  0.33679743188998584325
                  0.20997494503795077758
                  0.21629052046798691311
                 -0.27001822788643947693
                 -0.08485239467696759075
                  0.09332960926747094210
                  0.13659333985512209231
                  0.36913526747809344286
                 -0.00456758795720331023
                  0.05259389046901054299
                  0.08746822078241520138
                 -0.55462333587913714705
                  0.26062105801630458535
                 -0.10873592791097587418
                  0.11511111234554098626
                  0.08174887679640949201
                 -0.50640368641775657110
                 -0.06274139582231248735
                 -0.35496691300164728844
                 -0.11659127206316495518
                  0.16326081680511209115
                  0.13563335052191211050
                  0.33241196502848752159
                  0.10141240001224756384
                  0.52348935756833592237
                  0.33329105990944268845
                  0.24144531248761688658
                 -0.55621313282401130262
                 -0.40291887875444853950
                 -0.08462710494859915222
                 -0.14595259998334378371
                 -0.46096517382804008678
                  0.22484055677529840578
                 -0.23874839139266484933
                 -0.08844307439275551908
                 -1.12455161469727737966
                  0.90984795214794211837
                  0.06939604925899876819
                 -0.75889368024467784846
                  0.48922328680148524649
                 -0.39936877319618802051
                 -0.06793294502561390835
                  0.18614018735823492645
                 -0.46953065102884977700
                  0.06082642707480812039
                 -0.40065650725234241980
                  0.71406748730538838199
                  0.74923624934945964871
                 -0.34732087644872050580
                  0.13180597365255283804
                  0.27952094854119868828
                  0.25042054307749994635
                  0.59766999174504298331
                  0.28520719767524088661
                 -0.28709171668395705446
                  0.05203903855738692408
                 -0.48497141675931620952
                  0.09480540250217965592
                  0.11393806599303851756
                  0.36168346180256416567
                 -0.10703509822197809775
                 -0.36241908439500691852
                  0.08022755074057141833
                  0.29467853170554009212
                 -0.00110434354599825315
                 -0.38783536872895529868
                  0.17416371726933627118
                  0.31574486855398087304
                 -0.31388347548860284775
                 -0.04769588829558111392
                  0.35380522510726364338
                  0.36440705641944953763
                  0.37896092052422453156
                 -0.00728029223525236170
                  0.27143667477941341160
                  0.45540159482987940809
                  0.22826321536945431978
                 -0.04377931350249406051
                 -0.16991525383553135464
                  0.47497602214658052322
                 -0.22659567279765319148
                  0.08117504492612931388
                  0.20353061954293621971
                 -0.31152323616071841972
                  0.52045233218781528084
                 -0.82483367057872192252
                  0.92904287525439610551
                 -0.03850330960205161634
                 -0.87422162175874529311
                  0.22321451720637194849
                  0.14139683782581399796
                 -0.33406968390114133438
                  0.21065676682346512472
                  0.21550117938815108176
                 -0.22023132880570972514
                  0.36935719186735216368
                 -0.07958859704100819388
                  0.30269728660053679681
                  0.98755593985031242532
                 -0.15249966327633368568
                 -0.64581583612510140568
                  0.39935776738407935404
                 -0.38883875323034106097
                 -0.64636259081352687161
                 -0.13642380664455466821
                 -0.81145739646591752425
                  0.31839171362962415124
                  0.00092139043009166238
                  0.62077345344072354383
                  0.17997199378495454258
                  0.30145845014712169263
                  0.44356496472299578038
                  0.09604295816906319172
                  0.04921142151009453430
                  0.09704754671019907852
                 -0.05486804325386548942
                  0.24062702404173294535
                 -0.07479823472759937475
                  0.12114333201070319468
                 -0.16009224844534544752
                  0.58193734411117203909
                 -0.02531235979620374832
                 -0.08068513505293092858
                  0.16421559274988528632
                  0.11475308346477197663
                 -0.68867109465781073396
                  0.18228180776344221625
                  0.04954858252721650036
                  0.04000305766251133904
                 -0.40059831107600041289
                 -0.33185989720845932016
                 -0.21031929495152393295
                 -0.28506725443127928221
                  0.04694520039312163884
                 -0.10180307731934713777
                  0.21160940239795622553
                  0.31717233434432651196
                 -0.04195970909693468032
                 -0.33594866303336967661
                  0.31590617508984969453
                  0.10604150267832504473
                 -0.39863763214936259738
                  0.55311644637555990034
                 -0.20635257870748796583
                 -0.43465540559397980447
                  0.02222596825099268023
                  0.32657016101504621197
                  0.60897283720387340722
                 -0.36685702642632561643
                  0.07406550486795789034
                 -0.10112796376074598137
                  0.31120050214931704868
                  0.40636862760240433090
                  0.01960155943281226276
                 -0.54528646246913847762
                 -0.36295979086192353691
                 -0.04660570504795397834
                  0.30039573911173472753
                 -0.10802153836465218373
                 -0.14510297374721811692
                 -0.35238411924816698262
                  0.18765318471375461162
                  0.86095544536598866969
                  0.63761720769645802154
                  0.58746189154814476563
                  0.10644376547338323113
                 -0.08254018158477965939
                  0.37208117707755333781
                 -0.04563038002559637735
                 -0.17021456521479721991
                  0.18435612438483262032
                  0.56106420125045630698
                 -0.07017921954274011775
                 -0.34135192535655345392
                  0.85432064314271149996
                  0.45718424826837278374
                 -0.72596883318727956080
                  0.08317698659110163428
                  0.55317464975228891610
                  0.43854513554461665992
                  0.18020636302171272325
                 -0.18806957797960160983
                 -0.01422168194551799020
                 -0.31842515125018611144
                  0.01096183474622960258
                 -0.20977465298705347263
                  0.31795159695884145368
                 -0.30023286507078367213
                 -0.89577695707230731159
                 -0.18030384725017981062
                  0.25565439090848252057
                  0.04276649275197781652
                 -0.86604170585689610462
                 -0.03233342224847400581
                  0.18070908731225393540
                  0.70433078707020091436
                  0.13080147737161645916
                 -0.51818684058868302866
                  0.39433157045936684248
                  0.00825335286556179784
                  0.13081847913953503770
                 -0.24564462605529308048
                 -0.49263337092704123643
                 -0.38387804696465099852
                 -0.22740747092269594787
                  0.63494017999128404828
                  0.25741172316113725138
                  0.03508604364401247955
                  0.59359358423375185865
                  0.12512953799616002848
                 -0.04885925211238531518
                 -0.14516589257966633353
                 -0.09959882781220141812
                 -0.56620615809544261321
                 -0.18826484253001773972
                  0.39173082405337744660
                 -0.43100973794650632165
                 -0.01793460943715176337
                 -0.20932596461194269422
