22	2	1
50	80	
1	5311
  0.6782639915848941	  0.5388310720345778	  0.3054394033927775	  0.2267431937279013	  0.4432262832652297	  0.1904310541834381	  0.3092053711463218	  0.2085635649372190	  0.0456435929439523	  0.2027550018114934	  0.0989491586384452	  0.1461594833268930	  0.0217771966126232	  0.0712255232013317	  0.2774063400566853	  0.1048285010805456	  0.2005955728014655	  0.0778108497130904	  0.1491955065428903	  0.1413028748870054	  0.1420394197324699	  0.0842349756535787	  2.9990207550000001
  0.6782640604154168	  0.5425360814780132	  0.3054394033927783	  0.2267431937279013	  0.4432262910154998	  0.1904310541834381	  0.3092053711463250	  0.2085710938746679	  0.0456435929439523	  0.2027550018114934	  0.0989491586384453	  0.1461594833268930	  0.0217771966126232	  0.0712255232013317	  0.2774063400566853	  0.1048285010805456	  0.2005955728014656	  0.0778108497130904	  0.1491955087051146	  0.1413028748870054	  0.1420394197324699	  0.0842349932032665	  2.9990207550000001
                  0.03651298581564403622
                  0.01152729042361900179
                  1.73585706512248938438
                 -0.79453873316176337749
                  0.48936876743920093569
                  0.02369841103214097647
                 -1.70589308814861606578
                 -0.86599891398520978392
                  0.59999797804860854900
                 -0.53073562746315683381
                  2.05976347749700039458
                  0.03195717567444238821
                  0.25234917888641456019
                 -0.66486992023455404599
                 -0.91143505358192222765
                  1.41408796055689101046
                 -2.02112960598521507194
                 -0.23007812746375400081
                  0.74217284111609327368
                  0.95928887015506425495
                 -0.02515751579822947739
                  0.29944792531818409387
                  0.45658669645918048552
                 -0.10716511866452410606
                  0.31744429728466211360
                 -0.81674409838769579384
                  0.11241096218422537423
                 -0.71202192270641084804
                  0.33170844283317996171
                  0.07218845187165004451
                  1.58917176668179571664
                  0.13058377605380427910
                 -0.65473460692597662547
                  0.35554426125572174966
                  0.41514290896905831074
                 -1.59229008697445117981
                 -1.25357782490016966825
                 -2.01064590264750275850
                  1.21306944781100511932
                  0.41707640023466446833
                  0.63020328663600189145
                 -2.34536293925588701370
                  0.33791023276374582140
                  1.92241584524520958688
                 -0.55017336197320498847
                 -0.75624177658613933595
                 -0.55402361873760375133
                  0.28821857692268093576
                 -0.54388045892589698127
                 -0.02409754794457363500
                  0.16362654783779095879
                  0.30846477353217965911
                 -1.08544160930947963806
                  1.71079390645204143517
                 -0.52771057586536429529
                  0.53585015230824561971
                 -2.91484489042618699628
                 -1.19337385720323774230
                  0.57707740993477429914
                 -0.18098371569053503527
                  0.50592968434443974513
                  0.64488343056260732933
                  0.79317624379058837558
                  1.33642114318461957545
                  0.81053373921806404212
                  0.99696665622156310782
                  1.04041277646344743069
                 -0.22273132226334349526
                  1.07502859869834455075
                 -1.43728735701463516961
                 -0.02224617922318108260
                  0.41105377300256124018
                  0.63148438720341626418
                  0.89734475196176932688
                  0.52700223103652521495
                 -0.45468551077670832372
                  0.28551649699797088111
                 -1.30866696932394566133
                 -0.70393253265645361338
                  0.83222789024881527187
                 -1.12919243232560795320
                  0.06618944265953524697
                 -0.72255518757721348688
                  0.16645299984765349333
                 -0.28189076467057067044
                 -0.51804264550487255647
                  0.13838193846423316180
                  0.21862770507717396717
                 -0.71535756818143914071
                 -0.51108940598850194359
                 -0.11339521588893589077
                 -0.13488573419677740706
                 -0.68921412620404054472
                 -0.52112272201314113751
                 -0.89139926530633728508
                  1.10271086588809397178
                  1.19649498169607571008
                 -0.20229509847486340512
                  1.56969795820088187099
                  0.00036335533360130207
                 -1.51766002937540078754
                 -0.28862385498644604898
                 -0.35776078366711477896
                  0.60011527473113479569
                 -0.51734444806376156389
                 -1.11224368943474782867
                  0.61289599590947185792
                  2.42297365349439841609
                  0.12437062253577643722
                 -1.07000571628176133210
                  0.12912403088112286986
                 -0.37369278336016015230
                  0.13447585650697013726
                 -0.45908194756673320613
                  0.62793073676633393010
                 -0.67030965985990653699
                 -0.17690360318813969087
                 -0.34986060396270879380
                 -0.11836692397224705953
                  0.72162059433001091158
                 -0.19943281382894459397
                  0.79183670171742082111
                 -0.58553500548004711046
                  0.52041862725611542917
                 -0.26928369052214529145
                 -0.72988152518768500965
                  1.40049080237385670245
                  0.09806889568532366208
                  0.80331578257030211709
                  0.37849150699330758041
                  0.06023115273718702978
                 -0.68387764658249372562
                 -1.02728882685184763623
                  0.26334395554967243713
                 -0.84859870611478338542
                  0.57458040462980886076
                 -0.59172022935185930592
                 -0.11849330258867883658
                 -0.05494373316027899995
                 -0.04902074313169338393
                  0.02035055385062105315
                  0.90986579260948852177
                 -0.23359436088974255830
                  1.07331361181921858261
                 -1.02527335894004778538
                 -1.04693398631357093009
                  0.95032623504431779082
                 -0.77231133815113595098
                  0.37449386410499846400
                  0.25166837737888125837
                  0.15397012479810559538
                  0.22417440217609679864
                 -1.00432549330939346888
                  0.47881252693687015309
                  0.09512800272432767046
                  0.19550704455245918045
                  0.66850596147957042081
                  0.02293275879044811422
                  0.09136341462070983466
                 -1.21165990538277479338
                  0.26692287137099729444
                 -0.17965244126784241097
                 -0.97446965441558297538
                  0.11313055784594144848
                 -0.90438947586676710078
                 -0.86950743809260777617
                 -0.33831867097184259441
                  0.46615661419106529939
                 -0.40684318877463709896
                  0.31629394060556270674
                  0.54344018936154170341
                  0.35846848754029930761
                  0.24772085083432424102
                  0.10716276525022497279
                  0.03051212861294779269
                  0.26517693170855638485
                 -0.48301062950766576742
                 -0.16269312120197168547
                 -0.31023614323187514996
                  0.77721505826827153030
                 -0.71858537361950647337
                 -0.58154503635232412950
                 -0.53249375756312300467
                  0.72833881806080424948
                  0.21925152235711212190
                  0.01776270497361364872
                  0.69665719031040262976
                  1.19805945321677964621
                 -1.14459019381093796142
                 -0.54977513441585146303
                 -0.36500390368105006811
                  0.12199231321603981604
                  0.33649467263026255903
                  0.82106314258912493909
                 -0.13776117356416237025
                 -0.38404562192858865410
                  0.11674111472049203408
                  1.50674413975684196032
                  0.38443003233025846432
                 -0.44936798881672124217
                 -1.22024598021582098006
                 -0.10805819452549840498
                 -0.18487958868810189239
                  0.90723269922225258100
                  0.57554381282022049060
                 -1.14286083056290577176
                 -0.61703830134497217319
                 -0.45228911787303127667
                 -1.38318815741149414578
                 -1.19340621785811329403
                  0.63066550369924179176
                  1.06207049546285836605
                  1.69171989682895507201
                 -0.54462140546097914662
                  1.31605803986787761595
                  1.39230091086324758720
                 -0.27276399999644351801
                  0.62813062219863358138
                 -0.65282402345046097736
                 -0.11013806541752492463
                 -0.55863444734400335978
                  0.19939947542335134667
                 -0.16482335900775904602
                  0.33563269102865106452
                 -1.16239615718175381964
                 -0.80930299129483229681
                  0.60130570895271695520
                  1.41370692626629423927
                 -0.14402729761341392933
                  1.02963843648765385197
                 -2.04701328855795239292
                  1.17303722033847313000
                 -1.35604004310385817256
                 -0.27532764967541067946
                  0.16791335163879650416
                 -1.01840748484808019114
                  1.27968463217742489668
                 -0.13673444864403788701
                  0.28730905306672693822
                  0.79597662702472826712
                  0.54680157162294062978
                  0.63466132928516605372
                  0.89191831900003970546
                 -0.17175330556143617033
                  0.58828153329905641389
                  0.04890167014295126319
                  0.02023127549488018886
                 -0.54781467234823488788
                 -0.30031783168262787820
                  2.29215584226572310911
                 -0.17893679916826149556
                  1.29320059143380938771
                 -0.59038626990367093494
                 -0.21211882576512886001
                 -1.45523150490997310591
                  1.24994061492745300868
                 -0.43831790664229636212
                 -0.83738435456698712134
                 -0.33790622626115007776
                 -1.74046294348466212831
                  0.50538598283191171756
                  1.64634132185080650501
                  0.42241811978094101487
                 -0.54627305575832241225
                  0.42882511457630329010
                  0.43191582212521106854
                  1.60397867874405664068
                  1.01789138700566317297
                 -0.07165759750482735002
                  0.34730408654300942706
                 -1.14477616660485082001
                 -0.40334915237962348789
                  0.71701988967011220932
                  1.44668277515263876687
                 -0.52109862117362315548
                  0.48460500752752883047
                 -0.06555641780142634767
                 -0.41632621720179124880
                 -0.01654080842273201318
                 -1.10770342889425443822
                 -0.32514904118822585133
                 -1.05056527693172152560
                  0.71172422307157690025
                 -0.06414437089489657962
                 -0.54439344731503924724
                 -0.32193488935177050347
                 -0.27205089693657341643
                  0.82533279306928719610
                  0.31965519119288182681
                  2.51845844037633925794
                 -0.24947898056110187626
                  0.24746423524997962495
                 -0.28831540297143581908
                  0.30960135750657291620
                 -0.80540136979860155186
                  0.69289235446284869191
                 -0.89072370616752039041
                  1.06088256300617755912
                 -0.08759295579896647643
                 -0.99319561924635080263
                  0.39234873748922133307
                  0.11741365830615121957
                  0.20665778754983954446
                  0.52498964355460209230
                 -0.83085771973387356759
                  0.48033878228564957924
                 -0.18453139810414784239
                 -1.39122266139696360021
                 -1.04935091479931696945
                 -0.37611252161669861405
                 -0.03020590089977974804
                 -1.20823981295665072722
                  0.83899546241709010985
                 -0.25714296252933893649
                 -0.11096478348928386082
                  1.49183594359761251269
                 -0.74816059955737401754
                  0.52727635338985190394
                  0.13165791188027142766
                 -0.72473376904976960500
                 -0.28795555403323264132
                  2.79747142567503681576
                 -0.16324223538065055217
                 -0.73741353965122002911
                  0.82484320311502312695
                  0.44427215738720299276
                 -1.02662055141901098487
                 -1.09875863934402873134
                  0.31902361847115995319
                 -0.31314278838950043715
                 -0.67200357698355528413
                  1.11638101787988808233
                  1.78996183284303000960
                  0.01397269372202434440
                  0.36921454923258301140
                  1.60887272211761778173
                 -0.61549644853896101626
                 -1.97944155160955448380
                  0.19282046411245973294
                  1.07816511757026822771
                 -1.30500235229347905097
                  0.53838707073375335899
                  4.81391216790952114479
                 -1.25665916845291514292
                 -0.68941419135446291300
                 -1.62361168639906794375
                  1.26387503501600440003
                  1.26002153713767106602
                 -0.60685775756729620767
                 -6.31572332273642977896
                  0.32419083931651049291
                  1.47560426168082448051
                  0.48352903220253673489
                 -0.65191944706793802933
                 -1.89012542928102722506
                 -0.63100178569452880506
                 -0.16929613218970121502
                  0.66500049878164413375
                  1.14025221238746987673
                 -1.58049406833792094318
                 -0.65094198900888911030
                 -2.99358281056514297092
                  2.84042123956443948174
                 -2.18399693595242805344
                  0.51008783598350393440
                  2.22236422013289791622
                  0.12351717254647877342
                  1.58848512251777362891
                  0.67862157419829804983
                  0.86398895573329292930
                  0.26878882478117988031
                  0.14199537219136840194
                 -0.70308814217302784133
                 -0.57348110346423508688
                 -0.24852481297774328683
                 -0.12836349882561762237
                 -1.70197967054778365181
                  1.54656805210504266768
                 -1.01606264851817695849
                 -0.09907704449430521088
                  1.19685520217130503262
                 -0.40769957541394780121
                  0.69150647869849968252
                  3.80169084281177660500
                 -0.84668394025576632078
                  1.50916101888673548359
                  0.22940944644862912294
                 -2.20287440280145663252
                 -1.60117998423852614387
                 -2.45412643332577529165
                  0.47817844629534467238
                 -0.28949151385820948157
                  0.37072925212491214531
                 -0.58429307849610812031
                  1.11640873003840734867
                  0.11336313317175215898
                 -0.58065241765951558506
                  0.64273322815594724489
                 -1.23323649292100023800
                 -0.18885417311072230651
                  0.15566310250887493982
                  0.55220018329790621081
                 -1.00645640040007555704
                  0.83874841245816311730
                  1.94552802054239948326
                 -0.59013630863241883784
                 -0.71117146976442091599
                  1.44641813912514383134
                 -0.85298084171350729843
                 -0.35655235103747284775
                 -1.04627370805840591572
                 -0.40073297783195949151
                  0.29300800262357262760
                 -0.07688576946399330869
                  0.45068067475383694065
                  0.73983011054614677970
                  1.27771698912053977004
                 -0.41593636866988337175
                 -0.25847812045950308013
                 -0.39907612362076938517
                  0.37308116858900997048
                 -0.48399054119383844164
                  0.43561236695077010239
                 -0.94342804015032011300
                 -0.05680991951390101241
                 -0.41941375541888065159
                 -0.16820463806867722023
                 -2.14588831395183277095
                  1.85131857929450838185
                 -0.92256628800693207815
                  2.96547631091409158444
                  1.45026134031570319571
                  0.38072981717915221900
                  0.66351974409447267433
                  0.10274728367157164033
                  0.62391374755415129894
                 -1.80972524983773852547
                 -4.60784190077893107684
                 -0.22741481480007691429
                  2.51590514236638851386
                  0.05883634703363508495
                  0.06853025723283688586
                 -1.41780497916448089413
                 -0.35542367291612086966
                  0.68087215574577286681
                  0.31889142253451663311
                  1.53720437948931532013
                 -0.20097296218458798878
                  0.23903489451433823643
                  0.93754214824461679090
                 -2.80716584453462836279
                 -0.28570381783481385574
                  1.91723402911322704512
                  0.79679572884788962828
                 -0.85991777443124195468
                 -0.34116553192026166652
                  1.13668565579049007930
                 -0.67370609398930358935
                 -0.34922363751102580842
                 -1.61291820839311461633
                  1.73268780624602980467
                 -0.67497493144654285846
                  1.23806875702774688008
                  0.87267274275194850475
                 -1.99009078113136705923
                 -0.07350533052233873543
                 -0.23631332860599432721
                  0.51597186027641583905
                  0.81132427905327642037
                 -0.25041656934275680069
                  1.43532103081415751689
                 -1.69585301572715896334
                  0.26712291079509820069
                  0.11259593820734599412
                  0.84449226363366503012
                  0.46635417205575874222
                 -0.39272366104938105646
                  1.39892841627696840057
                 -0.36548599858458619138
                 -0.38231216296087922046
                  0.21019825645704406925
                 -1.06852332910170733093
                 -0.82026424672353592804
                  0.14477883112051914694
                 -0.60019505947570095383
                 -0.54671246679554097447
                 -0.34881764600276560229
                  2.81166112689591152218
                 -1.59831997940890935261
                 -1.15163182884444270648
                 -0.20344749260793756895
                  1.06431124337400140334
                  0.00453644134619609566
                 -0.64978915125363989613
                  1.50714260079316475505
                 -1.27379316472762615930
                 -0.32982063836074110297
                 -0.53420520336760934921
                  1.02467650257185716178
                  0.37248710851873745309
                 -0.99032091459048343651
                  1.76024897451313355745
                 -1.29074792223294187998
                  0.70149040548450136701
                  0.14094202336342545601
                  0.52986561376048002536
                 -0.00358327679112359441
                 -0.17900075425658340533
                  0.36701941989395137078
                  0.66745499626743709509
                  0.13895109013843509604
                 -0.50813854677043168717
                  0.03489434498181109151
                 -0.46728197101775564848
                  1.46368236647590532762
                 -0.90847947481282387283
                  0.75259009780589303240
                 -0.81371715532521726733
                  1.51916096800329847305
                  1.49923054674350120230
                 -1.22221669139994815190
                 -1.09863736241928711124
                  1.36218551425009670730
                  0.42887385365359176337
                 -1.37164170968305554332
                 -1.85020619249213824631
                 -0.27747344952796659800
                  1.71437437035664452800
                 -1.67660841054682352436
                  0.01630710933430739445
                  0.01050026988330016176
                 -0.45989677099478692979
                 -1.71713941528364855138
                  0.23818756356983994404
                 -0.16787702532005213674
                  1.49604447558303221832
                 -0.34327607935077503187
                 -0.16906842273228450679
                 -1.58802825899620803085
                 -2.15486085843594388223
                 -1.87646483786164663954
                 -0.98768363761301325443
                  2.99939968036589243994
                  2.18303057612807505095
                  0.16466781096066687717
                  3.37728825336960092329
                  0.02633582187938200703
                  1.12915989244145742454
                 -0.40420088365007239561
                  1.08458914765220759691
                 -1.05030168577104676686
                  0.90944592684441249997
                 -0.18231356424287928353
                 -0.20226795148554824189
                 -0.20355725311335107208
                  0.78936190586646282075
                  0.33122273446218830628
                  0.13251001395072734002
                 -1.36156956484234270555
                  0.29853325822427323466
                 -0.85855909001957908533
                 -0.59155413339042250964
                 -0.16629932787719217679
                  1.52099202513359421651
                  2.25667315667109935617
                 -0.26141452841334428259
                  0.40890126241295965404
                  1.61880620341344849678
                 -0.00043092506931724506
                 -0.35667508467130309979
                 -1.02167959256528462220
                 -0.81315596217037056093
                  0.40090364883855111877
                 -0.01031831369172983223
                 -1.50805350513952718394
                 -0.33192041694239671212
                 -0.34516516121978446652
                  2.00198114514533376251
                  0.99590368056766609417
                 -0.82047190432847461050
                 -0.44474920784206195545
                 -0.39218471169292945522
                 -0.45103005743378304926
                  0.50967357181071937244
                 -0.05385829165991833090
                  0.10095222162464381754
                  0.78575734657967832852
                 -0.02296405776414822686
                  1.27927895195646046389
                 -0.14162130071660619657
                 -0.46521280452971264241
                  0.92193414867154066528
                 -0.13535837731115268889
                 -1.57443646197137443465
                 -0.90154416099635259485
                  1.47423016903381687293
                  0.62356511517076285145
                  0.88203229047094289239
                 -0.24288128988754498216
                  0.68066786371240273201
                 -1.16431086014746876245
                  0.75138334942967355268
                  1.08234995298709235634
                  0.41427557234253736818
                  0.50811378773005411169
                 -0.05132594459328879144
                  0.77631491523446372049
                  0.59266947187170537781
                 -2.41667083413447247864
                 -0.83832472443151484498
                 -0.04855288106741948578
                  0.21185483950938352460
                 -0.14911805780322237580
                 -1.58597275870099085893
                  1.50335615693676150073
                 -0.36277799392310960958
                 -0.42972950139945936820
                 -0.12616149745107349545
                 -0.73844046318194489498
                  0.14599558787755742562
                  0.54890985501025246762
                  0.62541904070902765156
                  0.47514119643226498946
                 -0.32791751991001916178
                  0.62788784164907185392
                 -0.53485629579493743080
                 -0.00183292828540940981
                  0.63242531725386397223
                  1.64457951471303487345
                  1.45863713916521708924
                  0.55289644685687611148
                  0.22046530112862527950
                  0.58789377651006646808
                 -1.04397765311458456949
                 -0.71507688093586263545
                  0.13037423117651308901
                 -0.64294174850270191524
                 -1.21912407584714088671
                 -0.35183408719029973799
                 -0.27499518393840843844
                 -0.06284420082364139404
                 -0.69109847878100971741
                  0.60467560974119627382
                 -0.05881053290305434528
                  0.84689174820167267832
                  0.87621921297947502616
                 -0.15641405346032452583
                  0.18737827328974354657
                  0.01987508664257692931
                 -0.55819412192747519530
                  0.17859914317837335962
                  0.10893118020063781437
                 -1.84578003098679510607
                  0.27860721761159001897
                  0.80247147009649189009
                 -1.18386791644963795811
                  1.85296327609252942104
                  0.06118137751842600558
                  0.46790026237539228404
                 -1.49355124672269989894
                  0.03547883154063096595
                  1.38068085325588674195
                  0.58073221860812340722
                 -1.00206382514671310524
                  0.00291215116565485873
                 -0.59535830044621007584
                 -0.74772935203072843358
                  0.98376926149034993330
                  1.28338009805325836687
                 -0.06343469137981869177
                  0.62487096323044866164
                 -1.52098882847523997341
                 -0.62722600763398406176
                  0.64859680721845869300
                 -0.53282685753877534474
                  0.45791578280449518612
                 -0.27230865764036793486
                 -1.74142271296433270855
                  2.25748651287803037135
                 -0.57039200481662954978
                  0.51774982038400341189
                  2.17242993744849277604
                  0.18315468576305254933
                  0.49576908716941103794
                  0.35116660852076375665
                 -0.41272812534385927563
                  0.82853612378987895326
                  0.54692964927433174172
                 -0.24377244826017815948
                  0.05205385322003713844
                 -2.26223187195140296168
                 -0.18078302195643106143
                 -0.40743533394540831782
                 -0.02389696478720839540
                  1.42523002358194128547
                 -0.65476420076422259253
                  2.02251387791913650460
                  0.70893574647474744133
                  1.30964197040608465450
                 -0.55027025152999020641
                 -1.24961089158371208008
                 -1.29209091611105653108
                 -1.11218614801001280945
                  0.96641311925929429538
                  0.05882137077561270383
                  0.13910920017111502722
                  1.70111088583833836019
                  0.05824330577453298158
                 -0.35286417976882705760
                  1.44938334739909358007
                 -1.24399596248270172261
                 -0.10720276101086256837
                  0.69605866684270378819
                 -1.50851462759455356988
                  0.01611151417543254041
                 -0.62510775878538205053
                 -2.48182047175458597721
                  1.64266568239085208880
                 -0.84576361660627441541
                  1.28675339943196909154
                 -0.42695279735748425942
                  0.65647558214385370867
                 -1.61463740712594772120
                  2.43977899723266888898
                  0.24879234182682266607
                 -1.27386565660993245075
                 -0.71710772388773424968
                 -0.36527712658217970088
                  0.31827030357349900269
                 -1.42390624963171674722
                  1.63103948891719019443
                 -0.43960770092782636143
                  0.29989673674441913453
                  0.33127291014023402260
                  0.63502264597159563397
                 -1.91345444005773912544
                  1.81915927102984431585
                 -1.05387458500498265579
                 -1.03667489529611644983
                  1.70367886920524380656
                 -0.70529146167043410554
                  0.89295820406254144963
                 -1.38990170128257450877
                 -1.90438024539045658301
                 -0.56048984526988243626
                  1.23949882697654611974
                  0.77661043202723389900
                  0.89884615736913187067
                  0.70025986300839526688
                 -0.40750595123526939245
                  0.49226750970704064025
                 -1.00947014441628457604
                 -0.38803946140686518262
                 -0.19797551611241814840
                  0.87478168583469773090
                 -0.47925314994536732938
                 -0.00579265702961501844
                 -0.06897169610875990287
                 -1.28996779061043387316
                 -0.46494175548504024231
                  0.34506641544268856769
                  0.46772179106210931554
                  0.36732378941076238021
                 -1.64086726410942840282
                  1.34043139666025412637
                  1.43000358353443024484
                 -1.12046488321649650999
                 -0.56646580695411097306
                  0.42820265722961953214
                  0.25718532125340376471
                 -0.00523811388282082423
                  0.75746926156994687229
                  0.01836254123472590150
                  0.92019767250753781163
                 -0.85905454832089744865
                 -0.16141035809249715260
                 -0.22801755595472511517
                  1.34752334470294932167
                  0.25180461585647290201
                  1.30774028122396646090
                 -1.63096598643396895056
                  0.52410839193279157300
                 -0.12930870750130207814
                  0.55474580710679111117
                 -0.96856440549990263644
                 -2.11037202523789746422
                  0.26850008576773759517
                  0.16181727373659526847
                 -0.15937802182683494245
                 -0.75910336591217930646
                  0.72508204524638264488
                 -0.47266402477421121109
                  0.09974024444416931812
                  1.04007319135015796618
                  2.02386708727700703747
                 -0.51814462941730943246
                 -0.16803192126505370196
                  0.52455073078733993608
                 -0.93740597314341767010
                 -1.00118830980410145060
                 -0.33313272309553937367
                  1.27273220184499424867
                 -2.36186790237056509767
                 -0.51005168698856828691
                 -1.64030822466329251341
                  1.05769549201935975091
                 -0.00960955055596969879
                  1.64869399977019548409
                 -1.21950751200805096452
                  2.48814032092600490031
                 -1.07240361213688029096
                  2.11981053892609416778
                 -0.14459472786100469044
                 -0.00776753140970975336
                  1.05827762349792098284
                 -0.29799726412303478851
                  2.27103505966340035727
                 -0.70342761267269637848
                  1.66147106183830928217
                  0.23392255374758630371
                 -0.84697920807329429849
                 -1.00385190867538653947
                 -3.91984601057972614768
                 -1.24689112309067873241
                  4.43477182537580194577
                 -0.34159884895296921403
                  0.83180703513998421883
                  1.11945751729424713972
                  1.67619397343588594218
                  0.35253414052734594053
                 -0.73586151737519245319
                  0.61375212438009363325
                 -2.26306481096139799902
                 -1.85119531323078301277
                 -0.56566377082519359032
                  1.06273447821797306645
                  1.09314997968943350415
                  0.21072465225435080272
                 -0.43537716497717993125
                  0.60231047840692608641
                 -0.27917410725934527216
                 -0.20373258117990100668
                  1.46723111858056509682
                 -1.24229122289275428770
                 -0.92972787119039579373
                 -1.01604020931799721161
                  1.14669056468649088742
                 -0.27410757058897339267
                  1.71036787025281533658
                  0.01393271398645084397
                 -0.58642970468589883382
                  0.28712134967142011188
                 -0.42194248170084147631
                  1.58214236989976431147
                 -0.14886280693484363336
                 -1.19351004012101080676
                 -0.47714567441581040574
                 -0.73561434276589776626
                  0.37405921678039144584
                  0.10934169502309720734
                  1.40719078250620155401
                  1.29156934407249157637
                 -1.28555758646201190309
                 -1.21159565106082212083
                  0.08108561257026446201
                  0.29285501821899362351
                  0.02866918183896359495
                  2.21547783807036902104
                  0.58301040009924820495
                  1.01274037771325531310
                 -1.38224071977170415160
                 -1.53494807440756564354
                  0.44184397195313668272
                 -1.09207867367195055053
                 -0.70919269738644763468
                  0.52320144271119517487
                  2.08009782028226108963
                  1.17172715166136520715
                 -0.85971100213071860452
                 -0.68555397905270598624
                 -0.97147620298077386192
                 -0.61774558432613280168
                  0.33574760616633170240
                 -1.10523956673892587155
                  0.20464639937478218412
                  0.92007362407117887493
                 -0.93513944350802657990
                  0.26947942626285026346
                  0.04255506758038119647
                 -2.39859288468533726757
                  1.86519517344102347955
                 -2.10196826797991720426
                 -0.47358290885446607810
                  1.63762070589563402123
                  0.05473694925247039184
                  2.92129033713992480870
                 -0.75767180454598614947
                 -0.33974858576021405021
                 -1.18860424052388080618
                  1.24420357113257606940
                 -0.41632930945205176565
                  0.16224980059918323039
                 -1.26328895949822883615
                 -0.40775968623715724837
                 -0.01957015853006758080
                  0.09567659950010087844
                 -0.09065448080409937992
                  0.11316207023072188953
                 -0.03319679072933929415
                  0.75861892692382482117
                 -2.77632685428696923680
                  0.25443153616148134200
                 -0.89834103414722388248
                 -0.61867718682414041265
                  0.55422832315585590646
                  1.10666804089772585762
                  2.18675329856972666676
                 -0.31094215255056545377
                  0.85080211309339492942
                 -0.43071482020465046148
                 -0.73676072481003607173
                  0.25443746408798567638
                 -1.02338304682956326985
                 -0.49865202245553086335
                 -0.05489276476342087874
                 -0.16519358569687631055
                  0.93400786070866137489
                 -0.40597426088037141811
                 -0.38948725272880002635
                 -0.22358828882880038558
                 -1.48076676418872321683
                 -1.81729333269149195829
                  0.66613527981087006236
                 -0.19158540463666795528
                  1.08111949896396586368
                 -0.56842536279013367029
                 -0.56681065903468286216
                  1.06778979853294586633
                 -1.02551915475074562067
                  0.39336390388520453554
                 -1.64409321877334613227
                 -0.70107872704975537914
                  1.58548377493381886794
                  1.20331133806205614611
                  0.62004091295682084439
                 -0.00695571320848123627
                 -0.09479103982490993952
                 -0.43151952208978650027
                  0.49130657675994293676
                  0.85818176912799848388
                 -0.85495691394034378785
                  0.18143555872528363548
                 -1.13933559829872943503
                 -0.09989056465580287147
                  0.83510041681974622740
                 -0.79839696459879971879
                  0.29746393490320682806
                  0.00873954585801812317
                  1.20106920433155361927
                  1.16696543043607525725
                 -0.07029624887779527265
                  0.21169320486199821874
                 -1.79248995056777138402
                 -1.87031420079636512277
                  0.17451095905507102435
                  0.50827204421952953961
                 -0.46690658806896767619
                 -0.17889053353705425264
                  0.47896744588164230638
                 -0.40561158609612413262
                 -0.88090090772512263939
                 -0.63816728158833080364
                  0.40297971680830357855
                 -0.27560217402116032881
                  0.51103956046979370775
                  0.10430711245112531116
                  1.17243196691961060196
                 -1.30011475237649176684
                  0.45112421163715665795
                 -0.07119387925552622676
                 -4.01462483553234417144
                 -0.42601961182205622114
                 -0.17294340576431077583
                  0.99285965849171531339
                  0.36139607146916857827
                  0.07680309873435760271
                 -0.20298762514924470479
                  2.96020173558195232033
                 -0.50069064571769328342
                  0.52764216558821919190
                 -1.07386977163973229565
                  0.20523577936942238864
                 -1.95074159920507561594
                 -0.97619890582362522924
                 -0.42735538907078440829
                 -0.00601861071696934737
                  0.45542167100678099256
                  0.60672653441788748641
                 -1.41449531760706603833
                 -2.22809460020680516479
                 -2.59068617121079114440
                 -0.00233464780653795927
                 -1.33228337437930366427
                  1.92432871544016736998
                  1.26936209953204337531
                  0.53776166211618969815
                  1.91042657428082085502
                 -0.25935134138787818703
                  0.08063648660217480335
                  1.24453635362074166437
                  0.33153873113765014446
                  0.17711434464747591311
                 -0.29347422700800290807
                 -0.71123282098013163033
                  0.27928563460248501116
                  1.09167130379776256000
                 -0.71305518880215668087
                 -0.21061306910478413967
                  0.03712811229042187883
                  0.50940439655990588097
                 -1.27166986801502712723
                  1.16988466862177742378
                 -1.89528795925566861946
                 -0.74504862567603646895
                  0.09049823345738927660
                  1.45526116739634669983
                  0.08687084148231537239
                  0.02407812870440953143
                  0.79901943559865729050
                 -1.20399710083825151052
                  0.22564855263916175354
                  0.19558662727675324433
                 -0.30511660208235863445
                 -1.94008911886432033889
                 -0.01403051698300187937
                  0.38010925114945071090
                 -0.69335402659366895950
                  0.44593854468685417691
                  0.04085866661000899652
                  0.19379447597161048034
                 -0.63678810055913592780
                 -0.34027465523935601643
                  0.49497069837492696509
                 -0.53104111606058368444
                 -0.35873519064111442090
                  0.49784684341874713143
                  0.18619546261670819054
                  0.21229474404688386535
                 -0.38601722608051008967
                  0.26029760853640071527
                  0.63770747558652607356
                  0.47750548035248147061
                  0.13119866364362309241
                  0.03566914270613712884
                  0.11518739780554082541
                 -0.41417891465930717354
                  1.89507566999643195516
                  0.00331582262260888237
                 -1.71365755250726814474
                 -0.00937087928867822231
                 -0.18405105092204709916
                  1.80241462772667526693
                  1.16355668107168663816
                 -2.28615027201756015884
                  1.21976023310948522571
                 -1.13013330916089582701
                  2.19348015948794428098
                 -1.25760828915908384751
                  0.90100317326502910031
                 -2.22406526566853202098
                 -0.26562846997744521405
                  1.30304212020224330359
                 -1.23123707958916539518
                  3.54037686368562232175
                  0.27373990999578812211
                 -1.16379162658758050775
                 -0.88759364893739323144
                 -0.24997836614513302411
                  1.03363753736727348453
                 -0.22351373570900373577
                  1.07836511275445423585
                 -0.92100411586596864222
                  0.40146729219496418706
                  0.80345049502017651388
                 -0.87014566928800318735
                  0.05879472092828534613
                 -0.51467390428766468524
                  0.30843704610186223336
                  0.60104927705444211039
                  0.90650891100961372704
                 -0.69403581749489640096
                 -0.00852719994845136872
                 -0.70229131424146096219
                  0.45766893686107151806
                 -0.58331280586643630137
                  0.10653882144172623081
                  0.07118289745212129371
                  0.69060472464531674763
                 -0.08501569317672948156
                 -0.01745876814667579255
                  0.03969742269219860703
                  0.88481884804597565886
                 -0.77652622231694545807
                  0.40552424774038431377
                 -0.27037684193664124344
                  1.27564748390430349190
                 -0.53991264830221386006
                  0.46612517988902002486
                 -0.12066330948414931423
                  0.14981093890123189927
                 -0.80267931342204956735
                 -0.66927737640585127643
                 -0.72602003919085100758
                  0.34760989466643499313
                  0.64551841543328225548
                  0.57049854950945433352
                  0.24561100987635825499
                 -0.70911484047849304702
                 -0.68169843297870191812
                 -0.10929876705318103403
                  0.44229573960236079344
                 -0.02148565770107613293
                  1.29663957574592414446
                  0.23654241116194871242
                 -0.72477037767107621580
                 -0.48382365692912121524
                 -0.03344839624748051354
                 -0.47421437392596738070
                 -0.28515906856704020811
                  0.68075886092336401756
                 -0.80336012057110917084
                 -0.37057343406322074131
                  0.07994793776655435835
                  0.15676183203309745906
                 -0.03312816895143078783
                  0.30779099229824097295
                  0.86095747648366716120
                 -0.53027266795591243564
                 -0.45244006513183671059
                  1.07554848772996236583
                 -0.02105259264930292584
                 -0.42410664097478917300
                  0.47337374655308589455
                  0.54243658872993905096
                 -0.40731106610840778215
                 -0.16727625239075583075
                 -0.30831223895837378546
                 -0.15464746252613276178
                  0.15724542848331526934
                 -0.00614483737440330892
                  1.10579122798802442773
                 -0.43843969353360795482
                  0.38381985973465349016
                  0.10254793493918544500
                  0.49738488640816291841
                  0.17867332321533624384
                 -0.68095515754935487251
                  0.59955253570293054466
                 -0.52692130930518876752
                  1.17130080505348010966
                  0.89982207164148864109
                 -0.37381666470943097913
                 -0.09105305942012273390
                 -0.18577092558616481455
                 -0.46891706673685984441
                 -0.49593880498152947967
                 -0.76185526428948502353
                  0.30371092154912315841
                 -0.31884196470192133210
                  0.25127309267647546243
                  0.06341018387166234838
                  0.63527660938051189188
                 -0.37430784399146510566
                 -0.20477402331094751720
                 -0.35917125955156598005
                 -0.22434289357405043375
                  0.39553197537263284911
                  0.27756320104133302973
                  0.35074739134937887863
                  0.34794424397434275953
                  0.02079995142329430988
                  0.23270975337071000966
                 -0.67367736727493510163
                  0.00448469738296234169
                  0.79987296243411776242
                  0.07769900697085499464
                 -0.17021017765318982584
                  0.49238531752116765361
                 -0.61379021849882742234
                  0.79303892005014864353
                  0.01344762564345204983
                 -0.56355784631689742614
                  0.35614804566839414202
                  0.60349260521293013326
                 -0.04594401502528631942
                  0.04490267649497704794
                 -0.19253219479232880351
                 -0.65888819983007951286
                  0.13048572100630065340
                 -0.94784987007440146822
                 -0.34805886957979076390
                  0.33693102056447143955
                  0.74299941863487095617
                  0.97517508385929041470
                  0.30588311637690046574
                  0.24010496518729101956
                 -0.91715559385590073038
                  0.11773830708666060962
                  0.02795328917074826544
                 -0.41557251074839030025
                  1.08038072714648691885
                 -0.14704037033471453744
                  0.47140951075011539029
                  0.39224432446037971189
                 -0.77648526006579210446
                 -0.53191063999955234820
                  0.84367494053908687057
                  1.48242516568289284251
                  0.81501965031387779703
                 -0.28329321741999308193
                  3.32764341895431536855
                  0.46553628860697743308
                  0.12094683475365676506
                 -0.90434289797307576553
                  1.48674893685426412482
                  0.16065845305716650038
                 -0.26079292257300495939
                  0.60917058570446158683
                  0.06358818597281076790
                 -0.07768273165865755003
                  0.72252864507071956623
                 -0.42353961706864323711
                 -0.96695610307109980397
                 -1.28625627175233336885
                  0.67396165267698127099
                  1.58278204480208950500
                  0.27829517673649162290
                  0.14499389282845584481
                 -2.14432199647354382321
                  0.68643472109277503534
                 -0.76217725015054693660
                  0.16902508015787126583
                 -0.21941998416130792382
                  0.15528963132318376883
                 -0.61369254676915963032
                 -0.80505799631730334820
                  0.27685999041698666767
                  0.09591056855740034970
                  0.48929113295111958948
                  0.55018007515004441199
                 -0.38625054512530354600
                 -0.05318924199495320138
                 -0.48858124876379460666
                 -0.25802833321006202194
                 -0.02515928177401522553
                 -0.27007442379626001028
                  0.70104461949873408955
                 -0.42350144358525959598
                  0.28195762804366347742
                 -0.25636705798688114166
                 -0.21146591242335738281
                 -0.07160052018019201492
                 -0.05604529991594194710
                  0.41826112963064804307
                  0.16426439032262338258
                 -0.09324248061157741629
                  0.50076113614902151294
                  0.02718850077175345367
                  0.12456287557592080062
                  0.26123696773327614862
                 -0.05496317869299543329
                  0.15881471799632465580
                  0.33353897488151945661
                 -0.04173429069787486234
                  0.31061685541036865299
                 -0.21640634059080005036
                  0.50901667158721586315
                 -0.46564818676601921199
                  0.27339594940725175931
                 -0.32038673303880543797
                 -0.16799452538085266062
                  0.43010240753212491960
                  0.48943598687458095275
                  0.68609118677161151645
                 -0.39823401808592284734
                 -0.43997707491265375390
                  0.23104542835072239271
                  0.47671314416358301358
                  0.02239817679951635471
                  0.18836002026726486602
                 -0.36580768862686025011
                  0.28949547556870725007
                 -0.12874577710811055398
                  0.00610827302088210074
                  0.21981838666118269643
                  1.43850988983382088726
                  0.26271592562110174240
                 -0.26168079518717879406
                 -0.22964401508624712744
                  0.28161877647064181840
                 -0.21849421420890544066
                  0.18885861559149966227
                 -0.21607707741028808757
                 -0.74224335307576250198
                  1.36555411256370740070
                  0.12192062036124423630
                 -0.57865475428793777812
                  0.32417008919975903725
                 -0.27708813300734663754
                  0.39973598594792575378
                 -0.16872754520403687728
                 -0.86290541484534821759
                 -1.10381003962948920361
                  0.53571711597929960735
                  0.33138533338857062427
                 -0.14593251071978344258
                 -0.06300761463104492810
                  0.40092466932774933897
                  0.55889650364436949115
                  0.62145474345945694861
                 -0.36401573923908647767
                 -0.45981118501533618792
                  0.76352481017116768935
                  0.16199103879392870442
                  0.19072914378174277150
                 -0.41188771919324318471
                 -0.31452508060957967695
                 -0.00100949698436584266
                  0.16967134155447571864
                 -0.47978383955975406616
                 -0.16018656402774378300
                  0.78949103973958578706
                  0.23174365536718438685
                  0.45575076968567151958
                 -0.15728818960622045764
                 -0.26374574572840336906
                 -0.38542450131685485060
                 -0.19542243043652884893
                  0.10366117660906237763
                 -0.93460255029974093066
                 -0.70535606877377332591
                  0.48714959009034769499
                 -0.48218197102066917559
                 -0.95372642148265596163
                 -0.11045040326164065614
                  0.61163160920555048605
                  0.18143056787701278276
                 -0.84197976137058927470
                  0.48377896675770243329
                  0.62260871366386338899
                  0.11712522890461922465
                 -0.15738618356551983823
                  0.65541648599360935457
                  0.43209140017879155149
                 -0.18059010488200305522
                 -0.50583164377494238551
                 -0.28632544435654033732
                 -0.06470125799942380573
                  0.39790386388495985193
                  0.25018785138987498229
                  0.63969079707383136313
                 -0.19752181096567633656
                  0.17449436929983491718
                 -0.44511078369488010775
                 -0.13132304353817866871
                  2.09810060027378630920
                 -0.37196909110626230621
                 -0.48377765708487896479
                 -0.09513102886291091576
                  0.30547870059021636768
                  0.27340159688655896186
                  0.88096718473975943464
                 -0.04361074186276410469
                  0.14557255746698605225
                 -0.67038571748305719744
                 -0.43933124158256275926
                 -0.26969029847226566599
                  0.50845793748425793801
                  0.69167264404852901727
                  0.67005377930648146734
                  0.48066132165137692711
                  0.03174139942800170699
                 -0.89387560507690222433
                  0.07642521057815218621
                  0.78640060888806284645
                  0.39797203358034682896
                 -0.26465236687496734858
                 -0.72418172012130177517
                  0.77791197933901712336
                  0.38535495488831855715
                  0.59816738519849488309
                 -0.78373823028356659481
                 -0.23705146480301866885
                  0.46941452645644166086
                  0.22131014382564842546
                 -0.32134356695816596039
                  0.44798191249910490619
                 -1.01284100002718524536
                 -0.38640358565561916393
                 -0.01226679151116194522
                  0.23525085013700225423
                  0.03244422034869141186
                 -0.09892446022387112181
                 -0.43057587291402293905
                 -0.23095141798016233237
                 -0.05498797475678744717
                 -0.36227003334477464458
                 -0.48406176265947753468
                 -0.30167516362001361996
                 -0.32912769344675368854
                 -0.78403696163671754427
                 -0.49285414024155183021
                  0.06665364231551008933
                  0.41237878713553427490
                  0.21158113225753114039
                 -0.38065620527938048845
                  0.40851663729422327265
                 -0.39402268182383271000
                 -0.25876429379510468287
                  0.46244512667455772714
                 -0.08724113478517996068
                  0.08485571219636620088
                  0.23749685447555904383
                  0.58730091281226948219
                 -0.48709075683643432431
                 -0.97567978983473935273
                  0.01934745161075233921
                  0.51946278984735538842
                 -0.08863081960101205914
                 -0.36303230592824381473
                 -0.43742514905558516070
                 -0.49298787888126499590
                 -0.23913660109630208161
                  0.69251336006572383752
                 -0.68914465221870624401
                 -0.25732944428065396281
                 -0.13042939119125321334
                  1.16540116079881217459
                  0.20232576374697194832
                 -0.27698774143140880710
                  0.60087163061753923188
                  0.09442570723059179327
                  0.39346816440986664976
                  0.34396804596887914363
                  0.54896754046382478798
                  0.66462612194409642630
                 -0.63471274356060003452
                  0.84524819265334294460
                  0.22962228467971904089
                  0.27070824659251507827
                 -0.35688318012393027701
                 -0.21443190518805632649
                 -0.63845591725959738305
                  0.30403258028996271722
                 -0.15120439605937924243
                  1.22433271011646338522
                  0.56788017496495435399
                  0.33551867001655061307
                 -0.26530179095631434283
                  0.18107435476530975293
                 -0.17261840401034506121
                 -0.59869384450935902997
                 -0.34176800682955776889
                 -0.62246481810069154150
                 -0.39706316502117228184
                 -0.37936696690377436081
                  0.08944799510674422693
                 -0.34198834534428151910
                 -0.58838516512275529369
                 -1.09147334316844624169
                 -0.09158890967298989605
                  0.76579581792045392508
                  0.55550005366166899101
                 -0.47049937214089115889
                 -0.03741083725720280306
                 -0.51341438288881846574
                 -0.01305772467637088784
                 -0.05483536384074062797
                 -0.22557472930969349467
                  0.18990072336090951799
                  0.38289732957569722060
                 -0.29396566606768398389
                  0.16387502761008151952
                  0.76402210058828345929
                 -0.42138425270409846091
                 -0.11590119361621721572
                 -0.58045556917623997162
                 -0.27026224798268067007
                 -0.11296411878166975895
                  0.16524719033821907987
                  0.45852879135075319539
                 -0.14996067079762698260
                 -0.99597813342972707495
                 -0.30301181812234329049
                 -0.10682302279289232483
                  0.10738962293392197156
                  0.16448484072185806659
                 -0.21841818303590951333
                 -0.36781570028152416052
                 -0.20271463670164127646
                  0.58783032503148968662
                  0.07209583038639447161
                  0.02689555219857047916
                 -0.34890996206679980585
                 -0.74073017070130431350
                  0.90057171728736096217
                  0.14926032921947024468
                 -0.23024091073439789668
                 -0.89431604445580226148
                 -0.27934951939563940071
                 -0.32530830156648665730
                  0.11631502971871231222
                 -0.52389205949032147114
                  0.26440925799919934303
                  0.28263275146337846211
                  0.50517629490078608256
                  0.19091429870276951930
                 -0.00045477251200437205
                 -1.09650787343413758101
                  0.75154114191756127283
                 -0.23142334290912927597
                  0.04907522250079147247
                 -0.63547368872642007176
                  0.05648906923185662010
                 -0.24278258250015416486
                 -0.34408434203324694822
                  0.31156967082112968503
                  0.34310420818989417757
                  0.17360566228674889633
                 -0.38651567659394830967
                 -0.13150573843808546770
                  0.55842778339953780264
                 -0.08823388279028555881
                 -0.36393592078864273054
                 -0.46606099087749619514
                 -0.09054282606772759423
                  0.07722761317242070322
                  0.41659622195807899381
                 -0.13648255749801393999
                  0.12223863825025929608
                  0.02373537107197358151
                  0.01434134672933673645
                 -0.02169217677558916285
                 -0.13375233224400376320
                 -0.64355612838519105079
                 -0.08634230934292795590
                  0.45439562870386301929
                 -0.15551761605911543218
                  0.25819274623640325883
                 -0.21051473850184168612
                  0.65609943567103545803
                 -0.59633787348533340289
                  0.81457408848183920913
                  0.34252612521932196410
                  0.37112777373924493718
                  0.47515662898844474027
                 -0.25120409179214342466
                 -0.23462814092261244370
                  0.37932146385345777428
                  0.80883034136350129284
                  0.24539049232762177866
                 -0.05000540434349162733
                 -0.35637756990940716584
                  0.40086855413209193655
                  0.58232085950131284857
                 -0.30562766237197291908
                  0.23362963713262030474
                 -0.11609724863357283320
                 -0.08997095204065161389
                  0.07523777862491247415
                  0.13561183422329275983
                  0.13330761286585915415
                 -0.55333863339820410499
                  0.13168503728866548519
                  0.33282678289164679963
                 -0.48012781731111714434
                  0.39216920083405376607
                  0.19717873182994313797
                 -0.40481423914012620857
                  0.02634680183958066496
                 -0.85072977980367925355
                  0.14737074254424945008
                 -0.30471866938489350352
                  0.08072608251739328555
                  0.50111529420625622322
                 -0.51351286437773580040
                 -0.05328221257365286373
                 -0.66747648404921811061
                 -0.26109600134732346977
                 -0.55255399395978732624
                  0.29491002053731302235
                  0.47938298661856615368
                 -0.07402210066629721918
                 -0.39452936289213524912
                 -0.41307353504622351670
                 -0.28795897856484559130
                 -0.28744834861793139291
                  0.41106977243109615872
                 -0.51875282084203289124
                  0.04694428621137017310
                  0.08947543619970241280
                  0.66881360257429534055
                 -0.38420068385852113035
                 -0.31043817074103768894
                  0.06829013637798510283
                  0.17174409524127939863
                  0.52588231482092551161
                  0.44517751147339096329
                  0.49405077148659026776
                  0.69767119447022185597
                  0.39706593783310006884
                  0.11456524829177573699
                  0.06183091765495783015
                  0.70718475676278691466
                 -0.15192607184984674440
                  1.61221009291236572203
                  0.02937964817277096546
                  0.47236411040550918550
                 -0.76428108339933453763
                 -1.02496014048520378559
                 -0.08700312271960355948
                 -1.09888760224487058714
                  0.40868683342532347025
                 -1.04014178039458116132
                  0.00834846232511998569
                 -0.06473857317118869581
                 -0.69499551568946260627
                  0.58834339304267890824
                  0.18963182929064875681
                  0.74208605759093304588
                  0.29390967137340168192
                  0.77322167620164028445
                  0.26249479851467383273
                  0.84975272449337080349
                  0.15527417600455076241
                 -0.36992511736396105348
                  0.85522212975847078376
                 -0.99732253510040669298
                  0.02113704935002937851
                  0.74451750783110848264
                 -0.30710678453522216591
                 -0.34321932703245111584
                  0.35195441807303590176
                 -0.14505715550552117366
                  0.97853420914564104294
                 -0.40682803215598745128
                  0.33601955167433661398
                  0.37192852926528890967
                  0.18588041541570463067
                  0.30646592954533741215
                  0.13735556126239970021
                  0.00530561045949049827
                 -0.10182595499733672340
                  0.87339713902072080298
                  0.47304509195171445812
                  0.13581957610074027465
                 -0.32296955049707776197
                 -0.43781415766605152884
                 -0.50227153152012293802
                 -0.54106368106083746472
                  0.13402335389546105038
                  0.89893078583328867026
                  0.23682004889696511851
                  0.48699008529811638191
                  0.76245807445838109651
                 -0.98270536814506737056
                  0.05138885438635336367
                  0.64494583987900178101
                  1.28740023139351733583
                 -0.21783075848053679024
                 -0.31944481598732576977
                  0.35579256142664761331
                 -0.21366669513895233945
                 -0.29156940588016783122
                  0.91265975229077789255
                 -0.44183545776767174651
                  0.56708698950450320275
                  0.78325458802129166447
                 -0.28576451162353339042
                 -0.78361889055865219245
                  0.24039944082951467119
                  0.41296035506763123513
                  1.40076070956127707312
                 -0.01606655227949382175
                 -0.09268200974732909714
                 -0.42994408569641534568
                 -0.09803935747306161130
                 -0.04493873896943480217
                  0.74506897246591419215
                  0.46935903661243050244
                 -0.15958546570962781064
                  0.73637427499738639103
                 -0.25888066049737412655
                 -0.26257944788017351101
                 -0.22925194353935904323
                 -0.62915391556926614225
                  1.08310912629009492569
                 -0.54415456584252119843
                 -0.41118500673502150766
                  0.10573568328476162792
                  0.65839130943107260219
                  0.15652065710498128115
                 -0.23898912704503005866
                  0.21609727868485470448
                 -0.69642796197342948794
                 -0.19448387761422814002
                 -0.20834143709497957020
                  0.23310259789811513254
                 -0.30493884017553313237
                  0.38953131931782047914
                 -0.33712346205806059674
                  0.56545480029412198419
                 -0.03201120641957064944
                  0.80647405100629065977
                  0.13319832499727890518
                  0.64069395987376553947
                 -0.39452562471574026404
                  0.59672988383515934707
                 -0.41489715821833333953
                  0.09612360123390843725
                 -0.15401662513523389775
                 -0.20092451197400243434
                  0.02253576093592171009
                  0.27706623623432707904
                  0.64161971665929951048
                  0.18611982887156208744
                 -0.16583236899156961197
                 -0.24516346127854765635
                 -0.04599583408443475713
                  0.18198450398980459131
                  0.42894018447388598814
                  0.46634318428576443383
                  0.39827577769246386152
                  0.88797514134658861451
                 -0.09684149495799518337
                 -0.11445837004209327703
                  0.70613329229048649172
                  0.22433837306971796122
                  0.00720035716930686031
                  0.09137434798650778678
                 -0.09477304366820629711
                  0.87177443803125653776
                  0.67107356022460618039
                  0.05621800082511614616
                  0.32247633243122530988
                 -0.06975820496417756145
                  0.21747363196954472286
                  0.28095631844772300800
                  0.25130201903381771400
                 -0.73238901526631416949
                  0.17669604455487719630
                  1.50480389860355834308
                 -0.09369645750912210247
                 -0.51965531404122478065
                  0.76478646061211075224
                  0.74049604182138850650
                  0.56194839441671085023
                 -0.37859206171255510576
                  0.42979309268357746010
                 -0.59661568092893879633
                  1.12650559472610112266
                  1.22067167287367261963
                  0.55741901715360020475
                  0.60115945608054000004
                  0.47756309882639874642
                 -2.05445539925402220760
                  0.79085841112299515299
                 -0.50887541475539521674
                  0.61703887542257840337
                 -0.20063206576869302422
                  0.03465591079645252703
                 -0.26954390481225731779
                 -0.53695205850196225938
                 -2.25435929347225627595
                  0.91737483007873477092
                 -0.27394107436215520135
                  0.21842037926038282425
                 -0.18550004109100734495
                 -0.83363764164757270247
                 -0.46000381547116042658
                 -0.68055468098186211456
                 -0.37133937094046465255
                 -0.01841129746201137715
                 -0.43179207757800813772
                  0.17582464041849932279
                 -0.34536708836648177812
                  0.50408367493740113829
                  0.93328206014405801216
                 -0.84504675410111940170
                  0.29305402399860674967
                  0.47172227233256802670
                 -0.07184760499399034384
                 -0.17075635663983357304
                 -0.45151776159244705333
                 -0.56812774656930609130
                 -0.25398274911897406048
                  0.20214277472682995462
                  0.37456383663717190968
                 -0.03803851267356755939
                 -0.72839028880569989255
                  0.13677549318214388130
                 -0.02809544952854645464
                 -0.68069566232616518509
                  0.09905000873797902006
                  0.35313347832567792972
                  0.41807781848821107262
                 -0.37602737304609784585
                 -0.00671547944965727138
                 -0.13182300018030207456
                 -0.56390467827800760947
                  0.57584956465001480019
                 -1.06721907319012321302
                 -0.80146405679624543872
                 -0.28215991343225932386
                 -0.50128860115617257520
                 -0.13053674077635907258
                 -0.73063951942374749660
                  0.12934133009083945143
                  0.70619435663155416538
                 -0.08774806077072541677
                 -0.62210679992833506358
                 -0.14491455480444012660
                 -0.15694149935013540498
                  0.16910298551187991078
                 -0.70976590809306328023
                  0.39816332972019857772
                  0.37533359301291757681
                 -0.36858496617473179846
                  0.50925961523910201478
                 -0.72003037865207275559
                  0.34258831954513219165
                 -0.71171016114493990123
                  0.05879422857684493686
                  0.13532801265020039105
                  0.15650016151423565280
                 -0.06912887619159034658
                  1.23867841593666505595
                  0.12574031969429463884
                 -0.65866504047927143528
                 -0.12888723124282738808
                 -0.57373903082868027425
                 -0.25493847474213859883
                  0.06154312414957736899
                  0.70397705122594145255
                  0.92433490724003719574
                  0.01817055250192197227
                 -1.70002250761729967188
                  0.33694790154383746916
                  0.58020453036245478451
                 -1.07294154087213322590
                  0.36312766886386943499
                 -0.43436906642683537072
                  0.69231218378540204661
                  0.61592329155261815732
                  0.02964404633489921975
                 -0.29517056092348586960
                 -0.86438099137724855314
                 -0.08979102855664415628
                 -0.31907603686303109836
                 -2.45843554652999118915
                  0.23679181034186308485
                 -1.13112350655963589396
                 -0.69354374771200988370
                 -0.03658143900858076836
                  0.09760150909104564620
                  0.46147366915812459975
                 -1.34074976829231617970
                 -0.13160834400344129103
                 -0.62901547646660083135
                 -0.46854227189677816190
                 -0.16213335661339720040
                 -0.06546007281431540092
                 -1.47704549766014681111
                  0.38551767946903992001
                 -1.05440114262840434201
                 -1.03672487400680246594
                  0.46020731364068001579
                  0.43937976679775098132
                 -0.07762974326807114966
                  0.19656576307195797182
                  0.10608332853943516771
                 -0.40828323307224567706
                 -1.21802113751927554297
                  0.05471592614227722279
                 -1.13748607142278079785
                  0.76444365060506935805
                  1.92221607126508042818
                  0.04416581958968435889
                  0.67144561124278934194
                 -0.53998477164320546340
                  0.06689486694868258809
                 -0.43568683320769502343
                 -1.21854402709413367489
                  0.69247474889631333017
                  1.54936403677596579165
                  0.35773645348672544753
                 -0.13411451045494346412
                  0.34307532985348393462
                 -0.35530569065023959174
                 -0.46169385484621056071
                 -0.54031535781480877212
                  0.07780665611478607135
                 -0.62236965208710992581
                 -0.09940036208285073227
                  0.52310028413014619808
                 -0.17834803031651502714
                  0.15076347076565346783
                  0.25334777441500627715
                 -0.24682226198760351399
                 -0.14926792378692299579
                 -0.96703163804614311605
                  0.44684628873997128684
                  0.18648781474475517594
                 -0.00559754574539086600
                  0.66260821608013997785
                  0.56516971930574655403
                 -0.16304815253662621743
                 -0.62622911647361134690
                  0.49958766166739854153
                 -0.02756236162104081996
                 -0.74008954717807118318
                 -0.41768563113064305359
                  0.47658531965925426954
                  0.56557648350697165007
                  0.21239774210106635022
                 -0.69921238193906132263
                  1.27908607922715455985
                  0.05269029271915329909
                  0.33445470337260185811
                 -0.10707513780787956958
                  0.35616707735985025929
                 -0.18485774786004988135
                  0.53951027126265183043
                  0.70075318317915158417
                 -0.75463036781417092147
                 -0.75668836512951820339
                 -0.06026120648400598578
                  0.38391114545305443650
                  0.65148273543130963414
                 -0.21055369869134918370
                  0.41596325315518389854
                  0.21270167034412043594
                  0.14879979930011624778
                 -0.49333543084899267317
                  0.40938082862833585773
                  0.13386046155522846046
                  0.18656774625757396868
                 -0.37427059418363117782
                 -0.05560613814326274829
                 -0.41121683241103473838
                  0.02193578988813397329
                 -0.09108464917888778323
                  0.25259717309371948479
                 -0.00059877389315568562
                  0.00678701290039536789
                  0.02464004155327504525
                  0.45520247947607872518
                 -0.16975968610714226026
                 -0.34140057110341948121
                 -0.21416556413859280661
                  0.21026295077775455922
                 -0.27787378569508908166
                 -0.14482572601115284439
                  0.27522144619088689810
                  0.05732512067947232587
                 -0.51480101874911510240
                 -0.46398246672206655550
                  0.15959514770670271688
                  0.69575684623851408173
                 -0.46224507745927434499
                  0.04902623152783462668
                  0.19902014987837940430
                 -0.84341922388163148572
                 -0.30249271350454415286
                 -0.24271266029294377709
                 -0.55322561314453833070
                  0.31786170061150742505
                 -0.13541772719923861334
                 -0.24792909262550374971
                 -0.73564514142920256479
                 -0.40193134637230526485
                 -0.14233009334808080504
                  0.04469613079681087481
                  0.31091981832137072228
                 -0.31337182631942800404
                  0.04646274097171025630
                 -0.59241536735574218397
                 -0.24230762598339003477
                 -0.83974073251981051769
                 -0.19165790980026811696
                 -0.76127814485703415581
                 -0.29246456182184027428
                 -0.12207786240502804809
                  0.16322199520735841682
                 -0.60214391769568009760
                 -0.14996337436663384479
                  0.33304329168075136325
                  0.12396171767145792997
                 -0.38027122877850294547
                  0.08766389682545251694
                  0.12626549224875605049
                  0.08724220652995540171
                  0.07491807936638548993
                  0.20471041793622105076
                 -0.01283627386971526729
                 -0.74407117680596801534
                 -0.12944994853605684693
                 -0.54229276939758319642
                  0.02086406686129517116
                 -0.02426134373305073588
                  0.17298917520772358336
                  0.85448461274618703332
                 -0.35443183141354650534
                  0.45236123764838259698
                 -0.26418585939905570026
                 -0.73575773276065437045
                 -0.08743064363639060921
                  0.51695656598606587462
                 -0.68850842442411097633
                  0.22782800272262643260
                 -0.54915204233042225201
                  0.04806078643985596532
                  1.17683471458065724846
                  0.34047163826886323035
                  0.19544116535758629394
                 -0.42121211594884261364
                 -0.26225745769208680391
                  0.85003126531307449110
                 -0.12916119832208283746
                  0.42885903226807686739
                 -0.60334067846321304263
                 -0.12583396045856992673
                 -0.82948551688320804054
                 -0.08797169648904933081
                 -0.40686845149181855019
                  0.37188089129530210730
                  0.03029073408291640956
                  0.28957025564693522623
                 -0.23724182132419677216
                  0.08823547860514914520
                  0.02451691461278398057
                  0.61168181376240537972
                  0.14159958762821608924
                  0.29394188088119244107
                 -0.17481274022546050562
                 -0.99848294468826781500
                  0.13150236443547447251
                 -0.60349770153903603553
                  0.29054992508724819533
                 -1.04935572883508032582
                 -0.73026868906522179881
                  0.05858034197252712239
                 -0.25366474642109476667
                 -0.28527549386613731963
                  0.70835768046863012426
                 -0.12909407763231167676
                 -0.38411497698483626495
                 -0.73546709785624364564
                 -0.57890647573792652913
                  0.34233323630929973769
                  0.43188202528533919944
                 -0.47936123782522455095
                 -0.61451067941519077475
                 -0.20409146314047096893
                 -0.50771389478403472495
                  0.27667796754393336744
                  0.65101714617668027252
                 -0.58543769604209427992
                 -0.21267955981599731552
                 -0.47925871230319760929
                 -0.35577108764132042706
                 -0.28690924991413008227
                 -0.23745129850706567232
                  0.74597964296537044859
                  0.25356773212039329657
                  0.23552491113308343662
                 -0.31458598553012756538
                 -0.10085870882950560834
                 -0.09092243489104821774
                  0.05468948487366927236
                  0.72646950289815492852
                  0.07255638934997198086
                  1.08837975766143801870
                 -0.16310574695473051277
                 -0.17433563974804780483
                 -0.91367247119316463699
                 -0.54809138126143419623
                 -0.04774435692649604129
                  0.30573031120582028208
                 -0.37222514523988131652
                  0.60752794859438785657
                 -0.40036564982806333024
                  0.43332300879726776133
                 -0.22979959987340517480
                  0.67698647203686357354
                  0.87140425494695095132
                  0.10319035554178088154
                 -0.87666014913979473100
                  0.26752485909319684287
                  0.99060747814749072759
                  0.58366110948464078323
                  0.18397180162254497815
                 -0.87759313059643850874
                  0.55841317111297184006
                 -0.02960861472537862707
                  0.50236012528641627028
                 -0.15699746567276440246
                 -0.55350756666893941027
                 -0.54475340278184458676
                 -1.11018710289700250904
                 -0.79158826024645834174
                  0.20368622384239476464
                 -0.69281231779847018970
                  0.34119012453459074408
                  1.08874975477828450643
                 -1.43547814951873053957
                  1.32465413437402568242
                 -1.60936961257322619367
                 -0.81370898587164786075
                  0.67512719220863115499
                 -0.82534665691102870877
                  0.18461107866349521500
                  0.71772776074064292828
                  0.15428154058598489429
                  0.08161584396360090088
                 -0.60332832724434870553
                  0.25888518551596573225
                  0.37283293239107467842
                 -0.27586260872868434424
                 -0.54515893082860755747
                 -0.46527568220187309755
                 -0.42566385822225882851
                  1.06115586614893753215
                  1.65200134212396831934
                 -0.60317161894159820879
                 -0.76704308016491207223
                  0.24794433037072771686
                  2.22327461594569486536
                 -0.13099431450188211978
                 -0.83858982486522692934
                  2.91199723568850510347
                 -1.33884744703481950445
                 -0.08165007282774669473
                  0.26969356901985042096
                 -0.12642412262123642330
                 -1.15987656478803047300
                  0.03940924557245769483
                  0.50996812152715043087
                  1.19988492347994091247
                  0.18104394003656795742
                  0.11648262755780137978
                  0.00378122927031195825
                  0.01303345650702667120
                 -0.09545923045839042886
                  0.39925600508645953113
                 -0.06972849908913260342
                 -0.33582394099213774830
                  1.40610168983904282314
                 -0.21990546985944781078
                  0.03694481351333446517
                  0.57084976847923030174
                  0.17326208295554790251
                 -0.56619567392516678694
                 -0.10427228372315006100
                 -0.59665779257378770417
                  1.21099743906617574041
                  0.42782966441440467564
                 -0.29149641846729518191
                 -0.41105507005762625949
                 -1.15454679884534638923
                 -0.25075956591173742538
                 -0.34848021332928880156
                  0.14424407441556386100
                  0.02890099460536703704
                 -0.07971532508662884653
                 -0.00199543737518752436
                 -0.26938165568975142028
                  0.21882814691764221338
                  0.61810618369187597665
                 -0.09166169716408326118
                  0.75953559224893885116
                 -0.23998912098554742167
                  0.70994407462772524120
                  0.61288893660087695459
                  0.07246894569998024727
                 -0.08571793807860385306
                  0.35050991968803918430
                 -0.17400042477718380418
                 -0.09250817908158467939
                  0.03865503473693997216
                 -0.14086553822573419370
                 -0.35402914283408470908
                  0.34596248874631047032
                  0.53041125329352145634
                  1.18420396907112990270
                  0.31395676664657706789
                  0.45617639431142642525
                  0.14779232744632131435
                  0.15832903219189123356
                  0.04371735575848485766
                 -0.23018956016812905374
                  0.11878752103505522963
                  0.50416839205026264814
                 -0.27552532960920222971
                 -0.37575583089442526896
                  0.37171615259724655189
                  0.19588223915829908184
                  0.58906445078285452066
                  0.20158933105095946936
                  0.07875944965055248215
                 -0.59039564993792026382
                  0.18851676524477553598
                 -0.41921551665424844346
                  0.13964078914080166327
                  0.55832280256808297647
                  1.04735199434929904250
                 -0.20153032135516693590
                 -0.79455809304648739033
                  0.41586143532941138856
                  0.36417462424517244024
                  0.15928036806823112070
                  0.54529937026209041040
                 -0.17676521794832028567
                 -0.30568172791618442030
                 -0.09754412157550436391
                  0.49785775723994823982
                  0.49724305769065790805
                 -0.10266677452294639683
                 -0.07996774879152238058
                 -0.36800525840632353214
                 -0.21970868732785847621
                 -0.64571138172785313980
                  0.10276742142472122810
                  0.64375866499392653264
                  0.49594681957239616921
                 -0.47701927854441911192
                 -0.46581198418533642513
                  0.39056611291913739814
                 -0.17294258433753204041
                 -0.92776669532660394069
                  0.98953856448869503826
                 -0.62065603771794708443
                 -0.04065824170753414013
                 -0.56187449118916055202
                 -0.64170970869713661600
                 -0.56324694923270290925
                 -0.14071295760377713902
                 -0.49741167031490302053
                  0.30220567158577249511
                  0.46274790261294773686
                 -0.54519584519045538595
                  0.20470215405079614235
                  0.10304115891613686851
                 -0.01075618742629360844
                 -0.26375419852321685399
                 -0.17722296992181443831
                  0.39344159624687546906
                 -0.09184103198821910730
                  0.02885493187449336347
                  0.37950003891389871846
                  0.75299200540850386165
                 -0.51050253557346092492
                  0.54465795521220583542
                 -0.31623897820539187409
                 -0.70397014074930108762
                  0.94929295355754406138
                 -0.79871998522937781573
                  1.49950057911702572255
                  0.35539470925983757121
                 -0.39128384176995933963
                  0.33673470242685205056
                 -0.16844694258456271996
                 -0.35769620584676936614
                 -0.35313769915840231839
                  0.10897455949807940967
                  0.33960758736592611129
                 -0.05160884813396898751
                  0.45463940199129609931
                  0.77303763885293186320
                  0.35812292070016321643
                  0.42858812915019156575
                  0.75292785682510277034
                 -0.48878151605886455133
                 -0.73743477173204474706
                  0.76109783732331759420
                  0.97394463710208101226
                 -0.31462943413619609556
                 -1.76790261412360316662
                  1.14985438266244099914
                  0.59430969650835197005
                 -1.73149988713364821891
                  0.10771342974972407391
                 -0.20875530775787315418
                  0.12775924024706872273
                 -0.33887906547133717083
                  0.73643314079418342732
                  0.20662370071340793731
                  0.04779337350749063296
                 -0.54251164102967885938
                 -0.15829174551007751948
                 -0.86781310668398026209
                 -0.49471641912444430655
                  0.16022914292423362514
                 -0.48123922032732641130
                 -1.64507896546433363127
                  0.14097249168975059530
                  0.88694947389162193119
                 -0.16621456709475734836
                 -0.02503283479289365385
                  0.19260773719217236244
                 -0.91458001212312745043
                 -0.05665527342979236741
                  0.03395751647028920350
                  0.08816124826442590934
                  0.73645951192222913750
                  1.39030530464632473553
                  0.31505556943554935412
                 -0.00071156129859333483
                  0.10932933968054994733
                  0.86246280361113980550
                 -0.47305746765911593776
                 -0.28413475343037281062
                 -0.77970081432203286464
                 -0.04990982195070950422
                 -0.13481928834229214842
                  0.70806235124179972562
                 -0.08181135633048783329
                 -0.30571436721569716921
                 -0.28964964977175511329
                 -0.41374958966648739400
                 -0.93346512416581384208
                 -0.31200742257812408287
                 -0.38419023221271814128
                 -0.63384288886647122130
                  0.25894362526125758173
                  0.33757791043834184386
                 -0.16780188763054218470
                 -0.03216648002987610583
                  0.61265029149301775124
                  0.76057304455134511212
                 -0.36955572826706539757
                  0.67422077804430236014
                  0.41836211640018133862
                  0.25705741186127323283
                 -0.00899725097169525902
                  0.51879561497314463647
                 -0.37622545473370627711
                 -0.24761343369498509115
                 -0.26838824296771429667
                  0.38909809821361723836
                  0.14319326320398093055
                 -0.30026015356343493945
                  0.22046389698122867418
                  0.06401324685932460734
                  0.37423262916949884271
                  0.14558455864853869777
                  0.39320165064800849386
                  0.69205661379012284318
                 -0.33003150894138522098
                 -0.01282084853166701177
                 -0.23930941577631423267
                 -0.71076943439989137552
                 -0.32169330719636612947
                 -0.07417191254853759685
                  0.20455819863180488283
                 -0.40617033859814793972
                 -0.21956114932287432162
                 -0.12857545718552404468
                 -0.09796856920049340500
                  0.77750313334705789536
                 -0.24797464245567463204
                 -0.18135672352458165335
                  0.54329153960441034510
                 -0.36260833376480028356
                  0.23924711075323529252
                  0.48442563631830254378
                  0.03911398955092670882
                 -0.46885359004557580764
                  0.00311154441769467697
                 -0.27552665566274231468
                  0.31364764685763057983
                  0.20118504893388389210
                 -0.59180246909279876633
                 -0.13795155047406570947
                  0.42212594628306415734
                 -0.29338340352829350710
                  0.09083124064157171995
                  0.31944806382445400939
                  0.47746841136607304223
                 -0.01803597384843987766
                  0.41777048131331945280
                  0.01369637568484552079
                 -0.17361084533948462072
                  0.12467368260613202746
                  0.43622578071084344709
                 -0.48210898714315564284
                  0.12008667296283359605
                 -0.24214439459968453705
                 -0.20003936991535176126
                 -0.06871055532802640420
                 -0.06661215757983925123
                  0.24564098805184503282
                  0.19383876436637298424
                 -0.19989986002525977904
                  0.29922470063052170053
                 -0.32547362398554657847
                 -0.07412803622032997086
                 -0.09149999947819327517
                  0.25972449808629644030
                 -0.34754921683951961464
                 -0.34491453691203305398
                  0.25003041278661525260
                  0.03983742959126363586
                  0.57125552085340847164
