PES1
                 -1.42227661611310085554
                  1.23042855768737569022
                  1.07769413002893155173
                 -0.73273047868933116611
                  0.83038513113825984657
                 -0.19574905480249385481
                 -0.13253890231342194128
                  0.04235835568761180808
                  0.05241077661971822038
                  0.38640422156775261486
                 -0.14431541690233987141
                  0.22183268899460942269
                 -0.19122517673375125091
                 -0.73735932833181416779
                 -0.63302418901018597808
                  0.98142349162343811564
                  0.82430820977425134366
                  0.90420480293366933822
                 -0.76717110680675182355
                  1.32436425841794491731
                 -1.69373077301790320170
                  1.64958203300904515665
                  1.52377121321455577529
                 -1.64319589782993968896
                 -1.59253172955275368317
                 -1.44889658439332125184
                  1.52018083818438776156
                  1.51382402535982052427
                  1.47419150276056987181
                  1.49112479590890578685
                 -1.30323178040462317462
                  1.38031380228723743464
                 -1.15734828148185520114
                  1.32590574854871379173
                  1.25366585423887166861
                 -1.19656466225814361870
                  0.88080332133865635313
                  1.10015212545656959620
                  1.12018169643634157850
                 -1.08767236452600690733
                 -0.60733450144924472358
                 -1.03760413584626132177
                 -0.69090809939837316556
                  0.74680558892409987237
                  0.81373526320017486313
                 -0.73973461809069107620
                  0.86234698606912074670
                 -0.82627180806532563029
                  0.92990780929688732215
                 -0.47380705496734581983
                 -0.74211012373778739715
                 -0.62886959019998034393
                  0.65339549303722688212
                  0.43657623277050011668
                 -0.53314976256931589926
                  0.55622847888877990918
                  0.44679205179242925672
                 -0.46682654155485758807
                  0.49551023304028218863
                  0.40719138678686717103
                 -0.26621023724200543192
                  0.33080136732542958500
                 -0.52364249933015782901
                  0.41900641474596506120
                  0.06474429694858373219
                  0.51504793584021235642
                 -0.02377392938917449738
                  0.06584796559091819768
                  0.23415275577310187827
                 -0.04446697983984550240
                  0.02233039155336668038
                 -0.05182969583158658633
                  0.01590988046372404652
                 -0.14197323669848260774
                 -0.01339107016011031534
                  0.36166368254824232675
                 -0.15142421885341239562
                  0.37234512417247228599
                 -0.31933621390565736231
                  0.40847347627744073906
                  0.29635152077188309239
                  0.31014483903070627635
                  0.41665832929984064625
                 -0.38853355429250785447
                  0.32527257869493209075
                 -0.67595231311988035472
                  0.72934676622747773855
                 -0.56630651051045366451
                  0.74848581923563772822
                  0.62431957614861988137
                  0.68782462012394274264
                  0.46550306050242690192
                  0.61065185702689250835
                  0.67271453932820424182
                 -0.71882210801323820348
                 -0.98264880816782695927
                 -0.92943613857659002075
                  0.83409330273114024035
                 -1.08750415628737218121
                  0.87076749843363976389
                  1.02793540320223453222
                 -0.94093586084527969238
                  1.05825807629067103477
                  1.24617018665975987091
                 -1.30564190211332809000
                 -1.36226701292661100950
                 -1.19400780304947295996
                 -1.06773283242291805450
                 -1.36356376002210155640
                  1.44324286635694187808
                  1.48401836112639484710
                  1.41168950973115903125
                  1.40193420674866175979
                  1.48012615119925383667
                 -1.38733700428176431885
                 -1.66433135725938341487
                 -1.72210730546711010547
                 -1.55256258366100796664
                 -1.85976397837427409598
                 -1.74709179061573349756
                 -0.77834487349022563052
PES2
                 -1.42840611121751370760
                 -1.51117680550684307939
                  0.97135337009942845921
                 -1.23079730070321646807
                  0.87225404171536535802
                 -0.29275854972281983857
                  0.60423228056065336755
                 -0.74508163803477123199
                  0.04657816103401474228
                  0.39792343406996666388
                 -0.34764263484236224144
                  0.06339352768212855316
                 -0.28528651243514535629
                 -0.43933636896964506358
                  0.61434178103268333171
                 -0.62244242697087004412
                  0.79728554278513941167
                 -0.89184819317229890867
                  1.05716124584504633788
                  1.47043544190664654536
                 -1.59507149042058893329
                  1.66787335358111499239
                 -1.62781440964533685722
                 -1.64974449161554681531
                  1.33982282996803592212
                 -1.50937985677098596149
                  1.40164606839082694911
                  1.51126897024708872763
                 -1.47667690524426942211
                 -1.46660884260140345070
                  1.40709240434268401110
                  1.32070575981012150457
                  1.24059241449008705871
                  1.31473497643077830155
                  1.22490808053651978327
                 -1.22616732813900908283
                 -1.19475280636004588253
                  1.05302105985494875995
                  0.98806110086894061162
                 -0.91833529704140115513
                 -1.04649382674661461934
                 -0.97034640279347117442
                 -0.91124652775000480887
                 -0.98147961809847872328
                 -0.91955590563547229266
                 -0.95795518500097043280
                 -0.87354229714931730388
                 -0.84594921353961516353
                 -0.72398968260063500946
                 -0.74048145187292513381
                  0.86910084056606051739
                  0.71193531407064192251
                 -0.47760514716379803835
                 -0.44420799340814665079
                  0.73047030450816941016
                 -0.32551454990726130800
                 -0.43159486517884360079
                 -0.32455621761489145127
                 -0.26376699613070392347
                 -0.26767911016528123103
                  0.31897511629545127754
                 -0.36466109113454248103
                  0.41488833847253225873
                 -0.38475598192369175887
                  0.12479231525468699460
                  0.27092792861935915960
                 -0.13240564791554221280
                 -0.18546916292404275195
                 -0.13831976662596334737
                 -0.04326044525865432866
                  0.13077691725624687735
                  0.12659817433402342779
                 -0.00679663312900808704
                 -0.24716534684282803758
                  0.11646418405407206464
                 -0.17991442380947839097
                 -0.22512688750273532334
                 -0.04380817754089466609
                 -0.34958754784518891734
                 -0.26904557585249977425
                  0.56282666020916716221
                 -0.55365925117293146585
                 -0.50817107883432743876
                  0.36034224682101706483
                  0.50410893881234497549
                 -0.63768869923686866130
                 -0.45078578641204108957
                 -0.69399904054320626923
                  0.77340898470803443043
                  0.53178175203483202260
                 -0.62483127406076777177
                 -0.82026194028845744732
                 -0.58646248347479124075
                 -0.82621925326109080245
                 -1.02010004503050466518
                 -0.83961970556004716926
                 -0.99199215359775538836
                 -1.00425755313856379658
                 -0.95531103286990204371
                  1.07911870357901906736
                  1.12039717139861783046
                  1.01099732228968886005
                  1.14661943251407905109
                  1.06967810430659748810
                  1.24568149898367308559
                 -1.20522057593021769684
                 -1.29537934346124372631
                 -1.29952955804177738841
                  1.05076131778671011396
                  1.31953798308384140370
                 -1.41241445175061985928
                 -1.48900239061816064279
                  1.53318591052210795311
                  1.55642856189156475466
                 -1.57233784006517818277
                  1.76056068870059179154
                 -1.57419424848717603993
                  1.70728336008913172961
                  1.73794735207958317424
                 -1.94379893288869176615
                 -0.57802213645624433980
PES3
                  1.28783316449373752555
                  1.20361501180477792339
                 -1.06999241472418105126
                 -0.88580553253263616398
                 -0.49670580617533383050
                  0.60453622604254619866
                 -0.68667045774956025905
                 -0.16295894075732286765
                  0.10238562915344935622
                 -0.07865104833309233268
                 -0.29098148456158423603
                 -0.07471626606271028481
                  0.48324585658680219158
                  0.54665350980688942606
                  0.69131151351614439360
                 -0.43724153016654099257
                 -1.01072099365778877988
                 -1.15512926571684348964
                 -1.40156445151054187548
                 -1.23759387987685021137
                 -1.66924276583095143600
                  1.60946676677847677617
                  1.69629048376437352452
                  1.64542710317965390487
                 -1.66855589715116403582
                 -1.58944405986186110269
                  1.65372504791364804966
                 -1.44899479090612115506
                 -1.56535918154553455039
                 -1.48634668034022343619
                 -1.41645217912699794560
                  1.44693193770274719512
                  1.24080842989968909151
                 -1.21296007380497150585
                  1.01132923769938543046
                 -1.38687355681154489417
                  1.21672513120794412167
                 -1.19336705467703629857
                  1.08387361487134681326
                  1.06860365853709193829
                 -1.15940662841008013118
                 -0.95130315412808852393
                 -0.98079191788871544766
                 -0.94559634452290441953
                  0.95706593774257553431
                 -0.77018193499556519832
                  0.93463961327526134948
                 -0.83535711802242518242
                 -0.90478074591739499066
                 -0.73854335175508023514
                  0.77199606661004349650
                  0.56532835674582426755
                 -0.61044147467689513498
                  0.59404545138177333730
                 -0.52281592505025664686
                 -0.50855223665794291321
                  0.46978767059086512514
                  0.37753083439673557065
                  0.27180012013080029343
                  0.37496915945948083859
                 -0.32526194103198408092
                  0.35053918133699840665
                  0.52724488966891913666
                 -0.34981707273999046448
                 -0.37867253101297326801
                  0.23177258296976058216
                  0.13199517361802332038
                 -0.12305896434964061492
                  0.02305591448573226024
                  0.18495530294902745583
                  0.33414386000851553638
                 -0.12117144319084501014
                  0.10965437243066294970
                  0.15251871569662658890
                  0.11371842947116257705
                  0.09111639712754027176
                 -0.00455591040129510114
                 -0.18532161084272755214
                  0.15351350543931058246
                 -0.26628367028953070506
                  0.23847158060183062944
                 -0.35167792932667324424
                 -0.48901561944438948215
                  0.46195826699704978235
                 -0.46260535285416137796
                 -0.45436116289033562365
                 -0.57345562663945048865
                 -0.63543007641075288650
                  0.64753472170810855157
                 -0.57598720820209858839
                 -0.52261132491083261975
                  0.77377795086474809860
                  0.42545486330178783341
                 -0.53088558785710560084
                 -0.83163630716559455713
                  0.93670092729607257187
                 -0.89929101996858451518
                 -1.14162961551963459961
                 -0.78442839594874935738
                 -1.07703427214056524086
                  0.88515727460689108685
                 -0.97656949431607509293
                 -1.17562365133039126164
                 -1.26322249275265807711
                  1.16620144220401078528
                 -1.08517560059699791353
                 -1.29723258224999105082
                 -1.38811872195511210037
                  1.35320614306489805934
                  1.32385018582172619972
                 -1.05870411053693680437
                  1.39370739256492637281
                 -1.35869917316519983608
                  1.54984755936301255019
                  1.52417550438296411919
                 -1.61847369461620949060
                 -1.66532289142880562949
                  1.63756521856230219392
                 -1.68954501979179028126
                 -1.26935369396504627026
                 -0.33357573476395252499
