PES1
2	1
20	100	
1	6821
  0.0676674870531550	  0.2484091650000000	  0.3009479950000000	  0.4483151950000000	  0.0460908443635295	  0.0763214172045300	  0.0664825777477300	  0.1392167400000000	  0.1900057690000000	  0.0907505158704400	  0.0430668519152005	  0.0703607680000000	  0.1839395301984900	  0.1669188225507050	  0.3331989680000000	  0.1694148402263850	  0.0091578194999532	  0.0709509240000000	  0.1491863950000000	  0.1684520650000000	  0.0103289919999747	  0.0056416294999877	  0.0259249638140325	  0.0222610022636540	  0.0259888890279695	  0.0288473795000000	  0.0303333297679935	  0.0111484304999529	  0.0391285002635960	  0.0695894654793350	  0.0077329461377250	  0.0158817364999557	  0.0284599071542955	  0.0146996269999549	  0.0273919363194085	  0.0603013884798810	  0.0142979104999659	  0.0315753862532310	  0.0551239540000000	  0.1400430473330250	  0.0602095634811900	  0.0625145139000000	  0.0575085350011985	  0.0129510739999802	  0.0541597869433120	  0.1217536101715670	  0.0186177169999904	  0.0258959739999686	  0.0617023901716190	  0.0062377229999870	  0.0107361806144275	  0.0350604319194255	  0.0075348704999641	  0.0507175750000000	  0.0181520462702315	  0.0260195130560070	  0.0627823645000000	  0.1584782030000000	  0.0342382598617010	  0.0046377260499897	  0.0212819704000000	  0.0738157966590935	  0.0370595200767220	  0.1297957500000000	  0.0143320691253290	  0.0378045820000000	  0.0635008880322250	  0.0647755956791290	  0.1232376837500000	  0.1159010207767290	  0.0012393761000000	  0.0273610128000000	  0.0807595615000000	  0.0766712888500000	  0.0007635115500000	  0.0030127033499903	  0.0039465926355715	  0.0033851834499935	  0.0052954709999903	  0.0045378718999906	  0.0072705874999772	  0.0118212058351205	  0.0131508630812260	  0.0054477199999843	  0.0025248392999973	  0.0025024222499944	  0.0054179674999904	  0.0096760634999854	  0.0011896293000000	  0.0023264932499973	  0.0051202949999906	  0.0060169058226860	  0.0118275464999793	  0.0204954547187125	  0.0052918329999827	  0.0098456150311910	  0.0227261254180245	  0.0058824260655048	  0.0108398907500000	  0.0265973733377745	  0.0049899755999924	  0.0096256865312000	  0.0207875284999708	  0.0097600224999832	  0.0207123039177130	  0.0044098935999945	  0.0042445789499946	  0.0093110779999924	  0.0208156200786915	  0.0211906029999864	  0.0179959249999874	  0.0013575110000000	  0.0022408304500000	  0.0086061664999946	  0.0196944529999833	  0.0087976664999973	  0.0046339782499924	  0.0208092345786845	  0.0432725519830170	  0.0201607569999927	  0.0090947414999926	  0.0013978770500000	  0.0047449165999929	  0.0038427186499966	  0.0035085667499900	  0.0063375693882735	  0.0106249176529765	  0.0029454745999931	  0.0116673454500000	  0.0015087760000000	  0.0095398051529860	  0.0022981296999966	  0.0080363054999839	  0.0142174268910395	  0.0095824209711295	  0.0082691003351295	  0.0203345782724885	  0.0270148740000000	  0.0357983812230970	  0.0279683674354690	  0.0040274206499867	  0.0142673148351165	  0.0259922757729705	  0.0008529024999971	  0.0020688783901162	  0.0017379925500000	  0.0057641885341278	  0.0059658809999867	  0.0101563359999846	  0.0014915150500000	  0.0075061434318760	  0.0239584489180190	  0.0031319001499930	  0.0057402954999878	  0.0134066342132775	  0.0058537829999932	  0.0034554048999921	  0.0183393690000000	  0.0559442283869650	  0.0131212657132700	  0.0101464724999860	  0.0121565356309965	  0.0226821764500000	  0.0536832440625585	  0.0237776748357535	  0.0489317284500000	  0.0204224344177090	  0.0011870387000000	  0.0111384219664150	  0.0461908259830115	  0.0051983879999966	  0.0235437509830240	  0.0023873366941925	  0.0052578909999979	  0.0089642655576306	  0.0052153214999956	  0.0092182835078350	  0.0240178804999866	  0.0060592274999979	  0.0098406428464240	  0.0268581775000000	  0.0476934181583720	  0.0211403285106615	  0.0220608598000000	  0.0182926755106710	  0.0084195259999956	  0.0189023360350410	  0.0414091654999886	  0.0184099724999904	  0.0417041245480800	  0.0188747904999979	  0.0174558789999958	  0.0423936375480730	  0.0008441840500000	  0.0014529856499964	  0.0039645053499931	  0.0025678904367065	  0.0090630870659275	  0.0009968981500000	  0.0222358387500000	  0.0050752423695318	  0.0029489479999863	  0.0233448725500000	  0.0324364617000000	  0.0069614614999838	  0.0101914877725015	  0.0283922755000000	  0.0651184380000000	  0.0135673777729920	  0.0005075221500000	  0.0082689858650000	  0.0298783298869845	  0.0093910911097750	  0.0533390067500000	  0.0014542210999977	  0.0112487515750000	  0.0261364069999852	  0.0146520954999890	  0.0472700714000000	  0.0196532374999958	  0.0054351248806388	  0.0200123682050000	  0.0287123694699941	  0.0314744628553685	  0.0481465729050000	  0.0404453398767987	  0.0001677313150000	  0.0114067734000000	  0.0425143200000000	  0.0383372174100000	  2.2699339950000001
  0.0676677929468450	  0.4327271350000000	  0.8792183050000000	  0.5654928050000000	  0.0460909296364705	  0.0763215827954700	  0.0664828122522700	  0.2629877100000000	  0.2737149910000000	  0.0907508241295600	  0.0430669190847995	  0.0963256320000000	  0.1839398198015100	  0.1669191174492950	  0.4012068320000000	  0.1694149697736150	  0.0091578195000468	  0.1044854760000000	  0.3161645050000000	  0.1816950150000000	  0.0103289920000253	  0.0056416295000123	  0.0259250291859675	  0.0222610657363460	  0.0259889339720305	  0.0478592565000000	  0.0303333722320065	  0.0111484305000471	  0.0391285637364040	  0.0695896145206650	  0.0077329648622750	  0.0158817365000443	  0.0284599248457045	  0.0146996270000451	  0.0273919726805915	  0.0603014515201190	  0.0142979105000341	  0.0315754377467690	  0.0707993760000000	  0.1400431826669750	  0.0602096765188100	  0.0723783361000000	  0.0575085849988015	  0.0129510740000198	  0.0541598230566880	  0.1217536598284330	  0.0186177170000096	  0.0258959740000314	  0.0617024398283810	  0.0062377230000130	  0.0107362043855725	  0.0350604780805745	  0.0075348705000359	  0.0747531550000000	  0.0181520687297685	  0.0260196029439930	  0.1013203655000000	  0.2067892870000000	  0.0342383471382990	  0.0046377260500103	  0.0265536736000000	  0.0738158833409065	  0.0370595659232780	  0.1497124600000000	  0.0143320838746710	  0.0409589780000000	  0.0635009019677750	  0.0647756243208710	  0.1309918862500000	  0.1159010492232710	  0.0012393761000000	  0.0334922582000000	  0.1290069585000000	  0.0781947411500000	  0.0007635115500000	  0.0030127033500097	  0.0039466051644285	  0.0033851834500065	  0.0052954710000097	  0.0045378719000094	  0.0072705875000228	  0.0118212301648795	  0.0131508749187740	  0.0054477200000157	  0.0025248393000027	  0.0025024222500056	  0.0054179675000096	  0.0096760635000146	  0.0011896293000000	  0.0023264932500027	  0.0051202950000094	  0.0060169201773140	  0.0118275465000207	  0.0204954682812875	  0.0052918330000173	  0.0098456289688090	  0.0227261495819755	  0.0058824359344951	  0.0132018452500000	  0.0265973826622255	  0.0049899756000076	  0.0096257004688000	  0.0207875285000292	  0.0097600225000168	  0.0207123230822870	  0.0044098936000055	  0.0042445789500054	  0.0093110780000076	  0.0208156339213085	  0.0211906030000136	  0.0179959250000126	  0.0013575110000000	  0.0022408304500000	  0.0086061665000054	  0.0196944530000167	  0.0087976665000027	  0.0046339782500076	  0.0208092484213155	  0.0432725710169830	  0.0201607570000073	  0.0090947415000074	  0.0013978770500000	  0.0047449166000071	  0.0038427186500034	  0.0035085667500100	  0.0063375876117265	  0.0106249353470235	  0.0029454746000069	  0.0154027115500000	  0.0015087760000000	  0.0095398228470140	  0.0022981297000034	  0.0080363055000161	  0.0142174441089605	  0.0095824460288705	  0.0082691246648705	  0.0203346127275115	  0.0387521430000000	  0.0357984137769030	  0.0279684245645310	  0.0040274206500133	  0.0142673391648835	  0.0259923092270295	  0.0008529025000029	  0.0020688836098838	  0.0017379925500000	  0.0057641934658722	  0.0059658810000133	  0.0101563360000154	  0.0014915150500000	  0.0075061535681240	  0.0239584730819810	  0.0031319001500070	  0.0057402955000122	  0.0134066517867225	  0.0058537830000068	  0.0034554049000079	  0.0216890200000000	  0.0559442616130350	  0.0131212832867300	  0.0101464725000140	  0.0121565553690035	  0.0274219455500000	  0.0536832959374415	  0.0237777181642465	  0.0547077815500000	  0.0204224535822910	  0.0011870387000000	  0.0111384320335850	  0.0461908450169885	  0.0051983880000034	  0.0235437700169760	  0.0023873408058075	  0.0052578910000021	  0.0089642694423694	  0.0052153215000044	  0.0092182914921651	  0.0240178805000134	  0.0060592275000021	  0.0098406541535760	  0.0287626045000000	  0.0476934288416280	  0.0211403394893385	  0.0231957572000000	  0.0182926864893290	  0.0084195260000044	  0.0189023439649590	  0.0414091655000114	  0.0184099725000096	  0.0417041354519200	  0.0188747905000021	  0.0174558790000042	  0.0423936484519270	  0.0008441840500000	  0.0014529856500036	  0.0039645053500069	  0.0025678970632935	  0.0090630999340725	  0.0009968981500000	  0.0266961092500000	  0.0050752486304681	  0.0029489480000137	  0.0308306474500000	  0.0394068893000000	  0.0069614615000162	  0.0101915222274985	  0.0402791695000000	  0.0790776420000000	  0.0135674112270080	  0.0005075221500000	  0.0092428881350000	  0.0298783631130155	  0.0093911038902250	  0.0591729632500000	  0.0014542211000023	  0.0119228314250000	  0.0261364070000148	  0.0146520955000110	  0.0495408816000000	  0.0196532375000042	  0.0054351281193612	  0.0203956127950000	  0.0287123725300059	  0.0314744691446315	  0.0490387060950000	  0.0404453461232013	  0.0001677313150000	  0.0125288766000000	  0.0564551530000000	  0.0385125125900000	  2.0365829049999999
                  0.15968916765418766923
                 -0.07024515663330338500
                  0.19015363610312940867
                 -0.13298612112572236188
                  0.11283465888702282065
                  0.11799971455167262979
                  0.06660396075261666715
                  0.06880013554070002479
                  0.09628302487620930827
                  0.16613396677207997731
                 -0.00838171130492612083
                  0.01291707919301290398
                  0.09211227051269563204
                 -0.13748354024123779493
                 -0.12012942923079938939
                  0.08214920305581235871
                  0.23091748655509836130
                 -0.16242033962161087080
                 -0.26690989128116304752
                 -0.09093552145381743335
                 -0.02774170921489010205
                  0.04188045826406230215
                 -0.08807271742773932488
                  0.10589580904302645092
                  0.01779498440624131470
                 -0.32861905083486364632
                  0.25238661924779143275
                  0.12608306968084309618
                  0.10187211870473911191
                 -0.05252219474763197837
                 -0.14700119998153760026
                  0.18608263176309702835
                  0.08449577377901082431
                  0.12006586311095114594
                  0.12222217628576520498
                 -0.13494347333446149451
                 -0.14503775769625942837
                  0.10219302065008040170
                 -0.01934771655554874681
                  0.19090804901368824131
                 -0.07376818554371279701
                 -0.10091325038243595391
                 -0.08821786050805226209
                  0.13256431311373020887
                 -0.21667583820939109729
                  0.07402762025397072176
                 -0.13612566080975987970
                  0.07264399961647143023
                  0.05638619904416392048
                  0.17815006910655914463
                 -0.02697432848188138430
                 -0.00211077240214543578
                  0.12686082961830130733
                 -0.15640959728077039048
                  0.13420146717573361306
                 -0.05880112735468169538
                 -0.02663677565407686701
                 -0.02881382437894940488
                 -0.01630186114206595704
                 -0.08023410524284749212
                 -0.17798895426226032934
                  0.04601996487622116855
                 -0.12285024245323590553
                  0.19922697275107462134
                  0.11051574624293580840
                  0.02191835453967401481
                  0.02396417321085089758
                  0.07703852289431260825
                  0.02481213016628831466
                  0.17129775189944676517
                  0.06919540394393200455
                  0.14396602300174005107
                 -0.11271833443930213969
                 -0.10976332035403466025
                 -0.10176074238638400937
                  0.04240150962957053155
                 -0.00907376597187510396
                  0.00894939686911952643
                  0.00479610173527698826
                 -0.10725555440776932126
                 -0.02457313354577171302
                  0.12397423850318688154
                 -0.12037244193417635796
                  0.21252923085859692920
                  0.13442984981159078473
                  0.05193485143884753186
                  0.03017937400297762696
                  0.21123101834145330269
                 -0.09770803897809544891
                 -0.08754119882852430534
                 -0.00090904606032193337
                  0.00507697776586222681
                 -0.11625204245482317900
                  0.04888535027382782949
                 -0.06204138054658037832
                  0.30537199498014316879
                 -0.12135289880212975222
                 -0.12274438995102945893
                 -0.05716813075867956812
                 -0.09348602273881236047
                  0.12728636960158506986
                 -0.14754586401180022626
                 -0.00791224949747849904
                 -0.04554167179960617873
                  0.00749125084247919369
                 -0.17053409707473199397
                  0.25864484323838116131
                 -0.07601025285414533816
                 -0.20417578817609322028
                 -0.10093353643364610939
                 -0.02382419951728637075
                 -0.22972755206457992627
                  0.07823284707664132642
                  0.19227895492864990890
                  0.19383023282209885241
                 -0.00131705643330601438
                 -0.11376966268748199551
                  0.10633468481853494692
                 -0.20146246672107703812
                 -0.21086947801320865548
                 -0.06264651784621791397
                 -0.08982893865071016337
                 -0.02760749580734627937
                 -0.17169441851046896019
                 -0.22343582008354462287
                 -0.05522732625562573605
                  0.09164218465410053915
                  0.07176505031654954736
                 -0.18610180403301562757
                  0.09276348904400810724
                 -0.13713378973569581576
                  0.07115155626430828828
                  0.19519229534232390710
                 -0.03151334516817972525
                  0.08552945764671374129
                  0.15360189684737174387
                  0.01312952809009053888
                 -0.16101557156477211419
                 -0.07723809982812858410
                  0.01011254798801229822
                 -0.06207116153545894771
                 -0.00417653305979565070
                  0.09995832371304834429
                  0.16126317877885387730
                 -0.22213844523061179737
                 -0.12524777310478193981
                  0.10971212326159979211
                 -0.09792594440734163352
                 -0.03525258733526980687
                 -0.10982861888559798669
                 -0.10499686226888611806
                 -0.08211618481956740878
                 -0.23844695972611551493
                  0.26482704727573974646
                 -0.32875278316061024020
                 -0.20079265791700040555
                  0.07025793684915820903
                  0.04896217703584383046
                 -0.10983460492886649995
                  0.07297605065274269387
                  0.08668831978992946885
                  0.13433327664061939233
                  0.01586464545505997942
                  0.15220010499007646798
                  0.03720671939383931454
                 -0.24147446822008347689
                 -0.08420410843979339588
                  0.23522963221295234426
                 -0.18451572033955784824
                 -0.12324456410326301015
                  0.21383542782920197944
                  0.04972717875021118172
                 -0.14038099859283451054
                  0.12610967174994974771
                  0.08021315241817889019
                 -0.02003559804678750264
                 -0.31181423442271088975
                  0.17768188191855732727
                  0.01891805285410246007
                  0.02710074349216385486
                  0.09401650358615221137
                  0.01494201528122336003
                 -0.07257749118036777025
                  0.14365431380556661911
                  0.03701648244624156786
                  0.02105057924628929086
                 -0.12234912562377152356
                  0.18105582598976469044
                  0.12683033661390596958
                 -0.00225979298947903261
                 -0.00306634529653909086
                  0.35141259231283122899
                 -0.11207933828748628535
                 -0.08613912523992256487
                  0.04440083505341488324
                 -0.02930562285583355325
                  0.05141567208108974163
                 -0.29949665113853363163
                 -0.30080570060791506082
                  0.10944075652401449861
                 -0.20668509740873544644
                 -0.04715338113438758555
                  0.10457881286202948268
                 -0.13780811574044488088
                  0.24641078818891851143
                 -0.14016526640660023628
                  0.10804705731862350448
                 -0.00891199222053238801
                 -0.28009179587961335889
                 -0.23461451282266898577
                  0.12793083376734476486
                 -0.08129732565518672793
                 -0.08582115800748171819
                  0.11054223442798105648
                  0.03847930710694432571
                  0.26461039635770211564
                  0.01058419566075671260
                  0.19311236497296888071
                  0.23084746085072874178
                  0.14498317858093839883
                  0.15833452132841976945
                  0.19768072721222401666
                 -0.12676240272729169534
                 -0.12038235288079454643
                 -0.01482172219669065580
                 -0.03054905474129164522
                  0.06021124938285468686
                  0.01505737422234862399
                  0.08814910081408872111
                 -0.35532711599080274434
                  0.16217065495612714709
                  0.26433752357240353215
                  0.07851291538010816973
                  0.23241485224773392182
                 -0.13155229332095186301
                  0.24513258800947460014
                  0.30914410287817950529
                  0.01831792897608921361
                  0.20037630690442115311
                  0.17655995040508631888
                 -0.02080005484678042194
                 -0.07838332914453785549
                  0.00382436267725820567
                 -0.13454300863531959420
                  0.00780763068381274458
                 -0.17491191641606027019
                 -0.22999148196982358017
                 -0.06369978902115952524
                  0.06378190981405611193
                  0.08029044264604269510
                  0.02769287074525002626
                  0.48623592622944072916
                 -0.18402341206245911853
                  0.22759270851085686149
                  0.25236907575920503044
                  0.06273031513531679426
                 -0.13734423522735930701
                  0.06706934761128308109
                  0.05151080548587005925
                  0.10349235040663302965
                 -0.11421259304512169919
                 -0.01906611790767073072
                  0.27544032857687816840
                 -0.00358060694542854021
                  0.15273983082321312965
                  0.00991857087005535570
                 -0.05386044552569722865
                  0.16778079020144223699
                  0.00870877031792085220
                 -0.00728853894569303322
                 -0.00990794913062189968
                 -0.10218104287231341565
                 -0.05506191144192082443
                 -0.30660597219177726513
                 -0.13886035227204535092
                  0.00457540730656563321
                  0.14139035321318604854
                 -0.09727699414278317969
                 -0.20138899509972096880
                  0.21830980561947740948
                 -0.22790700636193345074
                 -0.04843693496942060722
                  0.20915762023049927487
                  0.02368816108345157129
                 -0.08505700347801002648
                 -0.05565294615026445540
                  0.00545195768742554997
                 -0.13113668223901700505
                  0.20365892619530079344
                 -0.09921331396342812636
                 -0.20468816225742161863
                  0.13740844606175417475
                 -0.19241092665563166997
                 -0.10816096419352291824
                 -0.04657081075629942307
                 -0.06588781161424306365
                 -0.18430677297994074726
                  0.02246038064589492289
                 -0.01650979948384266247
                 -0.28321339884707602552
                  0.12247333725652692626
                 -0.08457935168556329764
                 -0.35788809789609926648
                  0.03078701441919720616
                  0.17014729966478059353
                 -0.00485824528084117906
                  0.04650670150468402125
                  0.16772366979157132816
                  0.00237162149999291380
                  0.08468840338338877449
                  0.28295741938786922454
                 -0.08088283088123669751
                  0.23147635796535825925
                  0.16321711114191064795
                  0.04700268001894118697
                  0.11191780077564845997
                  0.02007992895749174944
                 -0.14789372594402924732
                 -0.22842840994502558449
                 -0.02798100226711932106
                  0.16154394991781770297
                  0.08519178509857727732
                 -0.00737381249005679244
                  0.04339471236657933828
                  0.16203436878904550755
                  0.05718368851086345905
                 -0.06452365308907873076
                  0.07380939031032993092
                  0.06705718330508528280
                  0.31934621339404350993
                  0.05092361410225910295
                 -0.02942736449442786423
                  0.08826311491907914974
                 -0.11628982291261261151
                 -0.01659200845557006615
                 -0.09792438158080127297
                 -0.06348728392239054441
                  0.19389704636700949569
                 -0.04923385086808304556
                  0.21286154581200633640
                 -0.02058725676844532643
                 -0.03519695092033209988
                 -0.03710616503676388012
                 -0.17399493980623928491
                  0.19328136342528626224
                 -0.03212465335749695866
                 -0.19080057594866958737
                  0.06033352200287069728
                  0.07028570061376523959
                  0.05024565485928255554
                 -0.12062900056086267586
                  0.00360011244656879142
                  0.11817605978950992962
                 -0.06376855964571796764
                  0.31684285934656469808
                 -0.05046632999335318170
                  0.02308149497263846037
                  0.02622986668628171994
                 -0.04242221881401084943
                 -0.21216421662333548315
                 -0.22784782444131804202
                 -0.13674987724456741378
                 -0.04452568856318009360
                 -0.16583776361672461497
                 -0.07117740298847087532
                 -0.11880070429253124231
                 -0.07743517769884085411
                 -0.02404871996386570565
                 -0.05600619787893061641
                  0.01833657862026829080
                 -0.07778436927416501612
                  0.14781292002957804876
                 -0.12963046186182805575
                 -0.21023264143144113070
                 -0.11161913860739657023
                  0.14807569521815683311
                 -0.03935204875156198684
                 -0.27841259118404571016
                  0.01563119640903640542
                  0.11038376811560347834
                 -0.27152931339381625175
                 -0.02277544750092334869
                  0.12853168148046728581
                  0.01108448981111442508
                  0.18730909934949788176
                 -0.16635271533501402863
                  0.13082459273997140703
                  0.12265183077715205440
                  0.09621134687007933117
                  0.06057355931644052560
                 -0.04093388324296601960
                 -0.32366832734851297415
                 -0.05263471187063884643
                  0.09159037102814587827
                  0.21514308607529036843
                 -0.17394139483784101796
                 -0.24943349430367564579
                 -0.00990415126593543679
                 -0.10725942790021386619
                 -0.04658473285352479620
                  0.21123487330892942726
                 -0.23903456637166511922
                  0.09666653770759014996
                 -0.09447972470753177032
                  0.05305249005007105917
                  0.24923310452015740024
                  0.12597743379429571231
                  0.00215362774308266091
                 -0.01042759417482544936
                 -0.20980366199070576982
                  0.09473392462357785315
                  0.09853488514962734091
                 -0.04342147189358469550
                  0.08608783479480651424
                 -0.00927014704473669467
                 -0.05234004934091480987
                  0.06157612360731015699
                  0.01150091004484850472
                 -0.07912379699334985694
                 -0.05161352933008852423
                 -0.09760615882488862805
                 -0.33171964246261986808
                  0.00043408657561211253
                  0.04133147163484618414
                  0.00778619278197525185
                 -0.22429228500429923554
                  0.21430771392971639799
                  0.02888186881463961769
                 -0.00792273823531756960
                  0.01638186940457646637
                 -0.05379863941399518762
                  0.10940431912391791747
                 -0.02601434548459603119
                  0.10836063726662197026
                  0.01753915473860594848
                 -0.14876044395956469768
                 -0.09186237036511966936
                 -0.02454242480532891485
                 -0.00623459637258259002
                 -0.08055468922064519532
                  0.00827639961221942298
                 -0.05247006483279568340
                  0.15160350459363824971
                 -0.02652106043486820997
                  0.10150791456010233027
                  0.07298148317802723162
                 -0.03478814713800583436
                 -0.01762862399479879147
                  0.09598058789415490899
                  0.23590435636395595820
                 -0.37071652845803026999
                  0.04718279007352031013
                  0.32730710880709407151
                  0.21780887446048532996
                  0.02523392984119054300
                  0.21044057851203359921
                 -0.09237776234577717294
                  0.10976882248579548917
                  0.32459303886000434591
                 -0.32722035717722114390
                 -0.09771240344169965231
                 -0.07368380333693658191
                  0.22487800706801391870
                 -0.05665217821207226001
                 -0.17299764377525861381
                 -0.15014429667345843833
                 -0.09432888466479733003
                 -0.13272254934879326727
                 -0.07622505165044381192
                 -0.08437278794941277527
                  0.07559674269585216211
                 -0.00294267015198067727
                 -0.06602193378025253412
                 -0.04911296288018299899
                 -0.06890002725847578502
                 -0.09218197497937913321
                 -0.10804942987419938194
                  0.04471871140575386233
                  0.11646993041772567279
                  0.15071648711324420189
                  0.11872543780326727525
                  0.06577047659307974636
                 -0.18145849263629809656
                  0.13713002463252371710
                  0.11060893847431968462
                 -0.02388076202402157969
                  0.00426665195430355956
                  0.17099881319005494351
                  0.02923860588774613786
                  0.14561618683117266704
                 -0.03679123561499932776
                  0.14927344533785891212
                  0.00687317268427220518
                 -0.11165351699228887039
                 -0.13070654126382061366
                  0.03425956183594741633
                  0.13946470330523466630
                 -0.00498974240356620663
                  0.01509426764121744348
                  0.13330702569112704015
                  0.16461482299565227683
                 -0.08076537912568779176
                 -0.03559404391833959069
                 -0.12382304018008979951
                  0.06624614386613318640
                 -0.05062274823529764461
                  0.02902866668897978106
                 -0.04326405879236322471
                 -0.02462661130302454954
                 -0.04230054151755643921
                 -0.12482803883624403463
                  0.06158382322041210111
                 -0.03520067488429533265
                  0.01645850649638749830
                 -0.06760279999503780723
                  0.12267262598628775327
                  0.02347462584108378492
                 -0.04939786738260399518
                 -0.08948384165149042557
                  0.07818677337186111242
                 -0.00462370935431037373
                  0.14835499601784402079
                 -0.01447539169223186102
                  0.08243823714941582448
                 -0.11210056382414772258
                  0.19362838244435059964
                  0.08658126573541104209
                  0.14856247847776468674
                  0.11767012161747326948
                  0.11223945071350316383
                 -0.03460425482618477433
                  0.16328058503315967531
                 -0.20251565851152317221
                  0.11427960284058305551
                 -0.11429600880948943831
                  0.20894984032450589218
                  0.08894618205712462311
                 -0.00302428198980375000
                 -0.12980586479057096283
                  0.08675967116368216159
                  0.02026686798193014574
                 -0.04895188146246264027
                 -0.12495951258318262200
                 -0.13711432645644153205
                  0.06276897197827348285
                 -0.01599521949367099793
                 -0.12584071868518323378
                  0.16160992703740678644
                 -0.13019917047672449617
                  0.00494813438560571910
                 -0.00468302265812808177
                  0.01234303960380254278
                 -0.12874325742292699881
                 -0.18730086943699919555
                  0.01518300923090002037
                  0.07898995196326584478
                 -0.10431329762881712264
                 -0.06222224313334534518
                  0.03342503290754441497
                  0.03180997508270651947
                  0.02724599662852865770
                  0.05085874694866956286
                 -0.14774486082502627515
                 -0.04119131580164562406
                  0.01824042929073418223
                  0.00927512076040965666
                  0.02562070981240727879
                  0.08927840771410720799
                 -0.09425607101551400357
                 -0.03906284510566778584
                 -0.04741229410966114194
                  0.01580929010370564838
                 -0.19978305224960585251
                  0.04278129851688887431
                 -0.04403483209629614759
                 -0.13474954488344242920
                 -0.02365723557464103829
                 -0.09032327386334970676
                  0.05029598432430767291
                 -0.18697057191229324302
                 -0.21527837636010815903
                 -0.09952251208324747189
                 -0.05670790719479417569
                 -0.16824734685454387217
                  0.08643033558526032334
                 -0.10696966236746001389
                  0.20942049262275780341
                  0.04274209090242767073
                  0.02288144630244036762
                 -0.10676968805671140095
                  0.06954715606882003187
                  0.10075740687345982605
                  0.11274256819928631101
                 -0.06779416449772603104
                 -0.04937677261629569436
                  0.15395666153012629862
                 -0.01434997724357725199
                 -0.03430829113548748699
                  0.09046960593572533904
                 -0.10812999163621216103
                  0.03882929221747771775
                 -0.00576617778589177780
                  0.16071265971764434055
                 -0.17455961740859635145
                 -0.17138177476677982081
                 -0.07112481999746478323
                  0.01710919543750633737
                  0.17375518356927852071
                  0.03989959758057495115
                 -0.07085595253963676565
                 -0.19809779915709929687
                  0.02468169373632003033
                  0.07216215768347679360
                  0.11617605838128111650
                  0.10218223986348629051
                 -0.04498896900830826051
                  0.04647597220161798354
                 -0.09584865217552064609
                  0.17781648834895322220
                  0.12148736177352714716
                 -0.13010579709207906185
                 -0.04193389651154919018
                 -0.05810005264835986505
                 -0.16916359337009426178
                  0.18897626282223758953
                 -0.10642990876774040265
                 -0.16856249180346691285
                 -0.11739421961751282664
                 -0.12604961390810673350
                 -0.05731907536302702222
                  0.09056987459778099991
                 -0.01340957631740598809
                  0.02501433847048694856
                  0.01383905920618483040
                 -0.05679243455869963791
                  0.10565203476094632562
                  0.12145209287848524049
                  0.10175124890706697955
                 -0.11301258105493368344
                 -0.08670784610575946183
                 -0.09083443742569084767
                 -0.02302073361576046501
                  0.07430806758315486316
                  0.04240928413423906973
                  0.08967844685249055925
                  0.00794549605796466239
                 -0.11369339440032154298
                 -0.12996596512732752626
                  0.04942842121700697505
                 -0.05742019846418907475
                 -0.04092580814567545883
                 -0.12329815323130348392
                 -0.04106980718174677719
                 -0.16989505606756361011
                 -0.13631573504270622088
                 -0.01246786542105873460
                  0.04365272650418826339
                  0.02677498185985494050
                 -0.22276560735748562880
                  0.16882721186045263062
                  0.09674498323755545415
                  0.08142359109471412892
                 -0.01989372558593393431
                  0.00449987454531466241
                  0.09609216081226662487
                 -0.17916062536220833667
                 -0.00536333337648732707
                 -0.02368048154274682640
                 -0.04762211804656003161
                 -0.11943953684862863851
                  0.03020275232406912855
                 -0.09974399529144392651
                  0.08148310325692412204
                 -0.14059775731126225584
                  0.12289268267762112896
                  0.19727916276646845217
                  0.18618033821213364476
                 -0.07922700080160031966
                 -0.10553440887040561880
                  0.03238181663454108017
                  0.03499618374462605541
                  0.07544755013883053252
                 -0.02698436597461405587
                  0.07521921851895106703
                 -0.05008622051088071347
                  0.02665105679848225884
                 -0.05276037792243598590
                  0.18089630028155465058
                 -0.04537881682609566647
                  0.29876635898974429617
                 -0.03071073279354015820
                  0.03765229383783671308
                 -0.05514386544357217229
                 -0.66135237148168413146
                 -0.14923563776540005321
                  0.08129012443829461421
                 -0.11982528667216123253
                  0.22691788460206174793
                 -0.02878416079486304305
                 -0.30432083314063018697
                  0.13924360125051252202
                  0.35820262028154836731
                 -0.32621595078349718833
                 -0.31766675080311057577
                 -0.09718752089230722757
                 -0.26186189210667704108
                 -0.03369970792632855788
                 -0.19361073059785613437
                  0.03880647273291762400
                  0.60230098929194830770
                  0.03483740060486642531
                  0.09444824225159263731
                 -0.06269204158393504311
                  0.11890197611083896945
                 -0.04870976713503229194
                  0.01376763379200909160
                  0.15830363705899255788
                  0.01195448472257889388
                  0.22413115071952594004
                  0.09731824993500014231
                  0.13403129112228787112
                 -0.16003282289040846043
                  0.20112122834151058282
                  0.01888602394100431098
                  0.18291201904842788184
                 -0.07637191176169304263
                 -0.05772545497971348638
                 -0.07506310459121887102
                 -0.05636740920087569134
                  0.12708417591236725874
                 -0.09658925117665709270
                  0.12973156945578717680
                  0.18410425246489153794
                 -0.19053986962587665666
                  0.04297833399256537068
                 -0.10427532999639788081
                 -0.30280544271215792396
                 -0.08737759439963095620
                 -0.07117042798695903671
                  0.12381015304690624890
                  0.09189656558473814629
                 -0.05388282760357300527
                  0.22739051637152704610
                 -0.02871263165969743097
                 -0.07049638713936809409
                 -0.15582330804973038019
                 -0.22745052236716029048
                 -0.12122152339322696257
                  0.26575472529922983256
                  0.12341746778443407617
                 -0.16534025103806412882
                 -0.07135682567163767476
                  0.23115401986374278787
                 -0.05119145243294637160
                 -0.00620776730866577555
                 -0.30474292696484084342
                  0.71992312694771554149
                  0.22425628543056877473
                  0.09092970955100007635
                  0.41669105067368022999
                  0.04337024183091975349
                  0.17335335306623589346
                  0.45803133486105351846
                 -0.35057768893195156990
                 -0.22124499315067702732
                  0.18141266248749654544
                  0.08202884130991180966
                  0.26733431753674608000
                 -0.03163302066444186045
                 -0.08681081315018528144
                 -0.03219689191710395360
                 -0.01377624313185994015
                 -0.00835516621427580611
                  0.27712135349603289614
                  0.05259592027408143550
                  0.08710817238870650903
                  0.13538101575784985964
                  0.27197353389400952262
                 -0.07292614422149946984
                  0.04840813875773195690
                 -0.08225947045789763767
                  0.02662768383080241566
                 -0.01963210162436232475
                  0.04566972128513299006
                  0.02613330110688341645
                 -0.10386903831620089567
                 -0.24446231141681312726
                 -0.20693925763734147272
                  0.21981394387024338899
                 -0.12995044952197634669
                 -0.02109445523343451631
                 -0.19592532473746590571
                  0.09903443083729965291
                 -0.14174601436180900293
                 -0.28575621305759923985
                  0.10862329731548384104
                  0.21259107318282305377
                 -0.19237322934537334773
                 -0.16628294056309578242
                  0.01316263288211789312
                 -0.13980186337724237466
                 -0.63440335688852111939
                 -0.11061007829101582312
                 -0.22896815738934070406
                 -0.21201968191982917267
                 -0.32312608270287623835
                 -0.10523129038818106185
                  0.17003157333669119411
                  0.09398225213684423263
                  0.06006745688130880195
                 -0.09238811723459403047
                  0.07729878772614279248
                 -0.04296059293207614427
                  0.00231113422087157391
                  0.23956868782094228876
                 -0.05014092311294622573
                  0.10595592416101477784
                 -0.00512926011276573779
                 -0.03596464447704078582
                 -0.17893958816904073639
                 -0.05735623131496211946
                 -0.09656152607134142751
                  0.12722200549628195909
                  0.15565498821771392435
                 -0.13940372499396544437
                 -0.01821745485991046326
                  0.18445581940437177915
                 -0.08015397249869615770
                  0.02590456083708564741
                  0.11107438241248504540
                  0.01978503472887963022
                 -0.04402207182012001646
                 -0.18232816010725808042
                 -0.29535712993996970921
                 -0.05738774982538479702
                 -0.14340784054683575199
                 -0.31819220890275795588
                  0.08798093259881106798
                 -0.12342540427577465556
                 -0.18381328514939224150
                 -0.04951511285940086993
                 -0.21186612861904458027
                  0.09906026099861922618
                  0.12838429768002290743
                  0.06967828543678382391
                 -0.03478239051732712889
                 -0.00019625282161116631
                  0.03590786242045817395
                  0.15630515543471257267
                 -0.04041212784143561471
                 -0.00146700598481308174
                  0.15372420352941398858
                 -0.06633533556392673391
                 -0.24651046287792832690
                  0.00813299156227064411
                  0.29409137366268783831
                  0.01253238442991082280
                  0.26027559595001437120
                 -0.01151006517458890051
                  0.02174085851006123810
                  0.18988252852165432571
                 -0.03968286205300772251
                 -0.00504102862225374281
                  0.02540119809167604159
                  0.27571697260921274042
                  0.04916935209600342693
                  0.01711442834384674025
                  0.44565769609282007702
                  0.19520278277382790977
                  0.03971621328679353358
                 -0.21460541564062041164
                  0.04061363843043672150
                  0.27017112614592897479
                 -0.34856972137173919402
                  0.04555459239858108272
                 -0.01161634810453487758
                  0.13914658454962097744
                  0.19499699026859107498
                  0.42295911201093167042
                  0.11268814064035298506
                 -0.01422765668518428256
                  0.07339992983192433762
                 -0.08328557750085675837
                 -0.11829842600487376625
                 -0.17694143413069213233
                 -0.10605694792613870603
                  0.01214583346712882865
                  0.04627558379824552731
                 -0.19910149301402363387
                  0.14639574056958035153
                  0.07594808167168062840
                 -0.00136511680546922039
                 -0.02767459455498142915
                  0.06374363015499359686
                 -0.00535608594407101408
                  0.06269196391535937496
                  0.08858655504034380901
                 -0.13527996341963408056
                  0.00472845600295730521
                 -0.10791885882262584884
                  0.07522441595505693912
                 -0.05835336304130463864
                 -0.24021048796256511126
                 -0.16044162265038483528
                  0.11733922749885790371
                 -0.00017115445513176189
                  0.53351636311761274634
                  0.07237796250857300717
                 -0.02684491132470999061
                  0.12713225820678741851
                 -0.01576833930487402807
                  0.26779736703118289798
                 -0.78025304423077079807
                 -0.52436343862253431691
                  0.34213586689059832802
                 -0.27975489088819743833
                  0.20914389843500799659
                 -0.20972730235026360024
                 -0.38275283365487594578
                 -0.14864339626312161879
                 -0.27162213775340648958
                  0.02498780862624113211
                  0.03614638231247523092
                  0.39827038404011838590
                 -0.31929440291270277941
                  0.22135516216040349025
                 -0.10170200236963454488
                  0.14654273080465715640
                  0.02284334644428597308
                  0.16402906326678476367
                 -0.12802376353233807516
                  0.14573130164964498423
                  0.29717625505060585311
                  0.09059802939566762026
                 -0.08660482720335803408
                  0.10028514433287032126
                 -0.06976196491443382997
                 -0.23430826089771206178
                 -0.05679388023368414640
                  0.11835926721084025215
                  0.21328411610966407919
                  0.11917399983100177008
                 -0.10582202483933583759
                  0.19852055843527915968
                 -0.17968002849930614362
                 -0.02424138337675016755
                 -0.09813782680418124682
                  0.06142264703496665146
                 -0.01190882792997362619
                 -0.06272391233121871190
                 -0.07350877826647618518
                  0.05341225108489743717
                  0.34972215965942032856
                 -0.13010278011064446702
                  0.16903280687060018295
                  0.04427718927015946576
                 -0.20050067048248751411
                 -0.21281541622045671569
                 -0.08926047516375901214
                  0.25226147542410520819
                 -0.03439661143676978061
                 -0.33390020512421098031
                 -0.16748565315157470934
                  0.09382837291065490581
                  0.01000139150234869573
                 -0.19345767077762535124
                 -0.29840226212899134683
                 -0.37737562001364904907
                  0.10130037354846417597
                  0.16154601442931121325
                 -0.06482284305408574088
                 -0.10954500023472346637
                 -0.06016563401205727440
                 -0.11216607139444635666
                 -0.24412162142242463392
                 -0.06691036562944235877
                  0.06506559639327942623
                  0.01599985148091798842
                 -0.04029797210487882919
                  0.14799213823962681369
                 -0.12160695711487085058
                  0.03264683489321646565
                  0.10568555509324241426
                  0.01003141830011923183
                 -0.09921225950345481659
                 -0.13204697229041420514
                  0.34427173462117593994
                  0.07511024706104166282
                  0.05362175176589583508
                  0.11533225614186369545
                 -0.15538568328242646777
                  0.27260404699189272337
                 -0.00809360342818759258
                 -0.39680966362172431783
                  0.34648079996559633109
                  0.05885269206944003517
                  0.30530915971376426654
                 -0.31905079337203895440
                  0.17980786744229559915
                 -0.00005248144897361529
                 -0.20081811176522670892
                  0.13086325561330544587
                  0.01147765346738092822
                  0.00087005324486108451
                  0.10836727311366518844
                  0.03826322663257773066
                 -0.04787239372346011046
                  0.50013417858694220186
                 -0.03353249237990413995
                  0.17512025003790951394
                 -0.45761971548002816634
                 -0.09035974539035082631
                 -0.29914197235904149696
                  0.16663848567238623288
                 -0.01376994808046264063
                 -0.05494423130307200115
                  0.24886167997127878193
                  0.05388085950276878117
                 -0.03517388010706677670
                 -0.10062496634227466319
                  0.02641744376842265069
                  0.03479441937069729929
                 -0.09018636813998985591
                 -0.10879248029414935461
                 -0.04511803032751758591
                  0.03271899437885742584
                  0.19825499686888264916
                 -0.03765613932724866386
                 -0.13466785470400319258
                 -0.04282429255385537120
                 -0.00670362359176960090
                 -0.00524106095408138212
                 -0.23084096772570245060
                 -0.03488794565444256618
                 -0.43168563115654523532
                 -0.56634099455098174669
                 -0.10030047204481590262
                 -0.02674516349825489803
                  0.20441996995575187346
                 -0.27052082332096055728
                  0.24833543333942481590
                 -0.01359442390726016761
                 -0.20564072090609697430
                 -0.36898198893558220579
                  0.19543631735353192425
                  0.12092226853481689852
                 -0.21606016936313887644
                  0.03112093200589755027
                  0.01812904781480085756
                  0.27188152323977737845
                  0.00433870811310579918
                 -0.09604810229609700434
                 -0.05878657033642230995
                 -0.17091307706908559494
                 -0.07019305121015328996
                 -0.32374738329893176791
                  0.02138991857511054681
                 -0.03500602875764281807
                 -0.30809315816281118705
                  0.18130554319372998995
                  0.04663484921863404742
                 -0.26038741834453454915
                 -0.19788635735343743094
                  0.08225303490694844955
                  0.04576144842333596668
                  0.11552394780583555289
                 -0.24814228181692096764
                  0.10578697883009646752
                  0.06302415536131643348
                  0.16421187160093295154
                 -0.22849368347097007148
                 -0.09795165772563259321
                 -0.07767444840800780126
                  0.04937948435822125948
                  0.23900344092493014392
                  0.02495651181231789417
                 -0.03061321354797874594
                 -0.07595386458618165471
                  0.15329272497213114468
                  0.04662939705173127503
                  0.18510364875770474180
                 -0.02078202353964633473
                  0.07506733387718726724
                  0.24955063805611932271
                  0.08707741564898957565
                  0.07844039091120330598
                  0.22119122426266168979
                  0.10377209801512644882
                 -0.31774162398201610813
                 -0.00557006351354757956
                  0.06973584798144825958
                 -0.24212152201979431076
                  0.12536225836659892208
                 -0.32362335085421278791
                  0.02324648558248893285
                 -0.22465908564630787669
                  0.02991791694130649382
                  0.52259669089192239966
                  0.07831086431227972378
                 -0.03066008610474689824
                 -0.12226952089882398012
                  0.13640615446571632829
                  0.27108531317843814756
                 -0.16261411296247685332
                  0.18979551977080474923
                  0.10950151787023769401
                 -0.27035779964899692152
                  0.26955601213795293836
                  0.64363740611619091325
                 -0.03199489843258105509
                 -0.04037816444204088417
                  0.11185131535032644123
                  0.34240533700067921075
                  0.13803444461059727333
                 -0.02771745697879013717
                 -0.27670615454010560885
                 -0.03825591433975758515
                  0.16101774594906234639
                  0.01800597135064173696
                 -0.07078980610212050328
                  0.20334924358915820730
                 -0.15030402694230166061
                  0.10722928395189774975
                  0.08597950275361077033
                 -0.04183121537307180060
                  0.05416590927874017497
                  0.02269818296844049871
                  0.09037229928972492776
                 -0.03653826000295354315
                  0.05541874567651736139
                 -0.01488091836995119460
                 -0.00866775880749885708
                  0.16421713395112710887
                 -0.02737709446797044477
                 -0.17850989234328956679
                  0.27772538376492650336
                  0.23436730691219936906
                  0.08917167637420377047
                  0.22243194034863006392
                  0.37857411388185818746
                  0.07057829292674235033
                  0.12333880808905883786
                 -0.58004158126756411029
                 -0.38458202474892028144
                  0.07491397411841219101
                 -0.28925510802558573875
                  0.35712973530828956426
                 -0.09181524497639305393
                 -0.04079224745957008014
                  0.03044130291932614640
                 -0.61743302573479841300
                 -0.20228959074628760639
                 -0.02793947961250440801
                 -0.22617928830569067333
                 -0.09077244816349921974
                  0.28021349521098903868
                 -0.23613985146581789598
                  0.00756420869693742118
                  0.00730418101477075740
                 -0.00422132214083417810
                  0.15762777699512531271
                 -0.04800298716225939732
                 -0.07810080744032972533
                  0.14122757886311251840
                 -0.08618049758687737483
                 -0.02367471671125652433
                  0.37484173913628310304
                  0.05650090252965456195
                  0.13230946780843272359
                 -0.06986444805347785669
                  0.00565394333790500067
                  0.01775898400549984907
                  0.04120592135446465853
                  0.05328251156965493895
                 -0.03104203275569566295
                  0.19749320443356332966
                 -0.31414659038360026599
                  0.38199618282537473046
                  0.07669396377867737646
                 -0.06312369718543078823
                 -0.33285398919731906675
                  0.36962823258023413953
                  0.23998265358672923875
                  0.25293863684733858266
                  0.04211535530867787508
                  0.21360520939464533452
                 -0.04059689967599927618
                 -0.05142009765697105883
                 -0.16997452527758241669
                 -0.00074040326408147342
                  0.14123898571973078631
                  0.03933213113311740533
                  0.05124966915367340503
                  0.49479850126543645228
                 -0.01074481492968384563
                  0.33085128301660582384
                  0.23335844656523180296
                  0.12217981842131647729
                  0.02333137430633106316
                  0.14289400663689291737
                 -0.08675804392299443779
                  0.03739199174305191803
                  0.29175498795322485357
                 -0.02504714809445743318
                 -0.11858607783408392500
                 -0.39020908971827655831
                 -0.04769241658848044629
                  0.03054871483791026313
                 -0.03316565119213182172
                 -0.33583831240953887498
                  0.13731725805168623622
                  0.21958852812817059030
                  0.00569153486280793517
                  0.02285673748891431378
                 -0.22059530972666827053
                 -0.01389565793154938153
                 -0.47982887264145424044
                 -0.25355494952979029666
                 -0.29275591575854109649
                 -0.32437763589359425165
                  0.22463465044247279967
                  0.03767810834984919310
                  0.07870737515139024365
                  0.28220349991236021170
                 -0.40831949746432272264
                  0.12549203368474431963
                  0.34269485589443138274
                 -0.09799963449497145485
                 -0.12101366174725142200
                 -0.16901720880981213613
                 -0.08973309057476913653
                  0.11050565754193501788
                  0.04091064041836440374
                  0.19748082832970531575
                 -0.31537811139547711203
                  0.23097978548289158085
                 -0.21943399296619564565
                 -0.04895485879595787293
                 -0.18263191085966834493
                 -0.16166324991129824018
                 -0.27125022065586257281
                  0.00659163584884664162
                 -0.02009813379556874349
                  0.12457625888233159195
                  0.11614791159754887795
                  0.01672464066871473531
                  0.31301116587344024467
                 -0.01147380347423836155
                 -0.23514047372139268433
                  0.05733863304007736500
                  0.01794348180266445297
                 -0.26181918220035227396
                 -0.10510996647578849106
                 -0.34393699702258861972
                  0.16215469853434666403
                  0.09528013088741149605
                 -0.03178673740019643396
                  0.20316628769036107482
                  0.26858169451000096783
                 -0.17438329445433795040
                 -0.19169440216984620640
                  0.11505677980057731069
                 -0.04283351261871529148
                  0.03843183454866789389
                  0.16799297579907038203
                  0.30542221721170176307
                  0.30430882505678513716
                 -0.09714690722770988329
                  0.24666353604366164642
                  0.23222235376651398364
                  0.18227857675932246373
                  0.06889026383091954864
                  0.23585157919853239061
                  0.42182251192199921030
                  0.10244281680875119700
                 -0.03135184484127349902
                 -0.20562792540339167036
                  0.17480710066058938179
                  0.10317435152912379781
                  0.12414330490142921892
                 -0.00831056091034870596
                  0.13371362762947036629
                  0.12813777682112836853
                 -0.07399711980705989123
                 -0.06308301547589803548
                  0.06694909270565453652
                 -0.02665906171177686093
                 -0.05248755073489703299
                 -0.04841207178386741639
                  0.12217910456031721989
                  0.01422507808729884735
                  0.00716968006915551584
                  0.10490105070438977830
                  0.02068927311844212871
                 -0.04419122307556463958
                 -0.31111445706800544553
                  0.33178883600435632450
                  0.17811253971273996455
                 -0.10572742424069311862
                 -0.28415062186384348886
                 -0.11227712787129165428
                 -0.12945381466183072949
                 -0.09917431951426280978
                  0.18679150299090926945
                 -0.02455903571753791093
                  0.07237017234593594306
                 -0.22323699867916851902
                 -0.02151198668300805666
                  0.09405433945646524130
                  0.05412957981545022529
                  0.09427967886104830775
                 -0.00643691217325115510
                  0.19624283399472472467
                 -0.03439758375529528012
                 -0.21588768821600445857
                 -0.06968865737580771935
                 -0.07632085289632029035
                 -0.27525354171839561124
                 -0.03551901697521067658
                 -0.09284083970418594012
                 -0.18537393239049890226
                  0.03808470538584691339
                  0.11467530797677642773
                 -0.07883801316825722605
                 -0.31357634299588860172
                  0.24173105363063557283
                 -0.06049252542811187072
                 -0.15490612335684778023
                  0.37372826205927967003
                  0.00344618470840259671
                  0.16013456945694154454
                 -0.00757202257424223046
                 -0.35215969014365827716
                 -0.02326391240723955228
                  0.16953902835814910199
                 -0.20157050982966623343
                 -0.04565282474894435255
                 -0.33829290225119007518
                 -0.56999251325735722506
                 -0.17308910467518451304
                 -0.09261906046039873608
                 -0.18297249799311665619
                 -0.17129752372059361964
                 -0.20123620330829664060
                 -0.03765938568541771225
                 -0.16399438823816106514
                  0.09696096855201863374
                 -0.20689166154450377988
                 -0.22777909837938509208
                  0.05142929909169763336
                 -0.05922222476979047134
                  0.08995454364065573472
                 -0.14012593658634275862
                  0.01030481389975431220
                 -0.20047821312596092458
                  0.09347808281209733783
                  0.02780048045629670769
                  0.15860533106043903095
                  0.07075337207176045362
                 -0.10905333154764905446
                 -0.12977740940068172026
                 -0.17446345600979554225
                  0.10197221500096544100
                  0.05130049994741175262
                  0.24242168522155291277
                  0.17318388249660801592
                 -0.12399014395667640187
                  0.06438565961150402583
                 -0.06788456874614090530
                 -0.32079206676793270425
                  0.10081130240432198408
                 -0.12007996436912060645
                  0.47617606056374123247
                  0.31179033349167284417
                  0.26324104304631584794
                  0.36567262972451619607
                  0.05495007513594613036
                 -0.08300559367130103117
                 -0.23772162188983567144
                 -0.29992311555891260078
                  0.24171173430698039697
                  0.15787728000025977315
                 -0.20517873284331672457
                 -0.12269767609595623459
                 -0.18806063218708701790
                  0.23963476505796121874
                  0.10487764575974914405
                  0.04881858948334729525
                 -0.35292757023021892326
                  0.08488511180377411591
                  0.12707008205455311289
                  0.15983707461398327654
                 -0.32957857825635616944
                 -0.11843484159453411542
                  0.17689241876618122529
                 -0.22606232729254743807
                 -0.70594824884467777260
                 -0.00369844891199856175
                  0.45364370914938412227
                  0.04788947397966229758
                 -0.06965562490004020835
                 -0.40212302020881529607
                 -0.02224041255164971309
                  0.14119067042017963143
                 -0.06076694018764212252
                 -0.20653828695093448542
                  0.32634076848708010177
                 -0.10896820950506627690
                 -0.03247428221575662105
                  0.13538715042121191034
                  0.13958716549381267047
                  0.03088990377455031605
                 -0.22474825358990790924
                  0.22981125934259968857
                  0.12356827745540086005
                 -0.00928365034176098849
                 -0.15066081087976676556
                  0.10930232614566647020
                  0.22649924368212315251
                 -0.07916534767452536314
                 -0.18637782658853044304
                  0.44850211708385284703
                  0.28343812583137462102
                  0.10911901360192538535
                 -0.00928134060364447025
                  0.00783765554333643380
                  0.04895676453026150815
                  0.25243580121062497712
                 -0.08578971675181085166
                  0.00693275615161496796
                  0.37674330131468741767
                  0.31164214756536484652
                 -0.20274532675479151056
                 -0.09474678230156860503
                 -0.14222243134786924368
                  0.03034996154328838819
                 -0.04728353449790742569
                 -0.25559174420923125304
                  0.03833063814680973819
                 -0.01131603516592749256
                  0.13212761474336659484
                  0.02255158033832888390
                 -0.27524411596743625363
                 -0.14688624022027532701
                 -0.03713369604743534114
                 -0.07543860335797539229
                  0.31441599233823586124
                 -0.08229909152960698804
                 -0.05747612117023025852
                 -0.03999903942086149855
                  0.51627614294890045166
                 -0.04669642684805717231
                  0.20696687598881366443
                 -0.06896597813029693713
                 -0.07439742736838736437
                  0.13816379748871834843
                  0.05084459142915594143
                 -0.13523808117795826922
                 -0.02137393927119984188
                  0.16418510568362362778
                 -0.18197614696765931908
                  0.23505919783243220400
                  0.13214869302006759799
                 -0.27040085741556657561
                 -0.26295627160087281515
                  0.14567776377715926928
                  0.10464771862818803005
                 -0.02574709090611641479
                  0.06734813163570116390
                 -0.30167537191582965983
                 -0.11106836114640948610
                  0.04935197945105748024
                  0.09821458902490201592
                 -0.07546110730671148903
                  0.11159395089525443734
                  0.13952140764759177194
                 -0.12040440136196955967
                  0.11278165370647981469
                  0.30996848051220426967
                  0.00845552124496853734
                 -0.09239995659723768129
                  0.04227059062352174490
                 -0.02026700496302675028
                 -0.01174175046898465191
                  0.26853377994227234371
                  0.05505803649991215104
                  0.15809470084062726691
                 -0.14517089337427308005
                  0.03591606023629228400
                  0.19736874290743169902
                 -0.13188159111010927527
                 -0.11656873367311602896
                 -0.12300182571269380194
                  0.08730445207557570308
                  0.14575161180116438797
                  0.02484510371842954188
                  0.00990537038863001373
                  0.02119804458790815541
                 -0.07629810826928798417
                  0.05320081261480394397
                 -0.15301056225300499469
                  0.06017973633560816382
                  0.17569781048894289599
                  0.14507873172878929524
                 -0.00416294560362938902
                  0.01431037258910978528
                 -0.28596459642500687837
                 -0.03114813751745232340
                 -0.13877641909995291902
                  0.08287552337705456074
                 -0.06141786483526808643
                  0.02774501903322663596
                  0.27780871941314227991
                  0.12410371205321889254
                 -0.28120747080660130068
                 -0.09658759482836076771
                 -0.16795534028462574816
                 -0.02962069568314572993
                  0.31544383497820199791
                 -0.06036305810604297717
                  0.01160838022101713142
                 -0.07628856368309594460
                  0.23914468979192873843
                 -0.15531735187417969324
                 -0.11562644230314025884
                  0.40549119746548600851
                  0.03615144866580068811
                  0.00929342586077280819
                 -0.08205915541787760226
                 -0.06785365365627814283
                  0.37397412995082213172
                 -0.15961998380236466777
                  0.13837480422463610541
                 -0.29828405602113522432
                  0.09190137439219352167
                  0.26661907618434516065
                 -0.00023679988876838202
                 -0.15761075177455668994
                 -0.05053334427453379241
                 -0.05874233622574446395
                 -0.13215782045104307318
                  0.10914000289587712234
                 -0.16266780738580963184
                 -0.40354454678670226286
                 -0.07984277661558419892
                  0.34703839287578958084
                 -0.02502032730195314150
                 -0.01589322889772434855
                 -0.12902059769097440345
                  0.06086701841674325986
                  0.11043987730067872377
                  0.06476098940794704217
                  0.02886448673134566281
                 -0.13235955991862446979
                  0.04311303011884311254
                 -0.14450306299189918935
                 -0.14692196857194159132
                 -0.06094399632532060407
                 -0.02755943921811936786
                 -0.04954238324596985099
                 -0.21962101745591200430
                  0.20043730280425023360
                  0.10219220897391063929
                 -0.29613275168842045915
                 -0.06336896707011076268
                 -0.20700770492447687077
                 -0.00886075395832028843
                  0.09443130818472542098
                 -0.15925191847330161243
                 -0.09411239754876790653
                 -0.15031574851230622425
                  0.11052816044256190409
                  0.00802355012580319681
                  0.22415639547555282762
                 -0.21557387670390371071
                 -0.27993532210929333859
                 -0.04406192944173454445
                  0.01381487643188408429
                  0.41724611399713273929
                  0.38915277613422877279
                  0.00773734310646080874
                 -0.41245790515045671620
                  0.04501247548348170230
                  0.26236557229684676074
                 -0.15872651324321959687
                 -0.01020312263249065210
                  0.08263876516705317976
                 -0.14086844583510996221
                  0.03338504785194387758
                  0.09501697224865185420
                 -0.08111635402942291018
                 -0.11638279803842044302
                 -0.13553138572495590508
                 -0.30279731798757397732
                 -0.17608576230059583279
                 -0.06604829873088863268
                  0.25674560817417790837
                  0.11653587531042908232
                  0.01688098105968263013
                  0.03597793287414260965
                  0.19140049571475115098
                  0.09365605927851955448
                  0.09578163415974959294
                 -0.10441924769438648557
                  0.10270703313256535072
                  0.02177887580089526640
                 -0.03571180257464886404
                 -0.17257609082778693765
                 -0.44094305369909958525
                 -0.07255980663025077271
                 -0.18609867972743029951
                 -0.08056820743656863126
                  0.16019689197100536737
                 -0.18265384463869621667
                  0.01226336003539724336
                 -0.02252851908454657145
                  0.32115823283661742993
                 -0.11984899462900755474
                  0.30990535809072078388
                 -0.02665696468214431847
                 -0.35700451834686502961
                  0.21252790395394591250
                 -0.34018291830958558020
                 -0.20706045854735663503
                 -0.02213081634510963291
                  0.04839630734640163606
                  0.57210226509303574449
                  0.03599214202458958511
                 -0.31058016702363500094
                 -0.01445380820748290440
                 -0.00195640330563292024
                 -0.26409847162849070523
                  0.12807674989366132912
                 -0.18507767091030291606
                  0.14344454133452325117
                 -0.05058812449590555094
                  0.26716565244086926123
                 -0.03596230198262019562
                 -0.03331172552493943256
                  0.04304519038987583701
                  0.05263590822033930444
                 -0.11826299469481045545
                  0.26087318198523246071
                 -0.20597667280568643378
                  0.15276627220709770860
                 -0.08102649214847605641
                 -0.33076333273438623950
                  0.04329992492958209538
                  0.27397448244227112779
                 -0.13518322700206564235
                  0.08910230622841558423
                 -0.01372362519926895522
                 -0.05150080408891912626
                  0.14218679638810793886
                 -0.07477825901722753854
                  0.05700609808359793224
                  0.17401774781865841923
                  0.04881872731057250447
                 -0.18507471050288856751
                 -0.20793208197683871186
                 -0.00667536764107148298
                  0.14224365290245036264
                  0.28826607927846636947
                 -0.12780160073990207148
                 -0.03094513712099620714
                 -0.07722707459484468018
                  0.03408409234545782540
                  0.09278744880521358485
                 -0.19567105566858242205
                  0.34331418859826023926
                 -0.23981432086397905246
                 -0.07160673613363220669
                  0.12056077687671461207
                 -0.05007712711935024402
                 -0.13568638888837500356
                 -0.32540021235397076360
                  0.15526921892171302586
                  0.33388611714923011053
                  0.11063297895006840577
                  0.03747503950520270077
                 -0.38900535985059703226
                  0.04435872681117770944
                 -0.20256824812589843687
                  0.17597060741413592111
                 -0.05494654535665598888
                  0.17150341614657896305
                 -0.24767378573445567036
                  0.16146132246071337457
                 -0.16885538232540511783
                 -0.08084112419964116503
                  0.04322871725028091389
                 -0.12847078964424349379
                  0.09849095328175103137
                 -0.02141846836510542113
                 -0.03179777982464362246
                  0.16011531932299485903
                 -0.07659557235642563966
                  0.02208648662023882103
                 -0.03911730235047176929
                 -0.06675236082417759786
                 -0.07961209012079736858
                  0.16178973733972798477
                 -0.09937256537852531824
                  0.29055208129608361967
                  0.07214749388381162809
                  0.06288358179884642740
                  0.03902716749518449213
                 -0.08931105333831661219
                 -0.05675129923655112402
                 -0.06988546083487860716
                  0.14254436136776529875
                  0.16271337873918365058
                 -0.25394647142467485779
                 -0.20689540210668302955
                 -0.02301956214472175230
                 -0.04963685209156940698
                  0.03282635471245688719
                  0.23790102537729240773
                 -0.00976666797378375993
                  0.05657668002709193011
                 -0.06049565154379708820
                  0.11240325696177967674
                  0.07453832675994839785
                 -0.12883733601646973899
                 -0.04468637240929192872
                 -0.20909459316523754113
                  0.04846420453679716606
                 -0.11825530578498116840
                  0.02837984605074837796
                  0.08143907218462458075
                 -0.24151667848362892710
                  0.02359348472193421517
                  0.23765544436187352462
                  0.22108599255543634476
                 -0.00479770957704398187
                 -0.09880757430760890581
                  0.07444324048852359044
                  0.04591829823458850462
                  0.02332303867766372107
                 -0.33612570263376012614
                  0.13077967680258642535
                  0.35686868951957501084
                  0.28681025307188029450
                  0.20208791092624467378
                  0.16030401058948975934
                  0.11333773712996371430
                  0.01688028606027729833
                 -0.08862142379689372240
                 -0.18680154820835967455
                  0.02731662715257286017
                 -0.27445903231905449671
                  0.08525911428203221398
                 -0.37794935918566530120
                 -0.33707092557154144652
                 -0.09617327896759737815
                  0.20675164002590265544
                  0.10643789790296213915
                 -0.17991533959773906015
                 -0.12775015468949632580
                 -0.04588277097665092313
                  0.00931882943866358879
                 -0.17441173386972638748
                 -0.05822509606400535359
                  0.14868094450603744350
                 -0.01173823988156206220
                 -0.00250476997748042343
                  0.19750067619048120027
                  0.01647326364935682019
                 -0.45134790396857910055
                 -0.18692602357853693729
                  0.12065701574788799399
                 -0.10957564594189336815
                 -0.09570943885841759480
                 -0.02727421228407194559
                  0.13838731532136644420
                 -0.08370472063397431384
                  0.08570639783111021204
                 -0.01889857646697084420
                 -0.14910549946653248177
                  0.31793080968699993782
                  0.26024981331518504124
                  0.03802281451955580316
                  0.24856381471589070187
                 -0.02197820620391986030
                 -0.05099215811303956652
                  0.15922565867196736278
                 -0.50742821329310427991
                  0.32521050303935811199
                  0.48322222069611037165
                  0.00620587154526506396
                 -0.05155310280801232714
                 -0.18259124598067086320
                  0.00762454863892580471
                  0.10842247872728437430
                  0.02737203730172637836
                 -0.16135807405695090644
                 -0.13595505441100694255
                 -0.20140889825295621440
                  0.34169007614138813267
                 -0.05224985069150241135
                 -0.18908600850869622390
                 -0.17490728061336174859
                  0.30203999851356655437
                 -0.02775421910364060316
                  0.12318112427582890434
                 -0.27651216328148930934
                 -0.09350346440936996295
                  0.04053796539037896052
                 -0.32897426991362466175
                  0.02100198357038893932
                 -0.14252226467123177422
                  0.17659177668268927208
                  0.05376199147956834540
                 -0.09653180902514947592
                 -0.11829683951612723902
                 -0.10372879467937831666
                  0.13913111036745082205
                  0.01108737432783974894
                  0.25379996287509570818
                 -0.20068080541587518528
                 -0.03144977668693837991
                  0.29712898162172951544
                  0.07137246840338037912
                 -0.01535808552870198893
                 -0.06000946744053829718
                  0.30284737246006104838
                  0.03526847764038053279
                 -0.10944377847532268944
                 -0.02836200951592466116
                 -0.05708380634027693246
                  0.08373108153702478462
                  0.00024004694201414014
                 -0.09247864379464497409
                 -0.23277105130653605314
                 -0.04838234994650884857
                  0.07492049650478357914
                  0.02841891352505822657
                  0.09860786761706809289
                  0.31800933367819195219
                 -0.03074181673485228139
                 -0.13376031375504821019
                 -0.36007682958745412805
                  0.36108470299078482268
                 -0.17431891514048764025
                  0.09955083260360438058
                 -0.40934985743474494591
                 -0.28561403352132630484
                 -0.08151544245209528528
                  0.33429556801840765168
                 -0.07300294057110133517
                  0.17454029798854603373
                 -0.12654976201777073941
                  0.26101734261611914123
                 -0.01587791538926858204
                 -0.10981952864977778672
                 -0.50596672207020909617
                  0.01356552587022265451
                  0.43084712992337370618
                 -0.30250885902902835412
                  0.30974203423390544998
                  0.14645031135702535341
                 -0.41723182274075709675
                  0.17410881038206924010
                 -0.53135469194190987352
                 -0.32952864732434417050
                 -0.08563348436414364162
                  0.30461578184435744721
                 -0.16331115006924967759
                 -0.29121908537955970564
                  0.07354725631607320069
                  0.07162029386836914202
                  0.09562973055810568279
                  0.21638902532253018185
                  0.09915028499971953457
                 -0.23294754104017559304
                  0.09556293289236472699
                  0.23402246359866302194
                  0.03797081637547473909
                 -0.13795854725920791983
                  0.13056068145541194214
                 -0.14373122264163309958
                 -0.13443160025275679992
                 -0.13537116526404607830
                  0.07922957586897555471
                 -0.15645714087806716908
                 -0.39698486830154111615
                 -0.59740806250964462176
                 -0.15193399240782587412
                 -0.16448464111476202021
                  0.12797061309142548913
                  0.01584570762569675190
                  0.33376504393408235050
                  0.09441187897377789628
                  0.22793946335942241732
                  0.32679118698259729259
                  0.04186144848541231006
                 -0.06928551705309134168
                  0.00848028271519973148
                 -0.16848643287821510328
                  0.01300868548196967150
                  0.09510451012210384414
                  0.01371286841454329337
                 -0.01792360286813918929
                 -0.11052149014224242618
                 -0.08470942651450948102
                 -0.11889633085108586297
                  0.25275181356531400967
                 -0.14103204702219598876
                  0.32941149999990038122
                  0.22561077064427176309
                  0.25812414410705730727
                 -0.34449587780833040851
                 -0.20856977031582976667
                 -0.13184628832115974362
                  0.37237676833819660649
                  0.02127428598850476110
                  0.12163626553892001314
                 -0.08207058299650593636
                  0.02193817526086083020
                 -0.36249133273678135758
                 -0.20774552734462148340
                  0.04384693397753391952
                  0.14289091324095862245
                 -0.22170644720582294296
                 -0.27239302613871946290
                 -0.21880562415771800944
                  0.18797379924204823953
                  0.12730184635921476533
                 -0.24558973135276435107
                  0.06445716902819537131
                  0.31057111292990768892
                 -0.24949797594203537709
                 -0.01616828447478366182
                  0.05414654964409690296
                  0.17204211322849582988
                 -0.39498139136664245363
                 -0.15188719520579990752
                  0.03935701612701826557
                  0.00372904678965793081
                  0.38262520002442368394
                 -0.20868361960925713161
                  0.15110076965395180526
                  0.33651220200749426548
                  0.09799425972201732116
                 -0.23681446938470099295
                 -0.03025850879096441196
                 -0.13240845773178272493
                  0.05483597272882376195
                  0.41488556546974741934
                 -0.57919104117784214747
                 -0.17253679262126758731
                  0.11023325017925796054
                  0.11755125369569455196
                  0.32192043111640933351
                 -0.29597862151662851504
                  0.03225273440574741995
                  0.30843478720341205301
                 -0.23188961846031108660
                  0.40362908944071163031
                 -0.48246401059645871445
                  0.63214893400669758261
                 -0.17430085226563094003
                 -0.13271778934319256038
                  0.38885685526249846866
                  0.15875273456680730200
                 -0.01682518463437010156
                  0.25365654087775368897
                  0.37290378835263404689
                 -0.07638673281116808989
                  0.22531494211554309315
                  0.29091821187782884728
                 -0.22148851163402702436
                  0.46076563451292412710
                  0.08532496693586286152
                  0.19206590729548969620
                  0.17134888355266786331
                  0.08575710683522179412
                 -0.03554658723977196372
                 -0.02268268901293748682
                 -0.08330370343928730770
                 -0.18036156529254532277
                 -0.02610045811477758326
                  0.05876375309407472214
                  0.10962620997201950879
                 -0.24521303211375405917
                 -0.04021888629618840250
                  0.38003531710771232266
                  0.14613074035290474217
                 -0.14535945258197960350
                  0.12980591415177863968
                  0.19155038741730201490
                  0.20731266296527273152
                  0.18508073264429247828
                  0.14552049084696358494
                 -0.40167850393778697926
                 -0.13031740231713462297
                 -0.26501252309975964483
                 -0.03228889547026332629
                  0.17932173148481361791
                 -0.06980767354096334421
                 -0.14082332718197457244
                 -0.27908741849771018240
                 -0.04873840984578667324
                 -0.23078755356648433805
                  0.12948794884877409817
                 -0.21148669991221927256
                  0.04623582838253754990
                 -0.36603077326318544937
                 -0.16814266576780967366
                 -0.52460706656327715791
                 -0.72294474898257921058
                 -0.42578806466422652877
                  0.33960922672751259199
                 -0.23660347698177552900
                 -0.44480531542588674920
                  0.29255924064154342767
                  0.01289580193811611271
                 -0.05127139370017885084
                 -0.44236525417804450910
                 -0.18706922842685147490
                  0.01345364805927799952
                  0.51643416380377848984
                  0.39590582224383080723
                  0.04648021186343803679
                  0.09774193341457280970
                  0.11811514880553281026
                  0.15218023164969921024
                  0.35396658390772089975
                  0.02696772327936509950
                  0.09949931877562125104
                 -0.03482884476757814457
                  0.06658112772230947995
                  0.00911501897257347912
                 -0.12855854474917186026
                 -0.03160145590758193374
                 -0.10875501250887414928
                 -0.08076690171268539886
                 -0.03623804869110076876
                 -0.00590182326957957096
                 -0.07750353912473798013
                 -0.10761030688324439708
                 -0.10333522038491610440
                  0.05455250163847773226
                  0.07365288815132378653
                  0.12634645382395948143
                  0.20488322741129680327
                  0.18047970631226173399
                  0.09117527107009779086
                  0.03310168217344975489
                 -0.01941063716144396378
                 -0.02416255699610537350
                 -0.26660272897396303238
                 -0.24971719091747904273
                 -0.09555218246526636650
                  0.16191039205598523054
                  0.11384975081779047379
                  0.42412983096613532386
                  0.39558886898237549667
                  0.25562626439997265804
                  1.03169894235279935302
                 -0.18923151611807706440
                  0.17622682166609821008
                 -0.18946810574765604596
                 -0.02614320871524985351
                  0.03730613136354008624
                  0.11621255320713248793
                 -0.16196724936513764992
                  0.09680005230084334777
                  0.18527901501871904544
                 -0.36669696791137856851
                 -0.07732664416585699474
                 -0.23491091405210781651
                  0.02729938802985349203
                  0.16290894443864570307
                  0.01005515083203381392
                 -0.09807868360375046612
                 -0.07007631228588283301
                  0.12450950684742946584
                 -0.28011439685899902630
                 -0.19834364113781421946
                  0.00210053855113540499
                 -0.01105603533966410638
                  0.02105082880852659696
                  0.13500355589406135004
                  0.08570039292470808812
                  0.69731643562266665270
                  0.18588532379279923412
                  0.14800597456912673033
                 -0.08649600182051357666
                 -0.28653662102701671355
                 -0.15591692854604821683
                 -0.21264352886802936893
                  0.06120086462175351738
                 -0.18476443879639320444
                 -0.17747297392249114512
                 -0.20039084560739389707
                  0.10508942162005507903
                  0.10010255159962422322
                  0.06205817557142158380
                  0.11656326424132501529
                  0.02011426748821746116
                 -0.04895200964857322756
                 -0.32820998549138513667
                 -0.00167878533980978569
                 -0.00509823701237633459
                 -0.06843095073395560890
                 -0.01950707732541780495
                  0.24172435752067872317
                  0.02413730803884800782
                  0.14939547570968855772
                  0.20514354792185257592
                  0.20721472906982243978
                  0.10202879721080690412
                 -0.00693914648150692048
                  0.17900840118731339845
                  0.17757426335170431453
                  0.37864420511793706048
                  0.03461955534301817961
                  0.35331523048685803401
                  0.17298947058484587247
                 -0.10183631911191744213
                 -0.22778440238434810583
                  0.38064581007560283066
                 -0.11477217990659899227
                  0.22798887255856745138
                 -0.05904661507927338321
                 -0.17085365979237407408
                 -0.24462974255477409891
                 -0.11668004808916379589
                 -0.01107984183727881919
                  0.11964581391831478896
                  0.07405099802585680957
                  0.13080760413006153886
                  0.09694515611148946110
                 -0.40291926227823687823
                  0.18460369384226590905
                 -0.74269770519962141631
                 -0.40013774695339504595
                 -0.36410449224291635550
                 -0.26386669138126628287
                 -0.10897170007032325190
                  0.16680926893688843848
                  0.43395562499016554492
                  0.47615170199686635000
                 -0.00842948034524639532
                  0.08704830842816617398
                  0.07418704285475750948
                 -0.32180604903688070362
                 -0.13078840668424768223
