The first PES
                 -1.13664233161322125731
                  1.57247714817521200281
                 -1.65082684554577552305
                 -1.09143132542089871251
                  1.07486762653109124699
                  0.42818407253041079752
                 -0.32317745098932532111
                 -0.85958394057233245000
                 -0.54287034277791801351
                  0.21168899105800956240
                  0.03418764411373042406
                  0.45099740019910911082
                 -1.07864932781794320427
                  1.39614261012745566326
                 -1.19067897315197268604
                 -0.45619139125295404824
                 -1.43273777825063564073
                 -1.30633142580610694949
                 -1.43846419030536276651
                 -2.19773569991213246766
                 -1.82357706988565726469
                  1.50111166163223930248
                 -1.41048644802256850639
                  0.95482565239013794667
                  0.82431578878788835940
                  0.88090065151376506503
                  0.58725085921979203185
                  0.31063733300282236893
                  0.20817995029539529406
                 -1.24583022012593791494
                  0.05592973830119607470
                 -0.04240947108392318504
                 -0.16042773415195335507
                 -0.62450900037240109075
                 -0.41329290410973457126
                 -0.82007526021054966137
                  0.81450481709501310057
                  0.98346892311842115664
                  0.96285578132296456566
                 -1.82206842193071216762
                  0.30414850258001591143
The second PES
                  2.84283364097669011272
                 -1.94054567767319885441
                  2.12252719403209733073
                 -1.58053995025576088373
                 -0.71389381177801558565
                 -0.81033193489718446934
                 -1.08506686680383146459
                 -1.18628932383583407528
                 -0.15685653638456847903
                 -0.47590201375915514026
                  0.14694457329668100809
                 -0.91216508627640835449
                 -0.01342926979419109199
                  1.60203073973748355563
                 -0.58440096272955410761
                 -0.94718749091191012379
                 -1.33750193800770245112
                 -1.34675801009617379655
                  1.08806286483296310585
                 -2.14181651055749977530
                  1.79315755160656720157
                  1.69780712445507875330
                 -0.37870185968981645575
                  1.14313515379762709046
                  0.79564339544684636873
                  0.43184828691979026960
                 -0.93346653716524718991
                 -0.47192919438685565492
                 -0.00055538226660049438
                 -0.23085220539165468567
                 -0.35101488217942888870
                 -0.46735128440765866253
                 -0.69141854795207680073
                 -0.61702886348791396998
                  0.83297707076315130603
                  0.29564242045194455422
                 -1.25303765247508236413
                  0.60522360940283093100
                 -1.51301910328762811986
                  1.79877030959093220375
                  0.72095911073228391430
The third PES
                  2.59800048343281586583
                 -1.21442986833534827262
                 -1.34458893619288355481
                  0.84608052494197949489
                 -1.43406117849141856446
                  0.67142135212062825644
                  0.59693041854406536650
                 -0.68107989196571183665
                  0.44332233249499308769
                  0.15080984255082841017
                 -0.03856312073195850010
                 -1.87279103563506232888
                  0.35766809794790693777
                 -0.96154996942218295963
                 -2.07967269068100213403
                 -0.97910414891248731539
                  1.34345682496769658343
                  1.62929902411223515024
                  1.57951864042628975504
                  1.83615779966402614676
                  1.62069029528803087992
                  1.53765601307684862675
                  0.85104107586985344724
                  1.31074150727432026109
                  0.91278843391595032575
                 -0.73907588632977216925
                 -0.62045046870653475235
                  0.43166125855627873742
                 -0.16710196781662681187
                 -0.15425178048294457822
                 -0.08292438243165160816
                 -0.20710995106295992940
                 -0.73046403094381240351
                 -1.12483896206099398540
                 -0.38750197126338548070
                 -0.91695574743716667943
                 -1.25528599201454071910
                 -1.24606891207818004652
                 -1.08735233234811889957
                  1.59060845455239796564
                  0.35216646232232190483
