The first PIP-NN PES                 
                 -1.52422430802711561526
                 10.13465895200515021202
                  0.45540187279592692082
                 -0.51038661513232808087
                 -1.55889311159152521569
                 -3.17408903145964149672
                 -1.18804056095532106774
                  3.77734383411265195463
                  0.90489424080302516273
                 -4.22954626171895675668
                  0.61675686539990504098
                 -0.75417239317927808884
                  1.15349555039408557811
                  0.64428085030502924013
                  2.14270750016322564235
                  1.56373433646182879997
                 -3.13630793406106356258
                 -1.55126137989799040007
                  1.69665981560803280637
                 -3.88629581738125784440
                  2.96222508134141770952
                 -3.18896662161703403626
                 -0.55647334928725877834
                 -0.56817604969364132739
                  0.45187111304517169064
                 -1.68905950820929651179
                 -0.17506811434748428824
                 -3.07043061780597970056
                  2.83116097083045925586
                 -2.20937844687149320677
                  4.73186119946216976473
                  1.28238711947950734249
                  1.92858515355643311828
                  1.27592320662787872543
                 -0.61846651900432536575
                  0.58140002209431118629
                  1.59691473426683305803
                 -3.19870818095791387137
                  2.13658104534128945318
                 -0.81245593785696512690
                  1.63188797096993742919
The second PIP-NN PES                 
                 -2.42861634867276388050
                 -0.94170794028173865353
                 -2.72238444647543653687
                  2.61172342812401314660
                  1.07099721232995492848
                 -0.92541946640924921397
                 -1.99086512937021531400
                 -2.04697331876268773243
                  1.56755374287310678127
                  0.39596972117005385661
                 -1.27513531793042678153
                 -1.79861959555913375475
                 -0.97264772557436729450
                  0.69623201761650865826
                  1.67219722101778178747
                 -2.71333109592583365810
                  2.32988030004295687547
                  1.95356525064900732325
                  4.72815113019665567151
                 -1.87190993425642959735
                  0.33213217018150625881
                 -0.93896879542093314441
                  0.90442017209520852994
                  1.47338733652886877401
                 -0.19188408399259221371
                  2.76470393800877323187
                 -3.66632532369722907717
                 -0.04308201843253779695
                  1.47617166403866617586
                  1.84761858982688287334
                  0.58393257623998806594
                  0.80907171841568303883
                  1.11964168545948994371
                 -1.00768664366353433159
                 -1.40746555244853044364
                  1.77276209101882109564
                 -0.82893200188424354113
                 -0.34330447871985125818
                  2.78930680874868697217
                  0.10512941560543870301
                  1.05799395322618239312
The third PIP-NN PES                 
                 -0.85708072623905351417
                 -2.67842527934074370322
                  1.82210897324118170637
                  1.02566518231027292707
                 -0.43724530558075730413
                 -1.45782679093374389900
                 -3.17060714768527818208
                  0.71620043112417441922
                 -1.52423576398699389678
                 -2.46792123019890929925
                 -0.72180488833839717699
                 -2.29133104998741377045
                  0.64669984380614309316
                  2.81840199033107374760
                  1.69616037471324254682
                 -0.72951505538305383425
                 -2.44328946581535433324
                  0.77790951693095999886
                  0.26999662118617218098
                 -0.78293056374840108713
                  1.61144942302660076905
                  1.40313689233926952582
                 -0.35725302819496168594
                  0.09386578827200839359
                 -3.46846806579612643162
                 -1.09115473840108734294
                  1.17045737421042383986
                 -1.79086856712616593335
                 -0.17082295970118160922
                 -1.00309039202648686562
                 -1.32665318796525810718
                 -0.34010569209093277632
                  1.69733655104346636833
                 -4.17083817405203749473
                 -2.30134184441658007358
                  0.69864215074629232305
                 -1.99639817456237400606
                  2.86040032948382449973
                  3.30520957564207362722
                 -2.65191018436225833810
                  0.19731147630001030779
