the first PES
                 -1.73595510557637955351
                  1.49007540024791484967
                  1.97472165341323124821
                 -1.67588250547260497747
                  0.89999922035789492458
                 -1.80314552151441120920
                 -0.58248037826896748026
                 -0.12768866184842278533
                 -0.17129662244181823039
                  0.38483425113960406660
                 -0.61962810566120374300
                 -0.84041394192316409839
                 -0.16750885439510410091
                  2.89801428850847164753
                  2.02438362354461354187
                 -2.43545785277707071970
                 -1.76381838257082645960
                 -1.10339512186795296600
                 -1.35016863594054448150
                  1.72696981413032335517
                 -1.31650570439013026025
                 -1.89806235360365893605
                  1.02452052355891187752
                 -0.79110052358051674570
                 -1.32726373763629323932
                 -0.69377137428992319279
                 -0.68589514642428117686
                 -0.62597716507272560538
                  0.14494363286512554345
                  0.07696971863505082390
                  0.48470340522646648829
                  0.05293002320203238353
                 -0.35054420677475289780
                 -0.62202811153013226608
                  0.71394414114929094506
                  0.32308065562548005101
                  1.03327892156818434977
                 -1.41480747700501896524
                 -0.92413751270528354809
                  1.63730442911933016248
                  0.22189452593177771966
the second PES
                 -1.98652117369249703316
                  1.70325230071258637565
                  0.71568650545399181695
                 -0.97647832335577355867
                 -0.77160339861849613907
                  0.91724682849357797032
                 -0.89733097958977736663
                  0.46313662364976454500
                 -1.06689644677584571930
                  1.13894114979028149293
                  0.59443243603928741514
                 -0.50661225728434433613
                 -0.08277773379055659853
                  0.70910334047436629490
                 -1.40123852346572119743
                  1.61697786591651415655
                  1.51928537695199739055
                  1.66372203663571927024
                  2.19666467431513900976
                  1.77929558780453955791
                 -1.58513145630836627120
                 -1.35280818697430893494
                 -0.96940905917763597888
                 -1.03767798421568535616
                 -0.84007957197013494177
                  0.95791683941752447939
                  0.31527981147373657089
                 -0.62064756994160363845
                 -0.09878557753726301127
                  0.19606899010940728734
                 -0.20472681639388104480
                 -0.79538743843791914756
                  0.41770873757863158371
                 -0.50554704189339139120
                 -0.84309387850169215106
                  0.85667672787820969837
                  0.94326280736000667204
                  1.02351849885372758742
                  1.00994912253698365667
                 -1.33344252321632761316
                  1.15859405909587942496
the third PES
                 -2.19890239568782908108
                 -1.51699533229872263185
                  0.93383288586365942319
                  0.84391685783890957318
                  1.62643882120764304844
                 -0.53441481164001813919
                 -1.32237868360848898064
                 -1.20462380570902416466
                  0.22420435623132839442
                  0.93094185056774048093
                  0.81459699811917962720
                 -1.00483368311916199112
                 -0.76355153323673985444
                  1.15828805592386885337
                  0.52573274138468650829
                 -0.68836463700460570614
                 -1.47526509019405893675
                 -1.88958253982274082539
                  1.30173837321357144248
                 -2.07508484039237295349
                  1.83990846729918566815
                 -1.67450637589233020108
                  1.24032841957967954194
                 -1.11802945426932232031
                 -0.85041617750583309299
                  0.72593920862757199686
                 -1.12645062808241003260
                 -0.72476548905634297082
                 -0.67038812950938486690
                 -0.43521486148479820999
                  0.02354974404022633708
                 -0.20123497939870871321
                  0.50583798545893188248
                 -0.68053972295892672939
                 -1.13577740402280258358
                  0.96082909060088761422
                 -1.07878037236376012054
                  1.48019434969784979828
                  1.26924490509310916586
                 -1.75203624237008281916
                  0.70929731621227398719
