The first PIP-NN PES, totrmse=0.0778, errmax=0.8853, trainrmse=0.0770, validrmse=0.0882, testrmse=0.0818eV
12	2	1
20	20	
1	701
  0.4519837486264880	  0.2609422201470000	  0.1011134350000000	  0.1960850495896027	  0.2063517500000000	  0.1362056139489023	  0.0427477375000000	  0.0914032600000000	  0.0856457950000000	  0.0937227449858355	  0.0951320150000000	  0.0710898349999518	 40.0956748664499969
  0.4519837513735120	  0.2609880698530000	  0.1011134350000000	  0.1960850504103974	  0.2063517500000000	  0.1362056160510977	  0.0427477375000000	  0.0914032600000000	  0.0856457950000000	  0.0937227450141645	  0.0951320150000000	  0.0710898350000482	 40.0871321335499999
                  0.37794840265953472125
                  0.00126197442043749332
                 -0.19490106379173127715
                 -0.45677385326273645116
                  0.11287875416375375837
                 -0.50516714930439465814
                 -0.70377600493349279365
                 -0.25457312804153658936
                  0.68164088666042221831
                 -0.48029645951082433619
                  0.68531611753233800943
                  0.51259335445311937640
                 -0.48098967510849860441
                 -0.07122214513701842498
                 -0.31883505011912000038
                  1.30889618970125676256
                 -0.07130390956836114846
                 -0.29803267686354611987
                  0.86065096563050613732
                 -0.40882162808049554714
                  0.34878368631362366425
                  1.08042571242365736950
                 -0.14883270766016992726
                  0.31135475046778238184
                 -0.05702554516407008084
                  0.89059934542363528021
                 -0.94911563703099244282
                  0.38329469882749384047
                 -0.20265119135989961840
                  0.53611430802301629495
                 -0.67932176454483983452
                  0.74898992004133857492
                 -0.21333542329317856101
                  0.93543654155770949998
                  1.43996330650879089674
                  0.21107049833973406949
                  1.39708375879453372548
                 -1.67064320719712311458
                  2.06282219310192083128
                 -2.28970341131052235184
                 -0.77606385366449470720
                  1.18904183623589698726
                 -0.27606399237347101216
                  1.87672870940904634729
                 -2.43126311828059060716
                  0.94334293130434598851
                 -0.95819592434909539591
                  1.84919018098391529925
                 -0.09480557109533473137
                  0.65316264457025896562
                 -0.54751346291470337491
                  0.53782285186244027653
                  0.69195933683787236301
                  0.89921855680854834159
                 -1.23937668903517694829
                  0.86253631930737462152
                 -0.54751677316289681929
                  0.12107715031183882703
                  0.35852205724259889053
                  0.41663235166581691349
                  0.26246320009707208021
                 -0.02493685541701057273
                  0.67383324212251660690
                 -1.36408070618323207235
                  0.81850520631365175639
                 -0.46027147260851725141
                  1.79265728166815607736
                  1.72256943734618150899
                 -1.41510804073055851404
                 -0.29516800666782788687
                 -1.20698362612074228117
                  0.48206847827249327265
                 -0.23591291693243371386
                  0.83058423099158307235
                  0.68872418686044911684
                  0.35722999701604751799
                 -1.43790309430890284048
                 -1.13453834359324901015
                  0.48201964844864220172
                  0.73127455445213851437
                  0.82135202348549019025
                  0.16328036577319762768
                 -1.29919289710536567384
                  0.06379959702506586561
                  1.21220939569458985297
                  0.44868983622303876269
                  0.49379168086421482142
                  1.32962264370113958378
                  0.04414740810748084276
                 -1.50929262958901055924
                 -0.38313968144388743653
                 -0.90534221790491464787
                  0.68179330113575742356
                 -0.71793919987024479301
                 -0.41048736388228090899
                 -0.30836050050906010922
                  0.46400984501812697625
                  0.18182491358925273461
                  0.52754428832301070162
                  0.16072893743522584376
                 -0.05943768960696141357
                  0.65244950352716712949
                 -0.55977153101901877541
                 -0.93716026031673893559
                  0.33040855335888758004
                 -0.46798396608327436086
                  0.99036710470741384782
                  0.25471690322646023397
                  0.36944820594978999839
                 -1.67580604057906956683
                  2.12736282985705438264
                 -1.50246617557978279223
                  0.31601286210878820615
                 -1.45133736654338463268
                 -0.62102810160762988989
                  1.78683020229354183606
                 -0.19539563346785326914
                  0.78365118363989449968
                 -1.13153017628253449445
                  2.37176065434633809303
                  1.66693454259056084155
                 -0.93618403994923027334
                 -0.56981848530145073894
                 -1.01657989726197439673
                  1.31137711780851962118
                  0.45796750038001121652
                 -1.98239580175338248047
                 -1.42438120324754180501
                  0.46694145964721578412
                  0.66442028893299265313
                  0.94919106375205275494
                  0.49013448851368229819
                 -0.24417880810938150105
                 -0.08895173227997932308
                 -0.71832383599597626755
                  0.47670248515264934674
                  0.96515326960459157934
                  0.85254614055318245214
                  0.29318758466592653722
                 -1.30559492348697325781
                 -0.10718940315731580182
                  1.17636621350704873024
                  0.37195123802530222212
                 -0.20163455081151343551
                 -0.69770420467197513670
                  0.21557322314373592032
                  0.82189733973863299266
                  0.02926827486132729458
                 -0.76585311768102271035
                 -0.47762700865229995584
                 -0.53658171204670945809
                 -0.25936577298846202888
                 -0.04570182048868646346
                 -0.13054654907026563837
                 -1.26455117318997634079
                  0.36301388835518644260
                  1.19703089582573762861
                 -0.94324826152303720139
                  2.71922662653775049080
                  0.85800108150497433890
                 -0.26127700367480999333
                  0.72310274192697887585
                  1.33539751060571854069
                  0.19025956086159465097
                 -2.20854585983624129852
                 -1.43526334006390343667
                 -1.36274790718723592953
                 -0.11433454712606432035
                 -0.60919726161475196147
                  0.61720221815299325385
                  1.07169449300406838255
                 -0.84646531807019986804
                 -0.92062555983196947551
                 -0.89212819231753737181
                  0.27818757320069520400
                  0.63741788943958321845
                 -0.93628898086657119659
                  0.60196899932143121958
                  0.63253452633384565917
                 -0.34775156353383385177
                 -1.56358678922649430021
                  0.74058456289497065494
                  0.17649434011050163518
                 -0.38621837800913200178
                  0.01933187188069590556
                  0.33945342688836166456
                  0.27762423551332332528
                  0.15861699999955680696
                  1.24883058985685391207
                 -0.89363273567231216177
                  0.16899307990312600891
                 -0.47535006863383533204
                 -0.49299214010602454561
                  0.94734356413656950480
                 -1.57915166998592648717
                 -0.53289933254954868769
                  0.18233443024623149920
                  0.60539549510288603873
                 -0.05952272667202880563
                  0.13903050905374209067
                  1.06146896832556048018
                  0.72982133893117340229
                 -0.83651916981490892500
                 -1.34478865743284314860
                 -1.20853594279353337981
                  0.46582874567955873113
                 -2.40469378724513926926
                  0.25667994098884727716
                  0.23266625151597869481
                 -0.86861086307578105892
                 -0.00824384803196048961
                 -1.81876766758684937919
                  1.07755850576735556778
                 -0.03930489769263139505
                  1.85111520134059537313
                  1.28845880545733737499
                 -0.19340613610183970961
                 -1.20677285284031254875
                 -0.28654282941411146624
                 -0.10160763286450497089
                  1.00886412647643464169
                  0.05999271462707818359
                 -0.04781756882370583744
                 -1.03731165302143590878
                  0.28048652153010011912
                  0.57325351621588993556
                  1.48031202175881637650
                  1.20101532977237224209
                 -0.25424879945667183678
                  1.14470682541419876976
                  1.59643150895991436933
                 -0.93152153423105132912
                 -1.47886962697389701127
                  0.42777857996604706781
                  0.77972954133177252434
                  1.00548187685313439310
                 -1.11390655371789626393
                 -0.15895902090822042196
                 -2.00332997662175094078
                 -0.45244778745221420069
                  0.09090494053688891185
                 -0.12127516804031698849
                 -0.55016010036739371181
                  0.07574135361430529845
                  0.07378495920833971766
                  0.60705422276678233651
                  0.82722014584803726933
                  0.30319173377442210082
                 -0.35363610956408331187
                  0.32878578290131538209
                 -0.82889743055567211005
                 -0.82709832343347899908
                  0.39676388502388204582
                  0.55172856557099614339
                  0.87712309827038659193
                 -0.20576816387162369382
                  0.24148467930184341901
                  0.41227924082294903352
                 -0.13935067460993630362
                 -0.24540338238877551502
                 -0.25501954458472503307
                  0.08315865487133927703
                  0.47537146651231976247
                 -1.42763522526159225556
                  0.68942236384815447359
                  0.12087000801503264280
                 -0.49433993741545578793
                 -0.63786872281029283194
                  0.62281159500952554264
                  0.12184908181201886679
                  0.62333595030259736358
                  1.02896809607450201440
                  0.00215142569997205622
                 -0.15896761668027692416
                 -0.46742071605595852946
                 -0.41657870328360330214
                  1.03272852274557180863
                  0.33524907859864933046
                  0.32194344357419357738
                 -0.48863826011412259120
                  0.85725802450356847206
                 -0.57517518481843099565
                 -0.03066986206536945203
                 -0.18913825014839438787
                 -0.77368836623060877056
                 -1.11235541165010909381
                 -0.36827916381916014910
                 -1.26448018143514695488
                 -0.43311771426956074960
                  0.10659130923679015213
                  1.08900614379098747975
                 -0.19890057978952110918
                 -0.10970458080397993417
                 -1.12113809469073455460
                  0.79735884471931894879
                 -0.56970880092623876756
                 -0.26607710151151647837
                 -0.12744140599292122507
                  0.16591271149421762954
                  0.51082085260263854209
                 -0.04880002945561143918
                  0.09606684314065754016
                 -0.31695188205632440770
                  0.57855969818053987197
                 -0.13088467023891739438
                 -0.42712853913668780148
                 -0.45277971584965193141
                  0.95999022216415552666
                 -0.45790146576655438304
                 -0.16541121141036874143
                  0.36290638398481428473
                  0.39503547462624555298
                 -0.49090849850729700865
                  0.11038673450391264796
                 -0.06424475192793485667
                 -0.59718103948342449172
                  0.61348859776079978090
                  0.45537543523374102161
                 -0.33229507771314226172
                 -0.23394695841318641216
                 -0.45906012116589950400
                  0.58879509247503913905
                 -0.16949252253170418725
                 -0.15225331622250934394
                 -0.15262324513254360570
                  0.33654577321059253592
                  0.48436895302836407984
                  0.47243596547930671870
                 -0.23211580847266036209
                  0.31093051648661584885
                  0.29464412881312052050
                  0.43201670568572364539
                 -0.37666503574251558595
                 -0.03942427503292818963
                 -0.40421642795726259179
                 -0.41069625165350132079
                 -0.38101722224464057431
                  0.17848757550956276252
                 -0.28088668860771981439
                 -0.51305700607134818725
                 -1.10446420336475403801
                  0.99203424633566583690
                  0.47139583687568142878
                  0.27616799225598570589
                 -1.38990558529592544978
                 -0.23179512217382944317
                  0.39600852243371148509
                  0.63618301255494669189
                 -0.13722066260262788528
                  0.16307394022339921635
                  0.28841387152368025415
                 -0.29895338798006954040
                 -0.24143100968557218433
                 -0.64327497136998534888
                  0.58984153784955861699
                  0.17117094953717190697
                 -0.68011622184573339300
                 -0.49055489210827174507
                  0.97839004589047595672
                  0.21981383859917194568
                  0.19024045393427119199
                 -0.61570273713266465698
                 -0.59907013814238063709
                  0.10638555932960307160
                  0.19998678054755306133
                 -0.33673888546226343754
                 -0.06712259734194979399
                  0.86794045596145608101
                  0.62367214343569032931
                  0.23346952801718934278
                  0.15304135876983898656
                 -0.10010514863787399464
                  0.47054391490676139576
                 -1.02764473645905130006
                 -0.51824891307972542620
                 -0.10411673978384383688
                  0.00308270483381288887
                  0.74303498152727098791
                 -0.59513167716450476874
                  0.10059701120965307275
                  0.11918664540813116159
                  0.34703316853644200490
                  0.44446079125708692903
                  0.00619414964173824190
                  0.55091596895300021242
                  0.96165485720014431958
                  0.12021280603711945179
                  0.73593642731772979104
                  0.00720276843430120873
                 -0.04157107470927465243
                 -0.36280558747952984522
                  0.12431300528760262647
                  0.22034196187832699732
                  0.22713402815535996271
                 -0.40216813453775274168
                  0.08624916465780138597
                  0.32647747258464532294
                  1.27042824132452247810
                 -0.28013307218598709758
                  0.12560833206549981700
                 -0.48478427066640233933
                 -0.06918089579609995599
                  0.37724398057535640794
                  0.54573460761990011392
                  0.20050665209158163860
                 -0.22623185129325842913
                  0.82729908917863037576
                 -0.54608483465862223127
                 -0.11473159839354218903
                  1.25331532746639129350
                 -0.03264926249495844757
                 -0.26915836267113490976
                  0.84639977784034692299
                 -0.94122259146550446562
                 -0.64209877215739530332
                 -0.23535091639395341878
                 -0.41964291028573796893
                  0.26088793443714702880
                 -0.09001793392179426034
                  0.08666777047777478316
                  0.67413781318755383598
                 -0.06264574224936922398
                 -0.52621618419467219852
                 -3.25683975988839602422
                  0.17531477686910801328
                 -1.95751106281893716421
                 -0.74402089298543439000
                  0.25517811303839732506
                  0.27817091579728198125
                  1.16884828291502240738
                  1.12590690797996617611
                 -0.53774602377591962377
                 -0.63526021001154286960
                  0.04308760326383113265
                  1.03291488319534141560
                 -0.45378190844215487987
                 -0.65048928315145537749
                  0.82782561814129451694
                  0.69740387405818826672
                 -0.49474586620666666237
                 -0.01759707561336489728
                  0.31191007714174617815
                  0.20214077316846340571
                  1.54517290915373672888
                  0.28006680807935219191
                  0.54051232824606709748
                  0.26607357671374171071
                 -0.57947530693808080304
                  0.43848958713457292236
                 -0.32624176771311252931
                  0.04190227255618592800
                 -0.05111494962841299505
                 -0.30738858590561413120
                  1.13268758511486544727
                 -0.04351891550618777055
                  0.58527892172247997227
                  0.22602121917860504285
                  0.36164751666609290526
                 -0.33365254088037543667
                  0.70610887448978976177
                 -0.32509736550546830536
                 -1.13929443978937694482
                  0.08492749469005908547
                  0.27834564863199229290
                  0.62138816012378128573
                  1.03231514183625172620
                 -0.58763168385712893915
                 -1.54511317924878599506
                 -0.18581677275342275979
                  0.59170427663604119317
                  0.14333811805127169570
                 -0.08143717565327374119
                  0.30229930780824726400
                  0.22844330397388212806
                  1.64113616478289481293
                 -0.84134831996683356881
                  0.00975831667487712072
                  1.59648526467563844911
                  0.79487629949080773617
                 -0.16929672036944989899
                  0.00413622710555203513
                  0.22026729735068883986
                  0.21460384355679335000
                  0.19885840319038805557
                 -0.45919280135962708966
                  0.75968115589100215779
                  1.29464401076722457340
                 -0.78834479549424518741
                  0.52012169956538734095
                  0.18839728304295699779
                  0.53025385255739598822
                 -0.12768146694370829941
                 -0.11684839120971711457
                  0.64142442486908901600
                 -0.34589731786810951064
                  0.69753906341266080915
                 -0.50075889714111476714
                  0.26825818015859437260
                 -0.59007388730973875379
                 -0.29872447667760870793
                 -1.24813639940956355723
                  0.72808211445183201871
                  0.11260621373180899896
                 -1.52545007146804589837
                 -0.19168369774666882410
                 -1.03803553742183507502
                 -0.83769651334157346767
                  0.52026876619165374205
                  0.57145872100984862474
                  0.40157627571986381776
                  0.46401631444734386944
                 -1.40552158246175928902
                 -0.39640772522852191218
                 -0.73326150667351164270
                  0.23015438052154335580
                 -0.13998404297265737428
                  1.15674091393820432927
                  0.88699620195740247475
                  0.49810264959172129151
                 -0.65081357120748306588
                 -0.48512986384965833819
                 -0.02042404107018901474
                  0.37951703998225999603
                 -0.46549459233871215424
                  0.89714322500369858560
                 -0.63236984133544815734
                  0.31531582242112715653
                  0.13130706815153067590
                 -0.41099260688396727081
                  0.27261521278732103735
                  1.21648261282417835538
                 -0.35506546971250341205
                 -0.24389749803369398240
                 -0.25127242272329808337
                  0.41020619306881112021
                 -0.26265713326219547463
                  1.37823214957395778768
                  0.69308402695354165424
                 -0.95959552614818233174
                 -0.49630246995732280046
                 -0.41995966841446502604
                 -0.45715347562036001694
                 -0.55111872250219096081
                 -0.43727411730498400022
                  0.08730284341436063411
                 -0.44916109199084808257
                 -1.12885504091762545187
                  0.30385223378384540460
                  1.15732494282588982415
                 -0.39737801280645917990
                  0.23922043118856239907
                 -0.45206828569116164207
                  0.31328757344134622320
                 -1.56366928918075642763
                 -0.46870855721630916291
                  0.12626588522741383214
                 -0.45129366163663414691
                 -0.08774722077384580765
                 -0.11680415556751119754
                 -0.94383338783124370863
                 -0.27865345400344421201
                  0.16527674992651200658
                 -0.54239101422101798633
                  1.07227943553487969908
                 -0.38326971367276557734
                 -0.32514700173622324009
                  0.43899968952050988369
                  0.20975901903607832577
                 -0.30259160002645696386
                 -0.13539304986400005348
                 -0.31777731136364184561
                 -0.02569267892340650408
                  0.12137915264278473226
                  1.84723402057697483336
                  0.27476668948706534090
                  0.42645521605025771272
                 -1.04400521059501616428
                  0.33601869067653522549
                 -0.19725713453310836365
                  0.56604719384582435904
                  0.92026096047193250982
                  0.37655064937261956137
                 -0.18294426575354300057
                 -0.11793103203198682105
                 -0.03213661906581783551
                  0.87959341308502569934
                 -0.62573196244276729772
                  0.71043575522229562846
                  0.76682564568240296765
                 -2.07471903237070209869
                 -0.63234172453191739294
                 -0.10112155527308522296
                 -0.37838566990842958937
                 -0.06577559637357890954
                  0.06935432328595440843
                  0.87770522005272844090
                 -0.17897144789248081720
                 -0.49938012690844058028
                 -0.24915412802646785817
                 -0.36828078205409908730
                 -0.93289914933590278867
                 -0.01000714110411586935
                  0.04300137188619563428
                  0.82990601979408673561
                 -0.07699426261326053345
                 -0.48757934729289664766
                 -1.16907839069947150357
                 -0.12974262680606465925
                 -0.02856063066247987309
                  0.32177346792229527539
                  0.12730723692400003344
                 -0.50899145430091197184
                 -0.07771350318776096278
                  0.52394553589633696689
                  0.33932969886178232510
                  0.10245195128151086961
                 -0.01850103579170524898
                  0.60959479233867552850
                  0.00348025567960003534
                  0.17781013231628536864
                 -1.05657891660770064668
                  0.16588457423699165538
                 -0.34960528036236748761
                 -0.99725198712908247334
                 -0.57591251997796100159
                  0.13312958459314014337
                  0.33760689311890090814
                 -0.43930060345464716498
                 -0.23596258067927786128
                  0.24971770969674111917
                 -0.62124111589034236580
                 -0.01016860645281869938
                 -0.11736945036581633572
                 -0.85713562563566780828
                 -0.36159300487084483633
                 -0.97767971167967415713
                 -0.91702514621949682283
                  0.15257364048008786872
                  1.37247316549814701858
                 -0.76617440069565045935
                 -1.29366864953898752510
                  1.35449976736290156332
                  0.67863608290850152560
                  1.18933105038765196682
                  0.39897116394434489761
                  0.95721210498540332257
                  0.85262738865504028585
                 -1.52922138175980282249
                  1.51751675726940882249
                  0.71679277019031661933
                  1.43397967977157470010
                  1.06870998172099840318
                  1.50124937694000792909
                  1.20180623837406064247
                 -1.62211807540071895062
                 -1.72342163335666520574
                 -1.50399920337051673513
                  1.22300380366151073552
                 -2.11426043044771372337
                 -3.06486126771368638799
The second PIP-NN PES, totrmse=0.0762, errmax=0.8732, trainrmse=0.0750, validrmse=0.0894, testrmse=0.0832eV
12	2	1
20	20	
1	701
  0.4519837486264880	  0.2609422201470000	  0.1011134350000000	  0.1960850495896027	  0.2063517500000000	  0.1362056139489023	  0.0427477375000000	  0.0914032600000000	  0.0856457950000000	  0.0937227449858355	  0.0951320150000000	  0.0710898349999518	 40.0956748664499969
  0.4519837513735120	  0.2609880698530000	  0.1011134350000000	  0.1960850504103974	  0.2063517500000000	  0.1362056160510977	  0.0427477375000000	  0.0914032600000000	  0.0856457950000000	  0.0937227450141645	  0.0951320150000000	  0.0710898350000482	 40.0871321335499999
                 -0.40185050925786730547
                  2.53923285410682719743
                 -1.30174895581231964137
                  2.07730945952674872501
                 -0.90738413448114374482
                  0.19998190274772348340
                  0.49937876618413257201
                 -1.67749064919265200579
                  0.19653663196834220139
                  0.92807930638041424842
                  0.69966426981791396411
                  0.08500075175914648118
                 -0.22829093176621584327
                  0.76029295323693879549
                 -1.08025497087454103173
                 -0.65255567868526687114
                  0.14657168415314669740
                 -0.29823370000390386769
                 -1.24806335185923789055
                 -0.03991688708822282994
                  1.48378772361230559795
                 -0.48460384948424517493
                 -0.67202748034153692025
                  1.04027484134641512448
                 -0.89272518178211512918
                  1.21500961211136337958
                 -1.27267862496163108865
                  1.25483287089586759144
                  0.09633687439481400383
                  1.04831798807410780938
                  0.84069448667819368648
                 -1.64707662642408880771
                  0.14897803173952461897
                  0.49298844548719683578
                  0.72515277926957077970
                 -1.09878276691202758641
                  0.44520623153579741427
                 -1.21988393040755882524
                  2.02239250486169286347
                 -1.44616129293208395268
                 -1.28922308852990874506
                  1.61799090402095235852
                  0.12091152171934037296
                  1.50715814456140284605
                 -2.84632807892625816493
                  1.84547668421692656615
                 -1.58729501185892818427
                 -0.20231061509133385634
                  0.50158758391083424488
                 -0.05809345404143462926
                  1.18648903337329469920
                 -0.23698970506579211670
                 -1.58396226888995150794
                 -1.13392844461744957130
                  1.45274955483480394669
                  0.36358825134575162297
                  1.11248408270076848403
                  0.72942467924121967560
                 -1.58986539308214069877
                 -0.77630409169757152998
                 -0.51106580074990870521
                  0.14831573211303311632
                 -0.14232327711705411444
                 -0.76817716549883141575
                 -0.02370227384918408009
                  0.40488005005431176864
                  1.21792867529034909424
                 -1.35177996916224207880
                 -0.81503572094478105026
                  0.62803485365900824089
                 -0.29215974330101340817
                  0.29896613017522216671
                  0.68707256500013458300
                 -1.03892911255798336967
                  0.60427078049633897727
                  0.57120780505187951359
                 -0.50785284172570577255
                 -0.31503468357529701427
                 -0.52373390543641551442
                 -0.17156346015571297126
                  0.34516313188730540773
                  0.37011566617109609156
                  0.72310231719112416648
                  1.01995792443967836505
                  0.04487426193695718407
                  0.16018098724223878149
                 -0.97567039641328012767
                 -0.72083867758615427501
                 -0.09893128179106069897
                 -0.28636070419311704383
                 -2.03934330462782353877
                 -0.66738106766092442079
                  1.82635651888811034738
                  0.53565218857479734993
                  0.29051453783595082569
                  0.56898053854891772474
                  0.39890831110544994198
                  0.20598815878303117222
                  0.88876307222117356677
                  0.40922162042447168817
                 -1.03708137250208975999
                  0.54313665020462575939
                  1.55809916530660008682
                 -1.29118038793110989637
                 -0.54941125608990970530
                  0.00830333431443014240
                  0.35317450511046649675
                 -0.60236886268556655288
                  0.59894447740302469985
                  0.60793756962607914396
                 -0.65535849583711491828
                 -0.29698151206004924640
                 -0.53658074665901867029
                  0.17225869469772117637
                 -0.33823479117799859495
                  1.12944068757783355750
                 -0.56972707935003508162
                  0.15172885876993949528
                  1.54832816299936992799
                  1.52551260213610007099
                 -0.57073255464733907427
                  1.31129377430159177464
                 -2.14465391932135052144
                  0.35990125522227861543
                 -0.19218494673458183519
                  1.32919332350863994563
                 -0.08794249027329557877
                 -0.59210548370482574132
                 -0.09885972198468422067
                 -0.08404462472668856876
                  1.27156027877935540182
                 -0.28415686655802346872
                 -0.16232576082689717523
                 -1.18514995584164872788
                 -0.06515349323323323116
                 -0.48406303777059966897
                  0.51701013854267918735
                  1.45503964237142002780
                 -1.56849860626645165596
                 -0.00723072970572731077
                 -0.18275526151495055660
                  0.46231296916161346289
                  0.92415899123871469989
                  0.22490950729410333353
                  1.17225980557955744565
                 -0.14902159642424941954
                 -0.20692982356166386704
                  0.24384084617993703747
                 -0.11126855550335726375
                 -0.21941453286661360966
                 -0.17779156028221329566
                  0.17274028999262494577
                 -1.28826061177509787470
                  0.51905214188885073767
                  0.19286239456373271972
                  0.61589057112210388034
                  0.93971944410217600474
                  1.55791700252091547263
                 -1.47824086196069881538
                  0.83297350098168543298
                 -0.26720785975670025003
                  0.37181868617442831448
                  0.46864030429989322890
                 -0.14736268895855500483
                  0.15633988148486316350
                  0.12042595154367966015
                  0.03214781723678932640
                 -0.66490197243932314120
                 -0.66919248099099049032
                  0.41883290076327656104
                 -0.89027313170102961859
                  0.20486947693648946411
                  1.62024522941465098924
                 -0.54369011728707683506
                 -0.84880941349373317806
                 -0.31392557329099890495
                  0.36420918594707513138
                  1.47854453616847858477
                  0.30955188645530834490
                  0.48669530529143828490
                 -0.36539984968309019431
                  0.73448525496954875091
                  1.36423985184944718263
                  0.05942833888257441355
                 -1.31091879197927818623
                 -0.48239899157790849804
                  1.42613441872118063003
                  0.78831492401801417369
                 -0.97290974330890511723
                  0.92084101757486491735
                 -2.12704804012378856370
                  0.30865315020686240333
                  0.26242136918805386570
                 -0.94291682858374437082
                  1.00111838568383593184
                  0.65125717045965525465
                  0.50444957305930537839
                 -0.54516141210863611199
                  1.20309307271111753934
                  0.76600518565476394262
                 -0.74620333451466647201
                  1.16185014268660435910
                 -1.23858113568293037865
                  0.26450355996266333714
                 -1.39783082063864072531
                  0.55459968853641949948
                  0.96350140088547420181
                 -1.31742292454818166192
                 -1.62444051189670801705
                 -0.46957026221887265827
                  1.38149759847117237221
                  0.43110348604474046930
                 -0.54638202648403633166
                  0.70631650865609252321
                 -0.80554542447355037549
                  0.76199019204228524149
                  0.47264651705703392137
                 -0.59453725543384461361
                  0.00325786012490008811
                  0.41306911831797127332
                 -0.81037667926144618669
                  1.27896212907810147286
                  0.68136063091839293993
                 -1.25358893928969661324
                  0.56639888810537308839
                 -0.46727712655205305703
                 -0.25531915903688040537
                  0.71039489150768209136
                  0.32934266273464063435
                 -0.61909210348421128689
                 -0.57492404760072846059
                 -0.01028521261489825575
                  1.30905074439342650194
                 -2.28051692679893136528
                  0.29172099621561364824
                 -0.77588683997066343334
                  0.33123014278821288903
                  0.68325580739168501054
                 -0.66424781046948055963
                 -0.32148169991006769752
                 -0.42597626632670271274
                 -0.51898716832605606974
                 -0.02468599857151079421
                  0.21800729941775257026
                  1.08780079391436323988
                 -0.26362801772214100593
                  1.53535646425294158846
                 -0.59107632601893345115
                 -0.27621546159077842164
                 -0.09854230483570752819
                 -0.24316575175015994748
                 -0.37578818856672580040
                 -0.03090309690923509489
                 -0.50198559509448359428
                 -0.44122769808238759826
                  0.94167060073287267574
                 -0.46605653421791060076
                 -0.09620330051264287807
                  0.11810866367541557331
                  0.48885365388919899132
                 -0.34030536275945627578
                 -1.88177841011729274356
                  0.96707989317437781374
                  0.78088700258313537006
                  0.06756536753271702445
                  0.60857873765664649568
                  0.83448445308725882619
                 -2.30577103916541581441
                  1.74941356644757295413
                 -0.44871457530266933844
                  0.10968708465315171741
                 -0.84113703811270523758
                  0.78733561992237965921
                  0.63910776036113803311
                 -1.23312479526041962608
                  1.10597657425769058115
                 -0.70421529860094955744
                  1.20520909878560678052
                 -0.03239825974442810119
                  0.67028879594828583155
                  0.88954665330525672928
                 -0.59972106009719172715
                 -0.40708895598028521645
                  2.17671936547382438576
                  0.59203556899402953739
                  0.43468665256124217056
                 -0.38512830093704797374
                 -1.12537860021262825505
                 -1.11822808298701570351
                  0.19503245505086530542
                  0.62315874533307435978
                 -0.65259016536116920548
                  0.00900065341822260667
                 -0.92350690819297498457
                 -0.48860677943143127067
                  0.91371648230564972426
                 -0.63545095509605886708
                  0.05649385863819497006
                 -0.67166954346304508228
                 -0.95385445363892473747
                  0.05562828198956765169
                 -0.32390803653830818609
                  0.33275264838443119331
                  0.30020080753487626835
                 -0.18567619193568238312
                 -0.49665917062460984699
                 -0.06197037353869550708
                 -0.98609757661659980243
                  1.13487525461752492006
                 -0.87069274156156373223
                  0.23167657982646952530
                 -0.42208726239103844247
                  0.40943855242821103335
                 -0.39401648109457126923
                 -0.58714050382119920002
                  0.94188247291915450088
                  0.51828782407448936720
                  0.42143237866833288541
                  0.24827063389916848024
                 -0.05598158813679361689
                  1.30534440025906550709
                  0.48496418116415995758
                  0.17441781998485414440
                 -1.00656490654328534262
                 -0.78171463222326620368
                 -0.93738067821710502336
                 -0.27202348713632429344
                  0.94409958411073757745
                  0.17128896313968713927
                  0.02288436725092629978
                 -0.60159067482093120383
                 -0.65756722533646483342
                 -0.20392130914046513457
                  0.14814739453118336288
                  0.50632010568754792779
                 -0.47606622439605045249
                  0.95614392515695700858
                 -0.32533085881361095693
                  0.25511865992921123336
                  0.41222559093183758216
                 -0.13897526658765882446
                  0.66963336517723004437
                  0.22720664030458154192
                 -0.70178895157081455647
                 -0.05173787703848643782
                  0.47342222311248205457
                 -0.10628143284407423619
                 -0.64229012814353381167
                 -0.80053368601751517808
                  0.03858375531245394202
                  0.73415576230580092965
                  0.46353253780396846961
                  0.21059010811116793405
                 -0.88258980068196468682
                 -0.22744239011239036907
                  0.05524321987636731518
                  0.37314831944051624069
                 -0.48926776228157270454
                 -0.28242578586416394737
                 -0.04648353030166336303
                  0.57078802471615330827
                  0.66493229207961235261
                  0.08489468842635661261
                 -0.93084670652439638339
                 -1.68832930624925792173
                 -0.03605389431609942047
                 -0.42742137124490964251
                  0.54528463894755163643
                  0.46854907378242399707
                  0.45775610540231326251
                  0.35212280737742229775
                  0.13706527033314719333
                  0.08817830420524294666
                  0.10700342327253231645
                 -0.09009514961590539550
                  0.81526775724734401596
                  0.08710419497430924030
                 -0.09043102274189736278
                  0.88764404589909917664
                 -0.38104831556413232274
                  0.19185325301283362442
                  0.54258187401117685678
                 -0.03611536585757973983
                 -0.75012130413893118863
                 -0.21652497000104992120
                  0.56452465230224224690
                 -0.65526285719834054255
                 -0.04550877188315097244
                  0.39764033646884516804
                 -0.48340855174665997573
                 -0.22246117158825454152
                 -0.22038299803470820515
                 -0.97245412159088406856
                 -0.90890145531227206632
                  0.01747726879817802434
                 -0.01817292431144680240
                  0.15336601355434092975
                  0.58336064945239829438
                  0.31734199737056673074
                  0.79426918342096963777
                 -0.54341656501948498725
                  0.20884678034641129818
                 -0.26705628293899869030
                  0.07501987956007838410
                 -0.15998728633408371147
                  0.52644054008506968589
                  0.82904176941959495384
                  0.42885909948042272299
                 -0.37095580970779734598
                  0.08101600434192267330
                  0.56829883230268996019
                 -1.04663089170088130508
                  0.72272225350641405850
                 -0.21211348353594139393
                 -0.10368033557360534225
                 -0.67307942777964646641
                  0.63393581767072326727
                  0.47933583692063286286
                  0.82402370562762050632
                  0.10638017469754752764
                 -0.56758263423541721604
                  0.58641256091726046140
                 -0.39955702241489327031
                 -1.80607380335746658950
                 -0.51191680998167821137
                 -0.33583891265159687700
                  0.18143925041239938878
                 -0.15183888355451694019
                  1.11128054836336320754
                  0.54301925897220537642
                  0.99488479508098648374
                 -0.92984511969558325539
                 -0.88518835586812649741
                 -0.36779379575141851744
                 -0.26844249708313483449
                 -0.95779439339285887822
                 -0.51926371744631127925
                  0.43536176988795399767
                  0.26628100396489906565
                  1.25884227021592787210
                  0.01552131598821321172
                  0.03577864525738245344
                 -0.08277475214635250655
                 -1.32397631715991326296
                  0.94250194473793535987
                  0.18440834035181200012
                 -1.01975924611584134460
                 -0.50199721861486079622
                 -0.92753289432764129963
                 -0.00043533492677928255
                  0.59542614805177629389
                 -1.42155550552082554638
                 -0.38481060895010532619
                 -0.94152028363656214971
                 -0.36427618954622287273
                  1.03377496816989244977
                  0.08013083220508733506
                  0.16392987020820054545
                 -0.24870307604069016860
                  0.48417752234583572024
                 -0.75174331678127159773
                 -0.16778707329645584090
                  0.15490322606118070436
                 -2.32038131147682236133
                 -0.38697924618071977143
                 -0.91118299997874718787
                  0.20794879195320500886
                  1.36096709473786825484
                 -0.27471217652793061825
                 -0.08305692408834609852
                 -0.63449621082540352823
                  0.23982285718761867099
                  0.96308656019594585107
                  0.61750787806558282700
                 -0.44188026016553244579
                 -0.01572592313559567287
                  0.93636509555770819357
                  0.17244423998784022545
                  1.12719654277853220670
                  0.40751753927383299603
                 -2.47526302708302292643
                  1.35638348904440264597
                 -0.12689101892963258744
                  0.34920367417188563630
                  1.04807950069302480145
                 -0.12997643454249113715
                  0.41362315019508688607
                 -0.57011588562063708618
                 -0.16715700710763167769
                 -0.11698830158839801374
                 -0.20621296609135159050
                  0.27621345139396513702
                 -0.66640280259930606555
                 -0.32535596328447491388
                 -0.12700800208486953680
                 -0.24803438799714494500
                 -0.75717968948774172500
                  0.66668428673455348843
                 -0.61776132729130739385
                  0.53302804094279143676
                 -0.55476263672362768897
                  0.30920537467802439169
                 -0.35562647443234285394
                 -0.64603189686718309748
                  0.66500687117713341845
                  0.61392256547906176589
                  1.22729407782721544606
                  0.22538448481629466680
                  0.47390039433170960681
                  1.04116142952758061746
                  0.00891775034922274307
                  0.04317791371643110027
                 -0.40000126583888584442
                 -0.13734902448534819230
                 -0.02394810062762696423
                  1.16585412720279735233
                  0.65962093201387028696
                  0.09124620405699564174
                 -0.13975517887180105570
                  0.17149988603730720316
                  0.82823978848129697905
                 -0.94023546004936731091
                  0.31504061500495517123
                 -0.45268734434762808450
                  0.70651802034763766525
                  0.87466882810429147366
                  0.25149421855442072316
                 -1.57925698276307135970
                  0.28881326280999541911
                 -0.81669424577258464826
                  0.32237498089946231561
                  0.42733683240535602632
                 -0.36415300450293119905
                 -0.48764103380050721759
                 -1.12739915553898661926
                  0.86023856918076846423
                 -0.58176042986346088171
                  0.36660253965179118163
                 -0.26298283196293770203
                  0.52514206780583294609
                 -0.14888907695350628302
                  0.87357202434098413235
                 -0.76212729892871644566
                  0.05808688560438217408
                 -1.16395280842091852769
                  0.05309374050336733430
                  0.36504660206980210635
                 -1.04423496847248808983
                  0.43030170223139690977
                 -0.28107946318243243189
                  0.40089780970795302339
                  0.30667981222053009027
                 -0.01409565632962058411
                  0.17214267283818462939
                  0.51429869724339594139
                 -0.50432424748265969328
                  0.17593865547675713312
                 -0.01997283776107569228
                  0.13740696894686008078
                 -0.34196396769150882999
                 -0.16313524442296886696
                 -0.47319504977214105201
                 -0.48664885396711682342
                  0.01645271073735232736
                  0.14868942020075989752
                  0.52559199819682578259
                 -0.44779781664480000636
                 -0.33848743538443770706
                  0.30639486195252263467
                 -0.02445535496213564405
                 -0.29142202926187860124
                 -0.28558610475845241927
                  0.52382569827427882814
                 -0.02428537386921655189
                 -0.10366243562177149262
                  0.65623115680959798190
                  0.86993020216775729381
                  0.52769147117581605144
                 -0.23660915424077186286
                 -0.33658745412065255165
                 -0.46327533462415937393
                 -0.46870169145825735235
                  1.83793752603256654865
                 -1.13543477621385280329
                  0.36598836252840921679
                 -0.23640422903611277294
                  0.20726354532709453937
                 -0.13090825869969532902
                  0.79475744493497790799
                  0.42799173584054284181
                 -1.67610342744148854699
                 -0.19086000476482350985
                 -0.14488222547608492485
                  1.57980511341464624486
                  0.65054478338005605753
                  0.97095034125934043256
                 -0.26115339512799357058
                  1.95422428960072136483
                  1.07298124134397321328
                 -0.06595939554408053462
                 -0.11903724444054698817
                  0.45163826451291910757
                 -0.36791388780924977331
                 -0.97960776976462593524
                 -0.36584119384326396762
                  0.11209705057313502918
                 -1.21780581337930549068
                  0.12391014035187113140
                 -1.14746779257659103912
                 -0.31046075163415154385
                 -1.64436836675912667616
                  1.28608823384933335099
                 -0.18442726208081242079
                  0.04469886921662773183
                  0.60734365945963653122
                 -0.56842791381357804514
                  0.39336869968171855882
                  1.26852931980517968924
                 -0.20721316404655201748
                 -0.00773674974041322055
                  0.24910991996572504070
                 -0.17013486313514980530
                  0.16145751504029717815
                 -0.62735909914393028775
                  0.25769339253204209816
                  0.05830484887043632658
                  0.02229942360004284058
                  0.11681027107432656598
                 -0.68156437256455715268
                 -0.77078044927953048848
                 -0.03823338743193063077
                 -0.53726020203650493023
                  0.17148141628248431134
                  0.35241396132114788387
                  0.08949135323337431558
                 -0.16151564922096559029
                 -0.09817674595443647012
                  0.38794504619537328871
                 -0.07991263319256740327
                 -0.43236998087470673857
                  1.42857157036980852993
                 -1.24005245404220310057
                 -1.62195399036563148165
                  1.44995366897882860258
                 -2.20744743733182202661
                  1.81260481584438837288
                  0.67709706136391556441
                  0.74466853045262393351
                 -1.59465126747780483463
                 -0.96173604980332128012
                 -1.17558384835597307116
                 -1.95696403761171588975
                 -1.08908574357664700294
                  0.76049775488119109035
                 -0.71305856648134136044
                  0.39884579790339957928
                 -0.75752449612500671883
                 -0.40507081841453884685
                 -0.94823140604273858933
                  0.79612069348835645677
The third PIP-NN PES, totrmse=0.1286, errmax=3.0549, trainrmse=0.1252, validrmse=0.1337, testrmse=0.1748eV
12	2	1
20	20	
1	701
  0.4519837486264880	  0.2609422201470000	  0.1011134350000000	  0.1960850495896027	  0.2063517500000000	  0.1362056139489023	  0.0427477375000000	  0.0914032600000000	  0.0856457950000000	  0.0937227449858355	  0.0951320150000000	  0.0710898349999518	 40.0956748664499969
  0.4519837513735120	  0.2609880698530000	  0.1011134350000000	  0.1960850504103974	  0.2063517500000000	  0.1362056160510977	  0.0427477375000000	  0.0914032600000000	  0.0856457950000000	  0.0937227450141645	  0.0951320150000000	  0.0710898350000482	 40.0871321335499999
                  0.08377754122085799560
                  0.36054992197430613121
                 -0.43874817639485169662
                 -0.20051305057846077751
                 -0.55436535962654120979
                  0.75936732490344016622
                  0.04350930890076701307
                  0.77817221010303982975
                 -0.54517923232400211653
                  0.97503059135599978724
                 -0.98684749526662451924
                  0.43574508186123084297
                  0.48890331202314885051
                 -0.23357318943410518286
                 -0.81195851913438288339
                  0.41554331715431658267
                 -0.79708056019506845491
                 -0.94914463319627939697
                 -0.84281803400287824690
                 -0.18914159006756522952
                  1.30759734777500602476
                  0.58095502677523858104
                 -0.94983742604398613274
                  0.83605924713148349614
                  0.74759317357898447121
                  0.61253157941559810418
                 -0.89031969674129463055
                  1.11990963958525413524
                  0.24300586916241997959
                  0.52829212762881450072
                  0.35337594089078694370
                 -0.02681245845467551334
                  0.57473141841242880723
                  0.19427772066445961330
                 -1.38052830742600574077
                 -0.01402347455228177865
                  0.21091986164285395078
                 -1.10657611015861645498
                  0.77387439759981713205
                 -1.48967789341033962636
                  0.53063517786183134195
                 -0.24731600785408713872
                  1.10171434123546241324
                  1.69750223581928638694
                 -1.74202233040855025692
                  0.44100855230084901049
                 -0.87084492451358852527
                  1.65896245809646458724
                  0.37532290792874384300
                 -1.15282117501074088395
                  1.21555257988148857073
                 -0.11708717102026509893
                  0.48964853886055653698
                  0.10152895982334850244
                  0.24858688607092960243
                  1.03014460698281018480
                  0.41629214263716141087
                  0.16799317515556128066
                 -1.04070356728676727265
                  0.40316057304959951324
                  0.11027019246184907586
                 -2.09730646922687036238
                  1.83417722229496371611
                 -0.45376323162533593880
                 -0.05426851671811960126
                  0.45190164128376242303
                 -0.27038210725604705509
                  2.01327876617446799301
                 -1.43733983059673797733
                  1.42135568200503970004
                 -0.88369390471431008560
                  1.03971048421243250637
                 -0.29125806061036452199
                  0.79777990174684865199
                 -3.02992214296955930664
                  1.20099623799194232809
                  1.73347932914051305886
                 -0.46195435662241807195
                 -1.31874296652049749490
                 -1.14238546462186740804
                  1.88033533447685563544
                 -1.32313639734062160613
                  2.33867820764387657206
                 -0.70688677803902377761
                  0.44058091136245702835
                 -0.84564187500999721259
                  1.14730322872679013635
                  0.33365237473321485151
                 -0.96431016383254153368
                  1.00036565972822577564
                  1.04156410531653742524
                 -0.31839035428154244256
                 -1.96799697303046672303
                  0.72784302861763017223
                 -0.72030316962111429202
                 -0.47160273904061056349
                 -0.64003880244060074034
                  1.18552248680452265717
                 -0.82392350950387072128
                  1.01669220564998386003
                  0.22340089047915576148
                  0.15030709792707189210
                  0.25398514049729203901
                  0.55649885277094901515
                 -0.55687612656278961953
                 -0.91983150463527829643
                 -1.26759158961523099585
                 -0.62212270290811388929
                  0.21425213331102938019
                  0.27899174115907360294
                 -0.50395840229248523023
                  0.70880313605766165352
                  0.45589207884300220197
                  0.70976025105865470088
                 -1.33240961718242734158
                  0.62101272687295172581
                 -0.24807296400847397844
                  0.39910923351214611099
                  0.02683153735265258327
                 -0.51689695447836780939
                  0.63052343185900672218
                 -0.74202482980081030384
                  0.35758814306850933429
                 -0.22025446354309322072
                  0.49989431022344033018
                 -0.44040471790215579562
                  0.65669564126563306772
                 -0.03682824849009945500
                  0.12159457722413767600
                 -0.72775799024460274822
                  0.60267747560904494364
                  0.14017236350982414939
                  0.82034841591757157175
                 -2.17218402141586564014
                  1.53551657852071787858
                  0.46206405261927990802
                 -0.10071321632493819564
                 -1.41601348140598526371
                 -0.21788262116623682840
                  0.91576908256248878981
                 -0.16527113048003069795
                  0.21684151413818603116
                 -1.29691713124702645565
                 -1.19678462685669018128
                  0.77267307903393878110
                  0.07515281333557517762
                  0.83304028780639016727
                 -0.28647142939444703025
                  0.19219140355281208454
                  0.21467737467852146538
                 -1.11138399569770784936
                  0.42321570920037165919
                  0.60362631541465883167
                  0.56700017958371828897
                 -0.10168378077113940372
                 -0.28660039726559738416
                 -1.58453363446674955206
                  0.90810175082650290701
                 -1.47338970086936860149
                 -0.13377181312123750945
                 -0.30290941147880012796
                 -0.31695420920576977686
                 -1.27781679076746201851
                 -0.11087872163477545395
                  1.33866851631765149122
                  0.39194019892965425989
                  1.45351030403297465377
                 -0.07439560657967804469
                  0.71471070600803654482
                 -2.39345522410734856678
                  0.49454317505226352836
                  0.02705245576978286895
                 -0.51888961745968820161
                 -1.38560189380340625931
                 -0.26951211784116002601
                  0.98071284489833743248
                  0.83112465094203735738
                 -0.23807920181907776813
                 -0.86223098327573144406
                 -0.05324609820276381827
                 -0.19502110742536585275
                  0.28023720726602213693
                 -1.17647906343042674138
                  0.31981482584682813242
                  1.06538272213735130123
                  0.38889724484106835689
                 -0.67684228371871080210
                 -0.90938324728231290095
                  1.17252553030221573493
                 -0.23214710292353976651
                 -0.02617758216344046387
                  0.52648569288380231423
                 -0.22626802368233825402
                  1.53828160045274420220
                 -0.51934586187916298439
                  0.92237314664439584710
                  0.29620969658325385643
                 -0.39610736866404983036
                  1.39661025635996671745
                 -0.98906660226782117107
                 -0.39282175971840194162
                 -1.17621334189188031516
                 -0.19716062011726756542
                  0.93059062748995435843
                  0.74946877470967065982
                 -0.85820125887157261424
                  0.71708342662841517701
                 -0.47254772326849081576
                 -0.86630380215274960243
                  1.05338130955994380145
                  0.96382293612881198008
                 -0.33400045322705657069
                  0.12558163964645263633
                  0.33061747802503227422
                 -0.01638714659024149978
                  0.55826873016312139608
                  1.52026773034900153370
                 -0.37652633645953953456
                  0.06258875038537191349
                  0.81563376087520222946
                  1.63555428048586715128
                 -0.00518675398763423882
                 -0.60575864299764592413
                 -0.35850061659359450106
                  0.56041686299540383054
                 -0.82975141740818114666
                 -0.10549230439304155271
                 -0.36300503047959226111
                  0.63370172174584571412
                  0.03285739549936124437
                 -0.02640615162036006117
                 -0.80238033306771350261
                  0.71791656598794717503
                 -0.73505284872660114903
                  0.59197133066910501142
                  0.62901721451017467146
                 -0.68682599437618085947
                 -0.34578145864108544849
                  0.28977434975171528775
                 -0.76402589792413777570
                 -0.36694451848911180392
                  0.75277933174772326819
                 -0.14325758764246060428
                 -0.41446079339384706008
                 -0.66000118845583433114
                 -0.33621862467279362008
                  0.63131804957475246010
                 -0.42592733872597454692
                 -0.29541988115784134639
                 -0.24529029108890845756
                 -0.16210947374442585822
                  0.56712322293481376434
                 -0.25867772590674104061
                  0.85805829386072762777
                  0.37682606096100967896
                  0.90174436891962861385
                  0.79129409159814934061
                  0.39982769915846749775
                 -0.36805529131227537887
                 -0.06496321795904640151
                 -0.00042682134231381832
                  0.25669192945962160390
                  0.49417451985645099999
                  0.09393337051052677578
                 -0.67549835476771613596
                 -0.71336540684044946747
                  0.80907215040471458511
                 -0.01363237942870171825
                  0.19854743486711579070
                  0.57463564080021045655
                  0.10237453595164626441
                 -0.12684098896761694664
                  0.66368377519063048720
                  1.18556624752899586461
                  0.24781989217147265547
                  1.15437067987571562178
                 -0.67211574854402533763
                  0.44253909981842531884
                  0.08514452336603674232
                 -0.09647222874711773588
                 -1.02942795509604989590
                 -0.41217222689446619821
                  0.00941888716107493022
                  0.78395858823204267463
                  0.08733402861339117917
                 -0.79298617893578204896
                  0.48073858549673331719
                  0.41620582345750201103
                  0.17384849395771700964
                 -0.20501976031384291921
                 -0.46691206972263687991
                 -0.44837072291673885083
                  0.17190400417576967573
                  0.43975185543539008215
                 -0.26319936563500234694
                 -0.62275662525516572998
                  0.50141551160043840163
                 -0.03586816293423296387
                 -0.10778063473001052441
                 -0.04273247979107736017
                 -0.01114146200958707200
                 -0.76588064063393423986
                 -0.60220423408231538165
                 -0.93135571656401072715
                 -0.42220843129402174654
                  0.17139493986901938039
                 -0.03958506272951942129
                 -1.52154738020923607777
                  0.08676273531000618100
                 -0.06280189390371893055
                  1.42539664561220091876
                  0.28799241365580136032
                  0.83670118088375589060
                 -0.35681211028390941165
                 -0.07993073945444591211
                  0.74824082625980203876
                 -0.33009014055281454825
                  0.61075650553163818302
                  0.35832098031223202916
                  0.20527849199916917144
                 -0.06862850919236865299
                 -0.47633361879195423860
                 -0.75012293852206890499
                 -1.06363333727035436205
                 -0.37356016622077165001
                  0.97636017414256404123
                 -0.45075024133956392847
                  0.47658061079723562647
                 -0.18999137419557540762
                 -0.25173472525328283167
                 -0.38157337110845029882
                 -0.58843040078362518486
                 -0.14364183493160254113
                 -0.18874462940447683801
                  0.62911341538563214648
                  0.30755074430398771090
                 -1.06468059814719251399
                  0.58618121134222922475
                 -0.39686725136645611967
                 -0.07158038353699042178
                  0.47787118036836745416
                 -0.19681378032682136925
                  0.58260193007026184198
                 -0.21361471666325873575
                 -0.92991775662959641480
                  0.80565725362911833063
                 -0.71637136527648437312
                  1.73959787313042935075
                 -0.97742049862509750024
                 -0.34966603220034236932
                  0.75365509812600461892
                 -1.48494061009799982465
                 -0.69197041227221023352
                 -0.30648046669420236920
                 -1.00781877090952520781
                 -0.14248066292778471809
                 -2.84707216735774348848
                  0.00740868829921138145
                  0.18064046157679838900
                  0.71723235795158368777
                 -0.36913949605801182896
                 -0.16890623293015827322
                 -0.67890729761490864469
                  0.61415226717721915772
                  0.26209073540928201629
                  0.04104132090011552991
                 -0.95124868979558363513
                  0.34360396569040901893
                 -1.08217204014075574214
                 -0.28277493408663345598
                 -0.64708899164485811362
                 -0.48559741823621799250
                 -0.73681614325872690774
                 -0.56416044408680088296
                 -0.87756004861303338327
                 -0.56143565344604995371
                 -0.75690340806817313357
                  0.36433286083006077849
                 -0.18440327777960499600
                 -0.06800012333264138231
                 -0.31403156700432499626
                 -0.08078092308347720185
                  0.31500986424129823193
                  0.88215590192492487898
                  0.77372508332950873378
                 -0.20428097842205716894
                 -0.50547888214378722260
                  1.17536856703780179245
                  0.67987023182817374334
                 -0.14510882068291430791
                  0.25490167883447906183
                 -0.59482347838034843601
                 -0.48185170822038447813
                 -1.34604710248576808773
                 -0.13254419667764805180
                  0.41784243778798035862
                 -0.22960254909799171497
                 -0.83563880992740779963
                 -0.87720480695302360807
                  0.91087448712711804877
                  0.90371452204244495654
                  0.00774103815176708111
                 -0.70883241153075415841
                  0.95720494849229464940
                 -0.33101074169142447046
                 -0.56265157245277008791
                  0.05882138525342935076
                  0.15120993867230930752
                  0.78330383289788829693
                 -0.94322946148286213042
                 -0.06695160224605659072
                  0.42077490315119969733
                  0.15367175667854493515
                 -0.94919412567630723210
                  0.04609015910513731412
                 -0.44940912062020432760
                 -0.45826913943214947489
                  0.50497036282581186928
                 -0.19559294813744648733
                  0.29112104609317035475
                 -0.68304620704484209082
                  0.19849587228166756803
                 -0.07419117091708631040
                  0.30007632493143321373
                  0.21621805789680217935
                  0.02555875201351376358
                  0.93553633549479842113
                 -0.54926572502921777730
                 -1.12417404766253636872
                  0.76992557298402519717
                 -0.38865547072801787110
                  0.80158900585624415225
                  0.58469316495025058789
                 -0.92545288792517454990
                 -0.04661123906046214099
                 -0.00124395089028325398
                  1.03069923333220114792
                  0.25628789912655408623
                 -0.41482367699837324748
                 -0.01603328063383727131
                  0.20428817790438122404
                 -0.12591889624297800121
                 -1.04448776867026582593
                 -0.06727434119969653847
                  0.99854771130366937193
                 -0.26976064758846440839
                  0.13473248562961614994
                 -0.19101383622959586250
                  0.32587766691300390498
                 -0.60636973886144962531
                 -0.47638904728654996035
                 -0.42218584875876208340
                  0.67381293641188821919
                 -0.22958652493999293087
                  0.32771959844743003831
                 -0.62433547744956852110
                 -0.06291802703839551036
                  0.52101813774884708774
                  0.16722773385563372006
                  0.27990590018345623546
                 -0.23413063809249748393
                 -0.21057908728643068286
                 -0.54590245214876464974
                  0.67861310786397588402
                 -0.68819724837276818885
                 -0.26731227008575042525
                 -0.56597630370585416681
                 -0.50520466743113401353
                  0.26875876363565415206
                 -0.29021061764717448472
                  0.24179693883334987814
                  0.90723656871821034553
                 -0.33603520696451044669
                  0.38929359657542439432
                 -0.63357729525997441566
                  0.20679188926075434130
                 -0.26062101142698823608
                 -0.49415520330003376293
                  1.31507054752300933664
                 -0.41404645626916952716
                 -0.62822490292767285691
                 -0.17636942296771662697
                 -1.00313376497087070049
                  0.45736775957608410970
                 -0.61117660502571213854
                 -1.20645442859679219438
                  1.02842618120915885171
                 -0.30182028987499487371
                 -0.21901294975101295859
                  0.08508587708278923800
                 -0.76379246536536327117
                  0.35864522387143588089
                 -0.57677350135634719575
                 -0.09823937708617005993
                 -2.82109913400087730651
                  0.25986043387304036401
                  1.46503544882714620279
                  0.76287067608210901160
                  0.41690193399010450070
                 -0.83843046140843213720
                 -1.48025099806157234283
                  1.51973949624097115496
                  0.06256149440928986116
                 -1.00752934096248658591
                  0.14798167072756576723
                 -0.40696338803988796329
                  1.07961213925489984966
                 -1.79407654260158833104
                  0.06254698696849984862
                  0.42353198630467986385
                 -0.40281320552432908766
                 -0.68438556917548221126
                 -0.32058285672474734485
                  2.12567145144041447224
                  0.87395805186614017313
                  1.17698101218700146298
                 -0.81285808788466284991
                 -1.52464484914950215710
                  0.82944802644571602457
                 -1.34797136194493383243
                 -0.05569418424004320134
                 -1.10419902160770089239
                  0.48839401740129823049
                 -0.15879217781585361347
                 -1.40501670369528475213
                  1.35320877569514319561
                 -1.94047619153538586367
                  0.92911387255594313217
                  0.64829042455722463156
                 -0.35675975468823084569
                  1.08443156849072042114
                  0.49958383668509498410
                 -0.68004047848623305761
                 -0.69816036305137540996
                 -0.58967102130584092556
                 -1.54198165586072244437
                  0.33611291255452657722
                  0.11151482214173825958
                 -0.80037873453932195655
                  0.14185165200724744738
                 -0.29304373906689273888
                  0.01949108837439036956
                 -0.72288533641202057378
                  0.21834643599851102924
                 -0.48733060898627955648
                 -0.08699072876873169269
                 -0.40308850796732453858
                  0.21470737294759173475
                 -0.39916479126366943841
                  0.40312172416763841776
                 -0.11173062425256619079
                 -0.00022420772855844158
                  0.25380931275955870285
                  0.01337058410378348661
                  0.49814232773414307553
                 -0.37041766550263649505
                  0.06281214235489407383
                 -0.08880951353157097439
                 -0.62022671873144297194
                  0.27844820210682025285
                 -0.43506341508941304141
                 -0.60854082625668082240
                 -0.12514646749578378637
                  0.49983814717416102935
                 -0.25534957127129870313
                 -0.35589144663860705631
                 -0.18755587151087921294
                 -0.34190534740918543388
                  0.52796943355365011374
                 -0.18603066432138595787
                  0.00241818555343075586
                  0.10261426788166180812
                 -0.58772718502978271715
                  0.39263616905088971620
                 -0.32240238668733717242
                 -0.25715735585629706517
                  1.24111946370762105119
                 -0.37379437182601527034
                 -0.01593363854074202057
                 -0.06104793751746526165
                  0.37261212387197623075
                  0.26097063066450504332
                 -0.39875693568756997998
                  0.05816566675502313211
                  0.22372664822848936650
                 -0.14033091978408787637
                  0.58608005382277739148
                  0.09091790205657040991
                  0.44727692192257095805
                  0.33542216652178319380
                 -0.25928894022582871237
                  0.04174168566353791271
                 -0.32792950766597267487
                  0.25303929919737383480
                 -0.06307234101589385966
                  0.13925085812833046250
                 -0.50812738350244368579
                  0.26503912964717218914
                  0.03026030029253327577
                  0.67550105979734720307
                 -0.18777817708951444198
                 -0.67817883377122267774
                 -0.66919120385791297512
                 -0.06636922895970027991
                 -0.70726323401912027933
                 -0.44299850397931006540
                 -1.39004932015222193442
                  0.16423570502832612883
                  0.57097220191836972614
                 -0.74222918579646601778
                  0.45980719477546311280
                 -0.45419583975513111440
                 -0.64682689177507024514
                  0.28580044821510780517
                  0.68615272628126100507
                  0.00248361893329783045
                  0.27594563953797290878
                 -0.51916988447297895970
                  0.07834759285731299205
                  0.25846131919147519174
                 -0.08740301074586395713
                  0.02852663463756744539
                 -1.24923859078956867030
                  0.62043577651545522844
                  0.11658064908202175891
                  0.02798752617896339140
                 -0.39951699912348814792
                  0.36127110328935913008
                  0.66148832289206660473
                 -0.04074540771019490720
                 -0.56749664648215325524
                  0.79331428843257056904
                  0.24313478617612466204
                 -1.27084069952473899257
                 -0.10962726777240934528
                 -0.07186907995543299899
                 -0.04180845688410196603
                  1.05279886768857600110
                 -0.53607030686100720640
                  0.20915365536100682942
                  0.87062895388069627689
                 -0.59120688283642586214
                  1.45975519687503640931
                 -1.03129602015543020421
                  1.15115341448696995030
                  1.76514948672346116965
                  1.14398924591044659493
                 -1.72089615555277508641
                 -1.20645248851256092770
                 -0.48098858456932580552
                  1.20094638051432278658
                  0.40557455000236536380
                  0.08057087113512081955
                  1.46419738225477535920
                  0.25670649491475117099
                 -1.25260191328021752710
                 -0.99594573390032203886
                 -1.61830959253932360475
                  0.28967507922864499381
                  1.53254026172092538971
