The first PIP-NN PES, totrmse=0.0706, errmax=1.1644, trainrmse=0.0685, validrmse=0.0941, testrmse=0.0795eV
12	2	1
20	20	
1	701
  0.4459371616500000	  0.2609422201470000	  0.1009481455335550	  0.1960847410671500	  0.2018739039840000	  0.1362056139489023	  0.0427477364592136	  0.0907180089521311	  0.0856457929184271	  0.0937227449858355	  0.0907178570487900	  0.0710898349999518	 39.8473847499999962
  0.4527209583500000	  0.2609880698530000	  0.1009484544664450	  0.1960853589328500	  0.2019193060160000	  0.1362056160510977	  0.0427477385407865	  0.0907180110478689	  0.0856457970815729	  0.0937227450141645	  0.0907181629512100	  0.0710898350000482	 43.1447602499999974
                  0.58924346214614653494
                 -0.27637234618073086567
                  0.10590706237998898098
                  1.51577969896772635217
                 -0.74408591269688661995
                  0.52588824751387108769
                  1.45219179028339162585
                  0.03254934996110349366
                  0.91336189664489109141
                  0.09507679677480876390
                 -0.70092841594891264201
                 -0.51596650732644999682
                 -1.43812141535049997643
                 -0.78975253564841174647
                  0.59257440752954027019
                  0.23780257520598485632
                 -0.52167781171046190281
                  0.85702382153741796245
                 -0.20284233859403819067
                  2.38831353175571470260
                 -0.03089745788832696377
                 -0.16161912627091831740
                  0.14073062472951036739
                  0.66917351256569901352
                 -0.18445495225007904616
                  0.41834732336461999402
                  1.65178724647914987322
                  0.08562311371800862547
                 -0.53201192990595080889
                 -0.24990956904513969561
                  0.07445167087155173113
                  0.92929528922229942545
                 -1.75286626934719258486
                 -0.95987410699872699471
                 -0.89919080721934296907
                 -1.32471590590549803679
                  1.21592258378559470167
                 -0.56388000672232152510
                  0.54088080907259084018
                 -0.82098404522066170674
                  0.72780430660748351990
                  0.07413635956108483027
                 -1.47891788463379580953
                  0.06982771995013149768
                 -0.07090327567565517242
                  0.34416497887189728688
                 -1.04230296770671859719
                  0.57716394748873378617
                 -0.19003404936765805333
                  0.54956584832894994630
                 -2.43465253890022914618
                  0.30701346907494414529
                 -0.08645791149468405601
                 -0.56852892192556525597
                  0.60015596412568161799
                  0.40214803745446053851
                  1.52102945039615145006
                 -0.00426107145486138116
                  0.66829787249441763297
                  0.06966850479575559252
                  0.20435259164857388914
                 -0.51748059646717370352
                  0.97837224101844744162
                  0.29065563386723386463
                 -0.92203253123840056560
                 -0.59189181473411955903
                 -0.80067434725146657826
                  1.94093350459559399468
                 -0.12294653685398822252
                 -0.76439212048897975382
                  0.32495926844791978017
                 -1.46881041476684992553
                  0.25548956041085779667
                 -0.48809738054905732474
                 -0.31023961069186428707
                 -0.12990599371403002693
                  0.00031414627541185127
                 -0.07261558632210414477
                 -2.27781529270621430072
                  0.81634209013119007903
                 -0.45678725474919257277
                  0.72314896014332408214
                  0.54047451330444806761
                  1.18948241299185286657
                 -1.65839817499433017645
                  0.65969184955208093335
                  2.84286195243744188588
                 -0.87028758555338858738
                 -2.25293639043980720160
                  0.23142321858153980241
                  2.60275893800689406277
                  2.27876010502532411195
                 -0.62296966075103399341
                  0.05368155851284431290
                 -3.33714640920295346760
                  0.05577545596132588157
                  0.30682680905451353848
                  0.75136550812713354119
                 -0.91822753499036857683
                 -0.28315020081122443951
                 -0.07525534227112687380
                  1.55658822338464730706
                 -0.27497339016697375236
                 -1.48937389478532522524
                 -0.70240756714549978934
                  0.50283175268484792131
                  0.92830967151270238347
                 -0.51239543809389398454
                 -0.52926487167222091568
                  1.05394725375121622868
                 -3.13727108864914905340
                  0.21249911047731645519
                  0.52417474442393929834
                 -0.39567712037137697800
                 -1.14562837731506106387
                 -2.02112763347809121228
                  1.39154926259394651211
                 -0.16902618228106736087
                  3.07748009842988645701
                  0.13310725154732133690
                 -0.28171722446052188671
                 -1.65429896669799414433
                 -0.33736174984515171493
                 -0.76451073181216888663
                  1.08849209775747501894
                  0.47046546875714612135
                  0.17513004656363448386
                 -0.65140227177122933533
                  0.17684699890791738541
                 -0.91560953323473737164
                  0.27652531838570615363
                  0.20540809138839594139
                 -0.88450055916897118991
                  1.15797156974888681980
                 -0.18873617703583037142
                 -0.44064597004704481042
                  1.17640562927657432724
                  0.78260552100431945988
                 -1.60000598698300677825
                  0.85480565958206689015
                  0.89653250957977237423
                  0.07078506515260794829
                 -0.11448035197069392210
                 -1.58302553260646527988
                 -0.61597389206544128637
                 -0.81594067973659933912
                 -0.27989616790471516516
                  0.27192024675763448727
                 -0.63759111379270227982
                 -0.33406547182684342978
                 -0.55092637941349364983
                 -0.59147835725742892166
                 -0.49435205174314317267
                  1.61565859921572685387
                 -0.74038120478429980675
                 -1.34642129003216770577
                 -0.96230089468200596947
                  2.43548665531076258262
                 -1.82711587617654047655
                 -0.45774520017951358941
                 -1.79813288207151411591
                  1.74250916122918386719
                 -0.05029086775266281700
                  0.27049760982414777777
                  0.55029873640913795629
                  1.99769554846250230185
                  0.76177312361351845471
                  1.68087896699765138031
                  0.86431391872787921571
                  0.45186449273073153732
                 -2.19059966504950454080
                 -0.60613754950303333491
                  2.75038211031360635417
                 -0.87975554829195212747
                 -0.43727878409517884073
                 -0.89686181795182717824
                  0.72968495737059368977
                 -0.67904646886550046325
                  2.47726636754891860193
                  0.68959006893674712479
                 -1.72474544843097454816
                  0.46436281968335380022
                 -0.88637889671901270994
                  0.77778749285361115096
                 -0.75769917379360884890
                 -0.24677235644642231405
                 -1.35915442733208990944
                 -1.27002132572741888161
                  1.21904781171657039529
                  0.16911782455040974549
                  0.53894582511715705131
                  0.54914866153631380907
                 -0.55895779635752829151
                 -0.55162308680965643770
                  0.40645956420048812152
                  0.85055094744079118296
                 -0.92407959854953969359
                 -0.14100919413994916773
                 -0.86149569385371971286
                  1.22564056534285614752
                 -0.31480347998194380121
                 -0.47580532796188995670
                 -1.37092915563120354427
                 -0.30268490230999417490
                  0.57833989866299617688
                  0.77845418306019575905
                  0.87560839879785334894
                  1.40011200259901391618
                 -0.79622959009448690537
                 -0.35817906278206318449
                  1.47686631771628995580
                  0.03966114673893801623
                 -1.81147057235759634253
                  0.24182484961550149150
                 -0.70143557355957375510
                 -1.42861625876675746305
                 -0.13410843951733267265
                  0.06894640064015120084
                 -0.16315605319388007399
                 -0.13388307853469813558
                  0.59504068479497307376
                 -0.51465195257439233512
                  0.55601467809603144499
                 -0.75823386853024887788
                  0.76367232381801708474
                 -0.24119247363759130365
                  0.84144053123995210530
                 -0.40960124404831144140
                 -0.06951948394178023016
                 -0.50616516120579047033
                  1.34031128766620066806
                 -0.67951275425949575482
                 -1.00359528379752838134
                  0.12367340985723355995
                  0.23500918555901958995
                  1.12871076221031207965
                 -1.73211022288631055766
                  0.26103982155388066877
                 -1.61396546536636620317
                 -0.86292486809686619331
                 -0.54897292881745995974
                 -0.17898376743225963281
                  0.68390735022063009474
                 -0.28819345083759390080
                 -0.93609918304148931334
                  0.34818280354692610068
                 -0.27408222029881335047
                 -0.07106814946103824637
                  0.00127064574334514232
                  0.34106925823428241307
                 -0.63645400721133837951
                 -0.68313922814102401304
                  0.24515288358763226428
                  0.36509374550806800164
                 -0.59554890949403749278
                 -0.41271042911772337636
                  0.07758595120621111785
                  0.01113389277477809698
                  1.25452330021286706518
                 -0.42231548631523546655
                  1.24950852690785163546
                 -0.77024901295452607997
                  0.37984380485283170126
                 -0.14134950443205915316
                  0.21468167547366692749
                 -0.15925804215618710735
                 -0.37324064351167873799
                 -0.33843355865785845760
                  0.74373408310133681809
                  0.50208941646456950458
                  0.10918365190032873480
                 -0.11099590931001879213
                 -0.53442084430218395052
                  0.67913651710089972813
                 -0.91457530669431819081
                 -0.06224977307531791293
                 -0.36020788793794783489
                  0.83038397869189728429
                 -0.05934137277549920292
                  0.48395613902738654488
                 -0.25106431621881608596
                 -0.14678664946280642334
                 -0.72583858227695208232
                  0.75642497313037670992
                 -0.38041062960473787102
                 -1.60192844168523618187
                 -1.22731440530480506723
                  0.56579476493235891787
                 -0.02324609069213707732
                 -0.07765988370284875042
                 -0.02248939264113024306
                 -0.35564082560412418887
                  0.44415258086698850004
                  0.28447470395924079334
                 -0.04602925390186470012
                 -0.79279708969915563266
                 -1.15181167185502220107
                  0.27097720224403371025
                  0.21340730387020176440
                 -0.17302259314127430012
                  0.58266864814976127018
                  0.10883365779609460722
                 -0.21213522816531621418
                 -0.75804475215655608977
                 -0.04903997306363683251
                 -1.18837826576612148877
                  0.24540202575031094812
                  0.34479811541213506443
                  0.15165051426561601544
                  0.01524576751067729767
                  0.24502723191327663299
                 -0.31894955728065932377
                  0.82194480347080245419
                  0.37155057303794825074
                 -1.21949449271839083231
                 -0.10530281428051549431
                 -0.44330748172574896415
                  0.58734888910897187220
                 -0.05366259571422015567
                 -0.34886327649814974361
                  0.41566688720151928615
                 -0.53531301660071228810
                 -0.06629893968730281306
                  0.49762861950968667601
                  0.05495260869845840918
                 -0.41726172956283114068
                 -0.64723395679487316645
                  0.25711721105659407494
                 -0.36267893732506295557
                 -0.15822635032052143056
                 -0.09080109571036924787
                 -1.49545827102622097549
                 -0.80938059406505968862
                  0.81140917044808991143
                  0.40811987908116803547
                  0.50140738138074825159
                  0.28512483091847512506
                  0.38818220245184253958
                  0.72866208872021953624
                 -0.32406555592094532514
                  0.59034749222417037817
                  0.12703270835077362655
                  0.45446065951221309431
                  0.00422395397968521220
                  0.40197703753292102213
                  0.75988154001005392413
                  0.32467586241268620029
                 -0.47952500449355017764
                  0.20550592888936375369
                  0.25889846621472667465
                  0.91356813424252913958
                  0.26124491579159975219
                 -0.18256539936741464358
                 -0.13052590442124889503
                 -0.43033636812238335034
                  0.27089253765810772379
                  0.38071066790801383339
                 -0.04650488201731790838
                  0.39863628303926373908
                 -0.39087659100719690519
                  0.61881748270780834176
                  0.01229853776541408109
                  0.50206718352143009376
                 -0.43187934682303147360
                 -0.01690114813059521645
                 -0.22577905174042878222
                  0.20976608265040408430
                 -0.68780983789288407948
                 -1.15672114016856730778
                  0.49060812138259796145
                  0.47554308131146189043
                 -0.97118549270795639927
                 -0.15189743596609775467
                 -0.26271963349613219885
                 -0.41977547557292183011
                  0.90060018397759100672
                  0.74508070409344628882
                  0.39487719265800680368
                  0.48787031060295199536
                 -0.20419876027200203894
                  0.32816597920688783674
                 -0.02567732877236673580
                  0.20849722056378813817
                 -0.23034630434243882902
                 -0.18330323892193362001
                  1.60682387570855778058
                  0.16946529176806204853
                  0.55963672649248796809
                  0.62744797694131571042
                  0.42068499438218731612
                 -0.08266892026343392041
                 -0.41482787094054929256
                 -0.71083910099760183599
                 -0.51225353597999245814
                 -0.29718085992319870359
                  0.41318893240677806444
                  0.02630780177069033318
                  0.23653453823621858887
                  0.35568569254347148778
                 -0.23518887530973342503
                 -0.64603399881566936358
                  0.23006135977074534948
                 -0.21841815926063004594
                 -1.57307357109847978371
                 -0.82396493773863999088
                 -0.04980552681039661367
                 -0.78369770941411254217
                 -0.08669832439999015927
                 -0.67108675427668995628
                  0.84217662753565769584
                  0.03862692481439643916
                 -0.09960622529623584798
                  0.59084451255462588914
                 -0.12518473140794195153
                  0.74615997246078391569
                  0.73498722233561020190
                 -0.61465086676756908179
                  0.94914070982967202461
                  0.17202512835446417960
                 -0.22219203970097126111
                  0.50279163594193698739
                  0.62173434977314312455
                 -0.56126985845161736499
                 -0.45265209013345808486
                 -0.30689412469543608797
                  0.75034139551860445927
                  0.15449591529972350745
                 -0.41108576808513452860
                 -0.35520245041084136384
                  0.54790345777553939310
                 -0.45929653217064503323
                 -1.30759252942041959145
                  0.51537186053401551344
                 -0.21087539015103512474
                 -0.74279462194594536584
                  0.24336985516150635989
                  0.03575390126966287302
                 -0.74533510735280128490
                  0.13716848483106816592
                 -0.16928379389810480071
                 -1.17279370606717070480
                 -0.62408405871969829803
                  0.32036145966536300200
                  0.35960860200359717753
                  0.78205752387219507060
                  0.66818040707347881035
                 -1.02330719169979622585
                  0.48092645896030677966
                 -0.13279539507465132342
                 -0.67528542655748435841
                  0.05677108533532827794
                  0.18167528271712507504
                 -0.76033268554923427729
                 -0.14760264712916337793
                  0.69096732366433566419
                  0.59539576835045859848
                 -0.11977002700982736227
                 -0.39855800492097814836
                  0.18026898783394829096
                 -0.20941340930265589515
                 -1.57867953503118241265
                  0.94858411011781218480
                 -0.67489190452368696960
                  0.64978826601491745940
                  0.00986946095738911941
                 -0.05040871848807644551
                  0.37613438115220187985
                 -0.51415152284433962571
                 -0.26767986271497928863
                  0.28204314890361781298
                 -0.43095326292721131134
                  0.57221688185982289010
                  0.92645262442574782824
                 -0.31317550249471748369
                 -0.90300874908771944227
                 -0.62159290510550713194
                 -0.34580214197954128874
                 -0.48191889783890723420
                 -0.81245305675232848408
                 -1.15281431226388741962
                  0.45229846608452983769
                  0.77225049997722972073
                 -1.06655913875603514107
                  1.21557859331236128853
                  1.86806224946245280627
                  0.85226502325989739184
                  1.82184603445219228668
                 -2.18905767204894541322
                 -0.40072240646505696837
                 -0.68642202189813106283
                 -0.83844205479020206262
                  1.58123285505819666241
                  0.85967123357409525042
                  0.23060549438952979151
                  0.04250813000943903797
                  0.48756283311812326220
                  1.49190729789071263589
                 -1.57393526365812452816
                 -0.32069340384618322259
                  0.08651538285366221215
                 -1.71387368642136594943
                  0.73445056627000981919
                 -1.25483089587180640656
                  0.18174911615553085431
                  0.03725125868954662356
                 -0.70193283600138289824
                 -0.61588187960576679103
                 -1.03323214200439328359
                 -0.17038768805431558917
                  1.06386038042111996660
                  0.28631204424235917605
                 -0.22856311963399353338
                  0.12592099991530805725
                  0.14997390436266500036
                  1.17740892396708662915
                  1.62079395694597461208
                  0.37388918512023983087
                 -0.10426407927879542681
                  0.65444799113694318571
                 -0.69090768304786864817
                  0.53795049751415857653
                 -0.44494956173594724103
                 -0.47737003667362543080
                  0.21118991295232589223
                 -0.39290100921697840297
                  0.08553018587712045429
                 -1.05353415020089991039
                  0.56988709873012577400
                 -0.35741413906492119912
                 -0.50393004438654243060
                  0.16917757154931514774
                 -0.39817492294094991578
                 -0.07869260592754862005
                 -0.04708084776395889820
                  0.86826272271706783634
                  0.99446858182747421839
                  0.06003286796864007457
                 -0.27902327221674688706
                 -0.14410081485654852029
                  0.30698129155394798806
                  0.58906810431387701676
                 -0.57569347734970088837
                  0.27491673170593727837
                  0.76694431077747626802
                  0.48158374857427460602
                 -0.24921413843866480065
                  0.11805656347956493268
                  0.93792875686601795415
                  0.22574908136968652173
                 -0.37648417466678568699
                 -0.11472155483989987523
                 -0.37116478849953410402
                  0.53859992848615168004
                  0.43640729220796303789
                 -0.37327918881376837001
                  0.33826012495082546927
                  0.11582051723312296321
                  0.90360739683535751254
                 -0.43970507445703044258
                 -0.35908142591840025437
                  1.58798875718245691147
                 -0.77029429839755447773
                  0.90482603564774977123
                  1.02010105919661797635
                 -0.88867369121150519007
                 -1.47206482849730835305
                 -0.31438406423840886683
                  1.15620740424036339000
                 -0.24288803085945198657
                 -1.38183744016289233869
                  1.61460888010973668827
                 -0.39600714002628445431
                 -1.36156277894278598950
                 -0.54433705403714582882
                 -2.09935552022725691046
                 -1.97724163671667541031
                 -0.79673012321987712880
                  1.47304752599424015891
                 -0.55836456624443608909
                  0.81964438186067056780
                 -0.28041423937411497080
                  0.00727072421231153912
                 -0.51385472579415514272
                  0.81186374003018801915
                 -0.53366853998003116466
                  0.57445426472227234527
                  0.96841011022655298923
                  0.07516177291787409787
                  0.17626573865612038539
                 -0.49958577568681550307
                  0.51550727174919719342
                 -0.29187640012412052748
                 -0.54130825059616272110
                 -0.39805928336660129085
                 -0.06167282547669028503
                 -0.10765645143046816135
                  0.97749372569195280835
                 -0.55729590186653910067
                 -0.35440740234569939604
                 -0.67696692012825765428
                 -0.46406258214594608980
                 -0.71388105072413610142
                 -0.59599319969783803863
                  0.06150308423519906809
                  0.85440589813173217770
                 -0.93901388107858962950
                  0.11545792531527540592
                 -0.31996411134699487278
                 -0.83844420227004234913
                  0.54827616053110805883
                  0.72631089134736259716
                  0.15709987968070335262
                 -0.36502342754552108417
                  0.36068604458317293782
                  0.06035509549464111723
                  0.94144770413279021959
                 -0.20297736104389532685
                  0.60758886090552277626
                 -0.85541298374811236549
                  0.01943153846648321137
                  0.13737871949313448794
                  0.73206616065206031596
                  0.48620613261656392412
                 -0.13385355593781561589
                  0.10248429241102038900
                  0.06973371516635419598
                 -1.56147204449313803387
                  1.42456222672412113894
                  0.68859207211728490350
                 -0.66029909037134204564
                  0.06532274899955581304
                  0.30689257078953774416
                 -0.45765151343158927411
                  0.26817606789069470263
                 -0.68027006178590820884
                 -0.71914387192042972252
                 -0.23567010285646455836
                 -0.23547251613784433988
                  0.03845034647307402076
                  0.64386361223138333099
                  0.98536584671331017837
                 -0.37771584540724029155
                 -0.98324283525492428559
                  1.16071297786760707638
                  0.65554960461424149898
                 -0.73652093762466241955
                 -0.76393752577345841459
                 -1.87628344850154382684
                 -1.98128286930277575095
                  0.56275660998700538507
                  1.23934601686109946428
                 -0.59685786290932196785
                  2.08390453110491646882
                  0.53834134677410605541
                 -0.89971801987031652104
                 -0.89575186927985273044
                  0.15016547448928066477
                 -1.38453951703890498770
                 -0.77155606181559865941
                  0.29355580989097751488
The second PIP-NN PES, totrmse=0.0881, errmax=1.2347, trainrmse=0.0880, validrmse=0.0875, testrmse=0.0903eV
12	2	1
20	20	
1	701
  0.4459371616500000	  0.2609422201470000	  0.1009481455335550	  0.1960847410671500	  0.2018739039840000	  0.1362056139489023	  0.0427477364592136	  0.0907180089521311	  0.0856457929184271	  0.0937227449858355	  0.0907178570487900	  0.0710898349999518	 39.8473847499999962
  0.4527209583500000	  0.2609880698530000	  0.1009484544664450	  0.1960853589328500	  0.2019193060160000	  0.1362056160510977	  0.0427477385407865	  0.0907180110478689	  0.0856457970815729	  0.0937227450141645	  0.0907181629512100	  0.0710898350000482	 43.1447602499999974
                  0.47636004512007784628
                  0.85132562807647749192
                 -0.82591679020424746405
                 -0.66956531167974375762
                 -0.17884991845185574388
                  0.61668177647368949135
                 -1.64130404957627140661
                 -0.09776948343441024813
                  0.78697387963065679184
                  0.05959259106270175382
                  0.62579883852707873793
                  0.83504739365705971110
                 -0.31536772278886826548
                 -0.51162611519308609509
                  0.15696749547507288236
                  0.32468701930606275186
                 -0.55722128765442968668
                 -0.87101973720903125287
                  0.39282373395562936169
                 -0.82269124538059190677
                 -0.46936618122768669625
                  0.71353765800459600932
                  0.35538252040560786016
                 -0.63402089268735239980
                 -0.65589425052672523098
                 -1.37835328553568414733
                  0.32334635335695011138
                  0.73730048523298619134
                 -0.01450878439004836540
                 -0.83526358143200862827
                  0.53890183748823283771
                  0.25624847737312400620
                 -0.33829839398946076612
                  0.47234891442163590147
                 -0.59331924132485414081
                  0.44337313914983506047
                  0.93509179033730727149
                 -0.21107799340412344846
                  1.10452062876157364180
                  0.53962206966792747309
                  0.17080779295993556155
                  0.73582354747274980600
                  0.52250018254868912937
                  1.08504321993591590356
                 -0.94006763349542543651
                 -0.41987876759939685156
                 -0.51785291822328782807
                  0.09022113439754418651
                  0.43310984758194742694
                 -0.52834272162901374514
                 -0.57134399623550780056
                 -1.58258950341874027323
                  0.56667570841639780532
                  0.65484442245136642580
                 -0.63618922425482415939
                 -0.09875006927918159039
                  0.18491737497148755254
                  0.76596494904784551139
                 -0.21804917680816324199
                  0.85104723593804842974
                 -0.57905509254056697355
                  0.12093235207636129913
                 -0.14067916734341923135
                  0.92827429278616890862
                 -0.53398179836683845600
                  0.09825517096395837424
                 -0.35511211803043496449
                  0.79244547241938634308
                 -0.53628951492615406504
                 -0.16422242195451788871
                 -1.30259971883793057579
                 -0.45869658265703228128
                  0.19675783666823470908
                 -0.89144154022892074796
                  0.61287586226831602954
                 -1.34519592237568419435
                 -0.91707688581221769031
                 -0.11436027546347295181
                  0.32505796392632818614
                  0.78168104022869355774
                  0.78596215248509937457
                 -0.05343767085641528553
                 -0.39626216820812160124
                 -0.48193696739496272308
                  0.03896331640814975489
                  0.46751944648981591524
                 -0.40225188262587757704
                  0.04131488771812792671
                  0.49909605751630914394
                 -0.45319568084213351922
                  0.01723552504823063630
                  1.30239853854265708044
                 -0.80728815035712697679
                 -1.30707031776420756763
                 -0.29138916863417335668
                  0.16911497121027960211
                  0.48935028701567556686
                  0.18944185690929565835
                  0.52868666861304036697
                 -0.03356638588553730040
                  0.29029281274880108787
                 -0.32050407414666060024
                 -0.93431306038870431951
                  2.09014120423456395415
                 -1.39581007494816433656
                 -0.55325901992423232034
                 -0.90444978354262650644
                 -0.76511389887743119775
                 -0.98084367466186117568
                  0.06939355359185529759
                 -1.65811605836545106207
                  1.18924759145597369603
                  1.89234213798566108800
                 -0.14128493358975419136
                 -1.45276644083967920729
                 -0.05519431973528074464
                  1.70088760850235609645
                 -0.42823838624143967246
                  0.65724060058614197644
                 -0.66347015591497437992
                  0.60048707897083242191
                  0.25743116243754937678
                  0.63809172637947675355
                  0.89425479536575336326
                 -0.64981483169778775366
                 -0.32071904437941367583
                  0.65598064256017540874
                  0.79585064756121770557
                  0.12656732909162865530
                  0.70783938041532779017
                  0.00230314211638398859
                 -0.96741308356412525349
                 -0.92627004117859779164
                  2.05894726189708654474
                 -0.77044819681602660921
                 -0.45287505028556318543
                 -0.34952955316619699344
                  0.97967671884552498529
                  0.18093289536275727891
                  0.71550087810202911420
                  0.20845599343069864950
                 -0.78761051764128719999
                 -1.15962782728125457510
                  0.39613161508581046233
                  1.06318947981290334859
                 -0.71058208581971404882
                  2.38867094089869658191
                 -0.56941261690674205287
                 -1.81591428654441644497
                 -0.20542237276600144869
                  1.97947363477391702347
                  0.53604685138831342783
                 -1.97855389534162040555
                 -0.51113884897332173551
                 -0.82119245721806433114
                  1.35845022487712574488
                  0.95677014364698265148
                 -1.10687835169005355240
                  0.31590269988896618747
                 -1.34727054407956914339
                 -0.07299807737822851250
                 -0.08630814225926033978
                 -0.16665715271849304568
                  0.08422138875480680853
                 -1.29809025352384943552
                  0.35086412879475081805
                 -0.57213568058840691410
                  0.73067364832792047746
                 -0.32795904114656587724
                 -0.09731530441648143792
                 -0.58946915591371096266
                  0.83098512064070562122
                  0.57729402272612317937
                 -0.09427413837937390073
                 -0.08416268060752353508
                 -0.44983500538650744716
                 -0.13182020367983787734
                  0.91639092480084882730
                 -1.48194981461922092869
                 -0.85501483989018367549
                  0.05704374782642616937
                 -1.20679665524599166737
                 -0.88776179873572758083
                 -0.13240401017672051576
                  1.69446181314287613873
                  0.34634942690118625253
                 -0.08143851751792637039
                 -0.15324726724664208821
                  0.18248568706552220631
                  0.04028971448905721564
                  0.94748589568893115676
                  0.68844429003572393810
                  0.38246781190876233403
                 -1.13009824366705813325
                  2.34861431487453176103
                 -1.77131801543348665895
                  0.03919383673669239038
                  0.03966793444572738053
                  2.37470602667289565346
                  0.88389593804008059763
                 -2.56171575221580782866
                 -0.32101902606593440970
                 -1.20916041422931952454
                  0.96072689283892054313
                  0.61550310709952094079
                 -0.03485985530670327598
                  1.73143837325818172879
                  0.21884332548526580497
                 -0.63612922431838891946
                 -0.29820893850574764494
                  0.19627941061495826625
                 -0.37987801044788183091
                 -1.18129929929059573901
                  0.55906849893508403504
                  0.65031831103321913190
                 -0.01385938080447876239
                  0.28196823871371556880
                  1.51409916323668181093
                 -1.95669833460866171571
                  1.84849232657606354913
                  0.61052610540134488737
                  0.16385458294546631497
                  1.32862982492917747201
                 -1.15253745606908242216
                  0.18900109213100585448
                 -1.31297057743342149294
                  0.38169283900440614810
                 -0.57331997223906572270
                  0.10912814907262555209
                  0.24207077363459814090
                 -0.59031724162802778899
                 -0.38228143434294875602
                 -0.39722034918762239020
                  0.48242722098904944339
                 -0.87236699916838000846
                 -0.23804709552776787129
                 -0.80050797316549182625
                 -0.71581311248296131122
                 -0.71530395577328809154
                 -0.25976247684415110228
                 -0.01318252492537421751
                  0.37685909280777407648
                  0.18141821216638223668
                 -0.00673776070436862481
                 -0.39006295407733754255
                 -0.33636377372323233992
                 -0.49900435743984195014
                 -0.37158638684335459912
                 -0.47038445163208075783
                 -0.67204720900190606514
                  0.76056159501730113970
                  0.04894163998877969213
                  0.45680795987410571790
                  0.81331179134495490413
                  0.85783865855668373079
                  0.05962409899083177811
                  1.30408158943999974433
                  0.24557106900190905918
                 -0.65579321213587526973
                  0.26652620535810017666
                  0.18153615552346452633
                  0.43056242549767470562
                  0.42538229279935463323
                 -0.18118697493238508645
                  0.05004399324209801714
                 -0.21364348505360891695
                  2.12818502406686249628
                 -0.22130869293021659949
                 -1.01219304056865144759
                 -1.57542634087468824688
                  0.34752018050845906449
                 -0.37498760820607990318
                  0.00712138345606017943
                 -0.61993264553223204061
                 -1.09037285902816161176
                  0.24317763424030539032
                  0.42162850995105066731
                  0.83526534600275792464
                  0.08433743923581747681
                 -0.03142856259562493149
                 -0.09018901792694374031
                  0.58698064218473211540
                  0.47937713442860446778
                 -0.06867699607840425935
                  0.69891265598908713930
                  0.94452667326912032042
                  0.19754905865934499487
                 -0.18062460956141360158
                 -0.22433994610176311024
                  0.17397278735217047707
                 -0.38119377461717091071
                  0.38973503510931056804
                  1.21363677972548789086
                 -0.25487249610325118931
                  0.68667061548964991591
                 -0.02692196865402190012
                  0.55594161515032258780
                  0.54568222843336000594
                 -0.68668746595175522707
                 -0.81295022936002092617
                  0.27488382861965843240
                  0.45117317516719823711
                  0.48731260280437022070
                 -0.00808017735949093097
                 -0.27096473218568684072
                 -0.74177155332298994050
                  0.65474831229994601145
                  0.62649634123133901564
                  0.96662584440591081680
                  0.33545402941539465003
                 -0.51086929883593190649
                  0.29249783137894030949
                 -0.50668555653548097428
                 -0.64159991780621616897
                  0.31837090534398138075
                  0.10483673377344451816
                 -0.42769129792008692137
                 -0.13590110691283927014
                 -0.20909210329013069862
                 -0.72917148353923910697
                  0.41300238563770913514
                 -0.77686476698968642829
                 -0.38517514487603871087
                  1.45736247790244077827
                  0.17718882997918267153
                 -0.61447115326370438382
                 -0.67694596777303550628
                 -0.51408423954564430591
                 -0.07090527992427689274
                  0.05421158622371428926
                 -0.50138081502347831009
                  0.36971902594435451794
                 -0.32529437574219238760
                 -0.50938661904624693566
                  0.13327034230889536759
                  0.47141772070429105446
                 -0.88890594218942708959
                 -0.35657941798855630200
                  0.27445435224496467219
                 -0.88851235823368779343
                 -0.66656805342955138816
                 -0.32145355375069045722
                  0.05040692736635768445
                  0.18196138052722035661
                  0.17500432094233497882
                  0.87314968387003122352
                  0.26827065040566100418
                 -0.94066837211196230317
                 -0.61867876801195187397
                  0.33482264387601690103
                 -0.19359205275153440473
                  0.77533877640669335296
                  0.09924612074836498821
                 -0.33998001777906694532
                  0.32619499736209933705
                  0.56534201136799278054
                  0.19883068624932426216
                  0.40891963765164146549
                  0.58759804483734656699
                 -0.75842549161119277024
                 -0.71469445456417735052
                  0.01956763614875956653
                 -0.18346587617996948372
                 -0.28729213010443377385
                 -0.39024677439671601187
                 -1.41355213807136914639
                  0.55776762200896745636
                 -0.83343613323298282314
                 -1.05389087297239369967
                 -0.73132276866638645796
                  0.29690843219149209986
                  0.32764888964033112018
                  0.01268399402527369685
                  0.97337543323419639663
                 -0.71621824875976725089
                 -1.51825465361243017171
                  0.31873368292652060063
                  0.90754926180285744319
                 -0.03947985841502837240
                 -0.24741905849115422567
                  0.16802101800056160052
                 -0.17888102002410988245
                  0.31137324146578004846
                 -0.47737592460713351716
                  0.00007552209117732672
                  0.58794905875658143302
                  0.46014476476627375057
                 -0.49197390979969951585
                  0.58928572998715622600
                 -0.90519395490351939326
                 -0.26668671929377768537
                  0.37256992890210938185
                  0.24260134301101224374
                  0.38312395782115371556
                  0.14172597616116133779
                 -0.73362267065444397574
                  0.09914555691415115335
                  0.07438314030920982478
                 -0.49333725565695774051
                 -0.04549725058779408721
                 -0.02316808070733024361
                 -0.47356906395741033000
                  0.01209667590228872061
                 -0.18181383555695490584
                 -0.47030335691366353945
                 -0.47358672707956350756
                 -0.13974665428342525342
                  0.19281034105499761377
                  1.08228515035226435792
                  0.75514406830544800187
                 -0.34942083426347869679
                  0.94063742049919230048
                 -0.53531884266706231124
                  0.13641851917927441673
                 -0.31829531287725321143
                  0.30633830629570291126
                 -0.52756840017225947737
                  0.21724031531158760622
                 -0.73458015437867563158
                 -0.74701892792334323445
                  0.03632658237186486838
                 -0.73180760907797015591
                 -0.12744536268866490936
                 -0.50586013238244831314
                  0.22637622573879803700
                 -0.77573065861576140367
                 -0.38627164838584721052
                 -0.09156673236853740683
                 -0.48697519725320392858
                 -0.68287677384466993757
                  0.71635548581025321191
                  0.53846359025952439392
                  0.18317582976783641779
                  0.22801307185560396040
                  0.30400518150306848897
                 -0.11855963492902424350
                  0.56659350203554381675
                  0.27508193791603929856
                 -0.26376667962364752640
                 -0.05944266365901736127
                  0.81269148904120058763
                 -0.42895307932136439444
                  0.20619478875270189078
                 -0.61953399826030353115
                  0.81827794668897069208
                 -0.87848975529111505978
                 -0.44208174432746621951
                  0.67743520020295355799
                  1.62620698302528166046
                 -0.26885289331964606907
                  0.49045044253618036434
                 -0.94790056859506643949
                  0.59759967758031629081
                 -0.54416674698227018858
                 -0.17813979019131420678
                 -0.80872954981259925766
                 -1.01850383370003516603
                 -0.35824064612763228954
                  0.79884978093017600109
                  0.98719956848368706215
                  0.12844481604755814130
                  0.32049478160622379974
                 -0.69276581514971513620
                 -0.24270549703008428843
                  0.40064293537996803485
                 -0.01749035882326665375
                  0.43176913405763750475
                 -0.08311024134145481024
                 -0.06819357537822616500
                  1.77365582195750826067
                 -0.68603409153382044483
                 -0.15842937568298318118
                  0.00661969533169832775
                  0.56879534954436727912
                  0.31337421429234374459
                  0.58964055370337009609
                 -0.82983561813578721189
                 -0.83396599693213624427
                  1.59545012325813817533
                 -0.30754898524096818679
                  0.37013997679219046155
                  0.31639283003505813685
                  0.62717356406464686014
                 -0.27946899082700088490
                  0.05399335400038632327
                  0.33171651609606062072
                  0.11307895623009589503
                 -0.19640614364417036120
                  0.67171647181287008621
                  0.55718139748939410349
                  0.23930055845502806733
                 -0.12832256872140088144
                 -0.35627079398339617233
                 -0.05484202575750378450
                  0.38819063126786323981
                  0.24890457664578169439
                  0.39188937694951875290
                  0.37184562835706214123
                  0.58135373338186802084
                  0.13188404534713388250
                 -0.46205220920208972535
                 -0.28092499171521717605
                 -0.35730943539379578233
                  0.05623895219262220468
                  0.57819756938712441041
                 -0.73883470749718738180
                  0.70216854155387009584
                  0.97782012219692893140
                  1.12390323352877952168
                  0.20779358956395582725
                  0.18184423484148093397
                  0.85680978710199928727
                  0.10064336013948138593
                  0.57110716007613215872
                 -0.56442013132968682498
                  0.49173226274378656342
                 -1.08049704637124133200
                  0.63797411797233349873
                 -0.23148284762325155306
                 -0.47763288889286337202
                 -0.19179020453241873989
                 -0.28269682401657536541
                  0.59061836611228912819
                  0.25726850922774452401
                  0.34307945443228821114
                 -0.79429365325055567570
                 -0.89141987904651298624
                  0.32521586611403680012
                 -0.39486834524219660558
                  0.15691510246714457377
                  0.64329627941304556860
                  0.19221942551343346173
                  0.67387091457368819558
                 -0.19502853993365115715
                 -0.67056140303886324627
                  0.42269351865226251208
                  0.29971601504693545781
                  0.37884382001807792584
                 -0.66975345755900550504
                 -0.29172256115788569586
                 -0.34598168294268344392
                  0.78480584766961491994
                 -0.15841924608691856924
                  0.61117403219127786063
                 -0.47947119403846388819
                 -0.08441201005494253229
                  0.42386464463445522322
                  0.18506597881989897414
                 -0.08054475882963599287
                 -0.28649409196992070559
                 -0.07716387878482029727
                 -0.17616432147187846557
                  1.60530260863413576367
                  0.85625984394412391065
                  0.32890112537257143455
                  0.64378041343848546596
                  0.20788826421240283460
                 -0.22807595918352677189
                 -0.08716809060026270428
                  0.18539894427469302829
                  0.35174786133412938582
                  0.41707429082798069819
                  0.75591859369123559631
                 -0.54346617645069006386
                  0.28469111957515436107
                  0.29874374887107896237
                  0.37259291990476084422
                  0.43643973797314827845
                  0.42368652090533337473
                 -0.12558901849125306271
                  0.16215915186130958059
                  1.16273594354102804971
                  0.16591878544156377084
                 -1.17174100508498080231
                  0.27182190978490522459
                 -0.63835335429428141651
                 -0.61372442528328441380
                 -0.69970680979761934459
                  0.59099392509986770072
                 -1.26519605126287282282
                  0.37433846598732473110
                  0.70461983466458932845
                 -0.86677857192799245833
                  0.05363248517761889239
                 -0.16850686330494249465
                 -1.04916615099117227494
                 -0.42324534969170846122
                  0.26718998655966713640
                 -0.47653275087079211003
                  0.24760771140198029050
                 -0.14713038905629166608
                 -1.10711402748226372950
                 -0.14453539191499836791
                 -0.77976496783309867666
                  0.18205853669552865548
                  0.64610770491460023379
                  0.65957954171032551205
                  0.35135780188152765380
                  0.61028665655322844596
                 -0.52134395565382496418
                  0.48220691578339286432
                  0.81023710703432094693
                 -0.66311059011633322058
                 -0.46442051629863018158
                 -1.16330523041652056371
                  0.15925367903312326323
                  0.66463667350626520758
                 -0.85582405895112545480
                 -0.36752417121129932198
                 -0.14237834976448515700
                  0.51259213981398743520
                  0.23711053876482690583
                  0.75619851572160556863
                 -0.01697211197200469701
                 -0.13865011498127602363
                 -1.55815948534172776796
                 -0.35813320891372751875
                 -0.28700720335982782272
                 -0.69053016569424841009
                  0.00171218662371533381
                 -1.14100454597579448190
                  0.36407446666159187787
                  0.04192571604073189184
                 -0.00533616073853964042
                 -1.26674693091288670388
                  0.47953054925724736268
                 -0.83418976008899459185
                 -1.32484176417623000788
                 -0.81132504364347513004
                 -1.89574516088659494883
                 -1.25755065594994164258
                 -0.87916739943925548140
                  1.11249482324728821148
                  0.22966771633833676924
                 -0.67615208804047255420
                  0.52764734203789331879
                  2.12492989802712939351
                  1.03209634082136436639
                  1.11115640460616105223
                  0.87181723681141531923
                 -1.41976314646535639596
                 -2.03389763807766987824
                  0.69932221707507657982
                  0.69523935581515328153
                  0.26279712596692877957
                 -0.97889999468974320251
                  1.17561109337492442073
                 -0.70111791482447072266
                 -0.35503271560160215570
                  1.18085699384744691187
                 -0.93087364139785089279
                 -1.95498683835274866816
                  0.14683045864586205531
                  0.47820097130030325694
                 -0.66997081713353912047
                 -1.63371101911308680421
                 -0.84740010138012433760
                 -1.58012364886443656964
                 -1.77275643514276404211
                 -0.87205471246626486970
The third PIP-NN PES, totrmse=0.0760, errmax=1.2286, trainrmse=0.0738, validrmse=0.0895, testrmse=0.0972eV
12	2	1
20	20	
1	701
  0.4459371616500000	  0.2609422201470000	  0.1009481455335550	  0.1960847410671500	  0.2018739039840000	  0.1362056139489023	  0.0427477364592136	  0.0907180089521311	  0.0856457929184271	  0.0937227449858355	  0.0907178570487900	  0.0710898349999518	 39.8473847499999962
  0.4527209583500000	  0.2609880698530000	  0.1009484544664450	  0.1960853589328500	  0.2019193060160000	  0.1362056160510977	  0.0427477385407865	  0.0907180110478689	  0.0856457970815729	  0.0937227450141645	  0.0907181629512100	  0.0710898350000482	 43.1447602499999974
                  0.46066961724322530447
                  0.36239675951641608931
                 -0.41816232750784321226
                 -0.32401678657582222431
                 -0.25907934407121091525
                 -0.80849473270549176984
                 -0.11370377818825991301
                  0.43284895147244994984
                 -0.63597036361964454088
                  0.96134011617844794539
                 -1.35401777026101144408
                  0.23933635132296163239
                  0.69594516362829716982
                  0.62108198411733306354
                  0.83642469870629110318
                  0.73493889260309108735
                  0.44157698983760462763
                 -0.45115956846397536895
                  0.59545526024287009914
                 -0.45367617085406747313
                 -0.35034464443970203540
                  0.44489596269667219808
                 -1.21120332899847737984
                  0.29274620813249202511
                 -0.75871734241147970046
                  0.45997379152920986334
                  1.51914045923024776386
                 -0.59385421068379307119
                 -0.95434420332151004285
                  1.14961757379126217060
                 -0.25714172355072534293
                  1.61254130943404505594
                  0.68590267819742867239
                 -0.78051443595607428172
                 -1.41607072629064778546
                  0.08349110234367687622
                 -0.09323192901910787311
                  1.10435201584653208684
                  1.47028563147825885871
                  0.89485018752473155512
                 -1.33733818691150441182
                 -0.21989898515713468541
                  1.95027586003387343183
                  0.64269034306254491096
                 -1.59446591464773312907
                 -0.43527328424051392464
                  0.30227667115232370598
                 -0.79019201447075171352
                 -0.52372260652605939768
                  1.14337424963505895903
                 -1.24673093451147098953
                  0.90065424121481740816
                  0.43640975730454811821
                  0.56727062135772532425
                  0.14309213238968832016
                 -1.61496439959998094871
                 -0.49296900579727731539
                 -0.40247759576831992900
                  0.48082077081982949052
                  1.11473738428864388439
                  0.55450321908774846680
                  0.15347069387259101858
                  0.55088095171823536766
                 -0.21387918535676112008
                  0.19401984176696371320
                  0.32551952157528918352
                  0.54620040731261476630
                  0.90341386483378394168
                 -0.25095428151114251847
                 -0.13802956338186944674
                  0.32944982545459072787
                 -0.77983796672537120109
                  1.71583484930332574869
                 -0.10071430911628563576
                  2.55061843019464173921
                 -0.10884228178381402663
                 -2.45371229456884121234
                  0.02079853439074753896
                  2.49301627730408448258
                  0.77104385774879102833
                 -1.79748823168165849928
                  0.28957889851550699944
                 -2.61924865872368783926
                 -0.26247719266240226998
                  0.01606271510557432877
                  2.06421815656926321836
                  0.27820102980576694174
                 -0.61340349301492591572
                 -1.22165615672560301519
                  0.05377585185332072609
                  1.02498467621903577296
                 -0.25338153999054080501
                 -0.34173008798577275691
                  0.08621544994430342668
                 -0.22523128611985135383
                 -0.99172477928750046861
                 -0.12096111717504796912
                 -0.41076171239052916562
                 -1.14743349196671196033
                  0.64157887445926720105
                 -0.52319346891259810306
                 -0.54569391366591557535
                 -0.82613118096035320637
                 -1.03297707964847718110
                 -0.82223170740810858081
                  0.18346631174226549210
                  1.51637562232062306222
                 -0.46623733523058036310
                 -0.53713983953305644015
                  0.68926425347217934458
                  0.30701322928023910830
                  0.28389364747352235918
                 -0.91952451549208868986
                  0.64602404574913641078
                  0.37274561392706767604
                 -1.09677572401826539661
                  0.22402087488539604299
                  1.61858497440090021158
                 -0.73615448517201342860
                  0.10056402760499215387
                  1.23242589546828096303
                 -0.23740457439340253987
                 -1.60071203149385854481
                  1.65017775616392659011
                  1.65169523800218187581
                 -0.46594408525222225093
                  0.38375061437207363957
                 -1.34546032927861958228
                  1.49766349978476087657
                 -1.07570895971534774560
                 -0.41907863825854918538
                  0.31239385786794726663
                 -1.00928630949629893898
                  0.27926462620063197129
                 -0.65636875812820250076
                 -0.21443955632212946538
                  0.68585248101500206896
                 -0.18106856751522201754
                 -1.36248509912235027386
                 -0.96407618612741563524
                  1.00033057117188173279
                  0.96661467748247809073
                  1.95597129695707816488
                  0.90613118931414116108
                  1.09680337839419239643
                 -1.95082625037198953422
                  0.99402559521477984461
                 -1.29390905038494818946
                  0.42825096668952872259
                 -0.58915225668143644810
                  0.21649424554210328075
                 -0.30948275479080922246
                 -1.39461802033796766764
                 -0.11046297348268342697
                  1.00972888125872972687
                 -0.19818749329550852667
                  0.58190298327244860399
                 -0.17587939126571522364
                  0.89028028074768905675
                 -0.04301604763815777138
                  0.24088820763609752884
                  0.99428985470707720307
                  0.19000055719532740750
                 -0.14569982850978840938
                 -0.66342448653687957627
                  0.08126435997080010132
                  0.33821701542882381952
                 -0.22369213437966670166
                 -0.16547285687754678674
                 -0.09068334101265297653
                 -0.93971051733689869856
                 -0.99992324219580708267
                  0.90717902378668813235
                  0.32221641233098052837
                 -1.03833143299005858928
                 -1.27611902714986791274
                  0.60603483837980243187
                 -0.37678559119937099497
                  0.55368959564745878765
                  0.55169367275260028372
                 -0.93015583201078211317
                  0.89152826116498040676
                 -0.46606911179487237051
                  0.44536449154937923778
                  0.12477958377531861434
                  0.51446834292069831829
                  0.69526274040692870315
                 -0.93471078646978678073
                  0.93495244143567901585
                  0.52102033143384196556
                  0.40920431777551946606
                 -1.08408705115223624738
                  0.02318017128474218064
                  1.32683486586351762071
                 -0.39741611021932471415
                 -0.67731370327223894279
                 -0.34472626260015615252
                  0.27674670158779218765
                 -1.40900231097961237126
                  0.06421966293156061711
                  1.56447986809952466203
                  0.24133139878113701871
                 -0.20167661964844857403
                 -1.15388173049505926571
                 -0.19273620717841583039
                 -1.10690679948138681610
                  0.85920789634842431592
                 -1.03391900781158163625
                  0.22772396391642069080
                  0.61316950068615194702
                 -1.51823102804464293847
                  0.67069886213563734145
                  0.45209540980004075950
                  0.21347584081923645649
                 -0.99483000033258295325
                  0.05344216560715721320
                 -0.26060744898083820775
                  0.50409152431246628812
                 -1.23458623343850959486
                 -0.44075550641933874951
                 -0.50405370697113405232
                 -0.49185310453616132298
                  0.57108382262075141345
                 -0.90489402225431014859
                  1.05696838291484174199
                 -0.06557992856526795311
                 -0.13110805526080276939
                  0.81047531730466570998
                 -0.96162327526431778946
                  0.46583598291075106745
                  1.08954353475843879195
                  0.41736768265982165937
                 -0.65255398783186213674
                  0.40133952553822938025
                  1.19265956189423394385
                  1.18859303095465973499
                  0.59412756330450799958
                  0.27174730263371699168
                 -1.17088854850220047688
                  0.45353416312458239013
                 -0.92361898910793482909
                  0.11497705283741628535
                 -0.57728476570607833995
                 -0.29232318547167246425
                  0.10743170728245761414
                  1.14739970372126598441
                 -3.27276223429032553369
                 -0.75398181136633990462
                  0.10008398295146730961
                 -1.03570157028874110239
                  0.86386539434732800835
                 -0.17221341440166265668
                 -0.09129505879055355155
                  0.23934256488018895714
                 -1.00343576430870928817
                  0.65072154706107865341
                  0.42250694987564696437
                 -1.35417527268602366775
                 -0.45401839133307808627
                  0.20820509106340490124
                  0.50885858691091045980
                  0.01536073015702371473
                 -0.35252498372949708783
                 -0.23970213579768140377
                 -1.23041257036839257744
                  0.41293280901952134077
                 -0.47310479572756392042
                  0.80388120167360133106
                 -0.71028256265260503177
                 -0.14700009808899236474
                  0.18988439902284715011
                 -0.37667785355866573171
                  1.05221289451800825709
                 -0.15259871668504851328
                  0.14405080764258598736
                 -0.92984867291253658905
                  0.67204486990257028545
                 -0.48890581371716573811
                 -0.72938708489602566143
                  0.10203078262558505640
                 -0.06037182281358281083
                  0.49875596937252858476
                  0.16636069720967991414
                 -0.49464880565627195042
                 -0.50040513116383156245
                  0.66941148267850558717
                 -0.17503922397357368768
                 -0.21363031210920160885
                  0.38682201204707156172
                  0.15720153151697621730
                 -1.21692611611835799224
                 -0.81807443631997289746
                 -0.37486869607528561232
                 -0.53115878202724187140
                  1.38156671884238946291
                 -0.33884456931943857105
                  0.41162962173573136582
                  0.37474168838829041706
                  0.21535211487523461815
                 -0.19828688214771880705
                  0.04222574444461477811
                 -0.24657538299358019995
                 -0.03280164485582954398
                  0.48867421090469975731
                 -0.14429584682452190059
                  0.51932829887781850609
                  0.24169116291647241290
                  0.88990736403655756881
                 -0.06940649460392694925
                 -0.72006575261299154977
                  0.01832314589360585153
                 -0.73572113548640893921
                 -0.14794102186169202917
                 -0.09119987176925593853
                 -0.37805849774962901888
                 -0.66808178630192405212
                  0.18716212502822329733
                 -0.44650051228947884585
                  0.26878725514561546683
                  0.28258497941735033487
                  0.04267301765060416835
                 -0.93574570695758219063
                  0.63949613117220382996
                 -0.10655460634305959078
                 -0.03458479870484198332
                 -0.34989426446595300879
                  0.91054126340452534727
                 -0.01106471685436192717
                 -0.64595131794788818169
                 -0.22447038181563194748
                  0.37924970476309949330
                 -0.81253050208236554663
                 -0.76375062917267777518
                 -0.90751358597100151293
                 -0.38988361680158961642
                 -0.20519662764732155003
                  0.01177316357218516872
                 -0.50405188379704457535
                  0.40006117804507385083
                 -0.93564966362098744845
                  0.14664703111061727636
                 -0.02052159726934272774
                  0.18961308615940242195
                  1.42400794208810999031
                  0.02649271360468959113
                 -0.40041706063071258459
                 -0.14965842772695731044
                  0.06970080626387836764
                 -1.18089039596218969841
                 -0.15633920681384566587
                 -0.35203079613146920357
                 -0.08626676891301347794
                 -0.45768149378425404539
                 -0.51603460354278329891
                 -0.83575006819511987732
                  0.25109426364874870563
                  0.13225845672345781789
                  0.11682861627103377500
                  0.49691509403308398163
                 -0.33815462621487407668
                  0.80779552970257906264
                  0.90119514474801420967
                 -0.30605184887530956228
                 -1.58739527499916555087
                 -0.01859624667816017762
                  0.60196034207803883476
                 -2.98282557195615227741
                  0.91548132333470033650
                  0.48558629216735760270
                  0.28248835802862992672
                  0.25775123246495329488
                  0.28220222432006975000
                 -0.26482663356829139190
                 -0.35370504614926223663
                 -0.35301245086333582490
                  1.01006189228058707030
                  0.54805476164867461542
                 -0.03211730680660501019
                 -0.71399617174408736009
                 -0.50876790003150729191
                  0.07386412704835954024
                  0.12898383420949971478
                 -0.38985487546366504041
                 -0.05425493324821595992
                  0.61093530109467797384
                  0.02404606197267803239
                 -1.20484773780844234281
                  0.60888677059908125067
                 -0.36161947415035683440
                 -0.86489693509196996501
                 -0.78042631787278982092
                  0.79757685917920673191
                 -0.85227706032592420726
                 -0.16226582804979231001
                  0.94346525447604800974
                  0.42352476746543205044
                 -0.29053853205031604512
                 -0.23042104063135979142
                 -0.30374032457423078002
                 -0.09014475372431381139
                  0.57395985418004069611
                  0.00093549054953312840
                 -0.17873435238811799519
                  1.16225222980576980980
                  1.45993932538683601763
                  0.02838726426918793122
                 -0.15484207168928559861
                 -0.35180119009939003760
                 -0.52348291354134468545
                 -0.28137182011838701712
                  0.62297857009076307300
                 -0.78081565887131443304
                  0.61806268106680972707
                  0.35692301563724793123
                 -0.05174602887859457157
                 -0.12038124514823358990
                  0.02446917124860651521
                 -0.13975167819413147896
                 -0.13606905233648786124
                 -0.15771409657416576855
                  0.02433701589026392165
                  1.04066221318267748686
                 -0.52943427343334026336
                  0.93901652427413084823
                  0.46436152905335736918
                  0.12071124429888820118
                  1.09089170208959540531
                  0.80097141559498963304
                  0.12557906068956770085
                  0.80933963010826859286
                 -0.76019215577128096406
                 -2.02463982948848064680
                  0.26807933431262187529
                  0.41948316220249448616
                 -0.47273406095942416272
                 -0.08083537399160981018
                 -0.19968430351494070862
                  0.14060258774064818277
                 -0.25757648500041524509
                  0.51213529653252931606
                  0.00091608728704295310
                 -0.18352454140311907915
                 -0.05669720548380371983
                  0.44142864122643565850
                 -0.53552502230516463300
                  0.11196055302151164401
                 -0.54401148997804060770
                 -0.13661202615981982156
                 -0.02036816405492148166
                  0.27595200112908546686
                  0.31341172446981130362
                  0.28817819323804949594
                  0.36941467940271049963
                 -0.44892763757643833200
                  0.37232613458052926658
                 -0.50566905089953384511
                  0.42876393638714938028
                  0.05184811612886874865
                  0.93730143062594761805
                  0.93523332938574477158
                 -0.13891517542993953027
                  0.00046434788680255364
                 -0.25204172998627200064
                  0.62501097675452543800
                 -0.25906466003897854478
                  0.28224398769531244824
                  0.52141549131698439190
                  0.34708068413660725371
                 -0.19391443705316868673
                 -0.21532706919677516155
                  0.10621171670039535051
                  1.37600831360663544700
                  0.50700880384766100484
                  0.19815707603399151937
                 -0.18202162478200462070
                 -0.30818083852706290582
                  0.78555065522182609961
                 -1.16266128846195782032
                  0.12944141373086404112
                  0.00868319698402081515
                 -0.25044006087910980485
                  0.27599701201482362833
                  0.47193960338296780943
                  0.70523905894421756724
                  0.83542516072715133912
                  0.11879479777128533480
                 -0.32230983529664980480
                  0.23784140688961735721
                 -0.65759301744311338123
                  0.21506397359441165040
                 -0.35530107657522214115
                  0.49264458338927047398
                 -0.22944692186746870610
                 -0.53466410897801208701
                 -0.40039016915824898746
                 -0.02674944765830463214
                 -0.21902819006589896444
                  0.72959718600877310202
                 -0.45068277076199103615
                 -0.86970127867690927292
                  0.28432807929433129290
                  0.83680264742489218754
                 -0.20906884906937914237
                 -1.80976489310404864419
                 -0.22562266884072251782
                 -0.53798106542349699577
                 -0.14615720241360002918
                  0.39547536606185229591
                  0.66421507030292936680
                  0.37446027741927512267
                 -0.12734829597710392579
                  0.39549945253274459978
                  0.00626717563737976165
                 -0.15685927934264035088
                 -0.09491280740527106852
                  0.66233216185764953732
                  1.28923694399278909728
                  0.18650846829236203406
                 -0.08281086957153291350
                 -0.26177043254554305252
                 -0.24997218927448824899
                 -0.61564936057659480628
                  0.23650619465149683163
                  0.14781217620728068218
                 -0.70831966978078120256
                 -0.43636847792444927174
                  0.46215373061202558169
                 -0.75234843457935207667
                  0.24739500511228981749
                 -0.09987020443983692097
                 -0.11892234869086107385
                 -0.14309044882127769371
                  0.31761245809113280991
                  0.32672883881540332185
                  0.07519029552410687323
                  0.47865934773464297036
                  0.66446683688362306874
                  0.62302705620503295858
                  0.03432762972006470764
                 -1.31882661761329367245
                  0.37870104223230138807
                 -0.14499378944632518307
                  0.65296870300408160759
                 -0.73298521472556577017
                 -0.71905525485063193081
                  0.69543184329603113802
                 -0.21433227755710787532
                 -0.38655191818201989351
                  0.62661675395426652546
                 -0.43890547411318481252
                 -0.46500394135240002980
                 -0.77224810058855442030
                  0.11122099409878423437
                  0.56318700638312513274
                  0.00698925224784997454
                  0.42120832732322854852
                  1.27643645564884100629
                  1.34511170288206893808
                 -0.02068968811602887523
                  0.99082626250917438249
                 -0.32680539629379901090
                  0.39019158455314728595
                 -0.22656508897625249332
                  0.35580623911372499801
                 -0.59225573253215169078
                 -0.08149482279758588077
                 -0.93517581815966355219
                 -0.40643762512135961362
                 -0.92853247641150593594
                 -0.33253867724981728271
                 -1.77131336518363835530
                  0.25201253821875113648
                 -0.02502429055571626232
                 -0.08838820814051166763
                  0.60278380120299379641
                 -0.25787046493598908548
                  0.28941867463653336845
                  0.28573565354231500457
                 -0.85755275532548635997
                  0.23232023605860421811
                  0.14013387396300325261
                 -0.08397166339272016389
                 -0.84196401035238432886
                  0.49779602552673141158
                  1.03909128790358251671
                  0.82472852591430534375
                  3.28127066740286954527
                 -0.19066800176054660154
                 -0.71979226056322109795
                 -0.19790236725079043967
                 -0.88117453366117459712
                 -0.63891764863938083074
                  1.12105424404648368331
                 -0.02901513419347967471
                 -0.94871305396041316627
                 -0.18708681328070481120
                  0.12497155327306450068
                  0.78131437354931665418
                  0.38646020392164431856
                 -1.66078655872000657823
                  0.29697130679960614952
                  0.27964065547918842691
                 -0.13834241635164953865
                 -0.47390559046321106829
                 -0.20866257243841410118
                  0.29812173405385494762
                 -0.03777217280823895462
                  0.87623443282478752359
                  0.53357098020017657003
                  0.39067961382154942074
                 -0.60085672027357517333
                 -0.49789265076313299341
                  1.19615140060668112554
                  0.17527138708092865338
                 -1.16017797177663095631
                  0.52344872150318055848
                 -0.52632763744638288994
                 -1.20287236660322083281
                  0.04001767948043334633
                  0.09389575028390841072
                  0.33951297686304038326
                  0.75734991197997014734
                 -0.78322430073815552110
                 -0.18424527775482929526
                  0.39260442920894228491
                 -0.06552913434697575645
                 -0.21957325586823375763
                  0.97814333804148079210
                  0.42441748485711128236
                  0.01754695082116639743
                  0.33668167634283102663
                 -1.13155121247725842792
                 -0.88787137947323313547
                  0.40045810571873746708
                 -0.01326204584476061397
                 -0.35883495049472019511
                 -1.00923817368195356536
                  0.31949860203928531766
                 -0.31676275313390828137
                  0.04880754678484554993
                 -0.88303032188294316995
                  0.24851044058243823565
                  0.57584444859268257844
                 -1.32461602371299003167
                 -0.55980811647128503328
                  0.58177210024228775964
                 -1.11932830925600845795
                 -1.52818624741015973711
                 -1.60055366756688055574
                 -0.38558502519423637489
                 -1.72760635387325134360
                  1.13460414250234697953
                 -0.91227075458207584902
                  0.90102065450029900084
                 -1.29270411288774278447
                 -1.29409946142443832429
                  1.59189345651020364159
                  0.10564573703118124159
                 -1.24357176232745270106
                 -1.60069911042517332156
