The first PIP-NN PES, totrmse=0.0455, errmax=0.6321, trainrmse=0.0445, validrmse=0.0503, testrmse=0.0565eV
12	2	1
20	20	
1	701
  0.4470681173500000	  0.2609999801470000	  0.1009481455335550	  0.1900717560671500	  0.2018914550180000	  0.1362659139489023	  0.0388844711285307	  0.0907180089521311	  0.0781581082308713	  0.0895327799858355	  0.0907179981838110	  0.0711370499999518	 40.9818797000000004
  0.4515900026500000	  0.2610458298530000	  0.1009484544664450	  0.1900723739328500	  0.2019017549820000	  0.1362659160510977	  0.0388844728714693	  0.0907180110478689	  0.0781581117691287	  0.0895327800141645	  0.0907180218161890	  0.0711370500000482	 45.6172563000000011
                  1.34783746585167407694
                 -0.96699644185910438310
                  1.04068011321217013254
                  1.57543875371066288693
                  1.89402881143421364385
                 -1.55088627912683296728
                 -0.12364620949449049714
                 -0.70956868440592135716
                 -0.63231620092771045893
                  0.29677266365097937362
                 -3.67541396002402231957
                  0.98005255396061785600
                 -0.05490885965231470656
                 -0.51414809103986680583
                 -0.26802765073899764703
                  7.18183819240335097334
                 -0.28310366568824574252
                  1.61274771089701762783
                  4.32343321051423501444
                 -7.46100461348007737428
                  3.11965314532106585688
                  0.85412511429918103190
                  0.66374734579931993217
                 -0.43258542846014019778
                 -0.08568100565534969570
                 -0.88574251929652636495
                  4.26679378657252250662
                  1.64195408645183871243
                 -1.45903964725649215595
                  1.24420374702085845264
                 -0.00838590692850687582
                 -1.94703330699052812314
                 -3.42032595546884721216
                  3.03650491107538300639
                 -0.03104784699771261786
                 -1.48146475554481749093
                  0.28328663256307273777
                  0.70706257078078704748
                 -3.59404870774248985654
                 -0.88834018726599317528
                  0.16340877655201874186
                 -4.08476200658278809641
                 -0.10628132970221700060
                  1.91754337618221315509
                  1.59960153422775719356
                  1.44897996014939645093
                  0.60935270111550743355
                  0.90898163481081828419
                 -1.28363093214550194610
                  0.59131964490152721936
                 -2.16322018580313280012
                 -2.41831088046345854536
                  4.10684147876992255988
                  1.17457637606940812347
                  0.16734598873396783203
                  2.04169349297908997443
                 -0.09873608989924903545
                 -2.65612797861138849598
                 -4.50709672339969191768
                  1.89696824303019839775
                 -0.62655304729327254698
                  0.37709325224230894058
                  2.47965450624131111823
                 -0.49657734665482849978
                  0.12751978914322667502
                  0.21827750416959237900
                 -1.14523886054212797880
                  2.21059754040302181011
                  0.25347626423952790420
                  3.89265669641255129818
                 -7.62033336111645276389
                 -2.08631306435962615708
                  3.06609373903465343147
                  0.00777688315294303156
                 -3.71139962558970193385
                  1.49935874054070916728
                  0.28935312696226178630
                 -2.71345815107119125997
                  2.29395086533380299088
                  0.81381377091661655232
                  1.76032585446042788568
                 -3.16367765816335211326
                 -0.77644552148719025997
                  2.77006597478263927314
                 -2.57557747717908780416
                 -2.81376619025805263519
                 -2.49009957421940075761
                 -1.78490454245023610902
                 -1.07382530414603460933
                 -2.93907823987749061700
                  1.12107899609177241729
                  3.24857672377938566655
                  1.54570764746965849668
                  0.20712051615966287077
                 -1.00325758274149001714
                  2.31901321872627352860
                  0.76678265880298746016
                 -0.10641434753431000537
                 -1.46847715144629131778
                 -0.70853852887386592485
                 -0.11203293898698503395
                 -2.29712579445147291324
                  0.36551101027407584265
                 -5.17339013906827016598
                  1.32912017100569368466
                  0.38385276665385636985
                  6.15128332239014774530
                  1.24783612765264262379
                  1.89944364922101716076
                 -1.38826927781055786681
                  1.30959107513320827110
                  0.45142662293888369263
                  4.32404076585662711096
                 -0.70506307787467181747
                 -2.37301112621130982916
                  1.17384443426759910167
                  1.91434641468872346337
                 -2.61817706204349498478
                 -4.76809776877516888760
                 -3.38298889530300117556
                 -1.87060505950213729065
                 -0.47211447631390357493
                 -0.54498461915309459602
                  0.59537545418953208287
                  0.36522842580092312881
                 -1.89468789454061337096
                  3.20528490290557810383
                 -0.59642819357963061666
                  0.68556677873596194583
                 -2.97929875085928319578
                 -2.17641601226307290773
                  2.62291673690339655067
                  0.77523998851212239103
                 -1.11705718388109964678
                  0.66630850831977328497
                  0.04154593128401126712
                  1.73175771131846700790
                  2.85142481000173031447
                 -1.68832066692882798442
                 -2.79088953520132365682
                 -0.07388042353381463201
                  0.17103108636936442677
                  1.61223667844729767751
                 -0.72526420370426036843
                 -1.37911241255903060932
                 -0.65697575921211359695
                 -0.08062565332288651465
                  0.92371121431470171181
                  0.82725114145785227926
                 -1.16623302642687631803
                  1.19020142450502253162
                  0.75578778735569551728
                 -0.55490000981645670741
                 -1.16113690693979654256
                 -0.66148654550637031591
                  2.03280268549583054138
                  1.46296804020154369574
                 -0.94853063996871789243
                  1.19680803537615720877
                  1.93916070345357227644
                 -3.41885896726064419937
                 -2.20052863315053848225
                  3.16279639247846278138
                  1.01117432883171498581
                 -2.88339509351074951837
                 -0.29330080839697952877
                  0.89917373702337211050
                  1.26415476907299528797
                 -2.08116257753635380823
                 -1.61494935871896228008
                  0.79205160659082995966
                  0.76317297556349350529
                  0.94174654088306419819
                  1.48384465295762879578
                  0.92154702623199713507
                  1.76069210533341213853
                 -2.16045552029251064496
                  1.06245966868746744005
                 -2.23775233939844309106
                 -1.42836169723868366965
                  2.07081981420513772107
                 -0.84428436447533472542
                 -0.41633251670002696665
                  2.49428684778979814496
                 -2.67803778033922235124
                 -2.15462727576502777183
                 -1.76873243058982443365
                 -0.03973327763826046966
                  3.11568827103247603105
                 -0.11004827590301219375
                  1.49595746687289765653
                  2.47471600629361576651
                  0.88736099783920230344
                 -0.29068150481145871300
                  4.87914903811786526688
                  1.22389607997178373466
                 -5.43741310949555423093
                  1.10273789465917237962
                 -2.45473814120504085778
                  0.78901581884423988011
                  1.23445814655238694790
                 -1.04421189230235400558
                 -1.26353653949265032352
                 -1.84964730733120630291
                  0.63930467818488079246
                 -0.19634180710154799931
                 -1.27099017586682516701
                  3.03948953813238809119
                  2.43027262312614222850
                 -2.42241652472038371258
                  3.18274420805853175409
                  1.60884341382750784000
                 -1.90338249695423233909
                 -2.68598938733020187186
                 -3.90079877848079892289
                  1.26211928156749730867
                 -0.05222280832060952754
                 -0.80568749691046548378
                  0.11832570597584479710
                 -1.30404901632214298424
                  0.12201085570411202008
                 -0.65855954300595875850
                 -0.86418689107207180555
                 -0.83463255189000640222
                  2.74666543186053413450
                  1.01944597694185645764
                 -2.26872856576597747846
                 -1.30752311214529348682
                 -0.89917190679810543585
                 -1.36617155759289943262
                  0.22028563196171188632
                 -0.67970403449833771692
                  1.20540498840659515700
                  0.86947377302686135181
                 -2.36440671908909783028
                  0.21949465303029064289
                  2.69788973079393912258
                 -1.16083152352784679806
                 -2.78785198480074525307
                 -0.67319435469035293629
                 -1.35341941769589069189
                 -0.51833484211330926872
                 -0.22989643112878468956
                 -0.94888913120198625784
                  0.21322007069038506621
                  2.05593884260794235175
                 -0.87333956060029271917
                 -0.08155725706369118533
                 -0.31801346043455230861
                  0.11215436354145236209
                  0.37965340867683483594
                 -1.15310612302137638352
                  0.39738679274179777856
                  0.12491508744453612423
                 -0.95306672576620943271
                  0.33566696370808363215
                  0.93339133023614562212
                  0.08350335058131587440
                  0.70089846653423026890
                 -0.48346459947142389479
                  0.97499115459854823751
                 -1.17157184707577477489
                 -0.90099279565249634771
                 -1.01183398859679085646
                 -1.93089027936453305756
                 -0.97495423046575058201
                 -1.95374675315415391452
                 -0.52210877415681922198
                  0.55405512434629555774
                  0.59565109300031138240
                  0.51086995838661442004
                 -1.29931979919446760618
                  2.29679750513979907822
                  1.30831467716715299510
                 -2.19783328624592266820
                  1.14176997929822832134
                  1.15987932536186066912
                 -1.18092561698039988372
                 -0.03897173305548292527
                 -0.79470636490643220551
                 -0.43437438514722154226
                 -0.24060527595974512405
                  0.52458098727177215892
                  1.52540209395970216555
                  0.63875309400853108599
                  2.13092306331319569779
                 -1.64496192815611363969
                  0.20337225412370038558
                  1.54263823517585474399
                  0.60329453835058433064
                  1.04476546849794482696
                 -0.22885790654670948308
                  0.02048672779193782406
                  1.11050921443566474878
                 -1.63939216156167244520
                  0.74161373802625685236
                 -1.82639594943159044860
                  1.51409360179309659955
                  0.98645561770070999685
                 -1.42807585265929293250
                  0.75744435036477786305
                 -1.06048589620306588088
                  0.24413463189776232753
                  0.68460104261571852469
                  0.25717023099699864996
                  3.38100210084411001432
                 -1.01835048284853457723
                 -0.46139203231064007671
                 -0.15043056800344825619
                 -0.30962231968475922850
                  0.18985551721725621444
                  0.82604313515160476822
                  1.09991225263166780834
                  1.42689354263684808899
                  1.38876554416477904219
                  1.73793477457184630808
                 -1.54389388055896037422
                 -1.61701714476202029758
                  2.19257827183612041821
                 -2.16964662012685405301
                 -0.22004597952044196996
                  0.48740291748997949250
                  1.13421900210621351412
                  1.85441334888847886297
                 -0.96391646420727050693
                 -0.79452014901462886254
                 -1.36637406527098459463
                 -0.16733985644047558172
                 -0.11194412086327899802
                 -0.09523890538617227342
                  0.65840893981913217736
                 -0.99110805499702969712
                  0.12811573263388909005
                  0.56421966678658852512
                 -3.50885515470409492522
                  0.65691557638482667159
                 -1.34181984542935284210
                 -1.08794436821770057477
                 -0.95788234901133928467
                 -0.79308478802032444932
                  3.32951176269554238729
                 -0.38669489672547940895
                 -0.70102110466214972995
                 -1.60766241947587440464
                  0.93827647016556503523
                  5.49349156067194410724
                  1.11044472543680505794
                 -1.49794524930719341604
                  0.31082333757756058779
                  0.46894552471446976361
                 -0.46823749553786359057
                 -1.80234095024695450959
                 -4.12244239564082270988
                  3.30412465070688465829
                 -0.32886335051197890245
                  3.32524632319534951819
                 -0.64891077108789463335
                 -1.52770889992077663067
                  0.11633503875553519169
                  1.28032002700617630886
                 -1.27178511565516227932
                 -1.20727708358764118657
                  0.04553151008953779111
                  1.28028474253984114739
                  0.34273725824975548315
                  0.26453985621640091486
                  1.49588021516748281847
                 -0.80785203863971444260
                 -0.01970803923796322216
                  0.37646052554059911133
                 -0.02401500552731153371
                 -0.29363996134612813105
                 -2.85972475576394913332
                 -0.53617477964592674677
                  3.98466519194596457965
                 -0.20020855615109928172
                 -2.71343568293367853883
                  0.82249768474352225045
                 -0.88559363510034305733
                 -0.44464561733095309126
                  2.81993322600651996623
                  3.22008342385821100251
                 -0.78395906111515611947
                 -0.08014551745941334016
                  1.89698010316694287702
                 -0.25448580747385524115
                  3.20276970443035580161
                  1.18639882559868126144
                 -1.30930734648379609730
                  1.12615347000663779120
                 -0.41203601559224301010
                  1.36360061050320235942
                  0.10824088050631225366
                 -0.14407477016956210525
                  4.19798051783325032460
                  0.33923364478847545245
                 -3.37955466608564059072
                  0.29602032451287363379
                 -1.85410613552318648267
                  0.94515572631718547392
                  0.43912637511651864131
                 -6.63568297657040151449
                  0.44483931115370645148
                  0.00707037033528992720
                  2.11395723840721849740
                 -2.54690853760977953257
                 -1.37954470105075510666
                 -0.76819850858593607956
                  6.07261058425745225975
                 -1.67311667194956914528
                  6.70156894870715191814
                 -1.08964475168508734271
                 -4.07193030228954722105
                 -2.10359646761082874633
                 -4.44562393108943609832
                  3.44923311134239574116
                 -6.54714559924327321738
                  2.22620596994489927667
                 -1.61865325821585903654
                 -1.18456349109776182260
                  0.87099427245120930596
                 -0.30960236214894748530
                  1.34052044588972618655
                  0.83374701154832131511
                  0.13965486314063069173
                 -1.07743371114562047630
                  1.26750661051667790069
                  0.56498439357247853820
                 -0.68666665757219524924
                 -0.23559959208324071644
                  0.46137713731897955771
                 -1.35420909577318182571
                 -0.46940012583653834000
                 -0.33498383906972001300
                  0.60486847369053986512
                  1.14619942333584945438
                  0.56975024726372636152
                 -1.92237322802969146096
                  1.11246862399205270755
                  0.12407503441369097108
                 -1.48152043930393384485
                 -0.09570071042812719475
                  1.48909585008965894559
                  2.46045603231831044866
                  0.04514551891605026596
                 -1.10597235750715827685
                 -1.82036625539735741341
                  0.20011757809735802871
                 -0.29213650420726156032
                  0.82215195969962973077
                  0.11703804998850532437
                 -2.61677831578589970007
                  0.87643288187892609553
                  0.73234952985562773442
                 -1.51314367925815274063
                  0.74168395966793754237
                  4.16654459648693809015
                 -1.94448293018016027389
                  2.15102131331801604830
                  3.58823439549180056574
                  0.72125356894791115003
                  1.19888011119765525159
                 -0.42023638229907522845
                  0.83851356787444319973
                 -0.60023313410468159823
                  0.58241942193155427088
                 -0.05481278891497851774
                 -0.06542725579676864078
                  1.03368071478196044133
                  0.36791440083762172453
                 -1.79611813228119410191
                 -1.49066203326667356954
                 -2.78852463287569563022
                  0.50491662176842144749
                  0.87215688573327720956
                 -1.70338093221886044404
                  0.83254241285461538791
                  1.00629285823154424051
                 -0.80627994562379101673
                  1.31115296966081196217
                 -1.01519617313470589259
                 -0.50935265876355251269
                  0.70324247976032061569
                  0.53243477310627507215
                 -0.31111799812634438611
                  1.72466923417375417316
                 -0.89412335649599561371
                  0.14646531848970950618
                 -0.01712613914067543514
                  0.07884201194067479157
                 -0.11702731539814695272
                 -1.88153340536751190193
                  1.78184624461758689407
                  0.06891470681871025850
                 -1.41659741309532005715
                  0.44635113112450114370
                  1.36079796970845690041
                 -1.01938354576207057534
                  0.92204169493353005382
                 -0.95547595746439284436
                  0.66766269678460410386
                  0.42793837228295089625
                 -0.45252833567937694736
                  0.58215138190901372095
                  1.88085126550154790870
                 -0.77056276736336748456
                  1.73997017729304470635
                 -0.68201675313861187533
                 -0.92017754115364480683
                 -0.37972819954889275307
                 -0.04215042050403898510
                 -0.45124427660172217180
                 -1.68953529936941437839
                  0.11343995247394639270
                  2.85849674421231858545
                 -0.30812918913221132300
                 -2.39477812097251252510
                 -0.72864812499203779339
                 -0.71956165412038630702
                  0.99717614598424952899
                 -0.75421176680177237639
                  0.57521050069889323453
                 -0.91571689594299854331
                 -1.57770415848703482453
                 -3.89604081136474222902
                 -1.00522793546095146056
                  1.22679127782748631503
                 -0.35090254909262508232
                  2.18546407396940578494
                  0.81892279644276599893
                 -2.00308864246253781616
                 -0.25542377919349823490
                  0.93054859718279503422
                 -0.89958495994219245251
                 -0.99421176678976341812
                 -7.17070404082629409004
                 -1.45682974943069187823
                  1.85897783782267045360
                  0.87456573065441078896
                  1.57533961025983826332
                 -0.76372522682278309869
                 -0.84731110401343179284
                  4.62331993524936635254
                  3.63703510788557915490
                 -0.63720608572406078896
                 -3.39990528565912741854
                  0.60867643427169959569
                 -0.66986397702107858265
                  2.31431939879559678275
                  2.02754459796392572102
                 -1.06868611131052149155
                 -1.11513574344796739801
                  0.62269454214006048076
                 -5.05656979136980311296
                 -1.06201851539762248677
                  0.81102953616012352089
                  0.17193204823251906355
                 -0.23399582216757169872
                 -2.31055082565403502315
                 -0.90460270319295532637
                  2.64535356436683866121
                 -2.93015529591231782547
                  2.89851587059213677833
                  2.88296334119425567977
                  0.09579718967412188813
                 -5.72086907884736906027
                  2.29102062416534257849
                  0.03506196548427554377
                  0.91320452514206384986
                  2.06480414034452364191
                 -3.01238819410712510560
                 -1.20214678254147866454
                  1.74499999983104303602
                 -6.08351295572946959567
                  0.59319656632928952078
                  1.34388359673564905528
                  1.44068107569841163951
                 -2.74962807879821458101
                 -1.60115017899783107502
                 -0.81097183243261394825
                 -0.35827148914301193416
                  0.01012160749700784061
                  1.90725918183429343777
                  2.52651542739835077711
                 -0.32555351372756252681
                 -1.51532883224591530258
                 -0.21767087627004516603
                  0.31997439742586653022
                  0.01013847699082675441
                 -0.05015440227885591823
                 -1.02742721287716554102
                 -2.37613791755464376365
                  0.55703468684787382781
                 -0.49772803230891077275
                  0.70881092130570466647
                  1.48377426406530510405
                 -1.26734609466828640478
                  0.10550179354368943718
                  0.03512217038743012387
                 -1.23436611305242771586
                 -0.71579795987072736274
                 -6.94483205193101049701
                 -1.93144982157943756462
                 -3.41022381170364630165
                  2.75664156919608016594
                 -6.19460752246174006785
                 -2.44921522870526331417
                 -1.39964409583997451136
                  5.31370025647215538100
                 -1.42637823334430957622
                  6.88599540085783878851
                 -0.49787894850108577183
                 -2.43472254647418440143
                 -2.32641518158285620643
                 -5.47378473100786600014
                  3.06287014851162897600
                 -7.91981200633079662765
                  3.69052074592278067655
                 -3.07436902319183058552
                 -0.51507759531762553618
                 -2.09025231435853076079
                 -1.22618973324522317903
                  1.75238440476440171523
                 -0.25666258431323973888
                 -0.33878520955836771700
                 -2.10124041231003344521
                 -2.16336368768276354757
                 -0.72740567005569367609
                  1.25344604284715743781
                  0.88530743818548707225
                 -0.59463328801946213620
                 -2.25210530915070972213
                  1.59114800435907066678
                  1.17895685487357515520
                 -0.86004952483013297204
                 -0.40769190292406404241
                 -0.03410086840213938375
                 -1.95319251037290442241
                 -0.27426938247239901481
                  0.36431720763049940670
                 -0.92606396055728146255
                  0.69271015482930486939
                  0.41388831803529896325
                  0.28966028482595596039
                  0.60296160516106023231
                  2.63626149793087938278
                 -0.39624815221797088372
                  0.09670395974735046529
                  0.16264452116917424429
                 -0.29592182271175093700
                 -0.32859651606390033463
                 -0.41324608555062808390
                  1.62568528263809763956
                  0.29255067545057944489
                  0.03141607585169944872
                  0.21627950116367539168
                 -0.21955533048496503334
                 -0.40490813456255503322
                 -0.17158976175614015780
                  0.58029771227058735139
The second PIP-NN PES, totrmse=0.0521, errmax=0.6235, trainrmse=0.0503, validrmse=0.0666, testrmse=0.0658eV
12	2	1
20	20	
1	701
  0.4470681173500000	  0.2609999801470000	  0.1009481455335550	  0.1900717560671500	  0.2018914550180000	  0.1362659139489023	  0.0388844711285307	  0.0907180089521311	  0.0781581082308713	  0.0895327799858355	  0.0907179981838110	  0.0711370499999518	 40.9818797000000004
  0.4515900026500000	  0.2610458298530000	  0.1009484544664450	  0.1900723739328500	  0.2019017549820000	  0.1362659160510977	  0.0388844728714693	  0.0907180110478689	  0.0781581117691287	  0.0895327800141645	  0.0907180218161890	  0.0711370500000482	 45.6172563000000011
                  0.13506970624543626625
                 -1.09900721012645430363
                 -3.39821867587464243599
                  0.35080879067961290296
                  3.28044313360481298858
                 -1.23025701488175243092
                 -1.27552008447965192772
                  0.92297565428228778295
                 -0.73204246983954168737
                 -0.79718635369311408034
                 -2.44809976698097031544
                  2.04778680400723978039
                 -0.24471645779046641289
                 -0.19550904871890040226
                 -0.65454211181361898753
                 -1.39779716948056487169
                 -0.44519419834168572070
                 -0.86618120744202264927
                 -2.67700373810274205866
                 -0.18905394044352127891
                  2.47961262712350549720
                  1.17505363893426895139
                  0.62094029411078888181
                  1.04579449015264036582
                  3.14881512524865891933
                 -1.81660572529601571645
                  0.95056426974607388658
                  0.00030248815974604631
                 -0.83328573363651592398
                 -1.29865859666217309254
                 -0.21197475298853357684
                 -0.43531205285556007212
                  0.94887158022475603936
                 -0.38345767710506734050
                 -2.02563802955934102457
                 -1.96822707852042944054
                  0.13687884708448075366
                 -0.55904475420908628092
                  0.24058696552080321984
                  1.80353400945059449967
                  1.87339179229790686598
                  0.02941823292493282727
                  1.31479677586405707679
                  0.25343458377971633810
                 -0.14920774035734504781
                  0.78196392425261762593
                 -0.57511973833348362106
                 -1.18336521406112327170
                 -0.31360249994518796246
                 -1.52115102071010865892
                 -0.44307178037499966861
                  0.63922846762849105939
                 -1.19640884655689938576
                 -0.38440442711845296264
                 -1.72161159631828986072
                  1.14715185633224248107
                  3.79472439963856134071
                 -1.38767883035330119590
                 -1.73815641866787173875
                  1.66282667428154873335
                 -0.15459294270596707355
                 -0.32976969941319256296
                 -0.31314313862017822965
                 -0.06097365710749657469
                  1.01332391220624429273
                 -1.34101123567242952461
                 -0.78085011318462360652
                  0.63742977187982952092
                  0.76774679729410510998
                 -0.00604530910745846098
                  0.38324093069511838694
                 -0.57027409692615360637
                  1.88314346967599033356
                 -0.48330527751167817740
                  0.57185300393846250078
                 -0.80238149895440469273
                  3.22733408869817406384
                  1.31988729624576683896
                 -0.66382489427778101909
                  1.83959029920765093635
                 -0.96954367738795632636
                  1.35778117296984746076
                 -3.50156554047838231014
                 -2.13790425131893657706
                 -1.75604890315694617264
                 -0.82633721601394849454
                 -3.55698138684240916518
                 -0.65961103269873333499
                 -0.49637503219989054237
                  1.65843050670855540751
                  1.69239894448332961474
                 -1.14353081872670037100
                 -1.14258081033379577107
                 -1.74007259626345156533
                  1.25313690710967540198
                 -0.68522740982057694925
                 -2.23123622721640035849
                  1.92344915677327366055
                 -3.00885332336976452083
                 -2.75657177358458049810
                  0.46180051573797903375
                 -2.03524305227873325563
                 -1.87154683872479710161
                  0.32283795840148338252
                  4.91950187213469281033
                  0.95156544951385746423
                  0.67734779185131599455
                  0.75493963214898285319
                 -1.76143303400944573056
                 -0.66165468629901336151
                 -1.22084453021775463100
                 -0.22929718168912843757
                  1.35231746776770567209
                  1.70831020764000229839
                 -2.54497414550855971527
                  1.66345970998710401823
                  1.89574389276518728842
                  1.21300645328318923433
                 -0.23338921038469537250
                 -2.01633901266681014874
                 -1.53622961022809123577
                  1.03436021396903488068
                 -0.96064216082387465789
                 -1.48336656942903455381
                 -0.89542944413171765561
                  1.39797255583948576430
                 -3.82375365893954866081
                  3.81644673338036755084
                  0.68966288478092707681
                 -2.55621664193919073682
                  0.56228692465723040250
                  0.54720806423226930892
                  2.19047027023689455660
                 -1.32209591447338770109
                 -2.26898410589787902225
                 -1.24192071369896139821
                  1.82696965611465844681
                 -3.09039326609727593720
                  7.23576502517650599344
                  2.91910031755749077576
                 -2.31149618996496197809
                 -0.55693134599196170154
                 -8.15899322923395509122
                  3.40680790454357707020
                  0.73325946543926745491
                 -0.69739009356781866966
                  0.42907621496238818048
                  0.02326224499571341239
                  1.06141864111230943557
                 -3.19268589165559957266
                 -0.49795495987281540584
                  1.25685343610041111440
                 -0.23545560787459829388
                  1.79621059113609082836
                 -1.11565340600801232718
                 -0.30230875473998125580
                 -0.11037805598475841640
                 -0.89119616858942507509
                 -1.49364942889348206734
                 -0.43531762759665365570
                  2.08097269376576798905
                  1.27968682265286060051
                  1.75004714877719891319
                 -0.50139416805820125056
                  0.50048399048611369455
                 -0.89680038643821602395
                 -1.94765084718339887004
                 -0.11732401123186908531
                 -1.82481368576115920987
                 -0.19570908814331391956
                 -1.78605033472065377609
                 -0.48603923064022680478
                  0.22370219293799209481
                 -0.81601920688865714482
                 -0.50110649014528985123
                  1.77313121459670930413
                  1.11739543517737649481
                 -2.27798039667568286148
                  0.45375413715903512024
                  2.33539573298645075639
                 -0.29730523926069080121
                  0.94042615797266537747
                  0.77551792520772777628
                  0.04474789926576264176
                  0.02461154615762348868
                  0.78687194521409487002
                  3.00752443501968347306
                  3.34300931541586887619
                 -1.93268395011052218635
                 -0.74450041529262689366
                 -7.36506987942848745377
                 -0.84244339682332447516
                 -2.28808712825539783964
                  3.25787266672544362223
                 -1.50436642823036170746
                  3.04502714219894521364
                 -2.78482951117305965738
                 -4.01090094278224196245
                  5.20519993397510916111
                  0.26730707401500602982
                  0.36647151991971665952
                 -3.06046892683056404039
                 -1.28649570650630673541
                 -0.79456065965931588213
                  0.28512581227825378738
                 -0.98827452532838078181
                  0.69224203075171641952
                 -2.41778666351977955529
                 -1.41140488287546750357
                 -0.93748627547326823795
                  0.89718343293181612719
                 -0.71318577265840144008
                 -0.15094132996120213086
                  1.51020656618134485605
                 -0.36493033486329845561
                  0.94724400625575566615
                 -1.79882738827641941448
                  0.59443312706750173202
                  4.47663358729961569082
                 -2.57439840352226800846
                 -2.44233514545112440075
                  1.39951121716242132820
                 -3.23614811073426178467
                 -1.53331018908312177729
                  1.31156733280336479375
                  1.41439355678270306527
                  3.65383394587088972116
                  3.95424151226876796628
                 -1.32830828719278914996
                 -1.07905704632770560458
                 -0.09634895672085250218
                  0.37693197790769883415
                  0.13347722704035031027
                 -0.30652779704627358681
                 -2.50709558410336352807
                  1.93141075604689760326
                 -0.65642568266366230212
                 -0.07483761246904978293
                  0.00438348415045150888
                  0.71663216974650456592
                  0.48862628972513444392
                  0.26651069430181428821
                 -0.36976326028382278110
                 -1.54532669923228227482
                 -2.51907998614761474698
                 -0.85709610489081333728
                  3.66751481748062824195
                  0.15040285222851842994
                  2.89371524260259915806
                 -0.20321125202386869368
                 -1.49743755991550986373
                 -1.00611540673426480552
                  0.05796734627421788050
                 -0.08342049765781515969
                 -0.56910371159387995732
                 -0.05692223747027191222
                  1.54509657911046693890
                  1.39762682632428858476
                 -0.50592030844346336238
                  0.91098685395687750699
                 -0.22675659073240775343
                  0.18245309713306978594
                  0.20238625348241298663
                  0.97620912383739233409
                  1.26125304700344220699
                 -0.26059113298693020733
                 -0.38114416148895613468
                 -0.13127690052702695178
                  0.34833369566092359237
                 -0.20514270231281020451
                  0.62835136374322575481
                  0.27204545063227747459
                  0.93265951554913006927
                  0.12286176541267902762
                  0.28953861863147140054
                  0.17542506186610901109
                 -0.97080240846864285231
                 -1.12844968756135521915
                  1.20571957435624521615
                 -0.08764791431504122265
                 -0.55148565537531912817
                  1.01643915426944797531
                  0.23395704823179883092
                  0.08419853411775306273
                  0.23731466809106407934
                  0.57875576225545333209
                  1.21308266513841900291
                  0.10813535143113515991
                  0.41622674330925618635
                 -0.91159960931228167791
                  0.04821973221422126005
                  1.42741711823409400672
                 -0.44468803368941489662
                 -0.86295354408762137144
                 -0.54570648432916724069
                  0.17686243027165796105
                  1.02177053842147547158
                 -0.27027828128840630795
                  0.05164884788818619593
                 -0.92070255693243474582
                  0.44865929695070611016
                 -1.79550278257381523694
                 -0.93196491946978954335
                 -0.01147149562400251628
                 -0.38957607691427009744
                  1.96270710097025480323
                 -1.67365333373323932342
                 -0.43638207200985157375
                 -0.27119929633052436424
                 -1.16681193135437633046
                 -0.26426170523250791522
                 -0.92276247020690049805
                 -1.52514638922347112171
                 -0.92462446712295454088
                 -0.08702161718535952883
                  0.29610657133180995348
                 -0.01434483188098005339
                 -0.23506873192313229581
                 -0.68161639238992188794
                  1.57956243975382548683
                 -1.30754414289485287881
                  1.60441142812512116400
                 -1.58837485620846763368
                  1.33629902259542165943
                 -1.02526060189208201301
                 -1.39870763629338545897
                 -1.82551180577580196562
                  0.16420551273054501129
                 -0.68084095287344226222
                  0.22148907100815692917
                  1.27394986186799386019
                 -0.08716755222339273024
                  0.31394312243881922209
                 -1.87605024670488984562
                  1.62533903962440873237
                  0.09786532660544791651
                  1.02687714895562209882
                  1.59684527184908442443
                 -0.78907469118198414471
                 -0.92297378171701427441
                  0.64667452352993004538
                  1.00534191682517981548
                  0.02373690946894981349
                  1.01405813911872400013
                 -0.32869010659239966676
                  0.15153123865954412630
                 -1.50800892471597558497
                 -0.54895755206822516303
                 -2.03395160578123945783
                 -0.06056900597933242286
                  0.06948061567661803495
                  1.53559997303339557106
                 -1.06414950943411934503
                 -1.11281402788938987847
                 -0.88066979864130412459
                  1.08739311996457566067
                 -0.43078062975241376842
                 -0.08967140430704287346
                 -1.60430742189469599523
                 -0.35961573725033518789
                  0.00118895424613308124
                  1.09404102340050490838
                 -0.34990956894828029178
                  0.86950076437826673281
                 -0.25587469537701296174
                  0.36255527365477258073
                  2.29410104137972803429
                 -0.16206683715619146779
                  1.18811120492578137231
                  0.77571422605976836362
                  0.91519923585393048171
                 -0.69027761386977382063
                  1.19647975130620598527
                  2.51187811636180402530
                  2.82374948794108826533
                  0.37559423165065985994
                 -0.84845241662759063317
                 -0.95428924189389552346
                  0.56352205022648904631
                 -1.28155629910508506164
                  0.37324767785056484071
                 -0.16979260861306136321
                  1.68224207314767260080
                  2.59349775781571967315
                  0.14162004185413820667
                 -2.41028715147820804532
                 -0.56196183703770730133
                 -0.17722784354308945831
                 -2.38323013263182215127
                  4.17398042193847906844
                  1.80024009543832130831
                  3.39744605274076816315
                 -0.47600631986385116834
                 -1.76593871547602265792
                  0.47308098470304815741
                  4.35066533685732981240
                  0.81786565044452175233
                  1.99645713516129275078
                  3.11021396824663565184
                 -0.97336217808781910765
                  0.24104500482879023804
                 -1.56152774732526955503
                 -1.25251646835850505290
                 -0.86340263599248978643
                  0.35080387702064091959
                  2.08345644471770974349
                 -0.70517347838372324009
                 -0.08042146724164708771
                  0.43971837573789784859
                 -0.82963962058149220979
                 -1.02942416566183214677
                 -0.62604532821963121414
                 -1.77729390911409113052
                 -3.15844901486393458967
                 -1.21021207257464724627
                  0.16775398131529517531
                  0.98141423043811537585
                  1.02202905957879708332
                 -1.17247344028941413718
                  1.35838870316945437011
                 -0.06949290522316443897
                  3.02134513989834507797
                 -0.66235564950533243334
                 -1.95168340374023152606
                 -0.13506263713738650423
                 -0.04607342128864523600
                  0.11393482126029053081
                  0.26657797416636991317
                  1.19459430519823550654
                  0.49976871942480882716
                 -2.21017455159248132901
                  0.32328889903520291460
                 -1.36458829320434804622
                 -1.47346713513784122185
                 -2.47076198461530438522
                  0.12021824006902147308
                  0.26492255553770732712
                  0.10939316582634930897
                 -1.15271118047122755890
                 -1.17003791026054604352
                  1.15695667233709920119
                  0.15686718916054129269
                  1.27836877734433929099
                 -0.01285650297674284862
                  1.27211227258161341247
                  2.18587186590061977043
                  0.85997326205402924160
                 -0.36838863124396131754
                 -0.47560844019720421860
                 -0.82541428617744028173
                 -0.50955678280295191307
                 -1.16828740600879221745
                 -1.59128871984764996839
                  1.79508629153685461688
                 -1.41844166112332170648
                  0.91701621600090099662
                 -1.33409872076102797855
                 -1.71142700343874309965
                  1.01609373913312062143
                 -0.18257593803501070973
                 -0.51864915244274045758
                 -1.91619063770358710741
                  0.10909194147873978176
                 -0.61516410219285444505
                  0.65798441123218232018
                  0.18516780884448000299
                 -2.06478918323856763806
                  0.45264786707683196676
                 -1.33336700969521770865
                 -0.22825477964177662282
                 -0.22852092583578534346
                  0.70471232014222184858
                  0.13269216014701992745
                  1.35791926496356096798
                  1.02377296966304265347
                  0.09604717363987345935
                 -0.38731409688119250445
                 -0.78243023483110096805
                  0.46078049542514953885
                  1.08721028435580424620
                  0.44701839443926827400
                  0.74474873036281852290
                  0.16056585935620731886
                  0.26373680844517499722
                  1.80447197122041669282
                  0.73226003168457609593
                 -0.16469168210880213987
                 -0.19661740437225180833
                 -0.15496581723202407233
                 -0.71411337260958718254
                 -0.14794085316069777170
                 -1.32494392730790755408
                 -0.52638297250773979918
                  1.10996989053356442945
                  0.05211903131000569095
                 -0.02687696626808012967
                 -1.67695819739850171537
                 -1.06143142707646309653
                  1.29624652262004924630
                  0.17895953637372702394
                 -0.26490370714425670595
                  0.66379677681665549827
                  0.06087289132954953885
                  0.58726892975707944977
                 -0.06182409616067938846
                  0.27252848473812552044
                  0.79883281138452955084
                 -0.10027392698288868644
                  0.06038517598600871839
                 -0.17083407580446591245
                  0.00367282278441981736
                  0.66165311215467725869
                 -0.03400814154814008755
                 -1.39653155544657114895
                 -0.99017722747541270234
                  0.50917358742714435849
                  0.94813608077310496114
                  0.38360700618102555604
                 -0.53474512251253747408
                 -1.66710761310286126324
                  1.61074847808634835644
                 -1.48433520764615756171
                  0.56157902658437930388
                  0.15259924671593608214
                 -2.81188085548355015675
                 -4.77693543281706833881
                 -0.43258614828012170728
                 -0.71808460810980412337
                 -0.92781960636817872867
                  2.24714398757827282793
                  0.12516428190734987802
                  1.61270548160705406993
                 -1.03637203293261936921
                  0.04484640990808111405
                 -0.33607059182967680133
                  2.59480450377977156506
                  0.82506489939885407914
                  1.02744045215216184275
                  1.82454634174408703018
                  1.65117534109290842181
                  0.45284341968964464398
                  0.74309551558566788731
                  0.16255787733992554944
                  0.90959552784331088038
                 -0.00962476250568994156
                  0.30650734178252964091
                 -1.12822703697046056170
                 -0.52914697491100437521
                 -1.59945669875097973289
                  0.11418684661775667377
                 -0.01956885871920131803
                  1.31627564854637557623
                 -0.94654406534726887035
                 -0.48661239636005798603
                 -1.07594321198414299978
                  1.12228168297744490545
                 -0.54292886976560428280
                  0.19492353386287369910
                 -1.48958447954708828043
                 -0.28614456448062064453
                 -0.12566855912865843026
                  0.49588171458824548132
                 -0.07624541765131756521
                 -0.66838277599772955018
                 -0.88660350636454099416
                 -0.41930063244764936847
                  2.20256402941574913612
                  0.02375623239446137194
                  1.09325801696808322383
                 -0.09028335122068313623
                 -0.77621337077933827420
                  0.86783067251533574371
                  0.49306279244994255517
                  0.12137527133822802183
                 -0.55217683399112904574
                 -0.06657334222380910382
                  1.27115994797257636506
                  0.86449385949756230030
                 -0.59310355879268594759
                 -1.44005428178274152984
                 -0.14665976696953350600
                 -0.15095075486986817004
                 -0.02126650345874840295
                  1.11181228375948992770
                  1.23007096887183386968
                 -1.07251177772837791302
                 -0.39326226215855597523
                  1.39888685066775630972
                  1.47131221740912221385
                 -0.45627513275650738445
                  0.34946769258139687153
                 -2.31352107571507081829
                 -0.07092911250552405567
                 -0.53920567505721705981
                  0.57437820738137024268
                 -2.59598901916701496617
                 -1.99177656182155526920
                 -1.32419701699957892416
                  0.08667435552230118301
                 -0.36559247723628929272
                 -0.64923694594621039755
                  2.62183769147667078414
                 -0.13982373392101637988
                 -0.83695959772279782118
                 -0.62202263131784041317
                 -0.10438953225493267929
                 -0.68435007082690524349
                  0.04178956046918302913
                  1.17860388317921982448
                 -2.28007561628446220325
                  2.29491921660877240541
                 -1.92641522849419377650
                  1.80565944693104163399
                  1.31836599517232477830
                  0.99295969574566966820
                 -0.69175185050055565394
                  0.25562839337559983832
                 -1.09925609318119033020
                 -1.68481803068196667184
                 -1.83011960526373296254
                  0.36214208747915188624
                  1.68995554454438212666
                  0.36758247802132520965
                  0.33582203678998484575
                  1.08293371610948963024
                  1.48108686908672848581
                 -1.36152626736373560945
                 -0.47862093410184952669
                  0.96193057097200440619
                  0.02139284393673061835
                  1.01062291237903068009
                 -0.57315624424738542686
                  0.66272094077004461976
                 -0.80733152021601972681
                 -1.28771555548154514881
                 -0.90795431567102691250
                  0.79817529950928689519
                 -0.12618947729968454929
                  0.96329890392459649462
                 -1.23231935536344550108
                  0.99598123368723512350
                  1.79982523116367310045
                  1.97941825450701358591
                  1.41644537974718520701
                  0.52589087955698532451
                 -3.25853941522395240682
                 -1.30039994132702818597
                  0.03827168440308773012
                 -1.50670688837942190474
                  0.09139726311935998659
                  0.63536617663694971991
                 -1.09567501802596889426
                 -0.61977657851091738639
                 -1.84829321880194186178
                 -0.04251855632855752742
                  4.01477955353655779902
                 -0.71828551671364693210
                  0.24188683765413238058
                 -1.00144182168086537388
                  0.36699535690611900796
The third PIP-NN PES, totrmse=0.0483, errmax=0.0657, trainrmse=0.0465, validrmse=0.0556, testrmse=0.0678eV
12	2	1
20	20	
1	701
  0.4470681173500000	  0.2609999801470000	  0.1009481455335550	  0.1900717560671500	  0.2018914550180000	  0.1362659139489023	  0.0388844711285307	  0.0907180089521311	  0.0781581082308713	  0.0895327799858355	  0.0907179981838110	  0.0711370499999518	 40.9818797000000004
  0.4515900026500000	  0.2610458298530000	  0.1009484544664450	  0.1900723739328500	  0.2019017549820000	  0.1362659160510977	  0.0388844728714693	  0.0907180110478689	  0.0781581117691287	  0.0895327800141645	  0.0907180218161890	  0.0711370500000482	 45.6172563000000011
                  0.54549301931504334817
                 -0.45609123814050728241
                 -1.57120143293477254609
                 -1.04527149395633167650
                  2.77131262197335415109
                  1.57288077766644107669
                 -1.43219360670939210856
                  1.27018740940884367063
                  0.39697553448399164333
                  1.65105739498089909567
                 -0.55355681760107267042
                 -0.64063183570081383422
                  2.75223053771335202100
                  0.97890180298313778096
                  0.07566742524626585142
                 -0.65291246917299650132
                  3.16574968011363955256
                 -2.26605443045849952455
                  0.40046037191586697501
                  0.67175747854519340940
                 -1.78697132115333712221
                 -0.36521361969118226742
                 -0.15183071719926446996
                  1.09394190155451709323
                 -0.65773359394620634077
                  1.53549959823554682536
                  1.29721007577633606900
                  0.18964262957714214664
                 -4.30204026670058770065
                 -0.73748942563306163489
                  0.09900204703651445393
                 -0.21621383741179125981
                  0.85959845359325082192
                 -0.61915601628886396401
                  0.14329746088585396113
                 -0.31873552797244336654
                  0.64721836189157977426
                 -0.32927286217262397017
                 -1.43691673791875040855
                  1.12945901530668946222
                  2.95631200126272775108
                  1.38610368830952768171
                  1.93803663095661349303
                  0.17848204374243151205
                 -3.43754975178360666632
                 -0.62998162289030634753
                  1.74359749673619379706
                 -0.38010259348574859661
                 -0.60388833843897116171
                 -0.00907009086691367566
                 -2.00741817466825400729
                 -2.00533259492041304739
                  0.81892095309181278662
                  3.64137341642515321993
                  3.02207604037077182113
                  3.79858419933522029055
                 -0.75605662732692535677
                 -3.80055678033192290144
                 -2.29086379818779617423
                 -0.87896627307954622310
                  1.07172905425946685121
                 -0.41741768739452189685
                  1.91545931005016334403
                  0.38820361984174001080
                 -0.27624427279165675309
                 -0.64916529726490779240
                 -0.36868886317900173566
                 -2.35247886941762995860
                  0.52088323970966909915
                  3.05687894341091315198
                  0.42526690594548477442
                 -0.74551138542119377295
                  0.38430370454197509966
                 -0.79094664425953420395
                  1.85059049090203209254
                 -1.17964639363781453874
                 -0.49890868274070160338
                  1.08536063658311787705
                 -4.96769290635895366393
                  1.37905929135303328970
                  0.67131904577821277513
                  1.95786184737852719806
                 -3.87292224261432949106
                 -0.93259954417597634713
                 -0.96422031840506350342
                  1.72326104895712717280
                  0.19749270809362456935
                  2.33012978700416573119
                 -3.82821775195315705531
                  0.57776889444832701948
                  2.81827242449426274007
                 -5.15554064465773187464
                 -0.33102095981250651002
                  2.34948543231378970120
                  4.69225636802048740037
                 -0.41345304800955218205
                  3.60609931880838052720
                  1.83865496888948842802
                  0.62466689157443966440
                  0.88645275289680991460
                  2.29041843996199823152
                  1.22162013855915252414
                  3.85566994667632112481
                 -5.07426304780114811877
                  0.88024329343368157286
                 -6.68438926010409861789
                  1.98475728676052609600
                  1.53087266323437276583
                  0.14837107590029396942
                  0.38582055729264597144
                  4.33764230262404204552
                 -1.98373003592603969203
                 -2.79498418465679021594
                  0.66777134895953293992
                  4.22925342424229722127
                  3.44677243351344841926
                 -0.34597271665716317068
                 -0.05190062933241786081
                 -9.19163838362583263120
                 -0.88598684695368246089
                  1.10655813141089298668
                 -1.61134048218189152024
                  1.43959806750947660881
                 -1.19490927108977884608
                  0.23713237170944842513
                  0.59723702927139354912
                  1.14276550926485187532
                 -0.34112747547445665397
                  1.06961556279845737549
                  0.48174599058847616950
                 -3.19988056164034473383
                 -1.53582353483241762504
                 -0.62793489802701740743
                 -1.05827449109070670374
                 -0.15506302289178391929
                 -0.56218665377568233232
                 -0.68947105712681022727
                  5.50428821618979391417
                 -7.85255694342692933674
                  4.11642928339462343956
                 -1.17426373648838766606
                  2.92946840778439288044
                  1.07084890212986394431
                 -3.77712440164444629431
                  0.27367555025288031745
                 -0.94711607526473706731
                  0.27482108518533671093
                  2.07570853928534537758
                  1.12547074270497549087
                 -2.62370438520957094397
                 -0.17987179047527993014
                 -0.41712158554454914494
                  0.48651223192450476773
                  0.38090226784793806969
                 -0.17830425414650630245
                  1.66236439275582847941
                 -2.93941207822236583169
                  1.12778395144260445981
                  0.06997672568547495808
                  1.69208157411441262319
                 -3.28438403629031139275
                  1.81901853294126047977
                 -1.64877888262478666803
                 -1.10402846989012171086
                  2.25972675110997833769
                  2.58215833588176701952
                  2.65394245798154448934
                  0.18866607605144619653
                 -0.81438478952913428977
                  0.42773851438932125602
                  2.13760673189397643057
                  0.83612177736374726500
                  0.47612308106859113632
                 -0.77676525501744686508
                 -1.69855442981744864106
                  0.00028768808227440726
                  0.18436764527352439424
                 -0.00371021931754122536
                  0.29761807295020770159
                 -0.19807015998115798383
                  1.33203178967101609764
                 -1.35421821676516529465
                  6.55363700111163094419
                  0.63544653428203468071
                 -5.31731549115173063313
                 -1.33678164339231653202
                  2.07424497595435752828
                  3.52959362978719726200
                  1.35569885902557030199
                 -4.15999891512543928940
                 -5.65683163060003479927
                  3.40316355131322811900
                 -0.92572692626418340289
                  2.25388244953221672517
                  1.43700567078099439300
                  1.69064947458011172188
                 -2.16633920804094071144
                 -0.82755324611500946652
                 -0.31211422579712266856
                  3.18937889917940653461
                  1.00399308151190713723
                 -5.11727333652382121443
                 -3.68875701977248215968
                  1.06043880568180970414
                 -0.88894124099697546804
                  1.08657010454686608902
                  2.88234678471599670146
                 -2.10304285486474196176
                 -1.04260553425976731923
                 -0.21224431557544951032
                  0.98555291924894883326
                  0.25915181772044604269
                 -1.87768981689547009850
                  0.37605336045000298251
                  0.81035630447457618342
                 -0.80022459415405999827
                  1.31714321015602164877
                  0.15365504986342021221
                 -1.32641473496790740505
                 -1.10837732823580537023
                 -0.44367676795934846146
                  0.55388285921045288251
                 -2.47368436267487057378
                  3.23453877403240674937
                  1.11340126812700646042
                  0.19271166458509550456
                 -0.18809447829345210534
                 -0.10301469861030707054
                  0.04524504832321157854
                  0.08533008675222712724
                  0.89721111552871579686
                  0.76667187696070981939
                 -0.34152916926364601524
                 -2.58062715390146069083
                 -0.75229354440177209629
                  1.31612455609434420012
                  2.23581438488576056400
                 -2.97310037220684675319
                  0.54557333744534897146
                  1.74685623334395412343
                 -0.37519925621220795442
                 -0.59058956030455178610
                 -0.02120976772891025944
                 -0.45548331782866052775
                 -0.72103560874164795980
                  0.28708168568158581868
                 -0.16979396242597766253
                  0.28363285344600513982
                 -0.30851977261189478252
                  0.55808812398628993012
                 -0.32184265849848414653
                  0.08551350091684582766
                  0.19666544937048127673
                 -0.02645922746301696687
                 -0.41882153115901565865
                  0.64570395714294848144
                  0.43674771531432349247
                  0.15981938526714462023
                 -0.76901033675839813863
                  1.31822180253813159290
                  2.04464466442683256986
                 -0.06800252892647465353
                 -0.40896279902891402580
                  0.21209817058564950365
                  0.45596665922920148750
                 -0.81785721779204534343
                 -1.25413450999146913745
                 -0.66421014645302212109
                 -0.13456926305131972077
                  1.26725477027113764272
                 -0.77341988348714352242
                 -1.31589703335805330298
                  0.42011856550398857246
                  1.74575149639950777392
                  1.17243708289274262135
                  1.91241901302910943805
                 -0.27773686348742299135
                  1.72193495555405817754
                  0.90256688192028855511
                  0.16728138282374377388
                  0.24112189554776614075
                 -0.19214214795277984038
                 -1.68218828938633779835
                 -0.98667870273363966760
                  0.48001050542051260095
                 -0.70866137584931609972
                  0.09345592654277237732
                 -0.34696234785697877001
                 -1.50045363961188837898
                  0.06694902002734262614
                  0.31838962247157120977
                  1.02848545999136509188
                 -1.16048947669010038553
                 -0.42318863976008475047
                  1.07295989475817621361
                  0.42790392545275957037
                 -0.54450708881055120969
                 -0.80402813843664278082
                 -0.64594439690342086990
                  1.53150555505049990046
                  0.69304124521564269834
                 -0.89774432037458073985
                  0.14118239159319831422
                 -0.45809410412298917636
                 -0.33765350465417998116
                 -0.13958189606775817104
                 -0.55672537458702109348
                  0.54957356170950533159
                  0.87151470223956550853
                  0.05849866208003894757
                  1.43914156449352637068
                  0.99161732852810680061
                 -0.34600319122127171090
                 -0.73493365365436269521
                  1.52388152558756728716
                 -0.60205093295342737569
                  0.30295035200189973645
                  0.15305308230909187017
                  1.22132761459755267985
                 -0.70707105551309945568
                  1.90711580660828494693
                 -2.68810184536068641492
                 -1.74245225105011569688
                 -0.96306035602705586385
                 -1.78918921842503664266
                 -0.58940307127522306718
                 -0.61237862170786439009
                  1.26191629519466164133
                  0.41933247645841742468
                  0.31215399272439503520
                  0.60844401583515017595
                  1.79901528438379876285
                 -0.61149029605762728057
                 -1.40625058621301168849
                  0.35568439551651986896
                 -0.35286445747230121839
                 -2.92271653341840709217
                 -0.11287057455052426636
                  0.16624271796715064942
                  1.72550310529503692081
                 -3.00924909565188869465
                  0.10066135831881702078
                 -1.40831782771441793578
                  0.18582415927316042747
                  0.35686922265235093699
                  1.71469376919878402354
                 -0.02197234459048486022
                 -0.26944903916336998551
                  0.40060842913602862092
                  0.43786426456556215570
                 -0.45630012714556372755
                 -1.28751908137786208464
                  0.06810317864579763791
                 -0.63065001023132860603
                  0.73464408520847657158
                 -0.88775690471796964154
                  0.12777871036248628078
                 -0.46086715730668764701
                 -0.00620647384356234118
                 -0.19041794866804290232
                  1.75230805493522523442
                 -0.08086165567588295133
                  0.01339360915213028483
                  0.24279542531878944844
                  0.29756197308790238720
                 -0.68138070858018040532
                 -1.26429447392302041209
                 -0.65344464101267629719
                 -0.20852529359328222935
                  1.29975128031838238485
                 -0.68449253148735000885
                 -1.18060845834017436040
                  0.32002797220451162374
                  1.71216655840045994807
                  0.99612356882180297379
                  1.89950855520180317271
                 -0.20703633982392294355
                  1.58336967532957095806
                  0.82580523815567974388
                  0.37629092592027235664
                  2.40158573770771699429
                 -1.48971130536296580971
                  1.54043424068188139486
                  1.16667070456223398445
                  0.99233436980051958898
                 -1.60036900970244322373
                 -0.44748354248466659655
                  0.79382041571409434066
                 -0.35339897386535534807
                  0.58977987245694929452
                 -0.24830160440955595380
                 -2.07909700837892996717
                 -0.21576073717481256131
                  0.44823912340186466974
                 -0.01623444273431814272
                 -0.28225334488587761061
                 -0.19099022772393886571
                  1.40604780842781296180
                 -0.91274516278011030845
                  1.00003851372247032359
                  0.58516147091660197788
                  0.40492575578435396899
                 -0.10637879011390387329
                  0.10234187891017357264
                  0.18557455454034069153
                 -0.50276367880110772735
                  0.14255719722232862434
                 -0.21519146919285800368
                  0.38864220279025857296
                 -0.51410653373181836034
                  0.39295903213929983533
                  0.26191550223900372796
                  0.16642695209311664239
                  0.07224524616940511401
                 -0.53612141429618764832
                 -0.55184090976237953896
                 -0.22786626225087130981
                 -0.12769423629899506745
                  0.13717958884927594632
                 -0.79918454864034937923
                 -1.46207472098582091924
                  1.76351967530323761046
                 -1.21385901393685169403
                 -0.69508464444334072674
                 -0.61330294599237211717
                  0.45150795602311627475
                  0.35314909755206369546
                  1.21880264714749464439
                  0.31012162091063433245
                 -4.37658346354984040261
                  0.91023848776542959360
                 -0.27477337943724378100
                  0.29856907703174440094
                 -2.73177522587977161805
                 -1.01599555128473895138
                 -1.53660959709898925496
                 -1.43853045158066739084
                 -0.58169057499265441891
                 -2.30930288151550744402
                 -0.37177376782687537871
                 -0.89633691389316916265
                  0.76953639538489426730
                 -0.93177950563326161770
                  1.14836269763571707792
                 -0.49041496823312780151
                  1.05908355449287761019
                  1.09044635305501058653
                  1.21815460945411735416
                  0.02617959825053117404
                 -4.39720777504738880026
                  1.01268028357349049173
                 -0.31394251538151302094
                 -1.08910245100602520729
                 -2.70792258267656071880
                 -0.55258984372494779347
                 -1.18018992937511546515
                 -1.61817593848522078837
                 -0.44311991143853723951
                 -2.14177974021117911718
                 -0.08284714052932390382
                 -1.52163523751813101192
                 -0.97497601349725004916
                 -0.94855060839383231741
                 -0.19149304793113561263
                  0.18103718334166929438
                  0.60853367429958926671
                 -0.01761449162938255944
                  0.51364556362145796786
                  0.04298663627001231974
                  0.21049608792361684806
                  0.05040361836991846811
                 -1.13266526846300674691
                  0.16529821252785492636
                 -0.48686085342335327919
                 -1.29822603147668425017
                 -1.28383331700902103556
                  0.03605455865008848348
                 -0.64798500048112772642
                  0.14524795067232004753
                  0.32473585507921326476
                  0.04870763118475215925
                 -0.54546873839346243784
                 -0.17839075708616580762
                  0.53196983932424601882
                  1.10662335667538558326
                  0.88022600146960361389
                 -0.90863788430028658016
                 -0.52500686525833140106
                 -1.31273652080570091272
                  0.70037470114111355368
                  0.34596146161314728085
                 -2.04774287250756348300
                 -0.52806492574699304132
                 -0.81476868681633785041
                 -0.87120018869005866335
                  1.28208199453376092691
                 -0.92074098672538529087
                 -0.41787721280727807560
                 -1.53496398249986332196
                  2.01238777085495534891
                  0.46838753451711956366
                 -1.01406581137645934731
                  1.47891582484818107091
                  3.46243812988265231567
                  3.70905752441435110356
                  0.47762622997225534505
                  1.83670640477885571684
                  0.83788505638970445233
                 -0.06210084965013665248
                  0.45071233953556705254
                 -2.45932598847949668297
                 -5.29583290980782628310
                 -3.79963848580279872635
                 -0.24846358679324964669
                  0.45166484362446795986
                  2.95833782912828135991
                 -1.21505411342007962894
                  1.59984541990839268522
                  0.45443236028809852467
                 -1.79588404500395015795
                 -1.08394749492587516571
                  0.02950493591780901231
                 -0.23825757975624617391
                  0.65148778497199844040
                  0.94436349599485436279
                  1.32119011859699120315
                 -0.08633431068643217243
                  0.43806279955137450433
                  0.09200497717746505821
                  0.39791867683139170442
                 -0.40927892214768524237
                 -1.46569074978274782595
                 -0.45110420653933519519
                 -0.60637562714589665624
                  1.17468788599885831658
                 -0.22492457092264303564
                 -0.92048351096304981134
                  0.23718609618692498842
                  0.78123581675602238317
                 -0.51770623606019927632
                 -0.09004315926994997665
                  0.35158333456661616800
                  2.65698940054178223136
                  1.56631285733620728706
                  1.10457969998386440480
                  0.69448599960517087837
                  0.65445931913025623405
                  0.09560220748481280950
                  2.57757654649875034281
                  0.68320112796602727734
                 -1.66698476556195518405
                 -2.56930108197906292844
                  1.03195892323384508238
                  0.59231448619227067276
                 -1.73491500660891118102
                  0.23440144481651750685
                 -0.23748081252442135303
                  2.01771474246215198889
                  1.55443383510654964397
                 -2.98766164653036225829
                 -1.65174989209377698351
                  0.44330019740580323129
                 -0.76502449925340454406
                 -0.06792749222935708098
                  0.17746130812789762121
                  1.43750284199400124585
                 -0.62566066348749882486
                 -0.39791720508780814569
                 -0.71137309113685487372
                  0.27293803920450421252
                  0.22362474651459426922
                 -0.33315075130240540124
                  0.50826547403215482923
                 -0.16942039791920499026
                  1.38799831347596347442
                 -0.45208241950539901355
                  0.34301174292158859158
                 -0.15203854486834642024
                  1.76734242179510059323
                 -1.11060265303885397081
                  0.89433576361597699744
                  4.41404311176374530845
                  2.51456850906638562648
                  0.31072461437805615203
                  2.36971013263353391665
                 -0.26464963168189126197
                 -0.78412367202260524479
                 -1.25814114570969515228
                 -0.20406212960227934627
                  1.54627156342241800502
                 -0.17494480164051923188
                 -0.98479289907889910882
                 -0.20848393517098076644
                  0.78862667214008175254
                 -1.29690228622327152763
                  3.27433058928499587381
                 -1.47958586724666019130
                 -0.62162612347545476155
                  3.56789755274984177191
                 -4.00691716445451273643
                 -0.42249336417944727273
                  0.80200223731112318948
                  1.59986143840131211924
                  0.37572427876111286205
                 -0.14257585593390481593
                  1.47500947336024745837
                 -0.91973280707760485253
                  0.54455516392505609602
                  1.01236030761130524347
                 -0.48628014883980563710
                  0.16296704694141275760
                 -0.34470664810802348343
                 -2.77529498574497646146
                 -0.06590449829000567805
                 -0.51308036082808960998
                  0.91166850007773458930
                 -0.31814880014012120180
                  0.68087041361481159818
                 -0.28049002883710327794
                  1.93706755097820293443
                 -1.21115666100552399342
                 -0.40029348058997338278
                 -0.57531205981217981016
                  0.05274810255203340320
                  0.36271617515929982511
                  0.71835982183094893028
                 -0.51784009128611685480
                  0.85081503483062725923
                  0.04411286311401577120
                 -0.00678357961342600495
                  0.58012768687745974727
                 -1.05512576146120995446
                  0.02194230001739610331
                 -0.81457412795751460433
                 -0.87733920797200704023
                 -0.93280420354395710003
                 -0.79303489168883445348
                  0.07164927632980794270
                  0.90167465340249963734
                 -0.35500009050029296409
                  2.07473381941549783747
                 -0.99499933103453708227
                  0.55295234789234060102
                 -0.63139045667256665784
                  1.19081813325691499017
                 -0.40254211273713297325
                  1.06862688659929583324
                  0.20303602250730651280
                  2.63924163811848755401
                 -3.30709137518446372184
                  3.30842569962775900905
                  0.43536555182420422216
                 -0.10854573183613089316
                 -0.10268703093467697329
                  0.75339667869902082753
                  0.44994460661761698228
                  0.66276991454118916458
                  0.05075046677818501051
                  0.79985330152796629832
                 -0.80285209843096005944
