                 -4.13736904185211606944
                 -2.71638649849032143280
                  1.68824934138774795933
                  3.26761207981152246305
                  2.40555290028138335501
                  1.32384998662410469095
                  1.91379420492419560773
                  0.90399816213100026019
                  2.31856017872659858625
                 -1.47685509825061278555
                 -0.16899261072005067330
                 -0.44890952132562039756
                 -0.45220525714917481075
                  1.66996100820874127102
                  0.45867984336426331771
                  0.53516451016710786526
                  0.25991684683966975733
                 -0.49281696214430192882
                 -3.11287092246231411607
                  1.08868772381363587698
                  0.55019048485606569798
                 -0.13745681843395748944
                  1.42315102247841696048
                  0.55341697620690610826
                  0.94438315162715524842
                 -0.53175895017937202525
                 -0.26498165235452314503
                  0.12756308734044785602
                 -1.33060696068528061531
                  1.98849731148557662408
                  1.37120892206360101007
                 -1.17492493127702846145
                  0.73593044613161495704
                  1.06675003813961200017
                 -1.69069821104468842599
                 -2.20813994575712380097
                  1.32350373878684623996
                 -2.18696433467136008844
                  1.60033174444140979809
                  4.77196702252170457115
                 -1.92227755471743377846
                 -1.11938598955827495196
                 -1.67862112600084811831
                 -0.89153477728101093724
                 -1.71561852811577297828
                  1.60723446397175373512
                 -0.86231353636604024526
                  1.12050498632305561841
                  0.50214385098742742031
                 -1.10629205638108762955
                 -0.61764873120411667440
                  1.05318092954853348431
                  0.86358681536196968409
                  1.11222526273267763308
                  0.71473698462889567740
                 -0.91868004322732466083
                  1.02865291707722228409
                  0.67391327388924016084
                  1.26835920515053679480
                 -0.14873771633654483959
                 -0.12406151097430825891
                  1.10905378517865127463
                 -0.09707415429644955518
                 -0.59002373394581575372
                 -0.34384492840818714487
                  0.70269845254738927398
                 -0.75230855067519675217
                  0.26993622412209378192
                 -0.10141165513245975482
                  0.64104687268520132992
                  0.42903613325162720527
                 -0.21599034040162365389
                  1.30663900161798807176
                  0.22482199047583187324
                  0.47872946767685226055
                  0.43439396857253248507
                  0.77974318444224022251
                  0.63346497296464610027
                  0.47169664428867008610
                  0.50858861448188219523
                  1.61039728864859577051
                 -1.17162197148939850599
                  0.36380659076836935339
                 -1.15647361792534875136
                 -0.79778407733345357844
                 -0.54626117738570967308
                  0.85220453339549950833
                  1.33234007906277240885
                 -0.37213447316959341604
                  1.01644869935914061720
                  1.22889225580103023105
                  1.01706270974872836632
                  1.21084146891479016439
                 -0.79715003111767634980
                  1.38845656355669877513
                 -1.26812803241389970843
                  1.58651114730919928775
                 -2.40332502603519415629
                 -1.42827099854946726332
                  1.72259599624699344389
                  0.36955462339232469926
